%YAML:1.0
---
opencv_ml_svm:
   format: 3
   svmType: C_SVC
   kernel:
      type: LINEAR
   C: 1.
   term_criteria: { iterations:100 }
   var_count: 191
   class_count: 10
   class_labels: !!opencv-matrix
      rows: 10
      cols: 1
      dt: i
      data: [ 0, 1, 2, 3, 4, 5, 6, 7, 8, 9 ]
   sv_total: 45
   support_vectors:
      - [ -1.81008107e-03, 1.44849136e-03, 4.48318711e-03,
          7.39416620e-03, 7.29232049e-03, 7.09351851e-03, 5.32824825e-03,
          4.41009644e-03, 3.34892829e-04, 3.42221884e-03,
          -1.89570725e-04, 2.02288781e-03, -6.61494210e-03,
          -4.76944679e-03, -8.66273139e-03, -8.53858981e-03,
          -7.81755988e-03, -5.86147700e-03, 9.48489062e-04,
          1.02104119e-03, -6.43399870e-03, -6.30549435e-03,
          -1.41367903e-02, -1.75061654e-02, -1.82775930e-02,
          -7.72513961e-03, -4.96803317e-04, -4.11888305e-03,
          -5.73409209e-03, -1.47692282e-02, -1.28935724e-02,
          -1.41088981e-02, -1.24034623e-03, -4.38985135e-03,
          -3.31176003e-03, -2.20790249e-03, -4.58662724e-03,
          -9.99105908e-03, -1.08874002e-02, -3.91865941e-03,
          -2.94936210e-04, -1.33979984e-03, -1.18257754e-04,
          6.28470210e-04, 1.41958924e-04, 9.78352735e-04,
          -2.37103179e-03, 9.38081590e-04, -5.39055036e-04,
          3.13904857e-05, -1.36722534e-04, 6.16911100e-04,
          7.49267128e-05, -2.69053940e-04, 1.52632897e-03,
          -1.66648548e-04, 1.44106720e-03, -1.42965012e-03,
          1.06750122e-04, 1.04772113e-03, 2.93667428e-03,
          -1.20449004e-05, 1.20768789e-03, 4.41663724e-04,
          1.45503227e-03, 1.31933384e-05, 8.38190783e-04,
          -5.16819535e-04, 3.42057226e-03, 6.45816617e-04,
          2.28048651e-03, 1.05019775e-04, 1.69903622e-03, 2.18243222e-03,
          -2.58264889e-04, 6.57041965e-04, 4.36712150e-03,
          2.03393423e-03, 2.83960556e-03, 5.73003665e-03, 3.83858755e-03,
          3.66116618e-03, 1.35768354e-02, 1.27188805e-02, 2.19482705e-02,
          9.45429131e-03, 1.38981920e-02, 9.80912987e-03, 1.16345193e-02,
          1.04467599e-02, 1.43333459e-02, 1.82933845e-02, 1.48015767e-02,
          5.44995091e-05, -3.37654748e-03, 1.61284599e-02,
          -1.78404513e-03, 1.45465406e-02, -8.38001259e-03,
          -5.52771147e-03, -5.75505942e-03, -4.63553425e-03,
          -4.89926338e-03, -2.87545146e-03, -4.48372262e-03,
          -3.65060172e-03, -3.34648066e-03, -3.75684723e-03,
          -2.55062128e-04, -3.47163831e-03, -2.70352210e-03,
          -2.38935300e-03, -1.80978281e-03, -2.09317333e-03,
          -2.80861300e-03, -1.72885414e-03, -3.08856368e-03,
          5.45552582e-04, 2.66430070e-05, -5.91860211e-04,
          -1.74694567e-03, -1.49089319e-03, -7.93792606e-06,
          -2.36120308e-03, -1.14679849e-03, 8.72145232e-04,
          -2.55483529e-03, -8.14157422e-04, 9.16163335e-05,
          -7.67706311e-04, -3.82879341e-04, -2.39294185e-03,
          4.13945672e-04, 2.02564916e-04, -7.29857478e-04,
          8.31219193e-04, -1.42858305e-04, -8.41785804e-04,
          -2.21112801e-04, 4.76504967e-04, -7.29857478e-04,
          9.81624238e-04, 1.00624387e-03, -5.84732392e-04,
          -1.58079399e-03, -4.18781507e-04, -3.17137135e-04,
          -2.63511774e-05, 7.80820847e-04, 1.90666015e-03,
          3.28538190e-05, -1.64692488e-03, -1.51957083e-03,
          7.20911077e-04, 2.49997189e-04, -3.69331596e-04,
          1.05896487e-03, 2.09854916e-03, 4.42836928e-04,
          -1.86581677e-03, 1.96562125e-03, 6.46880653e-04,
          7.03092839e-04, 3.87543027e-04, 1.60898990e-03,
          -1.48146341e-04, 1.41922210e-03, -3.14908160e-04,
          2.21759337e-03, 9.24484513e-04, 5.25808020e-04, 8.98719940e-04,
          3.73047602e-04, 5.27767115e-04, 1.23539078e-03, 4.65672137e-03,
          1.84209831e-03, 1.37014333e-02, 1.27905440e-02, 1.39287692e-02,
          1.38531183e-03, 6.09815121e-03, 1.04764970e-02, 1.09717734e-02,
          1.35984868e-02, 1.08771585e-02, 1.33202029e-02, 1.80662982e-02,
          1.86435021e-02, 1.76674183e-02, 7.03090616e-03 ]
      - [ 8.44631577e-04, 7.39738287e-04, -7.62685522e-05,
          7.25445221e-04, 4.29474982e-04, -1.05384490e-04,
          -1.00131008e-04, 2.79163960e-05, -3.71190399e-04,
          2.33874103e-04, -1.68979423e-05, -1.13582842e-04,
          4.43177078e-06, -4.80688468e-04, 2.17027788e-04,
          -1.94274267e-04, -2.12366300e-04, -1.70034735e-04,
          -1.13886643e-04, -1.48444809e-03, -1.00114546e-03,
          -2.35683424e-03, -2.56644795e-03, -2.60086101e-03,
          -2.07310775e-03, -2.79282191e-04, -1.01447327e-03,
          -3.09181260e-03, -4.82656248e-03, -7.40253692e-03,
          -5.17167058e-03, -3.53958947e-03, -5.24603762e-04,
          -2.43404158e-03, -2.85613886e-03, -5.66509133e-03,
          -6.67922664e-03, -7.32348673e-03, -4.54827538e-03,
          -5.10327867e-04, 3.58757854e-04, 4.91104845e-04,
          4.79254319e-04, 1.01250305e-03, 2.32502469e-04, 8.02235270e-04,
          5.86330425e-04, 1.90814812e-04, 8.63035908e-04, 6.97831332e-04,
          6.21423358e-04, 8.57834530e-04, 3.88614921e-04, 6.48069661e-04,
          9.88384942e-04, 6.92503585e-04, 6.45386404e-04, 9.40100523e-04,
          8.14499566e-04, 6.34500175e-04, 7.93546264e-04, 7.65869045e-04,
          5.96610887e-04, 8.62894871e-04, 8.13791412e-04, 3.95797077e-04,
          1.13145425e-03, 6.66868524e-04, 7.96323700e-04, 8.77181301e-04,
          5.79443818e-04, 5.02808602e-04, 1.14967988e-03, 7.21474353e-04,
          9.00450977e-04, 8.38663487e-04, 7.55968329e-04, 4.53466666e-04,
          8.25920142e-04, 9.04552755e-04, 9.97905969e-04, 4.08639258e-04,
          7.13820860e-04, 9.83238919e-04, 3.46378627e-04, 8.74366146e-04,
          8.04541458e-04, 1.00292335e-03, 9.87519743e-04, 4.89677477e-04,
          6.71156449e-04, 1.64462591e-03, 1.05137110e-03, 7.59029645e-04,
          -9.75836068e-04, -9.95513238e-03, -1.53002366e-02,
          -1.16091575e-02, 2.22958435e-04, 4.14382434e-04,
          2.73815622e-05, -3.51962590e-05, 1.78729242e-04,
          -2.94836878e-04, 4.34142479e-04, -3.81885096e-04,
          7.16029390e-05, -1.16307820e-04, 2.09605332e-05,
          -3.28168717e-05, -2.70890043e-04, 2.14869233e-05,
          2.53414211e-04, -3.35157674e-04, -1.75846144e-04,
          -1.46885504e-04, -4.65412915e-04, 6.42621671e-05,
          -2.02480893e-04, -2.36158943e-04, 2.80396402e-04, 0.,
          -4.21350589e-04, -2.47006421e-04, 0., -2.01551709e-04,
          -1.58692332e-04, -1.49149419e-05, -3.16103600e-04,
          -2.91719043e-04, -1.81074269e-04, -4.76564484e-04,
          -2.23032592e-04, -3.64156091e-04, -3.42004583e-04,
          -2.42646071e-04, -5.52508922e-04, -2.87294301e-04,
          -4.70698811e-04, -4.21301724e-04, -5.24265692e-04,
          -6.56641554e-04, -8.21048685e-04, -2.93360063e-04,
          -3.68201465e-04, -5.89272473e-04, -6.26615540e-04,
          -5.93605218e-04, -6.23221742e-04, -7.72549422e-04,
          -7.73239299e-04, -4.16255556e-04, -6.06181216e-04,
          -7.31543289e-04, -5.76675171e-04, -9.82006080e-04,
          -1.12694758e-03, -4.13115864e-04, -5.88516821e-04,
          -3.45887674e-04, -5.58046857e-04, -4.75302193e-04,
          -4.86571458e-04, -5.82541863e-04, -9.80140292e-04,
          2.59790872e-03, 7.44241383e-03, 7.02624116e-03, 4.32723528e-03,
          2.53307889e-03, 2.17757793e-03, 2.55714660e-03,
          -2.17839392e-04, 3.53199779e-04, 3.54712131e-04,
          1.11058552e-03, 6.83464482e-03, 7.46699609e-03, 8.12852010e-03,
          2.30474724e-03, 4.73645423e-03, 4.72264364e-03, 4.36767982e-03,
          1.61666970e-03, 5.54476166e-04, 7.01597659e-04, 6.12650998e-04,
          7.25668739e-04, 1.00275129e-03, 8.85984395e-04, 1.12140574e-03 ]
      - [ -1.23599340e-04, 4.05338273e-04, 3.73641175e-04,
          1.69889230e-04, 3.43406748e-04, -3.33889038e-04,
          -2.47216522e-04, -6.72746755e-05, -2.49932316e-04,
          1.78146438e-04, -5.95184218e-04, -1.59042684e-05,
          -9.25499844e-05, -2.59532506e-04, -1.65802034e-04,
          7.81261333e-05, -3.39749939e-04, -1.16113864e-04,
          -1.37548381e-03, -3.38800508e-03, -6.76796678e-03,
          -5.84672671e-03, -5.62793575e-03, -5.78894652e-03,
          -6.06649509e-03, -5.97985415e-03, -4.58881399e-03,
          -5.69586921e-03, -1.02178073e-02, -7.94698205e-03,
          -8.62003211e-03, -9.52019449e-03, -7.84165412e-03,
          -8.01320095e-03, 1.05600012e-03, 8.81775690e-04,
          9.12315038e-04, 1.93260424e-03, 2.41164910e-03, 3.72517365e-03,
          3.22797382e-03, 2.18875171e-03, 1.26148667e-03, 3.26032110e-04,
          6.86051208e-05, -2.62313784e-04, -6.80026598e-04,
          -1.25884544e-03, -1.18948647e-03, -2.30172789e-03,
          -2.50553503e-03, -2.80079222e-03, -3.69016500e-03,
          -5.07784495e-03, -2.89911893e-03, -2.55557406e-03,
          -8.30507255e-04, -5.60701301e-04, -4.95033339e-04,
          -2.17026172e-04, 4.06440161e-03, 3.76802147e-03,
          4.00431640e-03, 3.94498790e-03, 7.59071810e-03, 8.07425193e-03,
          5.53334644e-03, 3.76229733e-03, 4.94074309e-03, 6.66500349e-03,
          5.73635614e-03, 4.77223564e-03, 1.91264017e-03, 6.06913236e-04,
          4.70168423e-04, 2.05405406e-03, 3.76870483e-03, 5.18187275e-03,
          5.70898177e-03, 3.61176161e-03, 2.78515322e-03, 4.59749543e-04,
          2.24694872e-04, 3.79539537e-03, 5.25634689e-03, 6.00871118e-03,
          1.53374020e-03, 4.49951825e-04, 8.23889422e-05, 1.80595850e-06,
          7.02739926e-04, 8.10649828e-04, -2.03917501e-04,
          -3.03075882e-04, -8.69328855e-04, -3.16497567e-03,
          -6.81012496e-03, -5.88734588e-03, -1.61806413e-04,
          2.69181182e-04, 1.78760689e-04, -2.71561759e-04,
          -3.73543240e-04, -4.09350396e-05, 2.82539950e-05,
          -1.28082975e-04, -3.56058445e-04, 2.25640670e-05,
          2.30522619e-05, -4.12869820e-04, -1.66194615e-04,
          -8.40771245e-05, -2.22569506e-04, -5.49791963e-04,
          5.63660760e-05, 4.13109046e-05, -1.51229033e-04,
          -6.71245798e-05, -4.87144222e-04, -1.39854223e-04,
          -1.12687550e-04, -2.01657895e-04, -2.75244201e-05,
          -3.59731901e-04, -3.15280486e-04, -4.55348403e-04,
          -3.46587738e-04, -5.15469001e-04, -2.20127491e-04,
          -5.52993384e-04, -6.99160097e-04, -5.29891637e-04,
          -6.56789402e-04, -5.47345495e-04, -4.56158101e-04,
          -4.24901111e-04, -6.57591736e-04, -4.93436353e-04,
          -5.00349212e-04, -5.03405987e-04, -8.54426617e-05,
          1.32795318e-03, 1.62095053e-03, 8.66959628e-04, 1.22267834e-03,
          8.65320326e-04, 6.90567191e-04, 8.59555090e-04, 3.02210712e-04,
          4.95861750e-04, 3.11362179e-04, 5.47671807e-04, 5.23750787e-04,
          1.82769945e-04, 4.61143500e-05, 4.90224957e-05, 1.58678595e-04,
          3.70762282e-05, 1.06038067e-04, 3.52064439e-04, 8.87236529e-05,
          0., 2.12076135e-04, 1.57681614e-04, 0., 1.68302024e-04,
          3.43327149e-04, -4.61143500e-05, -2.84624621e-05,
          4.01627214e-04, -8.15945314e-05, 3.68652050e-04,
          -1.75515466e-04, 1.42325021e-04, 2.03243137e-04,
          -1.21291807e-04, -1.92187741e-04, 3.02325934e-04,
          -7.20394673e-05, 4.14205679e-05, -5.97201579e-04,
          2.28042500e-05, -4.74058070e-05, -4.61542251e-04,
          8.30760473e-05, -3.00175365e-04, -1.95050437e-04,
          -5.94810932e-04, 2.85312417e-05, -8.77511397e-04,
          -1.03803864e-03 ]
      - [ 7.86834490e-03, 9.48007870e-03, 1.43588884e-02,
          -3.42972111e-04, -2.16276431e-03, 1.00431754e-03,
          1.99378072e-03, -4.65553906e-03, -3.25737812e-04,
          8.74701480e-04, -3.98141891e-03, -8.67379189e-04,
          -8.31003010e-04, -1.03642896e-03, -3.25546716e-04,
          -2.68723303e-03, 3.59669700e-03, -1.79155672e-03,
          1.47142564e-04, 2.06125132e-03, 1.10014738e-03, 1.64919544e-03,
          -6.94119313e-04, 2.36387411e-03, 3.73611401e-04,
          1.13313996e-04, 3.51617066e-03, -5.44484601e-06,
          1.76959019e-03, 2.49114190e-03, -3.78833269e-04,
          1.09073007e-03, 2.40553450e-03, -8.58136627e-05,
          5.01123909e-03, 2.68550264e-03, 1.11322606e-03, 2.10776867e-04,
          2.78153515e-04, 4.64565167e-03, 5.04744647e-04, 1.40990654e-03,
          3.64844548e-03, 1.86398090e-03, 2.19121040e-03, 5.43799810e-03,
          -4.53744324e-05, 3.72174196e-03, -3.21968000e-05,
          2.46295286e-03, 2.97317421e-03, 1.08094967e-03,
          -8.86064081e-04, 3.75421660e-04, -1.15759321e-03,
          -4.47052391e-03, -2.84929154e-03, -8.57383665e-03,
          -9.33369529e-03, -1.17659690e-02, -9.68940370e-03,
          -5.60181960e-03, -9.39123426e-03, -8.19383003e-03,
          -3.45678208e-03, 1.39721393e-04, 1.68341002e-03,
          1.15399295e-03, -7.72571098e-03, -8.24106019e-03,
          -8.80393479e-03, 1.29192590e-03, 2.15056632e-03,
          2.58157635e-03, 1.86030904e-03, 1.57735927e-03, 2.93424237e-03,
          2.70694843e-03, 2.12739827e-03, 3.31156561e-03, 1.69039611e-02,
          2.12758724e-02, 2.31131837e-02, 2.05003880e-02, 1.90257020e-02,
          2.04173587e-02, 4.02300851e-03, 7.51520682e-04, 1.85856409e-03,
          2.17910460e-03, -5.10598673e-03, -3.80886195e-04,
          -2.56980909e-03, 1.21230747e-04, 3.87639229e-05,
          5.40627958e-03, -1.88878011e-02, -1.66215897e-02,
          -7.90024549e-03, -9.16054938e-03, -1.74098159e-03,
          -5.80399344e-03, -2.63408129e-03, -3.22574284e-03,
          -3.55289970e-03, -2.67373957e-03, -3.20514315e-03,
          -3.33716883e-03, 1.55657006e-04, -1.24412728e-03,
          -3.62152467e-03, -3.84906452e-04, -3.42594879e-03,
          -5.51550824e-04, -6.89333712e-04, -3.28948867e-04,
          -9.99590266e-04, 3.35878431e-04, -3.94728268e-03,
          8.33556463e-04, 3.10586365e-05, 1.09748228e-03,
          -1.44723442e-03, 5.02820185e-04, -2.98820948e-03,
          1.58405362e-03, -1.67514884e-03, -2.66087300e-04,
          4.43071971e-04, -3.31779593e-04, 3.90007277e-04,
          5.03674906e-04, 8.49526550e-04, 1.00284151e-03,
          -4.04894497e-04, 1.01477630e-03, 1.94574794e-04,
          1.93297269e-03, 7.85684679e-04, -3.32034426e-04,
          3.60839162e-03, 8.69117305e-03, 9.15773679e-03, 9.74616967e-03,
          7.11934362e-03, 1.34904031e-02, 8.93104821e-03, 8.99178814e-03,
          6.27450971e-03, 7.69981183e-03, 6.29893178e-03, 6.21609623e-03,
          2.39716587e-03, 3.95449903e-03, -2.51587277e-04,
          4.60250536e-04, 2.14469782e-03, 7.42425770e-03, 5.07774903e-03,
          5.27007040e-03, 3.51334270e-03, -3.70747386e-03,
          -5.33103885e-04, 1.80406915e-03, -4.10744408e-03,
          -4.01732465e-03, -3.40343378e-02, -3.18369009e-02,
          -2.73925439e-02, -1.60339870e-03, 2.32897163e-03,
          5.72220469e-03, 5.42761944e-03, 1.71115110e-03, 7.67267542e-04,
          5.57821477e-03, 1.15150365e-03, 5.47399139e-03, 3.18829762e-03,
          3.01327440e-03, 4.51379735e-03, 8.46119504e-03, 5.27828932e-03,
          1.00968871e-02, 7.74163241e-03, -4.64873796e-04,
          8.14588275e-04, 5.41851914e-04, 1.48056343e-03, 4.11340781e-03,
          -2.33446248e-04 ]
      - [ 2.18492537e-03, 3.16487276e-03, 5.49215311e-03, 1.59144145e-03,
          1.53377850e-03, 3.18652252e-04, -3.71079223e-04,
          -1.01673510e-03, -1.37495779e-04, -7.25222126e-05,
          -4.99861490e-04, -3.67754721e-04, -2.06361452e-04,
          -5.39869769e-04, -4.23209363e-04, -5.38154214e-04,
          4.06218867e-04, -4.00674297e-04, -1.12189446e-04,
          -4.48578008e-04, 9.45884585e-06, -1.43864163e-04,
          -2.34962048e-04, 0., -2.37392000e-04, 3.63184983e-04,
          -3.13311975e-05, -4.68580693e-04, -2.29539248e-04,
          1.37584429e-04, -1.46584411e-04, 4.08937427e-04,
          -6.70034060e-05, 6.48263085e-05, -1.79716488e-04,
          -8.69744181e-05, 2.53577164e-04, 3.27265225e-05,
          -2.88189796e-04, -3.68197710e-04, -2.65980186e-03,
          -2.45109573e-03, -2.65159295e-03, -9.09544586e-04,
          -4.65152407e-04, -1.17404014e-03, -1.04098977e-03,
          -1.84790208e-03, -2.50504562e-03, -2.66503124e-03,
          -4.59081633e-03, -5.04064607e-03, -5.36273746e-03,
          -4.65344498e-03, -4.87843715e-03, -4.44268668e-03,
          -5.06046414e-03, -3.34283803e-03, -3.66173033e-03,
          -6.65924803e-04, 7.43289929e-05, -1.76086047e-04,
          2.43868664e-04, -1.98166104e-04, 5.36511798e-05,
          -8.83754637e-06, 3.73879913e-03, 3.58167849e-03,
          6.18520984e-03, 3.15579399e-03, 2.55447975e-03, 8.09048477e-04,
          1.56253169e-03, 3.10172816e-03, 2.95388373e-03, 1.90895482e-03,
          3.37327318e-03, 3.28020449e-03, 3.32496595e-03, 2.01793923e-03,
          4.87772608e-03, 4.86042956e-03, 4.73618554e-03, 2.22686771e-03,
          9.38537344e-03, 9.26317833e-03, 7.72085227e-03, 4.70942934e-04,
          -5.17076151e-05, -5.69497788e-05, 5.04258322e-04,
          1.14416413e-03, -1.21465862e-04, -4.02779464e-04,
          -3.21200569e-05, 1.06016186e-03, -2.21398240e-03,
          -1.50781428e-03, -6.31229545e-04, -1.21473754e-03,
          -7.73824344e-04, -8.82742810e-04, -1.55181100e-03,
          -2.82630650e-03, -3.51735973e-03, -3.62863508e-03,
          -4.60027158e-03, -4.83314833e-03, -5.39201498e-03,
          -6.15122449e-03, -8.23959988e-03, -6.52280683e-03,
          -3.44708934e-03, -3.52494797e-04, -4.33531502e-04,
          -8.78697483e-06, -3.98311706e-04, -2.45898904e-04,
          -3.12058226e-04, -3.68108595e-04, 2.73050857e-04,
          3.03978486e-05, 6.92418660e-04, 8.15382809e-04, 1.49987289e-03,
          1.29010587e-03, 1.73832162e-03, 2.20081839e-03, 3.44536826e-03,
          3.54927033e-03, 3.99750564e-03, 3.12056881e-03, 4.62523894e-03,
          4.03336296e-03, 4.25017765e-03, 1.44473778e-03, 7.49855360e-04,
          5.82010776e-04, 8.07560980e-04, 6.36043143e-04, 5.13525389e-04,
          4.35941387e-04, 6.66074920e-04, 3.20736552e-04, 2.68190546e-04,
          3.31403775e-04, 2.66544143e-04, 1.76679532e-04, 2.02342810e-04,
          1.89252693e-04, 2.46364973e-04, 4.20757169e-05, 2.84682494e-04,
          4.52093554e-05, 3.13311975e-05, 2.11649240e-04,
          -2.11649240e-04, 0., 1.86144011e-04, 1.00774116e-04,
          2.88189796e-04, 0., 5.83937275e-04, 4.52093554e-05,
          -1.97288173e-04, 0., 3.63458676e-04, -8.76893610e-05,
          2.88189796e-04, 1.10762732e-04, -2.00754093e-05,
          2.16574306e-04, -1.28164364e-04, 1.30415501e-04,
          -2.10635801e-04, 1.48891559e-04, -3.43578664e-04,
          3.61477578e-04, -3.12990887e-04, -1.30795874e-04,
          -1.48431282e-04, -3.42764659e-04, -1.48788513e-05,
          2.57296371e-04, -4.76730318e-04, 3.21884399e-05,
          -2.85248068e-04, -4.48472274e-04, -4.79776150e-04,
          -5.59340871e-04, -1.20041671e-03 ]
      - [ -7.23777851e-03, -1.03342487e-03, -2.92380527e-03,
          -1.27647223e-03, -2.13696528e-03, 1.35334325e-03,
          1.78560440e-03, -1.61836925e-03, 3.05610616e-03,
          1.22687197e-03, -2.36753398e-03, 3.16843949e-03,
          -4.61984280e-04, 1.09414838e-03, 2.44004233e-03,
          -1.95900910e-04, 1.99126755e-03, 6.48445857e-04,
          3.56381899e-03, 4.42980701e-04, 6.76953001e-04, 3.63373873e-03,
          3.19349905e-03, -5.73139230e-04, 1.01675815e-03,
          2.25732755e-03, 4.46207821e-03, 1.10120978e-04, 1.68806466e-03,
          2.14905618e-03, -3.22667183e-04, 3.34651163e-03,
          2.09160103e-03, 1.64402439e-03, 3.40678310e-03, 1.26329149e-04,
          2.82982877e-03, 1.38802896e-03, 1.39673997e-03,
          -4.29344887e-04, 2.13131448e-03, 5.86273498e-04,
          1.94673229e-03, 1.50532753e-03, 1.29508509e-04, 1.59334537e-04,
          8.23275128e-04, 8.04515497e-04, -4.56765003e-04,
          2.63838703e-03, -1.29508509e-04, 3.02643311e-04,
          5.86273498e-04, 1.98559975e-03, 0., -1.29508509e-04,
          8.04064912e-04, 2.91423011e-03, 6.45260516e-05,
          -5.86273498e-04, 7.13681220e-04, -2.51715886e-04,
          6.92274712e-04, 0., 1.48251792e-03, -1.06001200e-04,
          6.92274712e-04, -1.02401800e-05, 3.30308336e-04,
          -8.46249925e-04, 1.40195282e-03, 5.21726266e-04,
          1.30862428e-03, -1.05004245e-03, -1.29508509e-04,
          -4.60644587e-05, 4.57995106e-04, 1.13391213e-03,
          -1.54627429e-03, -1.64695273e-04, 5.07030869e-04,
          -8.39484623e-04, -1.61452696e-03, -6.00929139e-04,
          5.81840541e-05, -1.16310676e-03, 2.02331040e-03,
          -2.14660569e-04, -3.53424414e-03, -4.47079045e-04,
          1.00835250e-03, 1.25747162e-03, -5.03490074e-03,
          -3.49495420e-03, 4.85163691e-05, 3.32967900e-02,
          2.64538284e-02, 2.66636517e-02, 2.80321017e-03,
          -2.42693396e-03, -2.73307879e-03, -6.00762432e-03,
          -1.76587154e-03, -5.50497649e-03, -3.09168454e-03,
          -5.90481190e-03, -3.65149509e-03, -6.73943898e-03,
          -4.18956159e-03, -4.39445581e-03, -9.45659447e-03,
          -5.15148230e-03, -6.62279781e-03, -1.13885859e-02,
          -2.62955041e-03, -1.45077321e-03, -6.71409257e-03,
          -6.38176082e-03, -8.56219139e-03, -7.74380658e-03,
          -8.74187704e-03, -8.78578331e-03, -8.70015938e-03,
          -1.02940258e-02, -6.93626236e-03, -8.15088768e-03,
          -9.66908410e-03, 1.38570135e-02, 9.94520541e-03,
          9.65487119e-03, 1.01348115e-02, 1.59787089e-02, 9.53205209e-03,
          6.65941928e-03, 5.02090016e-03, 3.06830811e-03, 3.08584934e-03,
          2.63366010e-03, 2.67028203e-03, 4.30501590e-04, 2.49939295e-03,
          2.37014168e-03, 5.87849470e-04, 2.24063313e-03, 2.39756168e-03,
          2.75223196e-04, 2.22416967e-03, 1.96642126e-04, 1.49715313e-04,
          2.09160103e-03, -1.76145404e-03, 1.98559975e-03, 0.,
          5.33044862e-04, 2.51715886e-04, 5.86273498e-04,
          -5.81100816e-04, 6.71336238e-05, 4.03536338e-04,
          2.58635669e-06, 5.86273498e-04, -6.71336238e-05,
          1.42012606e-03, 0., 1.02254283e-03, -1.29508509e-04,
          -1.00603257e-03, -1.94991881e-04, 8.33800645e-04,
          1.40195282e-03, -1.18666631e-03, 0., 2.97916034e-04,
          -4.89330851e-04, -2.72043835e-04, 1.69532804e-03,
          -7.49689643e-04, 1.37743831e-03, -2.90205772e-03,
          1.30790554e-03, -2.21283190e-04, -1.46601797e-05,
          -5.02971874e-04, 2.03223596e-03, -2.51715886e-04,
          -1.99220842e-03, 6.37970574e-04, -3.73201765e-04,
          -2.94886110e-03, 3.10258335e-03, 1.21512439e-03 ]
      - [ -7.05677224e-03, 1.76632614e-03, 6.04051631e-03,
          -3.15929181e-03, -2.33585085e-03, 8.40160530e-04,
          -2.36913026e-03, -3.95277422e-03, -2.64087934e-02,
          -2.46816799e-02, -2.60086805e-02, -3.82210803e-03,
          -8.03105067e-03, -2.39405576e-02, -2.29255855e-02,
          -1.95379909e-02, -7.62706948e-03, -7.56091019e-03,
          -7.62022546e-06, -1.00568868e-02, -5.89000294e-03,
          -1.68755688e-02, -1.00025823e-02, -6.34802878e-03,
          -2.00414378e-03, -1.47368319e-05, -1.04151741e-02,
          -8.99387896e-03, -1.33117381e-02, -3.35709914e-03,
          -4.44976194e-03, -6.94427639e-03, -1.81383570e-03,
          -1.57051422e-02, -1.50128407e-02, -1.60369892e-02,
          -1.77418645e-02, -1.76748298e-02, -1.67115349e-02,
          -2.15144716e-02, -2.20797081e-02, -1.95688251e-02,
          2.18143547e-03, 4.62617929e-04, 8.20742454e-04, 4.61488264e-03,
          1.13247533e-03, 1.66701234e-03, 5.12895349e-04, 3.70336347e-03,
          2.11828621e-03, 5.73644706e-04, 2.05999240e-03, 4.43143025e-03,
          1.69021881e-03, 7.71397317e-04, 4.78474982e-03, 1.93720218e-03,
          1.46825332e-03, 2.67936406e-03, 3.62256449e-03, 1.81600370e-03,
          3.06023844e-03, 1.94329140e-03, 1.34007970e-03, 2.38990760e-03,
          3.53914686e-03, 2.93116947e-03, 5.24877431e-03, 3.01915780e-03,
          1.06739358e-03, 9.68799868e-04, 6.43385621e-03, 3.92872049e-03,
          1.99107430e-03, 3.02708754e-03, 5.89899532e-03, 2.75692530e-03,
          1.66883564e-03, 3.70440260e-03, 4.58070217e-03, 2.47079553e-03,
          6.02686312e-03, 4.51554451e-03, 4.73168027e-03, 3.50870285e-03,
          8.91779736e-03, 6.13686116e-03, 7.92070478e-03, 6.53018383e-03,
          5.89721184e-03, 1.14967301e-02, 1.22869452e-02, 8.74936488e-03,
          7.49298371e-03, 1.49168854e-03, -1.10617122e-02,
          -5.50656719e-03, 9.18599684e-03, -7.20859692e-03,
          -5.88586507e-03, -6.51354017e-03, -6.53953711e-03,
          -5.58658224e-03, -4.68544662e-03, -6.96392311e-03,
          -5.25958184e-03, -7.00588245e-03, -1.66826497e-03,
          -7.11972546e-03, -7.63266813e-03, -2.98666628e-03,
          -4.30295477e-03, -4.66620177e-03, -2.86654546e-03,
          -7.19149504e-03, -4.05720063e-03, -2.23765243e-03,
          -3.59455263e-03, -2.95323832e-03, -4.62591229e-03,
          -2.63087940e-03, -4.37553646e-03, -3.73948994e-03,
          -4.60135704e-03, -9.20609164e-04, -6.07787538e-03,
          -2.51084683e-03, 0., -3.43229203e-03, -2.65986845e-03,
          -2.90976651e-03, -3.06070107e-03, -3.19855707e-03,
          -1.73404836e-03, -2.19154311e-03, -1.84120459e-03,
          -3.27584147e-03, -3.77174420e-03, -4.63279983e-04,
          -8.34752107e-04, -1.18181563e-03, -2.65234453e-03,
          -4.17785905e-03, -1.54417253e-03, -2.96317693e-03,
          -1.24125858e-04, -1.49021595e-04, -3.73912137e-03,
          -2.44937139e-03, -1.29085523e-03, -1.72839582e-03,
          -1.27925875e-03, 1.77609385e-04, -1.43976556e-03,
          -2.11949949e-03, -1.21748098e-03, -3.78628867e-03,
          8.99703824e-04, -1.74543192e-03, 8.26091491e-05,
          -2.24109460e-03, 6.09669136e-04, 9.03208784e-05,
          -1.84441719e-03, 3.70671623e-04, -9.66579013e-04,
          8.10846861e-04, 8.31018086e-04, -5.25259238e-04,
          -1.05936429e-03, -6.67831977e-04, 1.41482940e-03,
          4.62570868e-04, 2.79135816e-03, 3.93411843e-03,
          -3.72303906e-03, 2.22999346e-03, -6.75298506e-04,
          3.34680779e-03, 1.45808177e-03, 5.85365854e-03, 1.41143391e-03,
          2.94473022e-03, 4.15905425e-03, 5.38680889e-03, 6.80594286e-03,
          4.59819240e-03, 4.78821341e-03, 5.78923989e-03, 9.33389924e-03 ]
      - [ -9.87171661e-03, 7.39366934e-03, 6.51687058e-03,
          8.25578813e-03, -8.41684360e-03, 2.64797616e-03,
          -4.83908138e-04, -1.84649732e-02, 2.40003690e-03,
          1.29412916e-02, -1.24290828e-02, -6.93272101e-03,
          2.08387920e-03, 7.86327932e-04, -1.81298163e-02,
          4.52912552e-03, -2.13272637e-03, -1.07648866e-02,
          -1.32854991e-02, -4.45527898e-04, -6.96352078e-03,
          -8.90457444e-03, -1.21786129e-02, -9.64307692e-03,
          -4.64901095e-03, -1.54813901e-02, -1.02308707e-03,
          -2.44428534e-02, -1.90000013e-02, -7.98027311e-03,
          -2.13663019e-02, -1.06852632e-02, -2.66659781e-02,
          -1.59164798e-02, -1.07643344e-02, -5.05204536e-02,
          -3.08238063e-02, -4.37133573e-02, -2.47198269e-02,
          -4.30762544e-02, -3.04678045e-02, -3.81909683e-02,
          -1.30371572e-02, -2.62171179e-02, 1.01519264e-02,
          5.52654732e-03, 1.60417575e-02, 4.17038389e-02, 7.05347732e-02,
          4.40022498e-02, 3.10043748e-02, 4.58991788e-02, 3.58046554e-02,
          3.03534884e-02, 3.67167592e-02, 2.55729444e-02, 3.53090391e-02,
          1.43041108e-02, 2.17654351e-02, 1.43328989e-02, 3.35492603e-02,
          2.13227253e-02, 6.77366694e-03, 4.27458342e-03, 9.30305850e-03,
          7.06985965e-03, 1.28590940e-02, -7.04063661e-03,
          1.47413714e-02, 1.19295586e-02, 5.87943615e-03,
          -5.74634783e-03, 1.37201892e-02, 1.85476951e-02,
          -1.25354284e-03, 3.71642667e-03, 4.51075425e-03,
          -5.97704109e-03, 1.58950954e-03, 7.78031442e-03,
          -6.85010338e-04, 4.43060370e-03, -7.96234794e-03,
          -3.09166429e-03, 4.91638109e-03, 6.27887063e-03,
          6.10237475e-03, -1.00089097e-03, -4.09302348e-03,
          -1.72463339e-02, 1.30640622e-02, -8.16901494e-03,
          -9.99081973e-03, -1.83924772e-02, -1.35508776e-02,
          -8.48861504e-03, -9.27730277e-03, -1.13634989e-02,
          4.71753487e-03, -8.71178694e-03, -5.04022697e-04,
          -6.94116345e-04, 1.69281196e-03, -7.17935199e-03,
          1.76486485e-02, 1.09132950e-03, -7.41496915e-03,
          -1.49454288e-02, 4.79298318e-03, -1.00065740e-02,
          -1.09437117e-02, 5.13075432e-03, -4.81439568e-03,
          -2.16733199e-02, -4.10508737e-03, -1.15671698e-02,
          -2.85990409e-05, -6.58476586e-03, -1.46482922e-02,
          -9.37773101e-03, -4.12108289e-04, -3.44773149e-03,
          -1.14004817e-02, -1.72611121e-02, -4.01757145e-03,
          -1.54545801e-02, -5.77256782e-03, -1.03510013e-02,
          -2.27846298e-02, -7.60222902e-04, -2.10918114e-02,
          -4.72440049e-02, -2.36935392e-02, -2.44088974e-02,
          -2.93296929e-02, -3.02328486e-02, -3.76373343e-02,
          -5.33264279e-02, -5.24487644e-02, -2.55483724e-02,
          -1.05845155e-02, 3.21979001e-02, 2.29101218e-02,
          4.23344485e-02, 4.55410480e-02, 5.18464223e-02, 3.03376671e-02,
          5.25800399e-02, 3.40339616e-02, 1.65339801e-02, 4.14558128e-02,
          3.18546854e-02, 1.96965840e-02, 1.99931730e-02, 1.91774853e-02,
          0., 2.51789838e-02, 1.25756692e-02, 1.34284133e-02,
          1.70380622e-03, 4.35663201e-03, 0., 2.00352781e-02,
          2.07407260e-03, 8.37198272e-03, 3.58820660e-03, 1.37708392e-02,
          5.66769578e-03, 1.69940498e-02, 6.56237826e-03, 8.11191835e-03,
          1.26617122e-03, 1.86263565e-02, 1.06671434e-02, 5.54484688e-03,
          2.81774765e-03, -1.53233123e-03, 5.27965231e-03,
          -1.10878395e-02, 1.10281315e-02, -1.04376869e-02,
          1.12574659e-02, -2.21137214e-03, -1.04654452e-03,
          3.56229511e-03, -1.16412109e-02, -5.59301907e-03,
          -5.84165391e-04, -2.61293468e-03, -2.67180707e-02,
          -2.43637692e-02 ]
      - [ -2.77583976e-03, 3.82385310e-03, -2.39009177e-03,
          2.79818662e-03, -3.57966579e-04, 2.92751170e-03,
          -1.85180956e-03, 7.47839571e-04, -7.61082745e-04,
          1.17967895e-03, -7.92181454e-05, 7.59187795e-04,
          5.89193427e-04, 5.36238134e-04, -1.14803191e-03,
          -1.04664010e-03, 1.39943208e-03, -1.59156974e-04,
          -2.86996219e-04, 8.40174151e-04, -2.18420610e-04,
          1.39250988e-04, -2.56164552e-04, -3.64304200e-04,
          -7.00630422e-04, -4.68154205e-04, -6.71169721e-04,
          -2.01684277e-04, -8.64074507e-04, -6.90842498e-05,
          -3.96018761e-04, 2.93296704e-04, -1.47897081e-04,
          -9.20745195e-04, -1.19794104e-05, -5.44258277e-04,
          -1.05376984e-03, -3.85243271e-04, -3.66234657e-04,
          -1.74397428e-04, -2.73180573e-04, 5.03218791e-04,
          -1.90408842e-03, -7.52333144e-04, -1.97043386e-03,
          -4.92402469e-04, -1.38559565e-03, -2.07708916e-03,
          -4.87673737e-04, -5.95970545e-04, -3.38509888e-03,
          -1.39777863e-03, -2.71451101e-03, -2.03252723e-03,
          -4.52180672e-03, -2.20198976e-03, -3.97633668e-03,
          -4.22606384e-03, -5.59468800e-03, -8.20736866e-03,
          -2.95536332e-02, -3.24930102e-02, -3.16266082e-02,
          -6.49089366e-03, -5.60647994e-03, -8.32081027e-03,
          1.23985019e-03, 5.13835461e-04, 9.81434062e-03, 9.24244709e-03,
          6.98619010e-03, 1.11867236e-02, 1.09890150e-02, 1.15689607e-02,
          4.64857556e-03, 4.88825422e-03, 6.30894583e-03, 5.19862305e-03,
          5.58602251e-03, 3.06127663e-03, 1.67891884e-03, 2.30800989e-03,
          2.80721439e-03, 3.59834335e-03, -8.31353736e-06,
          5.29155321e-03, 1.86597661e-03, 4.17853659e-03, 4.55062278e-03,
          3.43592628e-03, 1.84328086e-03, 4.05443693e-03, 3.42082698e-03,
          4.98957001e-03, 5.09247323e-03, -9.68784466e-03,
          -9.99816973e-03, -1.78491173e-03, -1.60956208e-03,
          7.60560273e-04, 1.23406725e-03, 1.14271673e-03,
          -4.18385869e-04, 2.55164411e-03, -1.07688329e-03,
          -1.64559533e-04, -4.77360445e-04, 2.90227728e-03,
          -3.09043418e-04, 2.32605744e-04, -1.04225229e-03,
          1.11476425e-03, -3.45338165e-04, -4.02182282e-04,
          3.58547200e-04, -4.56589914e-04, 2.31209760e-05,
          -6.87222811e-04, -9.19972605e-04, -1.48393307e-03,
          3.51544761e-04, -5.45462186e-04, 2.19068606e-04,
          -3.97605152e-04, -1.71806329e-04, -5.60608576e-04,
          -4.27162537e-04, -1.09357206e-04, 0., -2.46328680e-04,
          -8.52978555e-05, -5.76495891e-04, 0., 0., 0., 0.,
          -1.92085491e-03, 0., -1.63260696e-03, 0., -1.63260696e-03, 0.,
          -1.63260696e-03, 0., -1.63260696e-03, -1.44546240e-04,
          -1.87188538e-03, -1.63260696e-03, 0., 0., -3.26521392e-03,
          -2.98928353e-04, -1.23643805e-03, -1.47278002e-03,
          8.65017792e-05, -1.44546240e-04, -1.68501982e-03,
          -1.37027202e-03, -1.95872551e-03, -1.42167765e-03,
          -1.91514249e-04, -2.89092481e-04, -5.56119019e-04,
          -1.38627831e-03, -2.09955918e-03, -1.39757118e-04,
          -6.48441841e-04, -2.56812549e-04, -2.96173990e-03,
          6.06471498e-04, -1.28750713e-03, 1.63699256e-03,
          -1.67664373e-03, -1.12314790e-03, -1.84213932e-04,
          8.03353963e-04, -1.84442021e-03, 1.28241000e-03,
          -1.19291001e-03, -1.32677052e-03, -1.13613298e-03,
          5.27507393e-04, 1.77031464e-03, 1.64839451e-03,
          -1.78231532e-03, 1.41180982e-03, -1.96813198e-04,
          -1.99299771e-04, 3.49585596e-03, 9.67694505e-04,
          1.90635829e-03 ]
      - [ 3.89081589e-03, 2.84235692e-03, 6.66604668e-04, 8.59878608e-04,
          -1.51951448e-04, -1.57538729e-04, -2.49615259e-04,
          -1.29261531e-03, -2.70927441e-03, -2.42373860e-03,
          -2.81090196e-03, 6.80945208e-03, 8.31502676e-03,
          8.06943234e-03, 7.04931328e-03, 5.99934207e-03, 5.48369205e-03,
          1.73571007e-03, -1.35093590e-03, -3.70486104e-03,
          -3.70715559e-03, -2.98782950e-03, -4.38384851e-03,
          -4.43877606e-03, -4.73378599e-03, 1.02618496e-05,
          -3.22333723e-03, -3.93748004e-03, -7.08248653e-03,
          -6.74083084e-03, -5.29657910e-03, -1.57122500e-03,
          -8.30849967e-05, -2.77871825e-03, -3.27333319e-03,
          -6.20342186e-03, -7.42322579e-03, -8.43934342e-03,
          -5.09642018e-03, -6.83046237e-04, 3.06029367e-04,
          1.00552291e-03, 8.09672812e-04, 1.96497655e-03, 9.59530124e-04,
          1.23081286e-03, 8.69733514e-04, 9.70800611e-05, 1.60463445e-03,
          1.36328547e-03, 1.16516463e-03, 9.58720979e-04, 8.40303779e-04,
          1.21135940e-03, 1.63534610e-03, 9.85689112e-04, 1.27522158e-03,
          1.58807379e-03, 1.86184794e-03, 5.68281277e-04, 7.45250669e-04,
          1.46301871e-03, 9.51258000e-04, 1.46698311e-03, 1.24044472e-03,
          5.04200871e-04, 2.10026605e-03, 1.60354492e-03, 9.47516528e-04,
          1.09198876e-03, 9.59580881e-04, 7.46273668e-04, 1.26288342e-03,
          7.79890397e-04, 1.69667101e-03, 1.11723400e-03, 3.85026913e-04,
          7.72136496e-04, 1.07285392e-03, 9.20706720e-04, 1.00103242e-03,
          1.62084070e-05, -8.32137000e-03, -7.60459760e-03,
          -1.18784970e-02, -2.41211918e-03, -2.67075701e-03,
          2.66121897e-05, -2.79388740e-04, -1.31507730e-03,
          -2.33633257e-03, -3.18058697e-03, -3.26728495e-03,
          -4.14152542e-04, 2.94348598e-03, -9.99524910e-03,
          -9.99524910e-03, -1.20974779e-02, 2.95031350e-03,
          2.88202381e-03, 1.41487515e-03, 1.37272861e-03, 1.67778181e-03,
          9.99567215e-04, 1.49681233e-03, 4.25126258e-04, 8.86943657e-04,
          5.12357801e-04, 4.70083876e-04, 1.28358009e-03, 4.99382266e-04,
          2.53622973e-04, 6.57337660e-04, 6.74612384e-05, 6.05603214e-04,
          3.44982458e-04, -5.73669013e-06, -2.08163590e-04,
          -1.99874103e-05, -4.46877311e-05, 6.88539061e-04,
          3.80401529e-04, -3.71965492e-04, 2.04339580e-04, 0.,
          -1.79916649e-04, 0., 3.52684117e-04, -6.30340015e-04,
          -2.65383715e-04, -6.51580995e-05, -6.52032497e-04,
          -6.02452725e-04, -3.77891818e-04, -2.11247869e-04,
          -3.17876111e-04, -8.61526700e-04, -2.41708040e-04,
          -1.12678099e-03, -6.73995120e-04, -6.70885725e-04,
          -7.84883159e-04, -1.68033945e-03, -6.11116178e-04,
          -6.13487849e-04, -1.02050707e-03, -7.98116496e-04,
          -7.50079693e-04, -1.35341415e-03, -1.71311921e-03,
          -1.39701960e-03, -8.30103381e-05, -1.23470114e-03,
          -1.29596051e-03, -1.21220469e-03, -1.51790725e-03,
          -2.20558094e-03, -1.08004711e-03, -1.54631864e-03,
          -3.61517450e-04, -1.30854081e-03, -1.02508068e-03,
          -1.62075832e-03, -1.10757223e-03, -1.93041470e-03,
          2.67790188e-03, 8.13391898e-03, 7.90575892e-03, 4.61170962e-03,
          5.06739551e-03, 5.25693083e-03, 5.01694949e-03,
          -3.92107264e-04, 1.44702557e-03, 1.57027121e-03,
          2.13259296e-03, 1.38163241e-02, 4.54287557e-03, 8.47726874e-03,
          -2.61944602e-03, 7.66581250e-03, 7.33736344e-03,
          1.69099018e-03, 5.63725655e-04, -3.39755649e-03,
          -7.60870520e-04, -1.70823629e-03, -4.05369326e-03,
          -3.52378259e-03, -3.42109706e-03, 1.02202583e-04 ]
      - [ 2.22399808e-03, 7.64906697e-04, 1.21406268e-03,
          -1.88707490e-04, -4.55876609e-04, 6.61746773e-04,
          -1.94771899e-04, -1.62792727e-04, -2.01063277e-03,
          -1.50628539e-03, -1.88806083e-03, 1.75594864e-03,
          3.02038249e-03, 2.86863232e-03, 6.70132751e-04, 2.11690576e-03,
          1.06803032e-04, 8.11544014e-04, -2.29086261e-03,
          -3.36079882e-03, -6.50957227e-03, -5.85210836e-03,
          -6.76636258e-03, -7.58304354e-03, -7.28596654e-03,
          -5.96187031e-03, -3.71105270e-03, -2.87132757e-03,
          -9.24319867e-03, -1.51638337e-03, -6.63557602e-03,
          -4.58162697e-03, -9.32247285e-03, -6.64810510e-03,
          1.05810747e-03, 1.54215423e-03, 1.70442404e-03, 2.67189648e-03,
          3.46759357e-03, 4.29604203e-03, 3.50512774e-03, 3.33857769e-03,
          2.25612405e-03, 1.18437817e-03, 5.76851075e-04,
          -4.00951190e-04, -1.94408267e-03, -2.74139410e-03,
          -2.48792325e-03, -3.68445134e-03, -3.91653879e-03,
          -3.87091865e-03, -4.79636900e-03, -5.61207486e-03,
          -3.51172453e-03, -2.88602780e-03, -5.96096332e-04,
          -8.45976232e-04, -6.46832574e-04, -1.19923428e-03,
          6.93528960e-03, 6.41428772e-03, 7.11045042e-03, 7.28357397e-03,
          8.92380346e-03, 9.10378993e-03, 7.39426445e-03, 6.43476751e-03,
          1.06020477e-02, 8.07153154e-03, 8.04449711e-03, 3.58841731e-03,
          1.26867113e-03, -8.56152401e-05, 1.84355566e-04,
          8.54528218e-04, 3.48696718e-03, 3.29752686e-03, 5.29779214e-03,
          2.63106683e-03, 2.41276226e-03, 1.00988589e-04,
          -3.57712829e-03, 2.35847873e-03, 1.58727379e-03,
          5.86158037e-03, -1.04497909e-03, -9.48625384e-04,
          -1.11423910e-03, -1.64475117e-03, -2.95795477e-03,
          -2.51803780e-03, -3.50043504e-03, -1.21634454e-03,
          2.23083328e-03, -8.47905595e-03, -2.81037646e-03,
          -9.25443508e-03, 2.33940966e-03, 1.97885977e-03,
          1.47255894e-03, 1.20418030e-03, 1.18118874e-03, 8.06619297e-04,
          9.71768750e-04, 7.72080326e-04, 4.68644343e-04, 7.33418390e-04,
          7.57734408e-04, 6.01667678e-04, 2.15403314e-04, 5.88644543e-05,
          7.06085339e-05, 2.25797601e-04, 6.78400625e-04, 6.09507144e-04,
          1.43996978e-04, -3.37644218e-04, -2.74439826e-05,
          -1.47452534e-04, 1.83948068e-04, 2.83393136e-04,
          -8.36132313e-05, -5.29635217e-05, -1.53412271e-04,
          -3.07702081e-04, -4.44918231e-04, 6.56102711e-05,
          -5.51023579e-04, -5.98007930e-04, -5.59629931e-04,
          -8.60263186e-04, -1.21044659e-03, -7.74411601e-04,
          8.55965845e-05, -6.55016862e-04, -7.96449836e-04,
          -1.09337685e-04, -7.02982245e-04, -8.43282905e-04,
          4.41610435e-04, 2.04233965e-03, 1.93899788e-03, 1.08672259e-03,
          1.55908545e-03, 1.61266257e-03, 1.06543535e-03, 1.42122677e-03,
          2.39153553e-04, 6.11127820e-04, 3.96889140e-04, 1.21691881e-03,
          9.75798757e-04, 6.54293515e-04, -4.44432662e-05,
          1.08955675e-04, 1.80331728e-04, -2.92322424e-04, 0.,
          6.75288436e-04, -1.14758812e-04, 4.05582359e-05,
          2.29517624e-04, 1.08657900e-04, 0., 3.37644218e-04,
          -2.01387258e-04, -6.36833211e-05, -3.15955840e-04,
          1.21211524e-05, 3.96256801e-05, -1.94756081e-04,
          3.35854507e-04, -1.79763156e-04, -3.64206266e-04,
          -9.94632486e-04, -7.14382099e-04, -4.63684369e-03,
          -4.31928318e-03, -4.69983788e-03, -9.72542912e-04,
          -1.42053026e-03, -4.68784291e-03, -4.68356069e-03,
          -4.82367491e-03, -1.28201023e-03, -2.80912826e-03,
          -4.27068304e-03, -3.41313775e-03, -3.59979691e-03,
          -2.29266565e-03 ]
      - [ 1.13072144e-02, 4.77935420e-03, 3.02764052e-03,
          -9.75783635e-03, -3.33088078e-03, 2.77073559e-04,
          -4.90293663e-04, -2.34933803e-03, 3.94886779e-03,
          2.95505766e-03, 2.91932956e-03, 4.91653755e-03, 6.66709337e-03,
          4.75494238e-03, 1.10220937e-02, 1.05144484e-02, 1.11899478e-02,
          1.94931787e-03, 8.15677457e-04, 9.41974140e-05, 6.78587519e-03,
          6.34787697e-03, 9.91621707e-03, 1.38209639e-02, 1.25130201e-02,
          5.79587603e-03, 3.51890060e-03, -3.24179164e-05,
          5.00250235e-03, 1.03704594e-02, 1.10867051e-02, 9.22804978e-03,
          2.92545860e-03, 9.29514877e-04, 5.65238623e-03, 6.18204300e-04,
          4.27111378e-03, 4.58479067e-03, 5.35922730e-03, 2.86093843e-03,
          1.26450555e-03, 1.10621471e-03, 3.51855974e-03,
          -1.03463477e-03, 2.57667457e-03, 1.63828745e-03,
          -3.42750252e-04, 2.37971428e-03, 7.59867660e-04,
          2.36694841e-03, 1.99986622e-04, -1.41172984e-03,
          2.02193143e-04, 5.44664392e-04, -3.32937995e-03,
          -5.75217372e-03, -6.18393067e-03, -7.08417175e-03,
          -9.20798257e-03, -1.04183294e-02, -7.86237884e-03,
          -6.68441085e-03, -1.18770888e-02, -6.21135114e-03,
          -2.47549126e-03, 1.12845912e-04, 2.24315707e-04,
          1.82123831e-03, -7.22596468e-03, -5.20034740e-03,
          -7.03682704e-03, 8.50898912e-04, 5.82554610e-04,
          -1.31033116e-03, 2.17204820e-03, 1.61231394e-04,
          -3.05049674e-04, 1.91758701e-03, -7.90372677e-03,
          -8.83250311e-03, -8.42867792e-03, 2.41462281e-03,
          -7.51839112e-03, 6.89718654e-05, -7.86958076e-03,
          1.78500451e-03, -4.73786518e-03, -4.55261616e-05,
          -7.84499850e-03, 6.87638705e-04, -7.45383231e-03,
          -3.52348015e-03, -9.34076216e-03, 2.15655891e-03,
          6.20742142e-03, -2.07044207e-03, -4.95759305e-03,
          -1.38559872e-02, 2.30966741e-03, 3.79619712e-04,
          1.79900334e-03, -7.06630875e-04, 1.06908928e-03,
          -3.21358879e-04, 1.16254436e-03, 8.15672975e-04,
          1.30446535e-03, 7.47201324e-04, 2.79004627e-04,
          -3.24461929e-04, -2.38918932e-04, 1.27443520e-03,
          -4.20458149e-04, 8.32058198e-04, 2.16883593e-04,
          -1.11135258e-03, 8.61075590e-04, 8.85745103e-04,
          -2.77239992e-03, -4.48001898e-04, -3.65568063e-04,
          3.17838136e-03, -2.74111493e-03, 1.67945330e-03,
          -1.42795616e-03, 1.45241414e-04, -3.33855918e-04,
          -1.82927097e-03, 3.03676032e-04, 1.26063905e-03,
          3.39711492e-04, -5.28448611e-04, -6.64004125e-04,
          9.22988693e-04, -9.89934895e-04, -5.41639281e-04,
          -1.72535202e-03, 3.22977221e-03, 1.42170407e-04,
          -1.15519494e-03, -4.19574615e-04, 5.85902191e-04,
          2.20006681e-03, 6.37003453e-03, 2.70116585e-03, 6.12780964e-03,
          5.69212670e-03, 4.64968989e-03, 3.35364765e-03, 1.99867156e-03,
          2.32801703e-03, 3.24099860e-03, 6.36395125e-04, 4.57048329e-04,
          -3.15076031e-04, 7.08641775e-04, 1.03591359e-03,
          8.33739154e-03, 5.25753945e-03, 6.96657412e-03, 1.98212429e-03,
          -1.69300847e-03, -1.40357343e-03, 4.15920294e-05,
          -4.13315697e-03, -2.70311208e-03, -3.12009528e-02,
          -2.85108853e-02, -2.91732606e-02, 6.35750301e-04,
          8.43116431e-04, 2.34739226e-03, 2.68687075e-03, 1.42092118e-03,
          -1.20046816e-03, -4.90320032e-04, 8.10950296e-05,
          -8.47010966e-03, -9.11666546e-03, -1.01706553e-02,
          -8.80091917e-04, 1.93845469e-03, -4.47307806e-03,
          -7.42423639e-04, -4.34344634e-03, -7.30020087e-03,
          -9.94956400e-03, -8.90937727e-03, -1.59665328e-02,
          -9.75878071e-03, -3.49669135e-04 ]
      - [ 5.80506574e-04, 1.40684249e-03, 4.53332579e-03,
          -7.68457947e-04, 1.10123714e-03, -1.42772286e-03,
          3.28036804e-05, -3.05312948e-04, 4.71203995e-04,
          1.17522723e-03, 2.75509723e-04, 7.57784001e-04, 5.00536850e-03,
          4.41172672e-03, 4.80370596e-03, 2.23780144e-03, 3.20739811e-03,
          1.36651087e-03, -9.56576332e-05, -3.84264597e-04,
          9.44011437e-04, 7.34707341e-04, 1.41194672e-03, 1.96012063e-03,
          2.63252459e-03, 1.13937538e-03, -3.52803589e-04,
          -3.58799844e-05, 5.17217850e-04, 6.74411422e-04,
          1.02542189e-03, 1.09250809e-03, 1.32351648e-04,
          -1.32298046e-05, 1.89261993e-06, -6.54102012e-04,
          3.67410248e-04, 7.53555796e-05, 2.24357747e-04,
          -4.58603259e-04, -4.83126054e-03, -4.78364667e-03,
          -4.82103415e-03, -1.88935781e-03, -6.19294296e-04,
          -1.75900059e-03, -1.78156607e-03, -3.94514808e-03,
          -3.16791097e-03, -3.65663203e-03, -5.39768115e-03,
          -5.86137781e-03, -6.07442902e-03, -4.09593200e-03,
          -5.69409458e-03, -4.84080287e-03, -5.40909730e-03,
          -3.56151070e-03, -4.29097936e-03, -8.20848683e-04,
          1.75857116e-04, -2.95045960e-04, -2.41051966e-04,
          -4.42767458e-04, 1.34685906e-04, -3.80506011e-04,
          2.27864878e-03, 1.60695065e-03, 4.89371223e-03, 2.85986089e-03,
          2.51973886e-03, 2.40653870e-04, 1.07550586e-03, 2.79482384e-03,
          2.14393949e-03, 1.58443057e-03, 3.62389977e-03, 3.17793386e-03,
          3.74702993e-03, 8.09032761e-04, 3.14796437e-03, 3.57591710e-03,
          2.18464201e-03, 1.48960610e-03, 7.25166639e-03, 7.10997405e-03,
          5.63561125e-03, 2.37826884e-04, -7.75072316e-04,
          3.53194599e-04, 1.35542650e-04, 7.08550389e-04, 7.96732900e-04,
          3.52095533e-03, 3.88149731e-03, -1.93614193e-04,
          -2.61439756e-03, -4.67275036e-03, 8.86312919e-04,
          -4.43449651e-04, -3.51898751e-04, -6.48829155e-05,
          -1.54182431e-03, -2.57689273e-03, -3.84280365e-03,
          -3.90392705e-03, -4.34940355e-03, -5.11142844e-03,
          -5.31185279e-03, -9.17425379e-03, -9.11294390e-03,
          -7.79325608e-03, -2.27738684e-03, 6.88065775e-04,
          -4.00472869e-04, 4.02288460e-05, -2.84373004e-04,
          1.61109856e-05, -2.56883504e-04, -4.81644558e-04,
          3.99970129e-04, 4.01908357e-04, 1.08897791e-03, 1.44522195e-03,
          2.79797614e-03, 2.11913767e-03, 2.00455217e-03, 2.67527555e-03,
          3.82997468e-03, 3.46460333e-03, 4.29375237e-03, 2.70831748e-03,
          5.67756919e-03, 5.15442202e-03, 5.75276278e-03, 2.15414166e-03,
          1.07161608e-03, 1.53694348e-03, 1.09247386e-03, 7.80759205e-04,
          6.29747636e-04, 6.34360069e-04, 1.03273301e-03, 4.35648632e-04,
          4.67576465e-04, 9.89657943e-04, 5.82731212e-04, 1.58455354e-04,
          5.64811999e-05, 8.16749307e-05, 5.41087997e-04, 2.93386518e-04,
          6.46425644e-04, 9.55770447e-05, -2.20215625e-05,
          5.66106173e-05, -1.13221235e-04, -8.66725968e-05, 0.,
          4.40431249e-05, 0., 6.68115215e-04, 0., 0., -2.56723462e-04,
          -3.66690401e-05, -8.91149539e-05, -5.64601578e-05,
          -5.45306357e-05, 4.10654116e-04, -3.66746855e-04,
          -3.84075334e-04, -3.28943686e-04, -2.90902826e-04,
          -5.46604511e-04, -3.63236468e-04, -2.46016891e-04,
          -4.44669742e-03, -4.12345352e-03, -3.80361732e-03,
          -7.95116182e-04, -1.27249409e-03, -2.49224016e-03,
          -2.70543643e-03, -4.82273288e-03, -3.35040200e-03,
          -2.76005641e-03, -3.26040643e-03, -2.83003389e-03,
          -3.36984242e-03, -3.48311523e-03 ]
      - [ -5.37662907e-03, -5.53084025e-03, -1.06537044e-02,
          -5.08543663e-03, -5.70197124e-03, -3.30719957e-03,
          -4.74369386e-03, -1.79689133e-03, 3.57350032e-03,
          2.15013119e-04, -1.90614001e-03, -1.02819304e-03,
          -1.38418539e-03, -3.42727103e-03, 2.80949008e-03,
          9.44619766e-04, 2.44518067e-03, 7.93826010e-04, 2.88877985e-03,
          -1.61344057e-03, 5.63855236e-03, 8.32811184e-03,
          1.45406956e-02, 1.50448540e-02, 1.79826058e-02, 7.03503983e-03,
          5.33105526e-03, 7.04386551e-03, 8.62908270e-03, 9.31410026e-03,
          9.21988767e-03, 1.50780603e-02, 9.11747478e-03, 8.75281915e-03,
          1.02176368e-02, 5.04300185e-03, 6.18755072e-03, 1.14225876e-02,
          1.18476031e-02, 5.81224635e-03, 3.15818237e-03, 1.14222826e-03,
          2.11699354e-03, 1.74996851e-03, -3.04747897e-04,
          1.93385014e-04, 2.43055052e-03, 2.15749005e-05, 3.76714132e-04,
          3.31605412e-03, 4.03146580e-04, -2.39977802e-04,
          -1.98496622e-04, 2.68001761e-03, -2.10418971e-03,
          -2.04553526e-05, 9.26545006e-04, 3.75792477e-03,
          -6.78700686e-04, -5.08917787e-04, -3.15162441e-04,
          1.94341948e-04, -8.26556585e-04, -3.42098821e-04,
          4.26260522e-04, 2.07779987e-04, -2.69548589e-04,
          -1.17211872e-04, -2.30616168e-03, -2.86169612e-04,
          -1.21839705e-03, -2.64158560e-04, -3.22278975e-05,
          -1.66351011e-03, -3.52337142e-04, -6.75340707e-04,
          -1.73973746e-03, -1.12028261e-04, -6.01620553e-03,
          -6.97739609e-03, -4.10678517e-03, -4.21316922e-03,
          -9.04034544e-03, -8.08352884e-03, -1.03450874e-02,
          -8.92225374e-03, -8.67404696e-03, -8.78805667e-03,
          -1.21415481e-02, -2.29758141e-03, -4.96137328e-03,
          -7.88027141e-03, -8.77480116e-03, -3.29903141e-03,
          -8.41342728e-04, 2.99823727e-03, -7.86512392e-05,
          -1.75362569e-03, 7.10778497e-03, -3.05070891e-04,
          -7.24789046e-04, -7.28773791e-03, -2.78918771e-03,
          -6.91085262e-03, -4.22361959e-03, -2.96930294e-03,
          -3.72858928e-03, -6.14508288e-03, -3.71610536e-03,
          -1.74833986e-03, -8.27764533e-03, -4.63378703e-04,
          -2.05146102e-03, -7.01321801e-03, -6.53354800e-04,
          -2.18881271e-03, -5.22948150e-03, -4.22528246e-03,
          -4.44283290e-03, -3.12745338e-03, -1.94687443e-03,
          -1.96318096e-03, -3.42997373e-03, -4.44261031e-03,
          -8.44884431e-04, -3.29654128e-03, -2.86691566e-03,
          1.58361774e-02, 1.26928091e-02, 1.09446580e-02, 8.83463398e-03,
          9.74839646e-03, 6.08245470e-03, 7.84406997e-03, 9.87984613e-03,
          3.58212041e-03, 2.97098397e-03, 4.34994046e-03, 3.06948484e-03,
          8.88084702e-04, 2.55585695e-03, 1.98295270e-03,
          -2.06569865e-04, 2.50916765e-03, 3.46325943e-03,
          6.71425078e-04, 2.57108361e-03, 6.43289357e-04,
          -1.58841242e-04, 5.32754464e-04, -2.31611985e-03,
          3.64951859e-03, 1.54110196e-03, 3.26727430e-04, 1.48796316e-04,
          5.95175879e-05, -7.71750929e-04, -1.32856402e-03,
          3.05070891e-04, 9.51466151e-04, -5.08418714e-04,
          -3.30254552e-04, 4.40313335e-04, 1.13942682e-04,
          -6.08932925e-04, -7.76344859e-06, -1.58501731e-03,
          8.49668140e-05, -7.36934831e-04, 1.55135072e-04,
          -2.09605205e-03, -3.45150998e-04, 4.32696193e-04,
          -1.71779492e-03, -6.81558333e-04, -7.16696319e-04,
          -2.07713945e-03, -5.19054569e-03, -8.71181395e-03,
          -3.85173736e-03, -1.66662468e-03, -3.94361420e-03,
          -5.89004764e-03, -2.39862967e-03, -7.67348427e-03,
          -1.12731289e-02, -6.53967354e-03, -9.91704687e-03,
          -1.18338875e-02, -6.90049538e-03, -2.81387148e-03 ]
      - [ 6.16110815e-03, 4.39827889e-03, 5.21625346e-03,
          -6.73992094e-03, 1.00653535e-02, 8.20858171e-04,
          2.23477278e-03, -5.89938660e-04, -1.21526942e-02,
          -2.13470981e-02, -2.00030748e-02, 2.65798112e-03,
          -1.45436572e-02, -1.59914736e-02, -9.39083565e-03,
          -2.07178928e-02, -4.43411712e-03, -8.26957449e-03,
          -3.26837450e-02, -2.02057548e-02, -2.56005786e-02,
          -1.19768716e-02, -1.14939595e-02, -8.32958706e-03,
          -2.04715738e-03, 2.98740715e-03, -1.24247419e-02,
          -6.56217709e-03, -3.69211799e-03, 2.35443958e-03,
          -2.50493712e-03, -1.15183685e-02, 1.42327073e-04,
          -9.96131822e-03, -8.41885712e-03, -1.95518378e-02,
          -1.65356323e-02, -3.02843424e-03, -1.40911750e-02,
          -1.30144479e-02, -2.45206896e-02, -8.65767244e-03,
          2.80761602e-03, 3.82743287e-03, -5.04508615e-03,
          5.69344615e-04, 2.90899887e-03, 5.01850853e-03, 2.11315841e-04,
          6.88396301e-03, 4.90221940e-03, -2.54230085e-03,
          -1.76976423e-03, 4.84537100e-03, 7.26560736e-03,
          5.07383933e-03, 2.33654492e-03, 1.61206350e-03,
          -5.63601311e-03, -4.41014674e-03, 3.17424606e-03,
          6.62830099e-03, 5.53426007e-03, -7.34937959e-04,
          3.14535038e-03, -1.55764527e-03, 4.07677289e-04,
          3.79325170e-03, 9.31539759e-03, 1.62073015e-03, 3.36988294e-03,
          -3.16427741e-03, 4.94439446e-05, 2.50093639e-03,
          5.19913714e-03, 7.77692022e-03, 2.01033708e-03, 1.26205746e-03,
          -3.72541789e-03, -5.15593030e-03, -2.74086487e-03,
          -2.80804071e-03, -1.17448401e-02, -4.33826307e-03,
          -1.57274418e-02, -7.12938607e-03, -1.35471132e-02,
          -1.18028466e-02, -1.43062240e-02, -1.08091440e-02,
          -1.79360025e-02, -1.14657199e-02, -7.05263112e-03,
          1.04259998e-02, 2.50984961e-03, -1.34814810e-02,
          -1.69070868e-03, -8.54691304e-03, 1.62044726e-02,
          2.10424862e-03, 1.95425889e-03, 4.65687990e-05, 2.51931255e-04,
          -7.35489361e-04, -1.38811476e-04, -1.64450193e-03,
          -2.30421522e-03, -2.36980873e-03, -6.98236690e-04,
          -1.43487623e-03, 3.78796854e-03, -2.61157076e-03,
          -3.15145520e-03, -5.04857954e-03, -1.38002215e-03,
          -7.36987870e-03, 5.58354426e-03, -1.79512298e-03,
          -3.93333333e-03, -2.53237062e-03, -6.52202871e-03,
          -1.48378592e-03, -3.58399190e-03, 6.48576859e-03,
          -4.63518966e-03, -3.97716928e-03, -9.92058590e-03,
          -2.50691385e-03, -3.75291384e-05, -2.73338496e-03,
          1.37134758e-03, 1.07884302e-03, -2.73245992e-03,
          -1.81212637e-03, -5.26221748e-03, 4.93638392e-04,
          -4.18351311e-03, -1.50527176e-03, -7.87675963e-04,
          -3.68653657e-03, -2.50214571e-03, -1.62726222e-03,
          -1.91734324e-03, -6.78489963e-03, 1.08433794e-03,
          5.27265901e-03, -4.38923336e-04, -1.18109130e-03,
          -6.19880809e-03, -5.55869099e-03, -5.62752923e-03,
          2.92555639e-03, 8.19353503e-04, -5.43761707e-04,
          -1.27590145e-04, -2.71768472e-03, -5.81947481e-03,
          -5.11037279e-03, -3.19378311e-03, 3.44729424e-03,
          -5.29847853e-03, -2.91307364e-03, -1.73603126e-03,
          2.92873126e-03, -6.09639147e-03, 5.68379648e-04,
          -2.60736677e-03, 4.22638934e-03, -4.04498680e-03,
          -3.64515232e-03, -2.83340248e-03, -4.74416092e-03,
          7.27038458e-03, 1.04335672e-03, -3.21367872e-03,
          -4.57072631e-03, -7.96860177e-03, -1.34792244e-02,
          -1.22569604e-02, -7.49424379e-03, 2.21708766e-03,
          -2.10627168e-03, -8.09982326e-03, -6.05720747e-03,
          -2.17621457e-02, -1.89057887e-02, -1.70667358e-02,
          -2.11646408e-02, -2.16067340e-02, -2.49572378e-02,
          -8.62964708e-03 ]
      - [ 3.87996458e-03, -4.20739991e-04, -1.98239763e-03,
          -7.20111746e-03, -8.08617566e-03, -5.86948544e-03,
          -2.68850382e-03, -5.95502835e-03, -2.65585375e-04,
          -2.08732072e-05, -1.51473377e-03, -1.92570675e-03,
          4.90327831e-03, 5.95428888e-03, 7.91470706e-03, 6.50470005e-03,
          8.20368156e-03, 4.19421541e-03, -3.55420820e-03,
          -1.29606237e-03, 3.72198457e-03, 4.36813850e-03,
          1.09896818e-02, 1.46368537e-02, 1.52579769e-02, 5.87651366e-03,
          2.28807839e-04, 1.99689181e-03, 5.00247022e-03, 1.39136370e-02,
          1.02883819e-02, 1.29585136e-02, -1.74461713e-03,
          3.70945549e-03, 3.06993630e-03, -1.05110358e-03,
          3.38536268e-03, 7.93160871e-03, 9.77018848e-03, 2.75915698e-03,
          -3.68671911e-03, -1.43752946e-03, -9.91755049e-04,
          3.37800273e-04, 4.04186826e-03, 2.21270369e-03, 5.69621986e-03,
          4.93030809e-03, 7.17597734e-03, 5.44753484e-03, 2.81262933e-03,
          3.97723587e-03, 2.01893318e-03, 3.98996659e-03, 3.10522947e-03,
          3.45749781e-03, 5.04526123e-03, 2.01987568e-03, 2.96411314e-03,
          8.16989414e-05, 2.60827690e-03, 2.96927086e-04,
          -3.23231274e-04, 3.48156027e-05, 8.74589721e-04,
          8.53551726e-04, 4.54912544e-04, 4.82175703e-04,
          -5.43627655e-04, -2.26220945e-04, -8.17755878e-04,
          1.96370776e-04, -1.30762433e-04, 6.22626278e-04,
          1.61568241e-05, -6.04419154e-04, -2.15066457e-03,
          -3.37620877e-04, -5.13415132e-03, -3.81699298e-03,
          -3.49055207e-03, -3.49373301e-03, -1.30497264e-02,
          -1.35768615e-02, -1.97728984e-02, -8.86568613e-03,
          -1.43476333e-02, -8.19342583e-03, -1.00504560e-02,
          -1.13333780e-02, -1.49190025e-02, -1.78522430e-02,
          -1.37031525e-02, -4.16981475e-03, 4.06218972e-03,
          -1.23166945e-02, -8.82007182e-04, -1.70898195e-02,
          6.87315781e-03, 4.87675890e-03, 6.23932667e-03, 4.49890923e-03,
          5.13561023e-03, 2.71847006e-03, 4.72175330e-03, 3.34846135e-03,
          3.40270391e-03, 1.03654736e-03, 2.83374381e-03, 1.78194532e-04,
          6.57220313e-04, 1.41898205e-03, 7.02334975e-04,
          -2.43441260e-04, 5.20320493e-04, 9.61470534e-04,
          6.20204257e-04, 1.55492424e-04, -1.93108444e-03,
          -4.04290593e-04, 1.46361679e-04, 9.56439937e-04,
          -8.94439465e-04, 3.89319059e-04, -4.17009782e-04,
          -4.98646928e-04, -5.42747322e-04, -1.78305236e-05,
          -2.94658216e-03, -1.40112289e-03, -1.13455404e-03,
          -3.11581651e-03, -3.14955530e-03, -4.70621279e-03,
          -3.09058814e-03, -4.29036748e-03, -4.74510761e-03,
          -6.98066130e-03, -3.93667491e-03, -8.16336367e-03,
          -4.89622075e-03, 3.30271944e-03, 4.35128668e-03,
          8.21644999e-03, 7.35018495e-03, 4.97685000e-03, 3.80344316e-03,
          4.83834650e-03, 3.03675490e-03, -6.15232449e-04,
          4.27052332e-03, 4.74953372e-03, 2.54737074e-03, 3.85040883e-03,
          5.82243083e-04, 7.95989414e-04, -2.82221998e-04,
          8.06885189e-04, 5.45319112e-04, 1.90787704e-03,
          -3.57187761e-04, -3.54302727e-04, 4.40634671e-04,
          9.78291355e-05, -6.59408455e-04, 3.69872025e-04,
          1.37473744e-05, 3.13598634e-04, -7.86053191e-04,
          -1.44360209e-04, 1.17773139e-04, 3.53256153e-04,
          1.72027515e-03, 7.92319770e-06, -1.33782870e-03,
          -3.43974121e-03, -1.40422757e-03, -1.35333790e-02,
          -1.39413830e-02, -1.24650914e-02, -9.07501031e-04,
          -5.12815919e-03, -1.04229879e-02, -1.10186534e-02,
          -1.40338857e-02, -1.22500341e-02, -1.24007445e-02,
          -1.76901463e-02, -2.00691149e-02, -1.67431757e-02,
          -7.43972510e-03 ]
      - [ 5.02230134e-04, 3.50347045e-03, -1.36857980e-03,
          -2.32797791e-03, -4.84177656e-03, -1.89080054e-03,
          -1.34006597e-03, -1.66390860e-03, -1.68233865e-03,
          -1.02145853e-03, -1.96580993e-04, 7.68195314e-04,
          3.73285753e-03, 3.01459501e-03, 5.57815004e-03, 3.68319056e-03,
          4.73619578e-03, 2.75807572e-03, -7.21869408e-04,
          7.44760386e-04, 1.23200309e-03, 2.73114862e-03, 3.87564930e-03,
          5.70999831e-03, 5.80582023e-03, 3.28242849e-03, 2.19291935e-04,
          8.39543703e-04, 1.21411344e-03, 5.11248782e-03, 4.60067438e-03,
          5.08166337e-03, -8.82022650e-05, 1.01706726e-04,
          1.11696238e-04, 2.98436004e-04, 1.18886842e-03, 2.82520358e-03,
          3.34552675e-03, 1.08871982e-03, -1.99731585e-04,
          4.33891808e-04, -1.13720039e-03, -2.65774026e-04,
          -1.26502209e-03, 7.61096499e-06, -1.62982510e-03,
          -1.81399996e-03, -1.33335241e-04, 1.81268755e-04,
          -2.25636293e-03, -1.50235789e-03, -1.50116044e-03,
          -1.29412720e-03, -3.42066889e-03, -1.43502955e-03,
          -2.66316487e-03, -2.90761655e-03, -3.49085475e-03,
          -6.76603336e-03, -2.07215864e-02, -2.22165752e-02,
          -2.08934732e-02, -4.73324116e-03, -3.64422891e-03,
          -4.97764209e-03, 6.75353804e-05, -2.03903939e-04,
          4.57294378e-03, 5.01367077e-03, 4.33386909e-03, 6.56434568e-03,
          6.40823133e-03, 6.55973004e-03, 3.07918875e-03, 2.74236011e-03,
          3.33819888e-03, 3.11465212e-03, 2.08943919e-03, 6.01064705e-04,
          -3.23362270e-04, 1.26506318e-03, -3.65320593e-03,
          -3.14381090e-03, -7.72602018e-03, -7.38959992e-04,
          -4.77253925e-03, -1.65648025e-03, -2.35757628e-03,
          -7.25284975e-04, -5.07118460e-03, -4.57983650e-03,
          -4.96158563e-03, 1.69390510e-03, 7.12033268e-03,
          -1.35864243e-02, 2.13729637e-03, -3.37221730e-03,
          3.19839269e-03, 2.71038199e-03, 2.81169242e-03, 1.79298490e-03,
          1.35709113e-03, 3.96244880e-03, 6.46671106e-04, 1.61757681e-03,
          1.32014742e-03, 2.42996821e-03, 6.89127191e-04, 1.05416938e-03,
          6.24754612e-05, 1.34267181e-03, 6.06918533e-04, 1.33261539e-03,
          4.99250949e-04, 2.05672317e-04, 5.47348405e-04,
          -9.65299550e-05, -3.81726568e-04, 6.78116339e-06,
          4.33739988e-05, 3.84249463e-04, -1.60152122e-04,
          3.94362723e-04, 8.15055755e-05, -5.32731683e-05,
          2.10024464e-05, 4.03176819e-04, -1.89753664e-05,
          -2.89226708e-04, 1.02544487e-04, -3.27518023e-06,
          -2.89114076e-04, 3.44077089e-05, 2.99683918e-04,
          -2.34467458e-04, -1.22418185e-03, 2.06820740e-04,
          -8.36554682e-04, -1.68770712e-04, -7.76495028e-04,
          -3.37738078e-04, -1.38623093e-03, 5.68909454e-05,
          -5.79763553e-04, 1.59618685e-05, -1.13156682e-03,
          -1.02757919e-03, -3.27078160e-04, -5.57409890e-04,
          -2.12297868e-03, 2.93843535e-04, -5.98911836e-04,
          -9.27240821e-04, -2.01805713e-04, -2.19501690e-05,
          -1.53039896e-03, -1.78855483e-03, -1.27079105e-03,
          -5.03614778e-04, -3.61328624e-04, -6.00758241e-04,
          -1.07449351e-03, -1.06871198e-03, -1.73323089e-03,
          -1.12112510e-04, -1.52355863e-03, 1.19202785e-04,
          -2.75782053e-03, -1.01237260e-04, -1.29014987e-03,
          -1.69953157e-04, -1.00527087e-03, -1.05590455e-03,
          -1.60029752e-03, -1.00081752e-03, -1.90252799e-03,
          -5.59492316e-03, -6.69575715e-03, -6.69679418e-03,
          -1.45311351e-03, -2.06898036e-03, -3.43121658e-03,
          -3.62185203e-03, -5.69051411e-03, -3.82091617e-03,
          -6.33845804e-03, -9.25449282e-03, -6.83300477e-03,
          -7.23160338e-03, -2.19775434e-03 ]
      - [ 3.39935417e-04, -6.08142465e-04, 8.02964263e-04,
          -7.10387321e-05, -4.91263869e-04, 3.39158141e-05,
          -4.57969727e-04, -2.07753983e-04, -6.71244168e-04,
          -1.19289994e-04, 9.93387657e-05, -2.80532025e-04,
          6.60643636e-05, -6.71094604e-05, -3.89464403e-04,
          5.78783292e-05, -2.53799837e-04, -1.12383881e-04,
          -5.75873477e-04, -8.00258422e-04, -3.31700523e-03,
          -1.98288029e-03, -1.02596474e-03, -1.30171480e-03,
          -2.16672244e-03, -4.55308845e-03, -1.47537433e-03,
          6.12852513e-04, -1.05828478e-03, 2.81024561e-03,
          -7.38614646e-04, -1.02368894e-03, -3.42430617e-03,
          -1.12451438e-03, 3.93213844e-03, 4.25970973e-03,
          3.79147171e-03, 4.00101067e-03, 4.28339280e-03, 3.43292323e-03,
          3.84860998e-03, 3.44074820e-03, 2.19192193e-03,
          -1.05018192e-03, -6.23813074e-04, -1.36578304e-03,
          -1.74949644e-03, -1.37840677e-03, -1.74346741e-03,
          -4.42657247e-03, -4.46244236e-03, -6.20892365e-03,
          -4.50968230e-03, -5.26421145e-03, -4.58709942e-03,
          -3.94691713e-03, -2.98342318e-03, -1.57485739e-03,
          -1.77071313e-03, -9.08196380e-04, 3.87869566e-03,
          3.18154506e-03, 3.66417621e-03, 2.71507259e-03, 3.01901251e-03,
          3.64806340e-03, 4.28775931e-03, 5.07048890e-03, 6.31306507e-03,
          4.56558960e-03, 6.07773615e-03, 5.27985767e-03, 1.09983748e-03,
          -7.97536341e-04, -7.90259568e-04, 1.12761708e-03,
          2.32668687e-03, 2.80142808e-03, 4.04198002e-03, 3.47581413e-03,
          2.46777362e-03, -2.76151823e-05, -2.51347054e-04,
          1.58078561e-03, 6.15546433e-03, 6.49547623e-03, 3.14929732e-03,
          -8.80504958e-04, -9.92916641e-04, -6.02470594e-04,
          -6.53701194e-04, -1.04219920e-03, -1.48357206e-03,
          -1.67415838e-03, -2.28668307e-03, 7.64353294e-03,
          9.18823946e-03, 7.72214960e-03, 1.44338162e-04,
          -2.81325280e-04, 3.51916271e-04, 3.97101721e-05,
          -5.52141981e-04, 3.13050841e-05, -5.85368180e-05,
          1.96408218e-04, 1.72196203e-04, 1.74951711e-04, 5.79426451e-05,
          -1.78907736e-04, -3.79958859e-04, -1.99773451e-04,
          -3.22322194e-05, 8.66719056e-05, -1.15034149e-04,
          1.44103033e-04, 7.61290430e-05, -1.84413329e-05,
          -3.38017591e-04, -6.97189753e-05, -1.99106405e-04,
          -1.41775061e-04, 2.23039795e-04, -3.39221529e-04,
          -1.21037076e-04, -3.61221319e-04, -2.15621127e-04,
          -3.35672259e-04, -1.21213809e-04, -4.52580425e-05,
          -5.27452212e-04, -3.32647498e-04, -6.43437728e-04,
          -5.29938727e-04, 3.36273748e-04, -3.23215296e-04,
          -6.97305904e-06, 2.27207522e-04, 5.89430798e-04,
          -2.09762758e-04, 1.21559342e-03, 1.80821249e-03,
          2.26937421e-03, 1.33168546e-03, 1.73711695e-03, 1.43635203e-03,
          1.24244299e-03, 1.58472010e-03, 1.34571595e-03, 1.40652736e-03,
          1.23585761e-03, 6.69755391e-04, 1.39363401e-03, 1.02195877e-03,
          8.61753826e-04, 1.27410132e-03, 1.38581777e-03, 6.00357540e-04,
          9.55250463e-04, 3.95603798e-04, 9.32324794e-04, 5.91810094e-04,
          1.00242812e-03, 7.78904825e-04, 1.17472233e-03,
          -1.75089878e-03, -4.81545134e-03, -4.66043549e-03,
          -2.33670115e-03, -5.60377305e-03, -5.61743276e-03,
          -5.84482681e-03, -2.77092028e-03, -3.87745909e-03,
          -4.18446772e-03, -2.01341882e-03, -4.02541598e-03,
          -4.19287523e-03, -8.55645631e-03, -5.05150296e-03,
          -6.90726237e-03, -5.77636482e-03, -5.60680730e-03,
          -4.30413522e-03, -7.81930576e-04, -6.39871112e-04,
          -1.51457498e-03, -1.19486323e-03, -1.61721476e-03,
          -1.73936842e-03, -1.97757059e-03 ]
      - [ 8.55868217e-04, 3.17308982e-03, 5.65285096e-03,
          -1.57512689e-03, -2.26966804e-04, -3.91450390e-04,
          2.22103161e-04, -4.34595509e-04, -4.41832148e-04,
          -8.29174882e-04, -8.03315896e-04, -5.23967959e-04,
          -4.72046580e-04, 7.49129613e-05, -1.52856461e-04,
          -1.34637870e-04, -8.77449202e-05, -2.84753623e-04,
          4.44101053e-04, 4.90474235e-03, 5.30951750e-03, 6.30546967e-03,
          4.37255204e-03, 5.06128976e-03, 3.56090674e-03, 2.12998173e-04,
          2.59985635e-03, 5.95726538e-03, 1.10219214e-02, 1.40809948e-02,
          1.03565408e-02, 5.80732711e-03, 2.29493366e-04, 2.74507771e-03,
          5.70892030e-03, 5.69689972e-03, 4.11116052e-03, 5.81967551e-03,
          5.79019915e-03, 4.17892542e-03, -8.55772698e-04,
          -7.65071483e-04, -6.67693734e-04, -1.27781951e-03,
          -4.29113454e-04, -7.69204227e-04, -1.10920612e-03,
          -5.35430736e-04, -1.66480709e-03, -2.79154046e-04,
          -7.14534719e-04, -1.14473398e-03, -1.35403499e-03,
          -1.34404714e-03, -1.64553430e-03, -1.36126904e-03,
          -1.07056426e-03, -2.18439754e-03, -1.75889523e-03,
          -2.13679275e-03, -7.53349799e-04, -2.17223330e-03,
          -2.08224589e-03, -1.81177689e-03, -1.35582394e-03,
          -9.32396972e-04, -1.62260630e-03, -7.64923694e-04,
          -2.25913641e-03, -1.69556518e-03, -1.70141272e-03,
          -1.30457990e-03, -9.62095626e-04, -9.28058580e-04,
          -1.14107330e-03, -1.06846204e-03, -6.40910934e-04,
          -1.11973425e-03, -9.97579074e-04, -7.36784830e-04,
          1.01093370e-04, 1.34561013e-03, 9.29630769e-04, 4.88565347e-05,
          2.48771743e-04, 2.62262387e-04, -6.04044006e-04,
          -1.32082391e-03, -1.04857318e-03, -1.10821589e-03,
          -1.11994857e-03, -1.11113035e-03, -7.12394249e-04,
          -8.22064874e-04, -1.39449595e-03, -1.38082891e-03,
          -1.60636462e-03, -1.72126608e-03, -2.50489172e-03,
          -2.02445430e-03, -1.01277744e-03, -1.16716244e-03,
          -8.27778073e-04, -5.72521647e-04, -9.65919811e-04,
          -6.39881255e-05, -6.16162026e-04, 4.40125965e-04,
          3.71747010e-05, -9.70345282e-04, 1.40265780e-04,
          -1.70435989e-04, -3.34577344e-04, 4.47077065e-04,
          3.01691645e-04, -2.13934589e-04, 2.54354236e-04,
          7.36163580e-04, 3.87017848e-04, 7.56660418e-04,
          -7.92466744e-05, 7.12685345e-04, 5.34483224e-05,
          7.33280904e-04, 8.06348980e-05, 7.70539686e-04, 4.86729805e-05,
          4.07588144e-04, 1.18648622e-03, 8.03755771e-04, 6.87003601e-04,
          7.65924808e-04, 5.19087364e-04, 1.06453570e-03, 6.87286491e-04,
          8.45660397e-04, 1.33084576e-03, 1.21603522e-03, 1.43698556e-03,
          7.54937471e-04, 1.16732193e-03, 4.64450661e-03, 4.81610326e-03,
          5.54160960e-03, 1.94103550e-03, 6.38143392e-03, 5.35938982e-03,
          5.37995342e-03, 3.97385424e-03, 4.78269858e-03, 4.61008633e-03,
          3.82663403e-03, 2.90660188e-03, 2.78068869e-03, 1.44681695e-03,
          7.05175393e-04, 1.82803278e-03, 4.60913085e-04, 3.64302483e-04,
          1.05906476e-03, 3.33223958e-04, -2.21255352e-04,
          4.99668997e-04, 1.07299758e-03, 1.14301941e-03,
          -5.07936673e-03, -7.79012917e-03, -1.13685774e-02,
          -5.41467313e-03, -3.85054504e-03, -4.60769655e-03,
          -4.29660873e-03, -4.17632936e-03, -1.80900819e-03,
          -2.12232349e-03, -2.88990187e-03, -1.12285111e-02,
          -1.11590233e-02, -1.44733759e-02, -5.52453287e-03,
          -6.60381606e-03, -7.86282495e-03, -5.69052901e-03,
          -4.49377950e-03, -2.86959112e-05, 8.99408042e-05,
          -1.89841841e-04, -3.63634957e-04, -1.06144021e-03,
          -1.07604824e-03, -1.10238220e-03 ]
      - [ 7.90867314e-04, 1.34497322e-03, 2.88627343e-03, 3.26280628e-04,
          6.45932858e-04, 1.98436450e-04, -3.84535379e-04,
          -3.62601539e-04, -1.34359609e-04, -3.27186135e-05,
          -1.99822738e-04, -2.13634659e-04, -9.01691819e-05,
          -3.17831582e-05, -3.27219925e-04, 5.84186128e-05,
          1.35494804e-04, -7.38124363e-05, -1.89057973e-05,
          7.84367789e-04, 1.01131480e-03, 1.50256860e-03, 1.47040107e-03,
          1.51982403e-03, 1.08194840e-03, 9.69034736e-05, 8.86864727e-04,
          1.81511766e-03, 2.72568525e-03, 3.94942891e-03, 2.95991683e-03,
          2.08639633e-03, 1.64351135e-04, 1.30353542e-03, 1.53397163e-03,
          2.44239555e-03, 2.59019830e-03, 3.12790344e-03, 2.23992718e-03,
          3.77279910e-04, -1.43440464e-03, -1.53333775e-03,
          -1.53780775e-03, -8.36965104e-04, -3.27646820e-04,
          -9.17860307e-04, -7.97481684e-04, -1.05486542e-03,
          -1.75702258e-03, -3.05214664e-03, -3.72397015e-03,
          -3.71286552e-03, -2.46428535e-03, -2.09509302e-03,
          -3.05588753e-03, -2.68751290e-03, -2.88367155e-03,
          -1.56419503e-03, -1.62951124e-03, -5.07928431e-04,
          -2.49319506e-04, -5.90417359e-04, -3.03740962e-04,
          -5.46556257e-04, -4.10069944e-04, -2.34260820e-04,
          3.86476098e-03, 3.79670947e-03, 4.21775412e-03, 3.31086892e-04,
          2.11240462e-04, 3.27128626e-04, -1.57508010e-04,
          1.17821211e-03, 8.80778476e-04, 8.42347625e-04, 1.00253196e-03,
          8.35990882e-04, 8.77990620e-04, 5.04244526e-04, 1.63305795e-03,
          1.91231759e-03, 3.19033815e-03, 2.19087605e-03, 5.64933708e-03,
          3.99435917e-03, 3.46022751e-03, 1.78342292e-04,
          -3.82826227e-04, -3.17857106e-04, -2.49510776e-04,
          -3.27232003e-04, -5.13071136e-04, -6.40012615e-04,
          -1.93782427e-04, 4.82153241e-03, 4.91344882e-03,
          3.73551156e-03, -7.93821295e-04, -8.83159344e-04,
          -5.95934049e-04, -3.49500682e-04, -9.54842311e-04,
          -1.06718508e-03, -1.55941164e-03, -1.14291988e-03,
          -2.40396708e-03, -2.91807647e-03, -3.26400413e-03,
          -3.46331042e-03, -5.66089433e-03, -4.94842464e-03,
          -3.80440266e-03, -1.22395621e-04, -2.40158333e-04,
          -8.03721287e-06, -1.15842377e-05, 7.35340363e-05,
          -6.74464172e-05, -2.33207174e-04, -1.18939643e-04,
          1.19954704e-04, 4.65051824e-04, 4.37228678e-04, 7.07403815e-04,
          7.84544158e-04, 7.24841200e-04, 8.68852774e-04, 1.37556659e-03,
          2.66303169e-03, 2.80655129e-03, 2.87818792e-03, 2.73999036e-03,
          2.43845372e-03, 2.55848421e-03, 1.27459166e-03, 7.63382763e-04,
          5.44007169e-04, 7.17681192e-04, 5.74122299e-04, 6.71129092e-04,
          6.13768701e-04, 8.93558550e-04, 3.45459150e-04, 3.86911532e-04,
          4.81903669e-04, 4.98593203e-04, 3.42548476e-04, 5.19583933e-04,
          6.05423818e-04, 5.23602881e-04, 2.61845416e-04, 4.83934069e-04,
          4.56182403e-04, 3.63942352e-04, 4.81127820e-04, 5.97917475e-04,
          2.03254924e-04, 4.54354682e-04, 2.57894193e-04, 3.53188429e-04,
          3.10480391e-04, 4.77034017e-04, 3.30274779e-04, 4.48197068e-04,
          -1.66354154e-03, -3.69080296e-03, -3.60583840e-03,
          -1.72331312e-03, -1.34724181e-03, -1.36941893e-03,
          -1.33393053e-03, 1.42659454e-04, -7.31811451e-04,
          -7.29069056e-04, -9.75534553e-04, -3.57531919e-03,
          -3.81479622e-03, -4.34051221e-03, -1.68008171e-03,
          -2.53151008e-03, -2.71950266e-03, -1.96516700e-03,
          -1.30839716e-03, -5.11744583e-04, -3.86151863e-04,
          -5.10367041e-04, -7.29564985e-04, -7.80833594e-04,
          -1.02790201e-03, -1.02407811e-03 ]
      - [ -1.09828380e-03, -3.83031467e-04, 4.54747260e-06,
          -4.28243337e-04, -1.63344783e-04, 1.90969004e-04,
          -1.07903681e-04, 5.78362233e-05, 1.73040695e-04,
          1.93366013e-05, -2.64835830e-06, 2.52237893e-04,
          1.07157692e-04, 2.70660355e-04, 1.92381776e-04, 8.76391859e-05,
          1.19492754e-04, 1.07596446e-04, 3.77019343e-04, 5.07520686e-04,
          7.51064159e-04, 1.34664332e-03, 1.69032859e-03, 1.53947016e-03,
          1.03865261e-03, 3.53571493e-04, 7.76684843e-04, 2.02295417e-03,
          2.79708812e-03, 5.07881353e-03, 3.01678688e-03, 2.50876392e-03,
          2.66065472e-04, 1.72040658e-03, 2.07350100e-03, 3.91716044e-03,
          4.92622843e-03, 5.14656585e-03, 2.99016805e-03, 1.96056862e-04,
          -3.73016228e-05, -2.93918769e-04, -1.97748392e-04,
          -4.59528092e-04, -2.29852885e-04, -3.93801514e-04,
          -1.55958915e-04, -9.27056753e-05, -4.90871374e-04,
          -3.44721018e-04, -4.32083500e-04, -3.44673375e-04,
          -2.88060197e-04, -2.60603963e-04, -5.64824324e-04,
          -4.94268257e-04, -3.06283095e-04, -2.28878052e-04,
          -5.41713554e-04, -3.10813426e-04, -3.80746351e-04,
          -6.05646637e-04, -2.40770867e-04, -5.22649556e-04,
          -6.53804105e-04, -2.07159042e-04, -5.26782591e-04,
          -4.37700393e-04, -5.55901788e-04, -3.92298127e-04,
          -2.74869584e-04, -2.82327179e-04, -5.55443694e-04,
          -5.82995941e-04, -4.81721305e-04, -4.14037902e-04,
          -4.27726831e-04, -3.39277758e-04, -7.05200713e-04,
          -4.36307484e-04, -5.72903722e-04, -3.75956355e-04,
          -4.77746071e-04, -5.39982226e-04, -3.67760309e-04,
          -5.66131319e-04, -4.99433256e-04, -3.43482709e-04,
          -8.21318070e-04, -4.89216589e-04, -4.26559796e-04,
          -7.00891600e-04, -1.13000034e-03, -9.20892926e-04,
          5.56219136e-04, 1.00141279e-02, 1.07609686e-02, 8.19024444e-03,
          9.44548301e-05, -3.92731454e-04, -2.55085237e-04,
          -3.84689280e-04, -3.48704401e-04, -3.48982896e-04,
          -5.19893190e-04, -2.73345242e-04, -3.14908044e-04,
          -2.98798608e-04, -1.29861780e-03, -1.38803548e-03,
          -1.58734422e-03, -1.80281035e-03, -2.09051790e-03,
          -2.16970756e-03, -3.48314206e-04, -9.07971349e-04,
          -1.10463612e-03, -1.43222569e-03, -2.30458425e-03,
          -2.39902665e-03, -2.41593202e-03, -2.51580030e-03,
          -2.36964761e-03, -2.90978281e-03, -2.29677511e-03,
          -2.29542353e-03, -2.37599877e-03, 8.26344127e-04,
          2.09897012e-03, 3.18489783e-03, 3.97502584e-03, 4.58074501e-03,
          3.23132193e-03, 2.22245674e-03, 9.03574226e-04, 7.31425185e-04,
          8.49204662e-04, 5.62469359e-04, 7.09501910e-04, 4.35479276e-04,
          6.52075571e-04, 7.17168674e-04, 7.12980807e-04, 4.29080887e-04,
          5.22174872e-04, 4.72017593e-04, 6.18034683e-04, 4.67522681e-04,
          4.33279376e-04, 6.21763174e-04, 4.59081493e-04, 3.76852055e-04,
          4.94902313e-04, 4.78203321e-04, 5.06658864e-04, 5.43658447e-04,
          6.90459332e-04, 3.04237648e-04, 4.71320731e-04, 2.74024642e-04,
          4.58458991e-04, 2.10751314e-04, 4.93728090e-04, 3.38506099e-04,
          5.91504155e-04, -1.46825681e-03, -4.65961033e-03,
          -4.53396887e-03, -3.01150163e-03, -1.36093772e-03,
          -1.53043121e-03, -1.32452499e-03, 5.70873708e-05,
          -5.13626146e-05, 1.33582638e-04, -3.41485611e-05,
          -4.33675060e-03, -4.20676079e-03, -5.21173142e-03,
          -1.19823683e-03, -3.11781815e-03, -2.86880997e-03,
          -2.85425503e-03, -6.31956616e-04, -4.24500089e-04,
          -3.77146207e-04, -3.50683666e-04, -5.79287880e-04,
          -9.15465120e-04, -6.06612477e-04, -5.18704706e-04 ]
      - [ -4.27247584e-03, -2.41059018e-03, 1.58982922e-03,
          -3.12088034e-03, -2.06385832e-03, 4.08485677e-04,
          -9.21010738e-04, -3.93418333e-04, 5.17864828e-04,
          -1.32355955e-03, -5.77338971e-04, -1.58282623e-04,
          -5.70072280e-03, -5.86538669e-03, -6.69020228e-03,
          -1.12620194e-03, -1.75180030e-03, -1.76253938e-03,
          2.17991794e-04, 3.09221679e-03, 1.65673625e-03, 5.19403220e-05,
          -1.26290054e-03, 1.32828346e-03, 1.87305675e-03,
          1.16839085e-03, -4.57182841e-06, 1.58611103e-04,
          4.38239798e-03, 4.07385966e-03, 3.01488210e-03,
          -3.15568084e-03, 7.54997192e-04, 1.94769655e-03,
          2.42698775e-03, 1.62149162e-03, 6.00860920e-04, 3.18932603e-03,
          1.73936971e-03, 2.94083590e-03, -4.45869809e-04,
          1.01277698e-03, -1.95659915e-04, -2.18295539e-03,
          -8.57091276e-04, -1.53546594e-03, -5.94503712e-04,
          2.53648555e-04, -1.75944448e-03, -7.42812874e-04,
          -1.19463692e-03, -2.61187949e-03, -3.78502737e-04,
          -8.54972401e-04, -1.43984193e-03, -1.51029241e-03,
          -5.97337843e-04, -2.55250861e-03, -2.05488736e-03,
          -3.67142347e-04, -1.38048222e-03, -8.98160040e-04,
          -6.09631999e-04, -1.26061472e-03, -2.25268444e-03,
          6.93934562e-04, -2.29487498e-03, -2.39295722e-03,
          -1.91801728e-03, -7.19130738e-04, -7.35365436e-04,
          -1.86171371e-03, -1.39078917e-03, -1.48957793e-03,
          -2.37479457e-03, -4.67807404e-04, -5.71755983e-04,
          -1.84011122e-03, -1.01971535e-04, -1.87267072e-03,
          -1.55273860e-03, -1.15115743e-03, 1.26286788e-04,
          -7.44595367e-04, -7.61335657e-04, -1.03850418e-03,
          -6.36856712e-04, 6.01616455e-04, -1.40380405e-03,
          5.99886291e-04, 2.98955041e-04, -3.17091413e-04,
          5.72711579e-04, 8.47151328e-04, 6.15137722e-03, 5.12006832e-03,
          5.12006832e-03, -3.05577135e-03, 1.02126133e-02,
          1.06471367e-02, 1.14373555e-02, -1.45297102e-03,
          -2.87711062e-03, -1.97258941e-03, -2.98065436e-03,
          -1.19840109e-03, -1.96379144e-03, -1.38129888e-03,
          -6.60943508e-04, -1.28612516e-03, -2.53961468e-03,
          -8.27695476e-04, -1.58858369e-03, -6.58640463e-04,
          -1.34189427e-03, -9.27545188e-04, -3.53482901e-05,
          -1.50523172e-03, -1.66308507e-03, -8.23364244e-04,
          -1.66952936e-03, -1.56220677e-03, 1.78002098e-04,
          -1.11154950e-04, -1.18291820e-03, -2.34260899e-03,
          -1.98215537e-04, -4.50136431e-04, -2.65123206e-04,
          -6.41999868e-05, -1.52867797e-04, -6.69386121e-04,
          -3.43116786e-04, -1.62115582e-04, -1.42162622e-04,
          4.91772313e-04, 9.50710673e-04, -6.08768314e-04,
          6.66805194e-04, 1.35092367e-03, -1.92580061e-04,
          1.78885541e-03, 1.57899677e-03, 1.09457333e-05,
          -3.02193570e-04, 1.49469776e-03, 1.80668384e-03,
          1.08560419e-03, 1.02876441e-03, 2.63033132e-03, 1.76783733e-03,
          -1.35807181e-03, 1.73220935e-03, 1.49696856e-03,
          1.95251557e-03, 2.03504646e-03, 3.26548377e-03, 4.59033821e-04,
          1.15947600e-03, 3.32465861e-04, 1.70035078e-03, 9.98300267e-04,
          1.87820045e-03, 2.02560099e-03, 1.95030333e-03,
          -9.21456609e-03, -1.34030478e-02, -1.61203071e-02,
          -7.71332160e-03, -1.19535914e-02, -1.71029661e-02,
          -1.65558737e-02, -7.57109234e-03, -1.26827145e-02,
          -1.16905104e-02, -1.09068323e-02, -1.63701847e-02,
          -1.48979602e-02, -1.94107983e-02, -1.00269644e-02,
          -1.57467239e-02, -1.37366727e-02, -1.38144400e-02,
          -4.43785591e-03, -3.10913520e-03, 8.39884277e-04,
          1.79450726e-04, 5.35568455e-04, -9.60820820e-04,
          -4.09891829e-04, 1.00687926e-03 ]
      - [ -1.39314181e-03, -1.26059051e-03, 3.94081551e-04,
          -8.99924489e-04, -1.56677328e-04, 5.74860140e-04,
          -2.84871727e-04, -5.74574107e-04, -2.97769731e-07,
          7.72161933e-04, -3.86852364e-04, 1.94751527e-04,
          -5.02467330e-04, 1.78935181e-04, 1.05377476e-04,
          6.97224110e-04, -2.77558836e-04, -2.86834373e-04,
          1.01358244e-04, 2.55473075e-03, 2.82370206e-03, 4.53132577e-03,
          4.07157885e-03, 4.22772672e-03, 2.67332350e-03, 5.46002702e-04,
          2.28057103e-03, 4.97550005e-03, 7.02480273e-03, 1.16064623e-02,
          8.26819055e-03, 4.72984603e-03, 2.01437259e-04, 3.40231089e-03,
          3.34998965e-03, 5.96662797e-03, 6.33434160e-03, 8.06052517e-03,
          5.96407102e-03, 1.15056406e-03, -1.69522443e-03,
          -2.31128372e-03, -2.02201400e-03, -3.54598532e-03,
          -2.60588457e-03, -2.86608608e-03, -2.04892494e-04,
          9.29683913e-04, 1.02529395e-03, 1.40636810e-04, 5.64084796e-04,
          4.67749021e-04, -5.06075565e-04, -5.64707909e-04,
          -5.67618234e-04, -2.86152062e-04, -4.44904872e-04,
          -8.10326310e-04, -3.58731137e-04, -3.88820306e-04,
          -4.07772954e-04, -1.18679623e-03, -3.76671756e-04,
          -1.35898590e-03, -1.11110823e-03, -5.89293370e-04,
          -1.48253620e-03, -1.23524666e-03, -9.19993676e-04,
          -5.23670227e-04, -9.18728765e-04, -7.15630653e-04,
          -1.18556269e-03, -6.87137945e-04, -1.41344138e-03,
          -1.73577957e-03, -4.59131494e-04, -9.24324791e-04,
          -1.98360230e-03, -1.00319623e-03, -1.69628137e-03,
          -4.63152683e-04, -4.97619272e-04, -2.04418320e-03,
          -1.08505099e-03, -7.83943397e-04, -1.61882467e-03,
          -1.60123780e-03, -1.93455303e-03, -6.08593342e-04,
          -1.63694622e-03, -1.68149034e-03, -2.14907317e-03,
          -2.15434399e-03, -1.50068675e-03, 1.00060999e-02,
          1.00060999e-02, 7.10746599e-03, -9.25940752e-04,
          -2.39979709e-04, -5.46779833e-04, 6.19242375e-04,
          -1.87291284e-04, 4.05306579e-04, -2.94688100e-04,
          2.87967967e-04, -2.83030386e-04, 5.67764218e-04,
          -3.00676242e-04, -7.08704931e-04, 2.60041037e-04,
          -1.75499386e-04, -3.83477105e-04, -7.68372702e-05,
          5.20135400e-05, 5.77707891e-04, 1.90915671e-05, 2.81899440e-04,
          -1.09436070e-04, -1.22485551e-04, -3.80667247e-04, 0.,
          2.88718235e-04, -8.25492025e-04, 0., -1.07750617e-04,
          -7.01373036e-04, 6.55469485e-05, -7.52983397e-05,
          1.60899915e-04, -1.77037742e-04, -2.21495909e-04,
          -6.25863497e-04, -5.75915095e-04, -5.14986517e-04,
          -4.54535795e-04, -2.46869866e-04, -8.93801043e-04,
          -8.39900167e-04, 9.85923922e-04, 1.38656714e-03,
          2.78393272e-03, 4.53785807e-03, 2.04127189e-03, 2.02872837e-03,
          1.95724797e-03, 2.25388655e-03, 2.37691565e-03, 1.50151365e-03,
          2.80890218e-03, 2.16866634e-03, 1.53617351e-03, 2.00561853e-03,
          1.23108912e-03, 1.52463652e-03, 1.93067279e-03, 1.82464567e-03,
          5.77409635e-04, 1.31450128e-03, 7.93058018e-04, 1.00528833e-03,
          9.85953258e-04, 1.42126658e-03, 1.02027156e-03, 1.56463182e-03,
          -5.06312028e-03, -1.03636896e-02, -1.05051007e-02,
          -4.90989769e-03, -3.83689161e-03, -3.39669711e-03,
          -3.20826424e-03, 7.65312987e-04, -2.07869778e-03,
          -2.09129811e-03, -2.48930673e-03, -1.05684418e-02,
          -1.16451783e-02, -1.24883372e-02, -4.87329997e-03,
          -6.67076698e-03, -7.71376677e-03, -5.37279015e-03,
          -4.33991291e-03, -1.04280235e-03, -6.66417938e-04,
          -1.84887974e-03, -1.65113481e-03, -2.59641372e-03,
          -1.39119243e-03, -2.85380566e-03 ]
      - [ -8.91442352e-04, 6.48554298e-04, 3.60330232e-05,
          -1.39798468e-03, 8.21458816e-04, 5.26840275e-04,
          -3.99609125e-04, 6.47169712e-04, -2.59581720e-04,
          -7.47364029e-05, 4.03998361e-04, 4.22510377e-04,
          1.30519402e-04, 1.17176074e-04, 2.11073871e-04, 3.45386798e-04,
          -2.18458328e-04, 3.64980137e-04, 1.61091288e-04,
          3.20365699e-03, 3.11942259e-03, 4.04926669e-03, 3.38464486e-03,
          3.16752470e-03, 2.24849209e-03, 4.39622163e-05, 1.73300563e-03,
          4.35433956e-03, 7.32049393e-03, 9.75075644e-03, 6.80782599e-03,
          4.11476474e-03, -1.12758944e-05, 2.86250911e-03,
          4.16432368e-03, 4.41908324e-03, 1.96706341e-03, 5.30073652e-03,
          5.01949666e-03, 3.33088031e-03, -7.33659021e-04,
          -5.65613620e-04, -1.27847109e-03, -1.20080053e-03,
          -1.01311156e-03, -9.35847871e-04, -2.02423544e-03,
          -1.22034061e-03, -1.24226033e-03, -5.91922377e-04,
          -1.52070809e-03, -1.60894392e-03, -1.72535889e-03,
          -1.83578290e-03, -3.05982633e-03, -1.51542493e-03,
          -2.03867606e-03, -3.75705282e-03, -1.77238067e-03,
          -8.56525544e-03, -9.46536101e-03, -1.06717162e-02,
          -5.72501123e-03, -4.73516108e-03, -4.24329238e-03,
          -2.13041087e-03, -3.18156817e-04, -5.14844491e-04,
          1.16529502e-03, -9.31662798e-05, 2.68676132e-03,
          2.38281372e-03, 3.02412524e-03, 1.21402799e-03, 8.15413019e-04,
          1.66252453e-03, 2.30525015e-03, 3.61732709e-05, 5.47984266e-04,
          3.99527955e-04, -5.20413487e-05, 8.67659226e-04,
          2.00031500e-04, 7.70319544e-04, 2.98227387e-04, 1.25419814e-03,
          1.29881327e-03, 2.14720867e-03, 1.68841111e-03, 2.81854416e-03,
          2.36072607e-04, 4.33566311e-05, -9.15435448e-05,
          1.92170221e-04, -1.69805193e-04, 1.45106795e-04,
          1.64997403e-03, 1.41936762e-03, -6.60805963e-04,
          -6.38014346e-04, 3.03218869e-04, 8.96013342e-04,
          -7.09163491e-04, 1.18990079e-03, -3.96854797e-04,
          4.12551308e-04, -3.41170380e-04, 7.12733367e-04,
          8.83967965e-04, -7.28447514e-04, 3.48490517e-04,
          -1.31845718e-05, 4.95368258e-05, 1.17253687e-03,
          1.52904075e-04, -9.75080911e-05, 5.30917197e-04,
          -4.57903312e-04, 5.34679624e-04, 1.99546703e-04,
          -1.94248409e-04, 8.00712041e-06, 5.96199126e-04,
          1.10578818e-04, 9.76807059e-05, 1.47752537e-04, 7.36031288e-05,
          6.97630894e-05, 4.94622160e-04, 2.29045370e-04, 2.67525349e-04,
          3.86554457e-04, 1.65403821e-04, 3.47017864e-04, 3.09604016e-04,
          3.95478972e-04, 6.98053744e-04, 4.35534370e-04, 4.24675440e-04,
          4.54832101e-04, 5.30322606e-04, 8.35116196e-04, 9.89304390e-04,
          5.46992174e-04, 2.43663933e-04, 4.06756357e-04, 1.86621066e-04,
          6.82900369e-04, 6.45723485e-04, 8.43477785e-04, 6.71330956e-04,
          2.88887997e-04, 8.97234539e-04, 9.07697657e-04, 1.00728788e-03,
          2.61873298e-04, 1.37042161e-03, 3.33676871e-04, 3.20138381e-04,
          6.52124290e-04, 2.05615899e-04, 1.91815445e-04, 3.71915288e-04,
          6.94054412e-04, 4.51747590e-04, -4.33049956e-03,
          -6.87314244e-03, -8.50231946e-03, -4.37840912e-03,
          -3.26903490e-03, -3.96095822e-03, -3.60197527e-03,
          -3.91234877e-03, -2.11879960e-03, -2.55462108e-03,
          -3.49319167e-03, -9.97914374e-03, -8.83897673e-03,
          -1.11627225e-02, -4.83667990e-03, -5.95883466e-03,
          -6.56230282e-03, -5.10276249e-03, -4.14201478e-03,
          -1.50767469e-03, -1.14036677e-03, -1.75440975e-03,
          -1.76364568e-03, -2.00365623e-03, -2.29726708e-03,
          -4.14994312e-03 ]
      - [ 7.06450490e-04, 2.29298160e-03, 2.60424567e-03,
          -7.99288449e-04, -7.63620046e-05, -1.31163353e-04,
          2.89309566e-04, -2.04746198e-06, 2.33414161e-04,
          -2.80727225e-04, 1.30779605e-04, -1.27878651e-04,
          2.37422646e-05, -1.28780652e-04, 1.54021967e-04,
          -2.71988451e-04, 2.72845413e-04, 3.93529364e-04,
          2.41425913e-03, 5.01275528e-03, 8.18611868e-03, 6.02852786e-03,
          7.03006564e-03, 9.42902919e-03, 9.32269543e-03, 9.48400702e-03,
          4.76468867e-03, 5.44224586e-03, 7.98733812e-03, 7.90691376e-03,
          7.84140173e-03, 7.81000452e-03, 6.91024959e-03, 6.94649899e-03,
          -6.43686741e-04, -5.91801421e-04, -1.09104451e-03,
          -1.46608800e-03, -2.38332571e-03, -3.92640056e-03,
          -4.02366417e-03, -2.22575711e-03, -1.00315001e-03,
          4.50330350e-04, 3.39496735e-04, 8.76263715e-04, 1.54501153e-03,
          1.51203643e-03, 1.27166335e-03, 3.08993668e-03, 3.32722557e-03,
          3.45618441e-03, 3.49289738e-03, 5.36178518e-03, 4.04524896e-03,
          3.84223205e-03, 1.05612201e-03, -1.06276490e-03,
          -6.04733010e-04, -1.54243957e-03, -4.20748349e-03,
          -2.63804477e-03, -3.89397983e-03, -4.42712149e-03,
          -7.86451995e-03, -7.50731491e-03, -4.49470198e-03,
          -4.10527037e-03, -5.40315034e-03, -4.81704855e-03,
          -5.74325491e-03, -4.74405382e-03, -4.63784859e-03,
          -1.62707671e-04, 2.86614290e-04, -2.54759728e-03,
          -3.04202153e-03, -4.93896101e-03, -5.79280732e-03,
          -5.17235184e-03, -2.52357172e-03, -5.59651999e-05,
          1.83311524e-04, -1.50036300e-03, -3.62417265e-03,
          -3.37950327e-03, -1.95091113e-03, 2.73939193e-04,
          2.50936777e-04, -2.01181319e-04, -1.44222111e-03,
          -1.02360151e-03, -4.33861569e-04, 8.84532987e-04,
          1.29378261e-03, 7.08059291e-04, -2.46175751e-03,
          -1.68151082e-03, -1.38927356e-03, -1.48687186e-03,
          -1.17450487e-03, -8.64835107e-04, -3.90526722e-04,
          -4.15588263e-04, -4.42326127e-04, -1.61146163e-04,
          -5.62739850e-04, -2.39345274e-04, -4.09028362e-05,
          -1.83899625e-04, -7.51566622e-05, -5.99693631e-05,
          -1.37049617e-04, 3.07768467e-04, -2.65715789e-04,
          1.57691557e-05, 2.17173234e-04, 4.27526655e-04,
          -2.28713849e-04, 1.98308684e-04, 2.92085315e-04,
          7.48826482e-04, 7.23511084e-06, 2.99445004e-04,
          -4.45649166e-05, 6.35039818e-04, 3.04994901e-04,
          6.42385276e-04, 4.21612960e-04, 8.28917138e-04, 9.48623812e-04,
          8.36769177e-04, 7.91966275e-04, 1.03269482e-03, 3.41115665e-04,
          5.11885097e-04, 7.57409842e-04, 7.80148723e-04, 4.28726373e-04,
          3.03787732e-04, 2.10173501e-04, 8.60459870e-04, 1.00329080e-05,
          1.50019920e-03, 3.12190794e-04, 2.06357962e-03, 9.37386358e-04,
          1.08987116e-03, 9.66026390e-04, 7.01305922e-04, 6.52472489e-04,
          1.13807386e-03, 4.83040552e-04, 8.41308094e-04,
          -1.71315492e-04, -3.69180460e-04, -9.44730535e-04,
          -3.37301870e-04, 9.00372397e-04, 9.33390751e-04,
          4.32283385e-04, -7.93528452e-04, -3.34520475e-04,
          -7.11260218e-05, -1.36670395e-04, 3.37432721e-04,
          -4.56041656e-03, -4.22458397e-03, -4.30629635e-03,
          2.44579540e-04, 3.30538285e-04, 5.66272764e-04, 7.02683814e-04,
          1.65011268e-04, 3.21497122e-04, 6.20216189e-04, 7.03463214e-04,
          5.01726405e-04, 9.06058995e-04, 7.57970149e-04, 7.34574453e-04,
          1.01500563e-03, 7.99527916e-04, 1.18707959e-03, 8.57050763e-04,
          -1.15718949e-03, -5.08853234e-04, 2.06282522e-04,
          8.98688013e-05, 2.49463861e-04, 4.38062489e-05 ]
      - [ 1.61574967e-03, 2.78710434e-03, 4.46668500e-03,
          -4.64288387e-05, 8.64055881e-04, -1.09117689e-04,
          -1.29268374e-04, -5.95516991e-04, -2.12288196e-05,
          -1.72407323e-04, -2.64022470e-04, -2.12882791e-04,
          -1.61172269e-04, -1.61486561e-04, -3.88364715e-04,
          3.61311031e-05, 1.43584490e-04, -6.34357348e-05,
          1.02286402e-03, 3.13434191e-03, 5.05593233e-03, 4.00764635e-03,
          4.92100045e-03, 7.25872722e-03, 7.43404683e-03, 5.51141333e-03,
          2.49678316e-03, 4.28619841e-03, 5.30518498e-03, 5.59505774e-03,
          5.91416704e-03, 6.88446313e-03, 4.32890421e-03, 2.24738987e-03,
          -7.34543661e-04, -7.30555621e-04, -4.63008066e-04,
          -1.60730048e-03, -1.62919087e-03, -2.34458852e-03,
          -3.83621943e-03, -4.09829011e-03, -2.92070885e-03,
          -5.75093378e-04, -8.09569829e-05, -1.17396156e-03,
          -7.06974941e-04, -7.85583979e-04, -4.16517054e-04,
          -1.32965390e-03, -2.43714289e-03, -2.44016317e-03,
          -1.84163731e-03, -2.02180864e-03, -2.99703330e-03,
          -2.93578394e-03, -3.53397382e-03, -2.15983833e-03,
          -1.80335436e-03, -1.40910624e-05, -5.88183284e-05,
          -1.57714763e-04, -1.28888234e-04, -4.21262957e-05,
          -2.77513498e-03, -3.01885721e-03, 4.16410243e-04,
          4.10744862e-04, 6.94819086e-04, -2.24554259e-03,
          -7.70921062e-04, -7.76994973e-04, -6.87024323e-04,
          3.27951217e-04, 1.82640040e-04, -2.29439713e-04,
          3.78033059e-04, -9.74266557e-04, -2.83402973e-03,
          -2.00444204e-03, 2.26990800e-04, 2.80312332e-03,
          3.95669928e-03, 1.77650736e-03, 3.26992059e-03, 1.19466370e-03,
          2.44695460e-03, 4.68611659e-04, -2.46722717e-04,
          4.01383950e-05, 2.01073257e-04, -1.88183098e-04,
          2.68553704e-05, 1.73630804e-04, 2.31724029e-04, 3.55550717e-03,
          1.92779338e-03, 2.30822782e-03, -1.60646869e-05,
          -1.37568882e-03, -1.10322481e-03, -6.20094652e-04,
          -2.53064022e-03, -3.03862244e-03, -3.35230865e-03,
          -1.70190923e-03, -4.00769338e-03, -4.87164035e-03,
          -6.44600531e-03, -5.59798768e-03, -8.64518620e-03,
          -7.08266301e-03, -5.09000802e-03, -3.08562710e-04,
          -4.35248745e-04, 4.26949191e-06, -1.14993156e-04,
          1.55569476e-04, -1.86279955e-04, -3.14470701e-04,
          3.82962098e-05, 2.71161048e-06, 3.74731026e-04, 4.86883888e-04,
          9.69662971e-04, 1.37814542e-03, 2.65472662e-03, 3.05198994e-03,
          3.97950085e-03, 4.91284765e-03, 5.60361007e-03, 4.34451969e-03,
          3.67123517e-03, 3.82386730e-03, 4.22271620e-03, 2.48887739e-03,
          1.04359619e-03, 1.02038309e-03, 1.41529180e-03, 7.88080564e-04,
          3.51382769e-04, -6.24299981e-04, -8.12449784e-04,
          -2.36794411e-04, -5.06517012e-04, -3.48973525e-04,
          -3.70789989e-04, -3.52989067e-04, -9.31844115e-05,
          -5.10063801e-05, -2.31359245e-05, -3.92507325e-04,
          -3.14427074e-04, 2.12578507e-05, -5.58044085e-05,
          -5.61416236e-05, -1.18417563e-04, -4.88615624e-05, 0., 0., 0.,
          0., 0., 0., -1.27965366e-04, 0., 0., -4.51975466e-05,
          1.00924495e-04, -1.32650486e-04, -1.79152834e-04,
          1.91613472e-05, 8.23874288e-05, -1.12217247e-04,
          4.31797489e-05, -6.55794283e-05, -1.50850465e-04,
          -1.06646126e-04, 1.52204375e-05, 1.37336552e-04,
          -1.55832109e-04, 1.76787638e-04, -3.38399041e-05,
          2.04326105e-04, -1.15232877e-04, -1.33001435e-04,
          3.11862997e-04, -1.58229755e-04, -9.31994437e-05,
          -4.82334552e-04, 4.49737505e-04 ]
      - [ -1.79245963e-03, -3.71358212e-04, -6.09489740e-04,
          -3.66772758e-04, -2.75211205e-04, 6.65520274e-05,
          1.16786709e-04, 8.67928102e-05, 4.54817084e-04, 6.80572848e-05,
          -1.06945205e-04, 4.81316616e-04, 1.85623474e-04,
          2.86912633e-04, 4.81950497e-04, 1.45318627e-04, 2.07692152e-04,
          1.74820307e-04, 1.02290488e-03, 1.56599795e-03, 4.31618793e-03,
          4.08326136e-03, 3.71699338e-03, 3.70931160e-03, 3.80214932e-03,
          3.76173854e-03, 3.31630837e-03, 3.85002047e-03, 7.93111976e-03,
          6.21006498e-03, 6.00147340e-03, 7.11104600e-03, 5.84908808e-03,
          5.50292898e-03, -1.55260219e-04, -6.77961449e-04,
          -3.82546539e-04, -1.13808888e-03, -1.32626004e-03,
          -2.25785258e-03, -1.59655977e-03, -1.18572125e-03,
          -3.39517283e-04, 1.10605703e-04, 8.88325212e-06,
          1.11193403e-04, 6.68082677e-04, 8.80476902e-04, 1.10386498e-03,
          1.78162789e-03, 1.43072847e-03, 1.68327999e-03, 2.52970704e-03,
          3.41673149e-03, 1.65594090e-03, 1.33281620e-03, 4.60989599e-04,
          8.12649378e-04, 3.22520005e-04, 2.95269216e-04,
          -2.82361312e-03, -2.79596564e-03, -2.78682425e-03,
          -3.01669561e-03, -5.51890070e-03, -5.60431555e-03,
          -3.30646941e-03, -2.17712228e-03, -3.89781198e-03,
          -5.18775266e-03, -3.77881108e-03, -2.55665183e-03,
          -1.35135444e-04, -3.94129951e-04, -1.41539247e-04,
          -9.02931904e-04, -2.92568211e-03, -3.01641761e-03,
          -3.77567066e-03, -1.68655592e-03, -1.24874664e-03,
          -3.93755909e-04, -5.35235391e-04, -2.70236703e-03,
          -3.31788301e-03, -3.68139963e-03, -3.13993747e-04,
          -7.98583278e-05, -6.68814639e-04, -1.95719374e-04,
          -1.13622737e-04, -3.75386531e-04, -6.71640038e-04,
          -2.05546618e-04, -2.57771491e-04, 9.04444605e-03,
          6.46383129e-03, 6.68261107e-03, 4.14456183e-04,
          -4.41350567e-04, -6.50919566e-04, -6.84873841e-04,
          -2.88173207e-04, -6.89552049e-04, -6.10673102e-04,
          -6.44107466e-04, -5.18192188e-04, -6.66997104e-04,
          -1.29843247e-03, -8.83753528e-04, -1.88378512e-03,
          -1.36663753e-03, -1.65810518e-03, -2.36992911e-03,
          -3.70450929e-04, -5.72417979e-04, -1.04126870e-03,
          -1.23663968e-03, -2.17921310e-03, -2.26421771e-03,
          -2.10499368e-03, -2.24100892e-03, -2.13184534e-03,
          -2.66089314e-03, -1.91747909e-03, -2.03750771e-03,
          -2.14302540e-03, 2.16535130e-03, 2.39289482e-03,
          2.99508497e-03, 3.65058077e-03, 4.37175203e-03, 3.22993333e-03,
          2.04677810e-03, 1.24502624e-03, 9.15084558e-04, 1.00708613e-03,
          7.87746103e-04, 1.05112197e-03, 5.14900719e-04, 8.24265822e-04,
          -5.54815750e-04, -7.89179932e-04, -2.14484753e-04,
