%YAML:1.0
---
opencv_ml_svm:
   format: 3
   svmType: C_SVC
   kernel:
      type: LINEAR
   C: 1.
   term_criteria: { iterations:100 }
   var_count: 96
   class_count: 10
   class_labels: !!opencv-matrix
      rows: 10
      cols: 1
      dt: i
      data: [ 0, 1, 2, 3, 4, 5, 6, 7, 8, 9 ]
   sv_total: 45
   support_vectors:
      - [ -1.08954022e-02, -2.32523866e-03, 2.43354752e-03,
          7.38787511e-03, 4.34375554e-03, -1.19542275e-02,
          -9.12634004e-03, -2.83992966e-03, 3.67483211e-04,
          3.34408367e-03, -2.34511625e-02, -1.89571828e-02,
          -1.40416753e-02, 0., -3.07342806e-03, 0., -1.63628608e-02, 0.,
          -2.82671186e-03, 0., 0., 0., 0., 0., 0., 0., 0., 0., 0.,
          2.82671186e-03, 0., 0., 0., 3.07342806e-03, 2.00348860e-03,
          2.82671186e-03, 2.25020479e-03, 3.07342806e-03, 2.00348860e-03,
          5.07691689e-03, 4.25318768e-03, 2.39530709e-02, 1.29705518e-02,
          7.32712168e-03, 2.54783742e-02, 2.30820701e-02, 1.47741735e-02,
          -1.19877579e-02, 4.89703827e-02, -2.69946363e-02,
          -1.52307497e-02, -1.01538338e-02, -5.32363309e-03,
          -7.08040548e-03, -7.90362898e-03, -2.00348860e-03,
          -5.07691689e-03, -5.07691689e-03, -3.07342806e-03,
          -2.00348860e-03, -3.07342806e-03, -2.00348860e-03,
          -2.46716168e-04, -2.82671186e-03, 0., 0., 0., -2.82671186e-03,
          0., 0., 0., 0., 0., 0., 0., 0., 0., 0., 2.82671186e-03, 0., 0.,
          2.46716168e-04, 2.82671186e-03, 2.00348860e-03, 3.07342806e-03,
          2.25020479e-03, 2.82671186e-03, 2.25020479e-03, 5.07691689e-03,
          2.28826255e-02, 7.68315233e-03, 7.78432004e-03, 1.01538338e-02,
          2.33266428e-02, 2.09592730e-02, 1.94207989e-02 ]
      - [ 3.08345445e-03, 1.71420246e-03, -8.50315264e-04,
          -8.49496864e-04, -4.74233151e-04, -9.91060282e-04,
          7.23142235e-04, -1.71420246e-03, -9.91060282e-04,
          -8.89037829e-03, -9.02903266e-03, -2.23102956e-03,
          -1.73092987e-02, -1.74254458e-02, -2.93701142e-03,
          -2.72997568e-04, -1.18309278e-02, -1.03185643e-02,
          1.87803875e-03, 1.17328693e-03, 2.04076245e-03, 2.86340085e-03,
          1.10133400e-03, 2.58402061e-03, 3.23120970e-03, 2.49090721e-03,
          3.40431649e-03, 3.49742989e-03, 2.49090721e-03, 2.88748951e-03,
          3.55099235e-03, 3.03182285e-03, 2.77428771e-03, 5.79918223e-03,
          3.59224109e-03, 3.99475405e-03, 5.78202214e-03, 3.47903953e-03,
          5.45311952e-03, 5.76251931e-03, 4.91220411e-03, 3.03182285e-03,
          7.30068702e-03, 4.67541767e-03, 6.43086899e-03, 7.20991613e-03,
          7.06324028e-03, -3.56964730e-02, 7.14261769e-05,
          1.45432493e-03, 5.60418412e-04, -2.34243703e-06,
          1.14919839e-03, -1.49984693e-03, 3.26560024e-04,
          1.71420246e-03, -8.93906516e-04, -1.33712310e-03,
          -1.52393547e-03, 0., -2.23102956e-03, 0., 0., -3.12493625e-03,
          -8.86978407e-04, -5.43258036e-04, -1.68777164e-03,
          -9.13409342e-04, -2.60118092e-03, -2.04076245e-03,
          -2.95417197e-03, -2.49090721e-03, -1.97115215e-03,
          -4.29018261e-03, -1.80038775e-03, -4.46205912e-03,
          -3.21404939e-03, -3.59224109e-03, -2.93008331e-03,
          -3.94523237e-03, -3.12493625e-03, -3.56815266e-03,
          -1.69011403e-03, -3.48196737e-03, 2.01954991e-02,
          -1.63836172e-04, -2.31102295e-03, 1.57537218e-02,
          4.39176190e-04, 5.32875129e-04, 1.58485919e-02, 2.03682501e-02,
          2.23102956e-03, 3.94523237e-03, 6.32293755e-03, 5.82327088e-03 ]
      - [ 3.03193135e-03, 3.64749040e-03, -5.19951514e-04,
          -1.90484920e-03, -1.82389864e-03, -9.76126059e-04,
          -2.56896194e-04, -9.00993880e-04, -1.22110443e-02,
          -1.70874372e-02, -1.71370395e-02, -1.84369320e-03,
          -2.17035096e-02, -2.04483718e-02, -9.06866975e-03,
          1.69889955e-03, 2.36968091e-03, 6.11549895e-03, 7.16412487e-03,
          1.39556117e-02, 1.57910306e-02, 3.77222500e-03,
          -4.56440961e-03, -4.57259500e-03, -1.56816505e-02,
          -1.63558647e-02, -7.99443573e-03, -5.20800287e-03,
          -2.97180680e-03, -1.88418524e-03, -1.75450637e-03,
          -1.31331978e-03, 2.10661702e-02, 1.53095480e-02,
          1.55212050e-02, 9.13807936e-03, 3.85509571e-03, 1.66416503e-02,
          1.49592822e-02, 2.01618625e-03, 2.08258745e-03, 8.35396757e-04,
          1.87161267e-02, 1.63647486e-03, 2.57085776e-03, 6.55357944e-05,
          -2.75357650e-03, -1.55821349e-02, 6.55635202e-04,
          1.67101109e-03, 1.35248632e-03, 2.25765703e-04, 1.42563996e-03,
          -2.36490811e-03, -9.21571847e-19, 8.54467100e-04,
          -2.04651477e-03, -1.37480593e-03, -1.16841355e-03,
          -1.22413284e-03, -1.46964169e-03, -1.83930749e-03,
          -1.58763933e-03, -3.18872277e-03, -1.68731983e-03,
          -2.42606411e-03, -3.49414418e-03, -4.55198949e-03,
          -3.49745667e-03, -3.15256510e-03, -2.36034370e-03,
          5.60275093e-03, 6.34469558e-03, 6.27789088e-03, 4.23145574e-03,
          2.59632268e-03, 2.23537139e-03, 2.02776585e-03, 9.42608342e-04,
          3.76360258e-04, 6.13741984e-04, 0., 1.46964169e-03,
          1.22413284e-03, 0., 1.89109612e-03, -1.04006019e-03,
          9.90102300e-04, 7.27546227e-04, -4.73721098e-04,
          -2.59553757e-03, 1.08372502e-03, -1.04109477e-03,
          -1.73392659e-03, -1.92705076e-03, -2.86232028e-03 ]
      - [ -1.25380456e-02, -3.99095286e-03, -3.98844900e-03,
          -1.44617353e-03, -2.43224378e-04, -5.16474829e-04,
          -1.36242807e-03, 1.06106361e-03, 8.67361738e-19,
          1.74753799e-03, 1.12170761e-03, 8.67361738e-19, 2.05140631e-03,
          6.63372746e-04, 2.20587268e-03, 2.86924560e-03, 3.17060994e-03,
          4.10369888e-04, 2.15751119e-03, 2.05140631e-03, 3.98844900e-03,
          2.59388308e-03, 3.14460788e-03, 2.48738145e-03, 3.17060994e-03,
          3.68708465e-03, 2.05140631e-03, 2.56788102e-03, 4.23167367e-03,
          2.21855170e-03, 3.30271688e-03, 8.17839231e-04, 8.17839231e-04,
          -2.82918792e-02, 0., -2.75118165e-02, -2.69886944e-02,
          2.86924560e-03, 2.50723725e-03, 1.42307195e-03, 1.80818187e-03,
          2.86924560e-03, 6.03985554e-03, 4.66764905e-03, 5.05275885e-03,
          1.53044425e-02, 1.29231606e-02, 2.44582985e-02, 2.59920694e-02,
          -1.43462270e-02, -8.60773679e-03, -5.73849119e-03,
          -2.86924560e-03, -5.37648285e-03, -3.23125394e-03,
          -2.50723725e-03, -3.62008344e-04, -2.86924560e-03,
          -2.86924560e-03, 0., -2.86924560e-03, 0., -2.50723725e-03,
          -3.62008344e-04, 0., -1.44617353e-03, 0., -1.42307195e-03, 0.,
          0., 0., 0., 0., 0., 0., 0., 0., 1.06106361e-03, 9.47632734e-03,
          0., 1.39106233e-02, 0., -1.22730678e-03, 1.44617353e-03,
          -7.69124692e-03, -8.36789794e-03, 1.80818187e-03,
          1.06106361e-03, 2.86924560e-03, 2.86924560e-03, 2.86924560e-03,
          2.86924560e-03, 6.77719526e-03, 5.35412319e-03, 1.46410698e-02,
          1.32851684e-02 ]
      - [ -4.97518899e-03, -2.26077810e-03, -5.20253554e-03,
          -3.90173704e-03, -3.94941168e-03, -2.74418225e-03,
          -1.34814391e-03, -1.42808037e-03, -2.60126777e-03,
          -2.32084258e-03, -1.09976076e-03, -1.06402952e-03,
          -1.23073149e-03, 0., -2.42631137e-03, 2.48383236e-04,
          1.05468913e-04, 0., 0., 0., 5.42946509e-04, 1.19435763e-05,
          -7.02152203e-04, 4.69562256e-05, -5.36509836e-03,
          -5.34199877e-03, -9.68617015e-03, -2.18350702e-04,
          -1.89094368e-04, -1.89094368e-04, -2.92563418e-05,
          -1.89094368e-04, 4.06081614e-04, 2.72246893e-03,
          4.45504533e-03, 4.66733938e-04, 1.10462978e-02, 2.13668798e-03,
          1.64643105e-03, 2.81961868e-03, 2.52724951e-03, 7.95372669e-03,
          4.51198639e-03, 3.17086419e-03, 3.28755798e-03, 6.04038918e-03,
          5.21741668e-03, -3.51230539e-02, 5.11440188e-02,
          -1.48744006e-02, -7.55542051e-03, -5.21447929e-03,
          -3.96354962e-03, -8.24950635e-03, -1.02030588e-02,
          -7.48353917e-03, -2.84965103e-03, -2.60126777e-03,
          -2.53178040e-03, -1.74956454e-04, -2.42631137e-03,
          4.74652834e-03, 6.87286811e-05, -7.56357447e-04,
          3.32599669e-03, 1.37545681e-03, 4.33930615e-03, 1.51722529e-03,
          9.27322486e-04, 8.19420849e-04, 7.85184384e-04, 5.84146415e-04,
          5.24857547e-04, 2.30294288e-04, 2.94563273e-04, 0.,
          2.18350702e-04, 0., 0., 0., 0., 1.17318751e-03, 1.22386753e-03,
          1.74956454e-04, 9.24804248e-04, 2.02906504e-03,
          -4.66733938e-04, 2.01712153e-03, 2.01712153e-03,
          1.02282967e-03, 1.49970746e-03, 3.12138209e-03, 2.85733142e-03,
          2.52626091e-03, 5.99382026e-03, 4.90272045e-03 ]
      - [ -1.18381232e-02, -1.90998055e-03, -1.80399162e-03,
          2.26645893e-03, -2.08642939e-03, 1.52933015e-03,
          -8.00700491e-06, 1.49657106e-04, -5.08686237e-04,
          -5.40215871e-04, 4.30571759e-04, 2.15994572e-04,
          1.90242150e-04, 1.40951527e-03, -8.21845606e-04,
          2.11516535e-03, 1.45014550e-03, 3.56554927e-04,
          -1.28117227e-03, 9.14922915e-04, 9.14922915e-04, 0.,
          9.14922915e-04, 0., 0., 0., 0., 0., 0., 1.61478040e-03,
          6.28501119e-04, 0., 0., 3.14584491e-03, -8.07312899e-04,
          1.72554376e-03, 5.61833614e-04, 5.32866514e-04, 9.34239069e-04,
          2.77370360e-04, 1.48115028e-03, -5.27215598e-04,
          5.16298879e-03, 9.87376901e-04, 2.18524627e-04, 4.04876424e-03,
          3.81350517e-03, -2.37987619e-02, 5.84134981e-02,
          -1.44688962e-02, -1.01947030e-02, -1.11793885e-02,
          -6.73658215e-03, -7.84468930e-03, -7.31222145e-03,
          -9.74575803e-03, -5.47746848e-03, -9.55141056e-03,
          -2.09823325e-02, -3.49028478e-03, -2.37373430e-02,
          -3.45484614e-02, -3.93723231e-03, -4.20325808e-03,
          1.16215721e-02, 2.32890993e-02, 2.18387637e-02, 5.30535635e-03,
          2.49303207e-02, 8.23049806e-03, 5.23656141e-03, 4.15031565e-03,
          4.33444511e-03, 2.65038805e-03, 2.51604035e-03, 2.03801622e-03,
          2.78763589e-04, 0., 1.61478040e-03, 0., 6.28501119e-04,
          1.45484461e-03, 2.11545965e-03, 1.08869758e-03, 2.79086130e-03,
          3.04422155e-03, 5.35183412e-04, 1.21834397e-03, 1.42074306e-03,
          3.05069319e-04, 1.01524696e-03, 2.83208955e-03, 2.34653917e-03,
          7.86520715e-04, 2.30027363e-03, 4.95664030e-03 ]
      - [ -2.09872443e-02, -1.21027119e-02, -7.87625648e-03,
          -1.53876971e-02, -1.82702783e-02, -3.48195694e-02,
          -2.02367492e-02, -3.55280383e-04, -3.64540494e-03,
          -1.71762295e-02, -2.00295690e-02, -2.06733700e-02,
          -1.54833617e-02, 3.11497296e-03, 2.00111626e-05,
          1.17970177e-03, 3.11497296e-03, 3.97183374e-03, 1.27882219e-03,
          2.73494003e-03, 4.22865339e-03, 3.69822164e-03, 5.81050874e-04,
          2.64778477e-03, 2.70775380e-03, 3.84862069e-03, 4.16263239e-03,
          5.96453086e-04, 4.07219020e-04, 4.97177895e-03, 2.70775380e-03,
          3.17436247e-03, 1.76075264e-03, 4.98268055e-03, 3.88184539e-03,
          3.23665701e-03, 7.28133181e-03, 2.11362611e-03, 5.14284521e-03,
          5.75890345e-03, 7.52683077e-03, 3.04410211e-03, 9.98755731e-03,
          7.06006214e-03, 8.49383883e-03, 1.21120848e-02, 1.23048043e-02,
          -1.30616650e-02, 3.56050730e-02, 2.43392009e-02,
          -1.26859602e-02, -9.83802695e-03, -5.64976363e-03,
          -1.08159501e-02, -8.28996766e-03, -3.66541604e-03,
          -9.63095669e-03, -7.87405856e-03, -8.20766203e-03,
          -5.41209523e-03, -4.79188189e-03, -3.51501699e-03,
          -5.08244755e-03, -5.61654801e-03, -2.70995172e-03,
          -4.17583669e-03, -3.22498148e-03, -2.32784869e-03,
          -3.31818871e-03, -4.17803461e-03, -2.70775380e-03,
          -1.51870190e-03, -3.29100247e-03, -2.99833296e-03,
          -3.11717065e-03, -2.11735279e-03, -7.97471090e-04,
          -2.11349851e-03, -3.05267842e-03, -2.49353144e-03,
          -2.64778477e-03, -2.32772110e-03, 9.80675686e-04,
          -6.03628054e-04, 1.59876960e-04, -6.92506670e-04,
          -2.60546542e-04, 8.41597444e-04, 1.91115169e-03,
          3.24536092e-03, -1.50461507e-03, 5.80389844e-03,
          3.67577188e-03, 3.83233605e-03, 1.13263708e-02, 9.86751541e-03 ]
      - [ -3.38876136e-02, -1.70417745e-02, 2.60474486e-03,
          -2.61334493e-03, -5.23920218e-03, -8.18774104e-03,
          8.66074581e-03, 3.35194374e-04, -1.44370301e-02,
          -7.86114763e-03, -5.34014637e-03, -1.70503743e-02,
          -5.34014637e-03, -8.28868523e-03, -1.66142359e-02,
          -2.23905221e-02, -5.34874620e-03, -3.02430689e-02,
          -2.77392678e-02, -3.01421247e-02, -4.48819883e-02,
          -2.64328904e-02, 1.59776229e-02, 4.47810441e-02,
          4.47810441e-02, 3.95332389e-02, 2.23905221e-02, 3.15797478e-02,
          2.23905221e-02, 2.23905221e-02, 9.18922760e-03, 0., 0.,
          1.70503743e-02, 5.34014637e-03, 8.28868523e-03, 1.41018359e-02,
          8.28868523e-03, 7.95349106e-03, -1.70420262e-03,
          -1.05879484e-02, 4.33865981e-03, -3.04088346e-03,
          8.38102959e-03, -1.05879484e-02, 8.08198412e-04,
          1.36288321e-02, -6.22589551e-02, 6.45668209e-02,
          -4.17401604e-02, -9.29017179e-03, 2.70568905e-03,
          -1.80514657e-03, -6.14834437e-03, 1.00944046e-04,
          8.66074581e-03, -7.95349106e-03, -1.44370301e-02,
          -7.86114763e-03, -5.23920218e-03, -1.70503743e-02,
          -5.34014637e-03, -8.38962942e-03, -1.66142359e-02,
          -2.23905221e-02, -1.44370301e-02, -2.11547837e-02,
          -2.76383236e-02, -3.02430689e-02, -4.47810441e-02,
          -2.65338346e-02, 1.60785653e-02, 4.99279015e-02,
          3.95332389e-02, 3.95332389e-02, 2.23905221e-02, 3.15797478e-02,
          2.23905221e-02, 2.23905221e-02, 9.18922760e-03, 0., 0.,
          1.70503743e-02, 5.34014637e-03, 8.28868523e-03, 1.41018359e-02,
          8.28868523e-03, 1.00944046e-04, 6.14834437e-03,
          -1.45293744e-02, -9.09142429e-04, 6.24928856e-03,
          8.28008540e-03, -1.84404962e-02, 4.71931975e-03,
          1.75702572e-02 ]
      - [ -9.41144861e-03, -3.95749509e-03, -3.63680534e-03,
          -2.47967022e-04, -3.75584257e-03, 3.63159517e-04,
          -1.98226864e-03, -2.07885503e-04, -1.81840267e-03,
          -2.17532925e-03, -2.53014616e-03, -1.37867546e-03,
          -3.24147753e-03, 0., -4.26574843e-03, 0., 0., 0.,
          -1.54254143e-03, -2.18156213e-03, 0., -2.09041918e-03,
          -3.48559953e-03, -4.39060619e-03, -2.77426839e-03,
          -5.57601871e-03, -6.25986792e-03, -8.46891198e-03,
          -4.04861048e-02, -2.10864283e-02, -1.62838940e-02,
          -1.49654364e-02, 3.58813186e-03, 6.44731056e-03,
          3.84000433e-03, 2.63655670e-02, 2.91321333e-02, 6.71370886e-03,
          2.57529933e-02, 8.27194657e-03, 5.95713640e-03, 6.47540716e-03,
          1.15938820e-02, 1.25484439e-02, 1.00206258e-02, 1.62961241e-02,
          1.02002192e-02, -5.51545173e-02, 3.42109725e-02,
          -7.79511128e-03, -5.38015738e-03, -3.63680534e-03,
          -1.10125099e-03, -2.10008444e-03, -2.57456233e-03,
          2.47482746e-03, -2.41110893e-03, -2.52973381e-03,
          -7.80148664e-04, -3.26922833e-04, -2.17532925e-03,
          3.56926525e-04, -2.20322353e-03, -1.35119376e-03,
          6.83849328e-04, 0., 0., -1.54254143e-03, 0., 0., 0., 0., 0.,
          0., -1.49771280e-03, -6.83849328e-04, -1.49771280e-03,
          -1.49771280e-03, 1.54254143e-03, -2.18156213e-03,
          -2.80175032e-03, 7.05510611e-04, -8.30368488e-04,
          -1.05216505e-03, -6.44841348e-04, 1.77357416e-03,
          -2.16421532e-03, -5.10520418e-04, 9.13396128e-04,
          -2.92078755e-03, 2.00392981e-03, 6.02371641e-04,
          2.21181521e-03, -2.67240801e-03, 2.79936218e-03,
          2.23882752e-03 ]
      - [ 1.13798734e-02, 3.16385785e-03, -2.11486267e-03,
          -3.14208888e-03, -5.75185753e-03, 9.66116879e-03,
          8.88290163e-03, 8.45356286e-03, -1.19035586e-03,
          -4.40877723e-03, -8.31851177e-03, 0., -1.54131632e-02,
          -1.88284703e-02, -8.49233300e-04, -1.18309203e-04,
          -1.22223590e-02, -9.06134676e-03, 2.21897499e-03,
          1.41204998e-03, 2.57334788e-03, 3.38433962e-03, 1.08210905e-03,
          3.06820846e-03, 3.90134403e-03, 3.22021823e-03, 4.05564159e-03,
          3.90363182e-03, 3.22021823e-03, 3.49540194e-03, 4.27531824e-03,
          3.89152020e-03, 3.13845230e-03, 4.19126451e-03, 4.30232706e-03,
          4.72436706e-03, 4.27531824e-03, 3.94537766e-03, 3.96176428e-03,
          4.53581382e-03, 2.51214742e-03, -8.56151525e-03,
          1.45008776e-03, 2.01971340e-03, -1.00599341e-02,
          -8.42183363e-03, 1.82564266e-03, -2.32154969e-02,
          -1.48819471e-02, 1.70148928e-02, 8.34158249e-03,
          5.46362484e-03, 3.94457905e-03, 3.38513777e-03, 3.13358731e-03,
          2.08335207e-03, 1.54767290e-03, 1.09591882e-03, 6.30483613e-04,
          0., 0., 0., 0., -1.09591882e-03, -9.00802552e-04,
          -4.94860637e-04, -2.14873115e-03, -8.35423532e-04,
          -2.98415474e-03, -2.57334788e-03, -3.40877124e-03,
          -3.22021823e-03, -2.06696521e-03, -5.17519377e-03,
          -1.73622603e-03, -5.28718345e-03, -3.98539752e-03,
          -4.30232706e-03, -3.29770870e-03, -4.72694403e-03,
          -3.73951066e-03, -4.19126451e-03, -4.61588148e-03,
          -4.53839079e-03, 2.10165549e-02, -2.77921464e-03,
          -2.94989930e-03, 1.41708441e-02, -2.56610103e-03,
          -1.51800066e-02, 1.82204917e-02, 2.22916622e-02,
          -1.12181983e-03, -1.15436343e-02, -9.54418164e-03,
          -6.31473842e-04 ]
      - [ 8.87073576e-03, 4.28217510e-03, -4.11653629e-04,
          -3.38759623e-03, -2.19950895e-03, 6.52994215e-03,
          2.70704716e-03, 1.19575090e-03, -7.96117354e-03,
          -1.05979526e-02, -3.06993956e-03, -2.28221688e-04,
          -1.13860220e-02, -1.54120568e-02, -3.46824923e-03,
          1.15723477e-03, 2.43709492e-03, 5.01604099e-03, 6.52005756e-03,
          1.08128050e-02, 1.32782804e-02, 3.16086086e-03,
          -7.04618450e-03, -4.07444173e-03, -1.15682045e-02,
          -1.27871837e-02, -6.55793445e-03, -4.56155976e-03,
          -2.40386324e-03, -1.42521714e-03, -1.61282904e-03,
          -9.02258558e-04, 1.60091799e-02, 8.44420213e-03,
          1.15051540e-02, 6.71800319e-03, 7.30010739e-04, 1.08184228e-02,
          8.28788336e-03, -4.99498739e-04, 4.86780395e-04,
          -9.62520950e-03, 2.11742315e-02, -1.72903168e-03,
          -1.05272150e-02, -1.01681063e-02, -7.44881667e-03,
          -9.48481634e-03, -1.71041545e-02, 1.41674494e-02,
          7.80820195e-03, 4.23359126e-03, 3.68851353e-03, 2.49804696e-03,
          2.28686584e-03, 1.46259984e-03, 4.29514330e-04, 9.79401986e-04,
          1.92590102e-04, 0., 0., -8.24265939e-04, -1.41537015e-03,
          -2.00912403e-03, -1.57618592e-03, -2.06247787e-03,
          -3.20044695e-03, -4.65253135e-03, -4.69583349e-04,
          -1.38223311e-03, -2.00860522e-04, 4.06207610e-03,
          4.85302415e-03, 4.78908746e-03, 3.32378526e-03, 1.81268761e-03,
          1.99625804e-03, 1.36841601e-03, 6.72493363e-04, 3.06908652e-04,
          4.61312127e-04, 0., 0., 0., 0., -9.92268091e-04,
          -1.14667160e-03, -1.51864509e-03, -1.40891632e-03,
          -1.28161516e-02, -4.71486757e-03, -4.59901430e-03,
          -4.20173490e-03, -1.40031977e-02, -1.26737719e-02,
          -1.05621032e-02 ]
      - [ -5.02485316e-03, -4.77645686e-03, -5.53319929e-03,
          -5.93380444e-03, -7.88173266e-03, 1.56995060e-03,
          3.04955780e-03, -8.02448485e-03, -3.83478566e-03,
          -3.76776862e-03, 1.99039727e-02, 1.48707312e-02,
          1.85307264e-02, 3.43739893e-03, 3.11490451e-03, 3.27615160e-03,
          1.81656722e-02, 2.18356401e-03, 4.20749234e-03, 2.36096559e-03,
          4.35258495e-03, 2.18356401e-03, 5.47586987e-03, 1.09258771e-03,
          4.54452960e-03, 4.19133762e-03, 2.36096559e-03, 2.00777384e-03,
          4.54452960e-03, 2.18356401e-03, 2.18356401e-03, 9.15186014e-04,
          9.15186014e-04, -3.80513370e-02, 0., -3.27776335e-02,
          -3.02011389e-02, 0., 0., 0., -3.11437674e-04, -4.98300279e-03,
          -8.81078711e-04, 4.49984189e-04, -7.21062953e-03,
          2.41517811e-03, 2.29638838e-03, 2.29728036e-02,
          -1.10003790e-02, -5.08733501e-04, 0., 0., 0., 0., 0., 0., 0.,
          0., 0., 0., 0., 0., 0., 0., 0., 0., 0., 0., 0., 0., 0., 0., 0.,
          0., 0., 0., 0., 0., 9.83328931e-03, 0., 1.52205350e-02, 0.,
          -4.23830235e-03, 0., -9.83328931e-03, -1.09822322e-02, 0., 0.,
          0., -5.29444078e-03, -6.22875348e-04, -4.19450575e-04,
          5.14069689e-04, -4.18712106e-03, -2.64075206e-04,
          1.47621706e-03 ]
      - [ -5.30479709e-03, -2.01417855e-03, -1.11000063e-02,
          -1.49046024e-02, -1.23058800e-02, 1.46017810e-02,
          5.81196602e-03, 3.74802039e-03, -3.26341600e-03,
          -4.54655709e-03, 7.86442216e-03, 2.29530036e-02,
          5.26792696e-03, 0., 1.00073972e-04, 2.22227012e-04,
          1.60758849e-02, 8.73235913e-05, 0., 0., 6.59788260e-04,
          9.45687134e-05, -3.04042152e-03, -2.85965321e-03,
          -1.02733346e-02, -4.99555236e-03, -9.42618772e-03,
          -5.48153475e-04, -5.33364306e-04, -3.45966750e-04,
          -2.02186726e-04, -3.45966750e-04, 0., 2.22227012e-04,
          3.70281795e-03, 5.93993464e-04, 7.73761049e-03, 1.12577109e-03,
          8.73943209e-04, 6.35477074e-04, -8.82494613e-04,
          -5.59943030e-03, -2.77818530e-03, -2.05994654e-03,
          -2.15677153e-02, -1.19200060e-02, -2.01727310e-03,
          -4.85358201e-02, 5.94806299e-02, 4.28267696e-04,
          2.22227012e-04, -3.42453620e-03, -4.40535456e-04,
          -6.16556173e-03, -1.20816603e-02, -6.62350142e-03,
          -2.22227012e-04, 0., -9.15944984e-05, -9.45687134e-05,
          -5.50526192e-06, 4.22920613e-03, 1.02381140e-03,
          4.44454025e-04, 2.79412139e-03, 1.04443042e-03, 7.27955345e-03,
          5.50977932e-03, 2.43061990e-03, 1.87988940e-03, 1.57723157e-03,
          9.62048944e-04, 1.17861747e-03, 5.48153475e-04, 7.12282374e-04,
          1.00073972e-04, 5.48153475e-04, 8.73235913e-05, 0., 0., 0., 0.,
          -2.02944266e-05, 0., -2.22227012e-04, -6.80082652e-04,
          -6.81317004e-04, -8.67480238e-04, -8.67480238e-04,
          -2.64042336e-02, -4.57213446e-03, -1.50548830e-03,
          -3.24996398e-03, -2.07902621e-02, -1.23654073e-02,
          -4.31475556e-03 ]
      - [ -9.11594369e-03, -7.21318368e-03, -8.19843914e-03,
          -1.42006623e-02, -1.40832253e-02, 1.56250615e-02,
          6.49734307e-03, 3.48817720e-03, -2.88603199e-03,
          -4.72157728e-03, 1.63913984e-02, 2.98696477e-02,
          1.21772243e-02, 1.65011722e-03, 2.10112869e-03, 1.57507020e-03,
          2.27115676e-02, 8.84828856e-04, 2.16625660e-04, 6.96729054e-04,
          6.96729054e-04, 0., 6.96729054e-04, 0., 0., 0., 0., 0., 0., 0.,
          0., 0., 0., -4.26380429e-04, -9.43005667e-04, -4.26380429e-04,
          -1.44036242e-03, -1.87801535e-03, -1.01805269e-03,
          -2.49249558e-03, -3.70279979e-03, -2.52657402e-02,
          -4.83661378e-03, -6.16956968e-03, -2.94264685e-02,
          -1.99659877e-02, -6.92142686e-03, -4.19278406e-02,
          4.37167659e-02, 7.69691542e-03, 2.44868826e-03,
          -1.36755325e-03, -6.53394847e-04, -4.94319247e-03,
          -1.35091809e-03, -5.91025641e-03, -1.18485640e-03,
          -4.11818549e-03, -1.38282031e-02, -1.93289132e-03,
          -1.33966086e-02, -2.21604649e-02, -1.44036242e-03,
          -1.80225424e-03, 9.55072697e-03, 1.68343056e-02,
          1.65143497e-02, 5.50453737e-03, 1.87592655e-02, 6.01540413e-03,
          3.95843806e-03, 3.10175214e-03, 3.31150694e-03, 1.91397802e-03,
          2.19526817e-03, 1.31120929e-03, 3.86143103e-04, 0., 0., 0., 0.,
          0., 0., 0., -4.72352258e-05, -3.38907877e-04, -1.10552518e-03,
          -1.09381368e-03, -2.52845837e-03, -2.54806448e-02,
          -6.11053128e-03, -1.82783452e-03, -6.95898850e-03,
          -2.69825775e-02, -2.03403197e-02, -8.37163441e-03 ]
      - [ -2.01502033e-02, -1.44514432e-02, -1.53194200e-02,
          -2.98807323e-02, -2.58649364e-02, -2.41868347e-02,
          -3.12637873e-02, -3.66556980e-02, -1.61482431e-02,
          -2.62237508e-02, -2.91745123e-02, -2.71772053e-02,
          -1.85576137e-02, 5.44698583e-03, 8.78331065e-03,
          3.06486757e-03, 4.86367149e-03, 1.09494654e-02, 7.89072737e-03,
          4.57236264e-03, 9.63546149e-03, 7.61475833e-03, 2.92975456e-03,
          7.56660895e-03, 5.00912266e-03, 8.78331065e-03, 1.08264852e-02,
          3.13780212e-04, 9.98706091e-04, 9.65793338e-03, 4.44827974e-03,
          8.04218184e-03, 5.94967883e-03, 2.48103822e-03, 7.61475833e-03,
          3.70876957e-03, 9.19708423e-03, 3.50273075e-03, 4.40013036e-03,
          1.76558772e-03, 5.68615086e-03, -2.58951336e-02,
          -2.06915615e-03, 5.20151434e-03, -2.38953754e-02,
          -1.77288968e-02, 5.00759529e-03, -3.20308320e-02,
          3.96183990e-02, 3.70618030e-02, 0., -5.07505564e-03,
          -3.34514608e-03, -6.74013561e-03, -6.76260702e-03,
          -6.59306580e-03, -1.07280808e-02, -7.49016088e-03,
          -1.08264852e-02, -8.79703183e-03, -2.64896126e-03,
          -4.88614291e-03, -1.02777453e-02, -6.09623361e-03,
          -3.70876957e-03, -9.53333545e-03, -8.88381805e-03,
          -3.68139800e-03, -7.30097853e-03, -8.23298283e-03,
          -4.98665078e-03, -5.97163569e-03, -6.61605271e-03,
          -6.31227251e-03, -4.68500378e-03, -4.96259099e-03,
          -3.49059748e-03, -3.39498930e-03, -8.65871273e-03,
          -4.24714061e-03, -7.56660895e-03, -4.13449947e-03,
          -4.58287774e-03, -7.51643442e-04, -2.75108730e-03,
          -8.77135340e-03, -7.51643442e-04, -5.99900726e-03,
          -2.51723127e-03, -3.49765755e-02, -1.14238244e-02,
          -2.07936787e-03, -1.99286104e-03, -3.11378166e-02,
          -1.54222175e-02, -6.72047725e-03 ]
      - [ 3.79177323e-03, 1.10396743e-03, -1.63140951e-03,
          -7.76488893e-03, -9.16722510e-03, 1.45511106e-02,
          7.23509444e-03, 1.39768736e-03, -4.41744318e-03,
          -6.68654544e-03, 2.03557871e-02, 2.06468552e-02,
          1.09166717e-02, 0., -3.23631824e-03, -3.63778742e-03,
          1.66584160e-02, -6.38886308e-03, -7.38667417e-03,
          -7.91584514e-03, -1.22212293e-02, -6.99772406e-03,
          4.66700830e-03, 1.86624564e-02, 1.00266505e-02, 8.02694447e-03,
          5.83236618e-03, 6.87410589e-03, 5.83236618e-03, 5.83236618e-03,
          1.04173960e-03, 0., 0., 0., 0., 0., 0., 0., -3.15254484e-03,
          -3.23631824e-03, -8.76579341e-03, -2.63439640e-02,
          -8.03637877e-03, -1.38807287e-02, -3.13279815e-02,
          -2.57410221e-02, -1.48749594e-02, -3.80906812e-03,
          -2.97863893e-02, 2.01119073e-02, 1.42607801e-02,
          9.06868465e-03, 8.42841435e-03, 6.38886308e-03, 8.51218682e-03,
          2.59604794e-03, 5.83236618e-03, 1.63808151e-03, 1.59823673e-03,
          0., 0., -1.04173960e-03, -5.56497078e-04, -2.67982110e-03,
          -4.19428479e-03, -5.27586881e-03, -6.38886308e-03,
          -8.98491126e-03, -6.31760852e-03, -1.32629685e-02,
          -7.55422097e-03, 5.22350566e-03, 1.96602680e-02,
          7.98709970e-03, 8.51218682e-03, 7.47044757e-03, 7.43060280e-03,
          5.27586881e-03, 4.19428479e-03, 0., 1.04173960e-03, 0., 0., 0.,
          0., 0., 0., -2.59604794e-03, -3.23631824e-03, -2.92773899e-02,
          -6.95252279e-03, -7.47271953e-03, -1.25158997e-02,
          -2.95942463e-02, -2.42288299e-02, -1.94716360e-02 ]
      - [ -6.95264060e-03, -8.68116040e-03, -1.08692395e-02,
          -1.77778881e-02, -1.72564704e-02, 1.99081358e-02,
          1.39308264e-02, 1.02636032e-02, -1.63144397e-03,
          -3.34696216e-03, 1.35553479e-02, 2.72415690e-02,
          6.14889618e-03, 0., 0., 0., 1.65226627e-02, 0., 0.,
          -1.44865015e-03, -1.77591850e-04, -1.65266462e-03,
          -2.18961015e-03, -3.21281236e-03, -1.94097310e-03,
          -4.01986670e-03, -4.13058326e-03, -6.07233774e-03,
          -3.04387286e-02, -1.42705310e-02, -8.34675971e-03,
          -8.91113654e-03, 2.81300605e-03, 1.80383376e-03,
          1.90130167e-03, 1.36975246e-02, 1.54764298e-02, 2.53794645e-03,
          1.14358403e-02, 2.53794645e-03, 4.38552786e-04,
          -2.50258166e-02, -7.50513791e-05, 1.46185991e-03,
          -2.40697078e-02, -1.52127240e-02, -9.97420168e-04,
          -5.05843423e-02, 3.36136334e-02, 1.47409774e-02,
          7.40948971e-03, 4.55681235e-03, 4.55759326e-03, 3.14783375e-03,
          2.92372284e-03, 2.50512245e-03, 2.05247081e-03, 1.94097310e-03,
          2.36720219e-03, 6.03820779e-04, 1.47507270e-03, 8.92129377e-04,
          0., 4.26228944e-04, 2.88308569e-04, 0., 0., 0., 0., 0., 0., 0.,
          0., 0., -1.33793335e-03, -2.88308569e-04, -1.33793335e-03,
          -1.16034155e-03, -1.77591850e-04, -1.62624195e-03,
          -2.07889359e-03, -1.33793335e-03, -1.87487900e-03,
          -1.65266462e-03, -3.21281236e-03, -1.38445233e-03,
          -2.92450399e-03, -3.10131465e-03, -3.39040440e-03,
          -3.23398039e-02, -6.87543489e-03, -4.48576687e-03,
          -8.91626813e-03, -3.22954021e-02, -2.55673323e-02,
          -1.12810899e-02 ]
      - [ -9.89499269e-04, 9.09835624e-04, 5.97939244e-04,
          -1.50070351e-03, 9.88514967e-06, 4.24502796e-04,
          5.06530982e-04, 1.11763424e-03, -4.99489857e-03,
          -3.97496205e-03, -4.55025071e-03, -3.32589436e-04,
          -1.45251967e-03, -5.25594107e-04, 3.58422054e-03,
          1.09807309e-03, 9.25046112e-03, 8.20950605e-03, 3.67514510e-03,
          9.30236466e-03, 1.08721163e-02, 7.33384339e-04,
          -5.37258852e-03, -6.46171812e-03, -1.43618984e-02,
          -1.48721877e-02, -9.79113765e-03, -7.38959573e-03,
          -4.81869094e-03, -4.21133265e-03, -5.01172151e-03,
          -4.49341489e-03, 1.27474023e-02, 8.67861509e-03,
          8.83473270e-03, 8.42318870e-03, -2.95548863e-03,
          6.43124431e-03, 1.95582560e-03, -4.36605373e-03,
          -2.29039043e-03, -3.29930778e-03, 1.13249607e-02,
          -5.25486935e-03, -3.23501904e-03, -5.87456999e-03,
          -9.67021845e-03, 2.19439417e-02, 1.57338765e-03,
          -1.44017962e-04, 7.32017041e-04, -3.63375439e-04,
          1.85498327e-04, -6.59096579e-04, -5.77101833e-04,
          8.97572318e-06, -8.08575016e-04, 3.64970911e-04,
          -9.01584921e-04, 0., 0., -7.30367668e-04, -1.20054674e-03,
          -6.39153703e-04, -9.01848660e-04, -1.66563306e-03,
          -1.16525695e-03, -3.03483149e-03, -2.36984488e-04,
          4.62058786e-04, 1.24034798e-03, 6.69694785e-03, 7.07326550e-03,
          8.82316940e-03, 4.73661162e-03, 6.42236881e-03, 4.90731280e-03,
          4.88900393e-03, 3.61818471e-03, 4.07211948e-03, 3.86683433e-03,
          3.62719339e-03, 3.85401514e-03, 3.71964416e-03,
          -8.66541266e-03, 1.98756042e-03, 1.39715616e-03,
          -2.10637823e-02, 3.09233030e-04, 4.51150991e-04,
          -2.21372005e-02, -2.16094125e-02, -3.76864104e-03,
          -4.12120437e-03, -7.05697807e-03, -9.30015929e-03 ]
      - [ -6.38333801e-03, -2.28267978e-03, -1.19471026e-03,
          -6.15950732e-04, 3.33084899e-04, 5.11621358e-04,
          4.36282629e-04, 6.77346077e-04, 4.26996296e-04, 3.11344536e-03,
          4.96079121e-03, 9.18701233e-04, 8.87643918e-03, 9.52373166e-03,
          8.20154382e-04, 1.10766815e-03, 7.17004389e-03, 6.06040843e-03,
          7.70075712e-05, 2.34871899e-04, 5.41496731e-04,
          -5.25414071e-04, 8.59029940e-04, -8.55473278e-04,
          -1.86940044e-04, 1.35718612e-04, -7.96155771e-04,
          -1.00803713e-03, 4.04890539e-04, -5.37345884e-04,
          -7.24140846e-04, -1.14859606e-03, -1.00000273e-03,
          -1.76102705e-02, -1.64161285e-03, -9.04097967e-03,
          -1.00852689e-02, -1.57532759e-03, -1.45802402e-03,
          -1.53289340e-03, -1.20473700e-03, -1.40836614e-03,
          -8.95238714e-04, -8.59566440e-04, -9.31517861e-04,
          3.51063651e-03, 1.88278267e-03, 2.53628362e-02, 8.60221125e-03,
          -6.51480770e-03, -3.32632964e-03, -2.08659703e-03,
          -1.55548146e-03, -1.33397244e-03, -1.33505149e-03,
          -6.77346077e-04, -7.10979803e-04, -3.20047897e-04,
          -2.91012926e-04, 0., 0., 0., 0., 3.20047897e-04,
          4.24943981e-04, 1.16418749e-04, 9.14608943e-04, 3.00007581e-04,
          1.21461647e-03, 9.81369871e-04, 1.28137751e-03, 1.15507923e-03,
          1.01930252e-03, 1.72253978e-03, 8.37278028e-04, 2.06205528e-03,
          1.51775545e-03, 1.64161285e-03, 3.45028425e-03, 1.82070024e-03,
          7.69838085e-03, 1.74200744e-03, -1.42129464e-03,
          1.69440196e-03, -8.97488743e-03, -1.79929391e-03,
          1.13347464e-03, -6.27433509e-03, 9.16661229e-04,
          9.42662125e-04, -7.41219055e-03, -1.01381466e-02,
          5.28942095e-04, 9.54844116e-04, 3.22209159e-03, 2.37448746e-03 ]
      - [ -8.88687279e-03, -5.39413700e-03, -2.97563081e-03,
          -3.35681066e-03, -1.70556980e-03, -1.24974735e-03,
          -5.55407139e-04, -5.75081387e-04, -1.13048847e-03,
          3.11820535e-03, 9.15362313e-03, -9.93378053e-05,
          1.41233234e-02, 1.43040903e-02, 4.94822511e-04, 3.25313420e-04,
          1.31092584e-02, 8.55273940e-03, -1.52282638e-03,
          -1.05571700e-03, -1.81218225e-03, -2.53555807e-03,
          -9.89398570e-04, -2.16860627e-03, -4.54470748e-03,
          -2.52321269e-03, -7.56036909e-03, -3.01568164e-03,
          -2.23307544e-03, -2.60440726e-03, -2.94208294e-03,
          -2.67442921e-03, -2.40865513e-03, -3.03436583e-03,
          -2.90063838e-03, -3.26157431e-03, 1.11271918e-03,
          -2.46636826e-03, -2.66028196e-03, -2.93472991e-03,
          -2.21892796e-03, -8.83767440e-04, -2.40562181e-03,
          -2.19965517e-03, -1.78570603e-03, -9.36759170e-04,
          -1.09474827e-03, 1.94730144e-03, 3.83475609e-02,
          -1.19533306e-02, -6.04141317e-03, -3.79628362e-03,
          -3.01130163e-03, -2.69015809e-03, -4.36516525e-03,
          -4.80462098e-03, -1.35168876e-03, -6.88765140e-04,
          -5.13215666e-04, 0., 0., 2.45281705e-03, 5.96294412e-04,
          9.27282905e-04, 9.70637717e-04, 5.75020618e-04, 2.61708163e-03,
          1.08949444e-03, 2.50330823e-03, 1.98696181e-03, 2.69909995e-03,
          2.35233433e-03, 1.91513018e-03, 3.59130092e-03, 1.57919538e-03,
          3.84238991e-03, 2.93943984e-03, 3.01989727e-03, 2.45937239e-03,
          3.41826584e-03, 2.60996004e-03, 3.15362471e-03, 3.40103614e-03,
          3.12311971e-03, -1.55012310e-02, 2.07798672e-03,
          1.94263062e-03, -1.11622307e-02, 1.47240027e-03,
          1.55421719e-03, -1.32183302e-02, -1.78293940e-02,
          -3.41756735e-04, 3.07478658e-05, -2.04639233e-04,
          -2.86095426e-04 ]
      - [ -1.21969488e-02, -6.17844937e-03, -2.15015141e-03,
          -2.48745224e-03, -8.77567858e-04, -6.36457466e-04,
          -1.67577979e-04, -3.79990583e-04, -6.36457466e-04,
          4.11150977e-03, 9.66302957e-03, 2.08879268e-04, 1.54401176e-02,
          1.58271268e-02, 7.46317673e-04, 4.47688828e-04, 1.40009029e-02,
          9.78138298e-03, -1.66413840e-03, -1.14987639e-03,
          -2.15257285e-03, -2.76388018e-03, -1.09386037e-03,
          -2.34866398e-03, -3.39287915e-03, -2.36151717e-03,
          -3.23926611e-03, -3.22641269e-03, -2.36151717e-03,
          -2.77513871e-03, -3.18771228e-03, -2.83690309e-03,
          -2.61743413e-03, -3.44411889e-03, -3.73080140e-03,
          -3.71342804e-03, -3.48781701e-03, -3.43421660e-03,
          -3.32869007e-03, -3.65200103e-03, -3.22816032e-03,
          -3.43952817e-03, -2.92940531e-03, -2.95743602e-03,
          -2.76442873e-03, -1.73592183e-03, -2.26881262e-03,
          8.70341808e-03, 3.26903909e-02, -1.05896322e-02,
          -5.21289604e-03, -3.00975912e-03, -2.37526884e-03,
          -2.36504851e-03, -1.87519484e-03, -9.95540642e-04,
          -9.65735759e-04, -1.42906094e-03, -4.78331605e-03,
          -1.91287079e-04, -6.37022685e-03, -1.00003546e-02,
          -3.00104701e-04, 6.45771332e-04, 2.60816235e-03,
          6.88624429e-03, 8.23088642e-03, 3.10813473e-03, 3.76908644e-03,
          3.19184619e-03, 3.51462467e-03, 2.96414224e-03, 2.58586369e-03,
          4.35248483e-03, 2.29420536e-03, 4.17877920e-03, 3.65020870e-03,
          3.28940083e-03, 2.68710940e-03, 3.71465180e-03, 2.82404968e-03,
          3.44411889e-03, 3.70339327e-03, 3.37780104e-03,
          -1.71238035e-02, 2.16011447e-03, 2.19169445e-03,
          -1.26598505e-02, 1.25006121e-03, 1.36018777e-03,
          -1.44466562e-02, -1.93598252e-02, -1.04402564e-03,
          -5.99827094e-04, -8.05554737e-04, -1.31224270e-03 ]
      - [ -1.71351153e-02, -8.82053655e-03, -3.52962315e-03,
          -3.63954995e-03, -5.88729698e-03, -1.72337852e-02,
          -1.04595628e-02, 1.37247331e-03, -2.04867130e-04,
          1.07712764e-03, 9.65218467e-04, 7.70085462e-05,
          -1.23001169e-03, 1.42475879e-02, 3.13901412e-03,
          7.74289772e-04, 1.19312489e-02, 8.73151794e-03,
          -2.60281930e-04, -2.38568740e-04, 2.16840434e-19,
          -1.24198210e-03, -8.81362241e-04, -4.90321778e-04,
          -2.58145994e-03, -6.69581816e-04, -3.89249093e-04,
          -3.36181559e-03, -3.00034857e-03, -8.37135769e-04,
          -2.99935206e-03, -8.33881262e-04, -2.00161571e-03,
          -2.77526327e-03, -2.69694091e-03, -2.79505760e-03,
          -1.31380104e-03, -2.93497369e-03, -2.14761565e-03,
          -3.65466112e-03, -1.64132169e-03, -2.49585556e-03,
          -2.19865749e-03, 8.08895566e-05, -1.65982591e-03,
          -4.40181379e-04, 5.07947174e-04, 3.06611899e-02,
          2.10820120e-02, 1.00607136e-02, -7.60199502e-03,
          -6.08143164e-03, -3.29911918e-03, -4.78054071e-03,
          -4.47157584e-03, -4.03003814e-03, -3.76871903e-03,
          -3.00869066e-03, -3.82635999e-03, -2.43615475e-03,
          -9.71739879e-04, -9.93455760e-04, -3.36924125e-03,
          2.45737960e-04, -9.53973155e-04, -2.33936519e-03,
          -3.39641469e-04, 5.17150213e-04, 1.06557680e-03,
          -7.97482906e-04, 2.02871813e-03, 2.11228058e-03,
          1.73193665e-04, 2.08909041e-03, -3.91530397e-04,
          3.45318718e-03, 3.51749896e-03, 2.61326903e-03, 3.42026033e-05,
          2.95291049e-03, 1.19417533e-03, 2.88251182e-03, 2.42467038e-03,
          4.63171303e-03, -1.53412428e-02, -6.13271142e-04,
          2.77754734e-03, -1.11273387e-02, 2.05663615e-03,
          1.27378851e-03, -2.73972601e-02, -2.43185777e-02,
          -1.61668169e-03, -1.09310262e-03, 2.22801304e-04,
          -2.39371951e-03 ]
      - [ -7.79419951e-03, -4.08678688e-03, 1.53146265e-03,
          -1.05741771e-03, 1.64210028e-03, 1.40653248e-03,
          1.31838571e-03, 1.37356372e-04, 1.31865672e-04, 7.41819665e-03,
          9.31111537e-03, 1.17424068e-04, 1.70674641e-02, 1.80992205e-02,
          -7.67889433e-04, -6.58573117e-04, 1.17196683e-02,
          8.93868785e-03, -4.30284301e-03, -4.04479075e-03,
          -7.14670634e-03, -7.97686353e-03, -1.80578488e-03,
          4.88475943e-03, 4.56432354e-05, 2.23615021e-03,
          -1.27514871e-03, -6.53535826e-04, -2.68200383e-04,
          -7.39413779e-04, -2.99125281e-03, -3.15550412e-03,
          -2.93607451e-03, -3.80246574e-03, -3.76710808e-03,
          -4.17589489e-03, -3.70217697e-03, -3.61467502e-03,
          -4.31129336e-03, -5.53224422e-03, -5.15802437e-03,
          -5.23930648e-03, -5.99744963e-03, -6.47812709e-03,
          -5.51268877e-03, -5.75244287e-03, -7.62250554e-03,
          3.02476026e-02, 8.74779001e-03, -6.12984737e-03,
          -2.85066315e-03, 4.69319086e-04, -6.71783986e-04,
          -3.66583030e-04, 7.37717841e-04, -6.44053449e-04,
          6.30430237e-04, 3.33962147e-04, 2.36781736e-04, 0., 0., 0.,
          -2.53228878e-04, -3.33962147e-04, -4.28998814e-04,
          -1.28142547e-03, -3.56744044e-04, -1.63320708e-03,
          9.73912465e-05, -2.63870205e-03, -2.01748661e-03,
          2.25238479e-03, 9.45686176e-03, 8.36153142e-03, 6.56286627e-03,
          8.01167358e-03, 6.74585300e-03, 5.70771610e-03, 4.50879941e-03,
          5.02863340e-03, 3.24481539e-03, 3.80246574e-03, 4.15997766e-03,
          3.65317380e-03, -2.18628496e-02, 2.56514992e-03,
          2.42679566e-03, -1.51695944e-02, 2.04120443e-04,
          -1.25893415e-03, -1.66177638e-02, -2.13318020e-02,
          -2.75757955e-03, -3.46335140e-03, -5.95353637e-03,
          -5.44311060e-03 ]
      - [ -1.07432483e-02, -5.05274255e-03, -1.48841145e-03,
          -1.87625224e-03, -6.68151304e-04, 6.47437875e-04,
          3.62010527e-04, 5.16136817e-04, -2.89085321e-04,
          7.49774696e-03, 1.09468335e-02, 4.05744831e-05, 1.88018624e-02,
          2.00251285e-02, 7.25900289e-04, 2.54657556e-04, 1.50530161e-02,
          1.06852585e-02, -2.06497777e-03, -2.17626174e-03,
          -2.51929834e-03, -4.21052938e-03, -2.39991234e-03,
          -4.69594495e-03, -4.85752244e-03, -5.01338858e-03,
          -6.07671589e-03, -7.20229791e-03, -2.09978502e-02,
          -9.91373137e-03, -7.32277893e-03, -6.90812478e-03,
          -1.50910101e-03, -3.05432663e-03, -2.97344965e-03,
          1.68930041e-03, 2.24844180e-03, -2.31664209e-03,
          1.99143146e-03, -2.41331686e-03, -1.61494850e-03,
          -2.20837467e-03, -1.00761047e-03, -1.47986240e-04,
          1.21814804e-03, 1.70586130e-03, -2.04907008e-03,
          9.10185184e-03, 2.42661629e-02, -8.20639264e-03,
          -4.03043861e-03, -2.59361393e-03, -1.47597538e-03,
          -1.68413273e-03, -1.33163948e-03, -5.51685516e-04,
          -4.62764467e-04, 1.23911159e-04, 4.61212301e-04,
          2.65747105e-04, 8.46229901e-04, 3.97360738e-04, 0.,
          1.11967954e-03, 1.11372431e-03, 5.50234166e-04, 1.96873304e-03,
          9.37250501e-04, 2.90598348e-03, 2.33168318e-03, 3.26893362e-03,
          2.82699196e-03, 2.30198144e-03, 4.68987506e-03, 1.20549079e-03,
          4.90632048e-03, 2.86308816e-03, 3.28051718e-03, 3.17989383e-03,
          3.50631680e-03, 2.35749851e-03, 3.28251626e-03, 3.44125764e-03,
          3.05809244e-03, -2.25432124e-02, 2.21031741e-03,
          1.03588472e-03, -1.73788089e-02, 1.58885610e-04,
          -9.77523669e-05, -1.90978292e-02, -2.31269244e-02,
          -3.05761839e-03, -2.83113006e-03, -3.71374702e-03,
          -5.39794751e-03 ]
      - [ -6.96382066e-03, -3.30195948e-03, -1.59525580e-03,
          3.33388016e-06, 4.54276014e-04, 3.02229688e-04, 3.10770702e-04,
          2.27563985e-04, 5.63752977e-03, 8.23997054e-03, 9.08505730e-03,
          1.16516231e-03, 9.21912212e-03, 9.88089293e-03, 3.13998945e-03,
          6.27369154e-04, 2.86073424e-04, -1.92561676e-03,
          -1.87270448e-03, -5.14157396e-03, -5.38256625e-03,
          4.49908461e-04, 3.67474137e-03, 1.53069699e-03, 5.84112480e-03,
          9.71511193e-03, 4.70064301e-03, 3.62088950e-03, 2.51521566e-03,
          1.67438656e-03, 1.73840648e-03, 5.63893176e-04,
          -1.29560390e-02, -1.42418072e-02, -8.37676693e-03,
          -1.16755832e-02, -1.12855304e-02, -7.12085236e-03,
          -5.80957299e-03, 3.37181147e-04, -2.00649520e-04,
          1.44928970e-04, -6.88289013e-03, 1.26278342e-03,
          8.86656868e-04, 6.25420874e-03, 6.33331342e-03, 1.83607079e-02,
          9.24202241e-03, -7.39378668e-03, -4.08393377e-03,
          -2.01324909e-03, -1.94248999e-03, -1.32030912e-03,
          -1.16516231e-03, -9.40871716e-04, -2.00612078e-04,
          -6.35766482e-04, -1.04493163e-04, 0., 0., 2.24290634e-04,
          5.80049469e-04, 7.85762444e-04, 6.72834460e-04, 1.01334951e-03,
          1.38945295e-03, 1.84974237e-03, 8.56409140e-04, 1.55623292e-03,
          1.11463002e-03, -1.57290639e-03, -2.91552488e-03,
          -2.50911247e-03, -1.75360916e-03, -1.09601847e-03,
          -9.64550301e-04, -6.92939968e-04, 2.82999384e-03,
          -2.32687977e-04, 5.44879120e-03, 0., -1.72226038e-03, 0.,
          -3.23307235e-03, -3.51748383e-03, 4.72222397e-04,
          6.84542581e-04, 8.36378546e-04, 9.32474388e-04, 1.37420918e-03,
          2.01682211e-03, 2.55711982e-03, 2.97362520e-03, 6.53479528e-03,
          6.87138317e-03 ]
      - [ -5.28985308e-03, -3.75028513e-03, -3.29647237e-03,
          -1.49540254e-03, -1.40577124e-03, -1.31753902e-03,
          -8.85585672e-04, -1.24268676e-03, 7.89407268e-03,
          9.10839718e-03, 1.53775513e-02, 2.38777939e-04, 1.15589472e-02,
          1.42243961e-02, 3.41720995e-03, -6.84810919e-04,
          -1.88481610e-03, -4.12976509e-03, -4.94745374e-03,
          -9.04374570e-03, -1.14795463e-02, -1.54758117e-03,
          6.42995292e-05, 1.95746263e-03, 4.59952652e-03, 2.29984731e-03,
          -3.46683571e-03, 3.76947760e-03, 1.74039765e-03,
          1.08866883e-03, 1.24868972e-03, 4.07434913e-04,
          -1.18589103e-02, -3.07252631e-03, -4.76489868e-03,
          -4.92226891e-03, 5.46178641e-03, -8.98126978e-03,
          -7.60266930e-03, 6.74266659e-04, -4.35511378e-04,
          4.44133580e-03, -8.76658689e-03, 7.63450633e-04,
          1.70893822e-04, 2.47562467e-03, 4.41353768e-03,
          -9.46286973e-03, 3.37851495e-02, -1.12457182e-02,
          -6.24118000e-03, -5.55313099e-03, -3.14042857e-03,
          -1.12765450e-02, -1.23629514e-02, -6.59892010e-03,
          -5.67056879e-04, -8.96236103e-04, -2.24561445e-04, 0.,
          -4.98925110e-05, 4.10261145e-03, 1.94877561e-03,
          1.65931368e-03, 6.51248638e-03, 9.04011354e-03, 6.73466083e-03,
          5.04775206e-03, 2.85620964e-03, 2.87255389e-03, 2.07028701e-03,
          -2.18763249e-03, -3.74405831e-03, -3.61145218e-03,
          -2.46132771e-03, -1.66346249e-03, -1.27852091e-03,
          -1.13096228e-03, -6.89893845e-04, -2.06342243e-04,
          -4.23329358e-04, 0., -1.73563079e-04, 0., -1.79586903e-04,
          6.71113812e-05, 2.95682927e-04, 4.46638791e-04, 5.06552984e-04,
          1.05342339e-03, 1.28750200e-03, 2.17320677e-03, 1.65723159e-03,
          2.76605133e-03, 3.84583045e-03, 5.01365121e-03 ]
      - [ -9.11873579e-03, -4.86853439e-03, -1.21076300e-03,
          5.00008697e-04, -1.34537506e-04, 3.26340960e-04,
          1.50721142e-04, -4.97356639e-04, 7.99319427e-03,
          1.05864732e-02, 1.48379076e-02, 1.19076716e-03, 1.32358577e-02,
          1.52577879e-02, 3.94315366e-03, -4.12994326e-04,
          -1.64255477e-03, -3.96047113e-03, -5.00648376e-03,
          -9.01320577e-03, -1.12154009e-02, -2.28421274e-03,
          4.24205791e-03, 2.86381692e-03, 9.95045621e-03, 1.13621661e-02,
          5.70208812e-03, 3.84095428e-03, 2.00449419e-03, 1.25451817e-03,
          1.31598383e-03, 7.48877297e-04, -1.55541683e-02,
          -7.29813986e-03, -8.55634455e-03, -6.88914955e-03,
          -1.11754052e-03, -1.11566754e-02, -9.12683457e-03,
          -5.39307541e-04, -1.48851238e-03, -1.27228675e-03,
          -1.33090131e-02, 1.60098068e-06, -7.69777747e-04,
          2.41505657e-03, 4.57355473e-03, -3.35390284e-03,
          2.48219911e-02, -8.36896710e-03, -4.88504861e-03,
          -3.40320170e-03, -2.70283083e-03, -1.98686775e-03,
          -1.76177279e-03, -1.02019799e-03, -4.97550063e-04,
          -2.19615037e-03, -5.74248051e-03, -5.99268242e-04,
          -7.80203147e-03, -1.21283848e-02, 6.90642046e-04,
          7.65734294e-04, 4.14865930e-03, 9.83123016e-03, 9.25074983e-03,
          6.10983139e-03, 7.80516909e-03, 4.16032644e-03, 2.39123660e-03,
          -2.29510781e-03, -3.10065132e-03, -3.43268132e-03,
          -2.03750911e-03, -1.33269059e-03, -1.18221703e-03,
          -1.23735750e-03, -6.73395873e-04, -2.17110515e-04,
          -4.40331991e-04, 0., 0., 0., -2.05669348e-04, 4.04749007e-04,
          4.99544607e-04, 6.59952522e-04, 3.53456038e-04, 9.06019122e-04,
          1.24185195e-03, 2.71163369e-03, 1.66826253e-03, 2.56830803e-03,
          3.77474818e-03, 5.38640842e-03 ]
      - [ -1.74499135e-02, -9.94878821e-03, -4.80922358e-03,
          -1.43696344e-03, -1.58806564e-03, -1.80344079e-02,
          -1.08871479e-02, -4.66932834e-04, 5.25726518e-03,
          2.47217668e-03, 9.01318970e-04, 1.13401492e-03, 2.26152642e-03,
          1.47091029e-02, 3.39474319e-03, -8.89771502e-04,
          -1.32301589e-03, -2.76545365e-03, -5.71521651e-03,
          -1.15678329e-02, -1.17074642e-02, -8.20588903e-04,
          6.44643139e-03, 5.91130601e-03, 1.46676926e-02, 1.70150585e-02,
          1.06087057e-02, 5.17036207e-03, 3.08002881e-03, 4.42939345e-03,
          2.43187533e-03, 4.07791045e-03, -1.29117407e-02,
          -5.35817863e-03, -1.72254629e-02, -1.03042778e-02,
          1.91035797e-03, -1.49396444e-02, -5.23421587e-03,
          1.45286694e-03, 7.70418672e-04, 1.41854188e-03,
          -2.00770479e-02, 4.49071918e-03, 1.80830038e-03,
          6.24753768e-03, 1.12885954e-02, 9.68940463e-03, 2.42215637e-02,
          8.60909838e-03, -9.04334523e-03, -5.46872709e-03,
          -4.35262686e-03, -4.51448467e-03, -4.34416719e-03,
          -3.60401999e-03, -2.95976968e-03, -3.03745782e-03,
          -3.44380317e-03, -2.59865238e-03, -7.63921009e-04,
          -2.86054914e-04, -1.74270105e-03, 1.17567985e-03,
          3.09095660e-04, 8.04073716e-06, 1.15098781e-03, 4.39237850e-03,
          -1.80296352e-04, -1.55540532e-03, -4.84176184e-04,
          -5.86751569e-03, -6.98942272e-03, -7.92086218e-03,
          -5.63423475e-03, -3.82496906e-03, -2.12759501e-03,
          -3.11214640e-03, -3.28287925e-03, -1.94879295e-03,
          -2.91152135e-03, -8.22804577e-04, -1.91800483e-03,
          -3.45554465e-04, -6.21764048e-04, -2.15455866e-03,
          7.01438170e-04, -5.75030688e-04, 6.43490348e-04,
          1.23897905e-03, 1.39292935e-03, 3.67032737e-03, 3.05668125e-03,
          4.33676504e-03, 8.00725073e-03, 8.66339263e-03 ]
      - [ -8.26967414e-03, -4.94826725e-03, 8.19957233e-04,
          1.80963567e-03, 1.11788604e-03, 1.22119766e-03, 1.51176297e-03,
          -9.07674141e-04, 9.96073429e-03, 1.42517807e-02,
          1.49918292e-02, 6.57793717e-04, 1.75321307e-02, 1.86245143e-02,
          5.17133484e-03, -2.29819561e-03, -4.94347932e-03,
          -8.11317563e-03, -1.04542086e-02, -1.62022226e-02,
          -1.85582675e-02, -7.93776847e-03, 4.95121581e-03,
          9.22744628e-03, 1.84985418e-02, 1.95287503e-02, 1.05088539e-02,
          8.72995146e-03, 5.10067912e-03, 4.89258533e-03, 2.36701570e-03,
          1.86221360e-03, -1.95053760e-02, -1.19022857e-02,
          -1.29423542e-02, -7.50759570e-03, -1.03733432e-03,
          -1.51726697e-02, -1.18691633e-02, -4.07576910e-04,
          -3.76011175e-03, -1.33469480e-03, -1.58420037e-02,
          -2.77899718e-03, -3.62505252e-03, 5.31843514e-04,
          3.17222578e-03, 8.12123530e-03, 6.95688045e-03,
          -7.06879050e-03, -2.47338368e-03, -4.88419493e-04,
          4.33610898e-04, -5.72233985e-04, 9.10547504e-04,
          -7.65252335e-04, 1.11694343e-03, -6.01434789e-04,
          -2.46353535e-04, 0., 0., 5.53603051e-04, 1.42150105e-03,
          -5.06729935e-04, -3.28835507e-04, -2.13822786e-04,
          6.63339335e-04, -5.66279108e-04, -1.56217441e-03,
          -1.69318286e-03, 4.47938161e-04, -2.09475611e-03,
          2.28846027e-03, -2.44604168e-03, 6.36290701e-04,
          1.40606461e-03, 1.16311165e-03, 3.06159665e-04, 1.73026952e-03,
          7.20566837e-04, 1.46308375e-04, 7.26095052e-04, 0., 0., 0.,
          7.44128367e-04, 9.82276513e-04, 3.97430180e-04, 9.07129870e-05,
          -6.63321931e-04, 1.91187998e-03, -1.67999591e-04,
          9.33826494e-04, -4.98686917e-04, 3.25743901e-03,
          2.25300225e-03 ]
      - [ -7.62890978e-03, -5.05960453e-03, 1.94490698e-04,
          1.97598408e-03, 1.58092764e-03, 2.41586845e-03, 7.44114979e-04,
          3.81499936e-04, 2.02756319e-02, 1.43751977e-02, 1.96886528e-02,
          8.71623168e-04, 2.52041817e-02, 1.82414278e-02, 4.83275717e-03,
          -1.66571629e-03, -3.11365561e-03, -6.18629763e-03,
          -7.89812393e-03, -1.62767749e-02, -2.21968703e-02,
          -4.93327715e-03, 2.99527589e-03, 1.51986734e-03,
          1.77702010e-02, 1.46629764e-02, 5.53589826e-03, 7.05933257e-04,
          -2.25526094e-02, -1.72006078e-02, -1.31379869e-02,
          -1.87208981e-03, -1.63564011e-02, -9.55915824e-03,
          -3.19628557e-03, 3.20977997e-04, 5.85338892e-03,
          -1.21034784e-02, -2.13894458e-03, 2.65598134e-03,
          3.34701064e-04, 6.07603579e-04, -1.45850526e-02,
          4.01583500e-03, 3.71594541e-03, 6.37540221e-03, 9.79566667e-03,
          -5.31650102e-03, 1.18524795e-02, -3.79536022e-03,
          -3.21459072e-03, -2.14659097e-03, -7.97433488e-04,
          -8.51795558e-05, 7.51920888e-05, 3.34503275e-05,
          6.86536252e-04, 8.81060143e-04, 2.08576210e-03, 1.72250409e-04,
          1.58118084e-03, 1.87805109e-03, 1.77826569e-03, 2.17468105e-03,
          2.64664670e-03, 3.23076337e-03, 3.83337797e-03, 5.74483490e-03,
          3.85952927e-03, 2.69318814e-03, 4.47291241e-04,
          -5.94303198e-03, -7.71713862e-03, -6.99446630e-03,
          -5.36452280e-03, -3.68059683e-03, -3.59344319e-03,
          -3.20404721e-03, -1.15145417e-03, -1.64070982e-03,
          -2.31421669e-03, -9.47662338e-04, -1.69210322e-03,
          -1.58118084e-03, -2.63976562e-03, -7.48998544e-04,
          -9.98685835e-04, -7.56834634e-04, -3.61887476e-04,
          -6.67732209e-04, 1.04510458e-03, 1.04058406e-03,
          1.99436588e-04, 2.19284953e-03, 2.38759932e-03, 3.74656566e-03 ]
      - [ -1.30719692e-03, -1.74469125e-04, -7.60237745e-04,
          -1.51753833e-03, -2.00973800e-03, -1.88230653e-03,
          -1.08695345e-03, -1.68302224e-03, -1.63250451e-03,
          -2.25953991e-03, -1.05374597e-03, -1.60785718e-03,
          -1.28623762e-03, -2.27909116e-03, -1.02984207e-03,
          -1.68302224e-03, -2.20902218e-03, -1.09931349e-03,
          -1.63745484e-03, -1.35630660e-03, -2.41005514e-03,
          -1.20034907e-03, -3.19916359e-03, -5.80841734e-04,
          -4.62744385e-03, -4.79917554e-03, -5.05961291e-03,
          -1.01919053e-03, -2.58789654e-03, -1.17447856e-03,
          -1.23394991e-03, -4.52398584e-04, -3.26715730e-04,
          2.31779311e-02, 3.92450066e-03, 1.61616094e-02, 1.24487057e-02,
          1.65877369e-04, 2.47423747e-03, 1.08765962e-04,
          -2.77178115e-05, 2.68282555e-03, 1.60857962e-04,
          -4.66964033e-04, -2.68760254e-04, -5.55914501e-03,
          -4.78024082e-03, -3.94064784e-02, 1.89004317e-02, 0., 0.,
          -2.17023352e-03, -7.51650732e-05, -3.26798134e-03,
          -3.47254751e-03, -7.00688906e-05, 0., 0., -7.00688906e-05,
          -3.32074414e-05, -5.71114069e-05, -1.45233964e-04, 0., 0.,
          2.17706547e-03, 2.54951743e-03, 2.26955907e-03, 7.69259466e-04,
          5.06935583e-04, 5.22760209e-04, 3.44318774e-04, 2.35946267e-04,
          4.34637623e-04, 1.08765962e-04, 2.35552812e-04, 5.71114069e-05,
          1.08765962e-04, 0., -4.79871966e-03, 0., -9.27117281e-03,
          -4.54660127e-04, 5.31698298e-03, 0., 4.79871966e-03,
          4.19641379e-03, -1.99084810e-04, -2.69153708e-04,
          -2.69153708e-04, -1.41973404e-04, -3.44318774e-04,
          -5.05099946e-04, -1.18411833e-03, -1.56220561e-03,
          -4.71042749e-03, -4.66141710e-03 ]
      - [ 4.20807907e-03, 3.00858798e-03, 3.00908135e-03, 2.11409014e-03,
          -7.62311218e-04, 1.01941102e-03, 5.24782052e-04,
          -3.17270198e-04, -3.47203098e-07, -1.27390039e-03,
          -1.08250031e-04, -6.70385663e-04, -5.86811919e-04,
          -1.74653449e-03, -4.50833722e-05, -1.18937297e-03,
          -2.08848948e-03, -6.62622915e-04, -2.44699861e-03,
          -1.15343276e-03, -2.74740253e-03, -1.64534478e-03,
          -2.75675836e-03, -8.96780461e-04, -3.23937950e-03,
          -2.86971033e-03, -1.80086982e-03, -1.43120077e-03,
          -3.23937950e-03, -1.43850956e-03, -1.64534478e-03,
          -6.37837918e-04, -5.34420309e-04, 2.66812630e-02,
          -4.95235552e-04, 2.35873796e-02, 1.98883284e-02,
          -1.45563856e-03, -3.38710524e-04, -1.79759366e-03,
          -1.37058285e-03, -2.45943549e-03, -1.98472477e-03,
          -3.08735901e-03, -2.81579560e-03, -1.05840107e-02,
          -9.64424573e-03, -3.41236405e-02, 1.17455162e-02,
          4.52958886e-03, 8.66176910e-04, -2.37200316e-03,
          -1.49990036e-03, -3.72599019e-03, -1.67598354e-03,
          -4.84129833e-03, -1.29820267e-03, -2.77582533e-03,
          -7.34081771e-03, -1.79335417e-03, -8.45345203e-03,
          -9.88272671e-03, -1.16032211e-03, -1.19965291e-03,
          3.82177625e-03, 9.55163594e-03, 9.26906709e-03, 2.30463687e-03,
          1.64690372e-02, 4.33460064e-03, 2.80147465e-03, 2.23152526e-03,
          2.28850567e-03, 1.37382746e-03, 1.29919755e-03, 1.21730240e-03,
          0., 0., -7.14026578e-03, 0., -1.08490717e-02, -9.30758484e-04,
          4.43602819e-03, 0., 7.14026578e-03, 7.34380214e-03,
          -7.80126255e-04, -3.66785855e-04, -1.71578256e-03,
          -1.37058285e-03, -2.31658085e-03, -1.49903260e-03,
          -4.07226570e-03, -3.78118758e-03, -9.81023535e-03,
          -9.59474873e-03 ]
      - [ -1.16765092e-03, -2.58998410e-03, -5.77056024e-04,
          -9.49078891e-03, -1.11125847e-02, -1.16450936e-02,
          -1.09986532e-02, -7.34076486e-04, -1.60609023e-03,
          -1.25149414e-02, -1.46062067e-02, -1.43660009e-02,
          -7.65577331e-03, -1.30295777e-03, 3.89015448e-04,
          -1.24873943e-03, -1.38085033e-03, 4.83070820e-04,
          -1.03798741e-03, -4.59939241e-04, -1.29539042e-03,
          5.40746085e-04, -2.70577753e-03, 9.79302684e-04,
          -1.78770442e-03, -1.04888156e-03, 3.20604944e-04,
          -9.39243473e-04, -2.68724118e-03, 7.64698605e-04,
          -3.33385222e-04, 8.04316776e-04, 6.82253856e-04,
          2.79881451e-02, 1.85728341e-03, 2.39054523e-02, 2.15679053e-02,
          9.63597384e-04, 8.69869953e-04, 5.72796853e-04, 1.90476887e-03,
          1.10965746e-03, -2.68590462e-04, 1.34287006e-03,
          8.02089518e-04, -5.86421462e-03, -4.15039388e-03,
          -2.72825398e-02, 1.36839133e-02, 1.12767275e-02, 0.,
          -9.68898414e-04, -1.05237344e-03, -1.40491151e-03,
          -1.73741032e-03, -1.72374491e-03, -2.44695484e-03,
          -1.89110346e-03, -2.18531536e-03, -2.20968109e-03,
          -8.24335904e-04, -1.58925843e-03, -2.00385391e-03,
          -1.46290509e-03, -1.29699381e-03, -2.11505592e-03,
          -1.57565565e-03, -1.23686076e-03, -1.67279621e-03,
          -2.01850641e-03, -1.39354332e-03, -1.11674087e-03,
          -1.55326887e-03, -1.29430951e-03, -1.64849393e-03,
          -1.44215627e-03, -6.66666252e-04, -8.75029014e-04,
          -8.54497124e-03, -1.18489424e-03, -1.25217317e-02,
          -1.08367810e-03, 2.60229665e-03, -8.38079082e-04,
          6.42427010e-03, 5.06171817e-03, -6.95572468e-04,
          -1.03436736e-03, -1.07837713e-03, -3.80124606e-04,
          -1.60149462e-03, -6.62262959e-04, -1.27758051e-03,
          -2.97844224e-03, -4.96365875e-03, -5.87929180e-03 ]
      - [ 5.56679536e-03, 3.82012106e-03, 2.51814257e-03, 1.54542411e-03,
          -1.41847311e-04, 7.04558217e-04, -9.96521630e-05,
          -4.63058765e-04, -2.11755466e-03, -2.64752354e-03,
          -2.10813503e-03, -2.58061360e-03, -1.97570748e-03,
          -3.05309193e-03, -2.68026558e-03, -4.69816802e-03,
          -5.33720898e-03, -4.74371621e-03, -7.17223203e-03,
          -4.66539292e-03, -9.39135533e-03, -2.77510565e-03,
          3.10174917e-04, 3.97095270e-03, 1.85847178e-03, 4.55773879e-05,
          7.13978021e-04, 1.12771022e-03, -7.22141704e-04,
          8.80569394e-04, -1.29447551e-03, -7.13978021e-04,
          -7.13978021e-04, 2.95819826e-02, 0., 2.64170822e-02,
          2.35612746e-02, 0., -2.47154152e-03, -5.72130666e-04,
          -4.18352755e-03, -9.77699179e-04, -2.88652978e-03,
          -5.84137673e-03, -6.56500692e-03, -1.32173654e-02,
          -1.05767110e-02, -3.22684497e-02, -1.30425151e-02,
          8.61046743e-03, 6.87321322e-03, 3.44924070e-03, 4.58909618e-03,
          3.04367230e-03, 2.68968544e-03, 2.00848281e-03, 2.58061360e-03,
          0., 8.68627278e-04, 0., 0., -1.09071923e-04, -4.63058765e-04,
          -1.09071923e-04, -2.58061360e-03, -2.11755466e-03,
          -2.74717552e-03, -4.75565856e-03, -2.22662673e-03,
          -5.73335774e-03, -1.27419585e-03, 4.22015553e-03,
          6.51922636e-03, 3.91229941e-03, 2.98618199e-03, 2.58061360e-03,
          3.44924070e-03, 2.11755466e-03, -5.34451101e-03,
          2.96496612e-04, -1.17237214e-02, 0., 3.26505722e-03, 0.,
          7.92512484e-03, 8.56773555e-03, 0., -2.00848281e-03,
          -5.72130666e-04, -2.87711015e-03, -2.58061360e-03,
          -2.58061360e-03, -5.85079659e-03, -7.99987093e-03,
          -1.03670117e-02, -1.19922012e-02 ]
      - [ 1.58252928e-03, -4.73460794e-04, 2.52967875e-04,
          -9.95073351e-04, -1.58326165e-03, -9.54242714e-04,
          -9.12528369e-04, -1.25517871e-03, -1.25517871e-03,
          -2.11973907e-03, -1.17263384e-03, -1.57068227e-03,
          -1.42045715e-03, -2.37984443e-03, -1.22803194e-03,
          -1.80393818e-03, -2.37984443e-03, -1.21933536e-03,
          -1.81263476e-03, -1.91381841e-03, -2.76332535e-03,
          -1.47944072e-03, -3.19724856e-03, -1.39346765e-03,
          -3.13315378e-03, -2.99628405e-03, -2.46257777e-03,
          -2.32570805e-03, -9.63748805e-03, -7.60119036e-03,
          -1.23622047e-03, -1.36898353e-03, 1.36729839e-04,
          2.55689919e-02, 3.15503537e-04, 1.80868432e-02, 1.45384083e-02,
          6.98068587e-04, 7.75114261e-03, 6.98068587e-04, 4.64812736e-04,
          4.64812736e-04, 1.49011888e-04, 4.91819577e-04, 9.56475036e-04,
          -5.27584692e-03, -4.52610664e-03, -4.07072157e-02,
          9.24381521e-03, 3.70197091e-03, 1.79558736e-03, 1.09751883e-03,
          9.19661019e-04, 7.82015268e-04, 7.53466680e-04, 3.70901631e-04,
          5.48759417e-04, 4.93361265e-04, 5.48759417e-04, 5.53981117e-05,
          2.60105415e-04, 2.88653973e-04, 0., 5.53981117e-05,
          2.33255865e-04, 0., 0., 0., 0., 0., 0., 0., 0., 0.,
          -2.60105415e-04, -2.33255865e-04, -2.60105415e-04,
          -2.60105415e-04, -5.26142539e-03, -4.93361265e-04,
          -1.03457561e-02, -2.60105415e-04, 4.87972097e-03,
          -2.60105415e-04, 4.45256056e-03, 4.31311782e-03,
          -5.75608923e-04, -7.53466680e-04, -8.08864832e-04,
          -8.08864832e-04, -8.08864832e-04, -1.04212074e-03,
          -2.19347863e-03, -2.27556890e-03, -6.43874519e-03,
          -5.93743008e-03 ]
      - [ -1.44815608e-03, -9.82780382e-03, 3.23737506e-03,
          1.88653707e-03, 1.39241642e-03, 2.74690869e-03, 1.26595190e-03,
          9.81549732e-04, 1.26595190e-03, 1.54551037e-03, 1.38335061e-04,
          -1.68846789e-04, 9.61413607e-04, 5.93985256e-04,
          2.70038086e-04, 7.85003242e-04, -6.02017972e-05,
          3.50588263e-04, 3.75316967e-03, 3.06725991e-03, 2.39765202e-03,
          8.46119889e-04, 1.05059966e-02, 1.32106580e-02, 6.64723944e-03,
          2.46286187e-02, 2.33895127e-02, 1.28737616e-03, 1.14025001e-03,
          1.28457614e-04, 1.15891860e-03, 1.28457614e-04,
          -8.01431481e-03, -1.31964858e-03, -1.36100380e-02,
          -8.34767183e-04, -2.02046949e-02, -1.81201566e-03,
          -8.68376531e-03, -3.22944531e-03, -2.22374219e-03,
          -2.37990320e-02, -2.08044071e-02, -6.19912636e-04,
          -8.86590220e-04, 1.11375295e-03, 3.71937780e-03,
          1.58891489e-03, -2.90645845e-03, 3.78329959e-03,
          5.34327643e-04, 9.70570277e-03, 1.19860414e-02, 1.14476886e-02,
          2.05126461e-02, 2.60758516e-03, -7.96203909e-04,
          -3.10468441e-03, -5.93125774e-03, -4.18978685e-04,
          -3.63967591e-03, -2.67267320e-03, -4.61267680e-03,
          -3.92522523e-03, -7.78092584e-03, -1.47342263e-02,
          8.70019756e-03, -1.19451964e-02, 2.73068529e-03,
          -2.57126195e-03, -7.94669439e-04, -6.30588969e-04,
          -1.58180378e-03, -4.85941098e-04, -1.09929440e-03,
          1.11695239e-03, -1.64264243e-03, -3.81062186e-04, 0., 0., 0.,
          0., 6.62044680e-04, 0., 1.15237672e-04, 1.28770340e-03,
          6.09724491e-04, 2.46288022e-03, 4.37582821e-05, 1.33668247e-03,
          1.84674410e-03, 1.36543368e-03, 1.43759768e-03, 4.27062064e-03,
          2.65814248e-03, 4.61341860e-03 ]
      - [ -4.35740687e-03, -2.60825921e-03, 8.08256911e-04,
          -2.62744986e-02, -3.41027752e-02, -2.70196889e-02,
          -2.66138837e-02, 3.88912600e-03, 3.79425753e-03,
          -1.73693281e-02, -2.06025317e-02, -2.22856011e-02,
          -2.58102901e-02, 4.46936535e-03, 5.92264161e-03,
          4.47600521e-03, 3.65717267e-03, 5.39546227e-03, 4.80103400e-03,
          3.71874962e-03, 4.91675921e-03, 5.05890371e-03, 5.28260227e-03,
          4.38968465e-03, 7.32635008e-03, 1.20663559e-02, 1.38117122e-02,
          8.67969124e-04, 2.35856394e-03, 6.07548794e-03, 2.39809579e-03,
          4.03042184e-03, 8.14958010e-04, 2.53481930e-03,
          -4.92993058e-06, 2.01203604e-03, -1.59616920e-03,
          2.20850576e-03, 1.35413499e-03, 6.32542942e-04, 3.51644913e-03,
          -1.89192570e-03, -1.23441406e-03, 5.02664782e-03,
          2.64422875e-03, 1.13759772e-03, 4.57536755e-03, 7.08420128e-02,
          -5.74571500e-03, 2.28874362e-03, -1.22225742e-04,
          -5.20456582e-04, -9.38403653e-04, 2.65411939e-03,
          9.20511200e-04, -2.58855126e-03, -5.36878407e-03,
          -5.30902436e-03, -7.62951653e-03, -3.70675256e-03,
          -5.27924439e-03, -6.86482526e-03, -4.01123473e-03,
          -6.17281813e-03, -7.10401963e-03, -1.03472816e-02,
          -8.35371297e-03, -5.03529934e-03, -5.45504736e-03,
          -6.79353718e-03, -3.98063567e-03, -5.09254448e-03,
          -4.47181985e-03, -4.09721024e-03, -3.85019649e-03,
          -3.47609213e-03, -3.36251571e-03, -3.12459958e-03,
          -4.51241713e-03, -2.37153284e-03, -4.41009458e-03,
          -3.06183589e-03, -2.10868707e-03, -1.94143318e-03,
          -2.17080046e-03, -3.92806297e-03, -1.68621854e-03,
          -1.76627410e-03, -1.67738495e-03, -1.06770056e-03,
          -2.72834511e-03, -1.53614514e-04, -4.52172622e-04,
          -1.63900061e-03, 8.44747177e-04, -3.88708810e-04 ]
      - [ 3.90736526e-03, 4.57581691e-03, 6.40902948e-03, 4.29582503e-03,
          6.40902948e-03, 3.66941746e-03, 2.06355820e-03, 2.10357714e-03,
          1.42181106e-03, 1.37413444e-03, -2.31724742e-04,
          -1.03035061e-04, -1.54952565e-03, 0., -2.88364105e-03,
          -2.33530207e-03, -3.61308386e-03, -3.52538819e-03,
          -2.70530535e-03, -6.44904841e-03, -7.47323176e-03,
          -7.18909316e-03, 2.47813616e-04, 1.41843520e-02,
          8.54612514e-03, 8.96523986e-03, 1.24661410e-02, 5.10634203e-03,
          3.62842320e-03, 3.62842320e-03, 1.47791882e-03, 1.03035061e-04,
          0., -2.31724742e-04, -3.56415659e-03, -3.50848568e-04,
          -7.87864160e-03, -8.14298051e-04, -7.60870986e-04,
          -3.00276489e-03, -2.73673353e-03, -7.85518624e-03,
          -3.67254205e-03, -6.35641767e-03, -4.38642688e-03,
          -7.31684733e-03, -8.58374033e-03, 4.00739685e-02,
          -5.28985299e-02, 1.27646318e-02, 7.46079860e-03,
          6.40902948e-03, 4.27017035e-03, 6.70740055e-03, 1.08453082e-02,
          7.44946022e-03, 3.75711289e-03, 1.42181106e-03, 1.54952565e-03,
          0., 0., -6.13731937e-03, -1.15862372e-03, -3.34709068e-03,
          -4.74649761e-03, -4.42006392e-03, -5.98513801e-03,
          -5.23420516e-03, -5.57631440e-03, -9.01319180e-03,
          -7.73067260e-03, -5.76860912e-04, 1.31099327e-02,
          4.86809434e-03, 6.21829880e-03, 4.94719902e-03, 4.86809434e-03,
          3.52538819e-03, 2.10357714e-03, 0., 1.46183011e-03, 0.,
          1.60887648e-05, 0., 2.31724742e-04, 4.38544143e-04,
          3.50848568e-04, -2.03202988e-04, -2.44509685e-03,
          -3.40626435e-03, -1.33027323e-03, -4.30183578e-03,
          -4.82348399e-03, -3.84484790e-03, -8.06473382e-03,
          -8.99451226e-03 ]
      - [ -7.84108508e-03, -8.78695585e-03, 1.53080898e-03,
          -6.78841607e-04, 1.22713379e-03, 7.66215497e-04,
          1.65754434e-04, 1.34770758e-04, 3.25812522e-04, 4.33568384e-05,
          -5.79608022e-04, -6.45879132e-04, -1.41529526e-04,
          -8.79183877e-04, -3.64337262e-04, -6.76579948e-04,
          -5.39852248e-04, -7.32418383e-04, 4.39723535e-03,
          2.77346838e-03, 2.30030343e-03, 9.42847691e-04, 1.01797013e-02,
          9.97461006e-03, 2.47736531e-03, 1.98538359e-02, 1.99151151e-02,
          -5.46474534e-04, -3.36520560e-03, -5.26146824e-03,
          -1.03707763e-03, -9.99798533e-03, -1.11591991e-03,
          -9.83897407e-05, -6.69703772e-03, 1.50629552e-04,
          -7.86282122e-03, -1.39601424e-03, -3.27643822e-03,
          -1.43521489e-03, -1.57417008e-03, -1.75974760e-02,
          -1.93775259e-02, 1.18586083e-03, 7.37858354e-04,
          2.77305348e-03, 5.39124943e-03, -8.24986212e-03,
          -7.05966773e-03, 3.28650791e-03, 1.71897595e-03,
          1.50923198e-02, 1.49188526e-02, 1.85523219e-02, 1.95403546e-02,
          8.33281409e-03, 1.44198444e-03, 3.03675217e-04, 1.30525674e-03,
          1.53063913e-03, 7.56504538e-04, -3.81510844e-03,
          -4.40884894e-03, -2.64979829e-03, -8.03247932e-03,
          -1.04704145e-02, -1.10096000e-02, -1.40693216e-02,
          -5.39716054e-03, -4.11974406e-03, -3.49339168e-03,
          -2.23715161e-03, -2.61014747e-03, -1.53556606e-03,
          -2.07173568e-03, -5.24395378e-04, -1.63791399e-03,
          -4.36443515e-04, 0., -3.03675217e-04, -6.05346402e-04,
          -1.43617115e-04, -1.21321107e-04, -1.43617115e-04,
          -6.72033580e-04, 7.25889578e-04, 6.70160691e-04,
          1.67074846e-03, 1.20901922e-03, 1.13806734e-03, 1.63704890e-03,
          1.74631586e-03, 1.93679193e-03, 3.38869123e-03, 4.32987558e-03,
          4.57674824e-03 ]
      - [ -5.07971831e-03, -5.26520098e-03, -3.42816277e-03,
          -3.06471772e-02, -3.79868373e-02, -3.16441320e-02,
          -3.14113460e-02, 2.38661771e-03, 1.54711679e-03,
          -2.26381309e-02, -2.60979589e-02, -2.86840126e-02,
          -2.97443476e-02, 3.77782411e-03, 4.87990351e-03,
          3.42623191e-03, 3.50364204e-03, 5.31016663e-03, 4.88703232e-03,
          3.55979428e-03, 5.35553042e-03, 5.67999948e-03, 2.63954466e-03,
          4.68859449e-03, 4.28697839e-03, 5.89453941e-03, 6.88545965e-03,
          6.80769270e-04, 2.27687345e-03, 6.62311399e-03, 2.63229525e-03,
          4.37828386e-03, 3.33658536e-03, 3.59576382e-03, 4.66169696e-03,
          2.97522591e-03, 6.32775389e-03, 4.51190537e-03, 3.82214063e-03,
          2.99303350e-03, 5.37263416e-03, 4.72783437e-03, 2.48766178e-03,
          7.97493849e-03, 4.71498910e-03, 4.18957882e-03, 8.00113287e-03,
          5.82822040e-02, -1.10377255e-03, 6.26061298e-03,
          -9.52571747e-04, -2.57767737e-04, -1.50507106e-03,
          -6.81466016e-04, -4.86914394e-03, 5.50809084e-04,
          -4.89491737e-03, -2.74902396e-03, 1.08768209e-03,
          -2.82456796e-03, 2.66517571e-04, 6.21420285e-03,
          -3.16016306e-03, -5.02477121e-03, -8.54412466e-03,
          -1.62803233e-02, -1.54908691e-02, -6.46010134e-03,
          -2.08133850e-02, -1.10278986e-02, -6.58696052e-03,
          -7.07940524e-03, -6.60908641e-03, -5.62052988e-03,
          -5.54325432e-03, -4.87682456e-03, -3.21253878e-03,
          -3.41816247e-03, -5.14071528e-03, -2.77137826e-03,
          -4.88612801e-03, -3.36087006e-03, -2.55795405e-03,
          -2.03153444e-03, -2.34372285e-03, -5.03445929e-03,
          -1.47645327e-03, -2.20498303e-03, -8.59249907e-04,
          -7.02970356e-05, -1.50758994e-03, 1.62308657e-04,
          1.60825625e-03, -6.27402565e-04, 4.00808034e-03,
          2.42225989e-03 ]
      - [ 7.60403275e-03, 3.51459510e-03, 2.06803647e-03, 9.37926525e-04,
          4.73465584e-03, 3.18114995e-04, 4.48799954e-04, 1.14381209e-03,
          -2.22068559e-03, -1.15517736e-03, -2.12186598e-03,
          -2.85129296e-03, -3.43870698e-03, -1.88493880e-03,
          -5.65022137e-03, -5.92796877e-03, -6.69300696e-03,
          -6.50591450e-03, -6.45247288e-03, -9.95055400e-03,
          -1.20838583e-02, -7.99950492e-03, 2.44759442e-03,
          1.92640275e-02, 9.76497773e-03, 7.13371765e-03, 5.63226175e-03,
          7.38269556e-03, 5.63226175e-03, 5.63226175e-03, 1.75043358e-03,
          0., 0., 7.22172670e-04, 1.07409630e-03, 4.78852162e-04,
          1.59635895e-03, 2.55937548e-03, -1.46373059e-03,
          -1.59343879e-04, -3.54531198e-03, -1.03686098e-03,
          -3.25997872e-03, -6.30195765e-03, -5.29156253e-03,
          -5.67422947e-03, -6.11714413e-03, 2.64192652e-02,
          -5.40278219e-02, 9.82395466e-03, 9.94740985e-03,
          1.01024006e-02, 8.33207648e-03, 7.02097593e-03, 9.65476688e-03,
          7.17391726e-03, 6.59441948e-03, 5.82756428e-03, 1.70855653e-02,
          2.32356391e-03, 2.00810302e-02, 3.05240154e-02, 1.59444881e-03,
          -1.32617448e-03, -1.54446186e-02, -2.81310175e-02,
          -2.35842876e-02, -1.46884164e-02, -2.96146870e-02,
          -2.04068329e-02, -1.24690328e-02, -4.55212547e-04,
          1.58813354e-02, 5.05500892e-03, 6.50942465e-03, 5.53789223e-03,
          6.83728606e-03, 5.63035160e-03, 4.13271599e-03, 0.,
          1.75043358e-03, 0., 0., 0., 2.56295782e-04, 2.91023549e-04,
          1.34970085e-03, -1.06957054e-03, -3.87212436e-04,
          -3.46269272e-03, 1.39597487e-05, -4.94264811e-03,
          -4.24656738e-03, -5.42160310e-03, -4.29785112e-03,
          -8.69351998e-03 ]
      - [ -5.79181500e-03, -6.31302036e-03, -5.92450472e-03,
          -5.90188010e-03, -3.19093070e-03, -3.90079408e-03,
          -2.81645684e-03, -2.78064143e-03, -2.93744099e-03,
          -3.09996353e-03, -2.21818872e-03, -2.88727856e-03,
          -2.06453819e-03, -1.99717167e-03, -3.22119519e-03,
          -2.04138667e-03, -1.07617397e-03, -1.42744021e-03,
          -4.31749417e-04, -1.72245817e-03, -1.07617397e-03,
          -6.60102756e-04, -2.28092587e-03, -1.30411726e-03,
          -9.26652923e-04, -1.86485460e-03, -2.13140482e-03,
          -2.78923777e-03, -1.10324724e-02, -9.32208076e-03,
          -7.73960957e-03, -5.85162733e-03, 1.03983679e-03,
          8.28481105e-04, 2.35831528e-03, 1.14802215e-02, 1.25177978e-02,
          2.82016606e-03, 1.03984224e-02, 3.60860070e-03, 3.47235682e-03,
          4.34319349e-03, 3.25921900e-03, 6.08715555e-03, 5.52874152e-03,
          7.47805648e-03, 8.85665696e-03, -3.86040248e-02,
          5.29919052e-03, -1.58501021e-03, 1.71818037e-03,
          5.75884152e-03, 4.46888944e-03, 1.17700864e-02, 4.12690686e-03,
          1.39935417e-02, 3.26686376e-03, 6.39912440e-03, 1.62340309e-02,
          3.26309656e-03, 1.67255029e-02, 1.78317539e-02, 2.50169542e-03,
          2.26986269e-03, -6.24477770e-03, -1.71369649e-02,
          -2.44582910e-02, -5.89484209e-03, -2.85186339e-02,
          -7.93311931e-03, -5.70822414e-03, -4.14219312e-03,
          -3.89264035e-03, -2.68389238e-03, -3.69530544e-03,
          -1.87618739e-03, -1.02223980e-03, -3.79734032e-04, 0.,
          -6.46284199e-04, -9.38201731e-04, -3.79734032e-04,
          -9.24383174e-04, -6.60102756e-04, -1.30411726e-03,
          -1.82512056e-04, -1.21977224e-04, 1.49994870e-04,
          1.91323832e-03, 1.29933620e-03, 2.38863775e-03, 4.61177784e-04,
          3.23563442e-03, 2.98539293e-03, 5.14281867e-03, 5.78160025e-03 ]
      - [ 1.31036257e-02, 1.02218343e-02, 7.46017322e-03, 1.87604800e-02,
          2.12195255e-02, 3.03651746e-02, 2.00663637e-02, 3.01780616e-04,
          -1.32569839e-04, 1.85833760e-02, 2.12154631e-02,
          2.21543442e-02, 1.88816134e-02, -3.29568447e-03,
          -7.20385695e-03, -5.42074535e-03, -7.83894584e-03,
          -9.63412039e-03, -6.50075078e-03, -1.21293431e-02,
          -1.44196087e-02, -9.06513352e-03, 3.13525321e-03,
          1.09145362e-02, 6.34123478e-03, 1.16944092e-03, 1.60474174e-05,
          6.32198714e-03, 4.08547139e-03, 0., -3.34795273e-04,
          -3.39531130e-03, -2.09327601e-03, -1.52684702e-03,
          -3.58278444e-03, -2.29534297e-03, -4.32815356e-03,
          -1.48980424e-03, -4.34129406e-03, -4.30810731e-03,
          -7.74627924e-03, -7.56992912e-03, -5.47750434e-03,
          -1.26742246e-02, -9.24404990e-03, -1.18520465e-02,
          -1.35442289e-02, 3.28518887e-04, -2.83469893e-02,
          -2.41451338e-02, 1.08491248e-02, 9.38517228e-03,
          8.20618682e-03, 8.28810874e-03, 1.06011257e-02, 5.36188856e-03,
          1.01014264e-02, 4.10802383e-03, 7.89620914e-03, 4.86665359e-03,
          1.45620608e-03, 9.68664419e-04, 4.65197954e-03,
          -1.76110974e-04, -1.82425533e-03, 6.06741465e-04,
          -1.64037035e-03, -4.73171426e-03, -2.96132313e-03,
          -7.51731265e-03, -2.85051065e-03, 6.46583783e-03,
          1.63396243e-02, 1.13441236e-02, 1.03317369e-02, 7.34113436e-03,
          8.65386892e-03, 6.08425448e-03, 8.78794212e-03, 2.45088153e-03,
          5.57366712e-03, 2.43317056e-03, 2.85470928e-03, 1.27020327e-03,
          6.27290399e-04, 4.59801545e-03, 1.20270415e-03, 9.44923726e-04,
          -7.42856762e-04, -4.09205025e-03, -1.28064083e-03,
          -3.06726177e-03, -7.47977570e-03, -4.83530713e-03,
          -9.85496212e-03, -1.12020606e-02 ]
      - [ 3.14778928e-03, 2.14417209e-03, 9.67609230e-04, 2.70242207e-02,
          3.52665111e-02, 2.77720727e-02, 2.74646711e-02,
          -3.52937076e-03, -2.50775181e-03, 1.82317123e-02,
          2.17026714e-02, 2.32087616e-02, 2.73990314e-02,
          -4.51791659e-03, -6.09066384e-03, -4.30359831e-03,
          -3.95258749e-03, -5.56344306e-03, -4.70884657e-03,
          -4.22148407e-03, -5.52533474e-03, -5.54672629e-03,
          -3.81500134e-03, -5.11399843e-03, -4.54688538e-03,
          -6.69868244e-03, -7.79771060e-03, -2.58342060e-03,
          -6.73835957e-03, -1.41747864e-02, -9.40417126e-03,
          -1.10014612e-02, -2.56879698e-03, -2.63450597e-03,
          -2.97711580e-03, 6.56098453e-03, 6.63830480e-03,
          -2.51886854e-03, 3.77758057e-03, -8.92000098e-04,
          -3.97488242e-03, -2.41937442e-03, -1.13794208e-03,
          -4.80834767e-03, -2.60343915e-03, -9.88947693e-04,
          -4.00821259e-03, -6.82919472e-02, 2.58403015e-04,
          -7.66894454e-03, 2.17071758e-03, 3.96438967e-03,
          4.37019393e-03, 4.35861247e-03, 6.45841472e-03, 7.37268059e-03,
          6.54637627e-03, 5.98766236e-03, 8.76425114e-03, 4.68852744e-03,
          5.22324536e-03, 5.06420666e-03, 4.05595219e-03, 6.00267062e-03,
          4.04168386e-03, 6.31031208e-03, 4.31950670e-03, 3.24344030e-03,
          4.55167424e-03, 6.15737075e-03, 3.40800802e-03, 4.35722852e-03,
          4.00709501e-03, 3.94073268e-03, 3.67457466e-03, 3.20008001e-03,
          2.80983676e-03, 3.03407549e-03, 4.78868093e-03, 2.24745856e-03,
          3.87635059e-03, 2.96942634e-03, 1.73038174e-03, 1.49636017e-03,
          1.32428494e-03, 3.93972406e-03, 1.50952244e-03, 1.83509395e-03,
          1.66541454e-03, 2.18257148e-04, 2.65115197e-03,
          -1.97621790e-04, -6.06117374e-06, 1.06316293e-03,
          -1.50946854e-03, -2.13894120e-04 ]
      - [ -4.52153850e-03, -4.16551391e-03, -4.00619535e-03,
          -3.76338768e-03, -5.09973103e-03, -1.52173429e-03,
          -3.00056883e-03, -6.00949978e-04, -8.85534682e-05,
          8.91223317e-04, 7.18816940e-04, 4.85298224e-04, 3.87376233e-04,
          0., 3.35943536e-03, 2.92750751e-03, 5.49877575e-03,
          6.01298036e-03, 7.65153067e-03, 5.06657828e-03, 1.19125471e-02,
          8.47287942e-03, -3.72878695e-03, -2.45988201e-02,
          -1.11051770e-02, -1.38353128e-02, -1.09477611e-02,
          -1.35771874e-02, -3.66837382e-02, -2.31447965e-02,
          -1.66265666e-02, -1.53286736e-02, 2.80183274e-03,
          1.60774053e-03, 2.39820732e-03, 2.29336414e-02, 2.55536716e-02,
          2.01136596e-03, 1.99426748e-02, 5.37080131e-03, 8.62064958e-03,
          5.11672208e-03, 8.27850495e-03, 1.42404614e-02, 1.31544210e-02,
          1.27106179e-02, 1.20118838e-02, -4.92718518e-02,
          3.40112187e-02, -3.35064135e-03, -5.60314814e-03,
          -3.89278145e-03, -2.99611595e-03, -2.08722847e-03,
          -5.85845672e-03, 5.76893159e-04, -3.57300905e-03,
          -6.93956448e-04, 1.98192452e-03, 7.18816940e-04,
          1.67939044e-03, 1.59149140e-03, 1.13413953e-04, 3.96483811e-03,
          3.52621963e-03, 5.78615256e-03, 5.61218942e-03, 8.15232098e-03,
          6.17352873e-03, 1.22999232e-02, 1.02656838e-02,
          -9.58695367e-04, -2.27883700e-02, -6.91456161e-03,
          -1.06688207e-02, -9.24350973e-03, -7.92359002e-03,
          -6.90859463e-03, -3.04092141e-03, -2.00853148e-03,
          -2.78558373e-03, -1.12244231e-03, -2.32655741e-03,
          -1.67939044e-03, -3.44899972e-03, -1.76106335e-03,
          -2.96370150e-03, -7.46999809e-04, -8.95643680e-05,
          2.29440955e-03, -9.65026498e-04, 3.71001731e-03,
          2.20719166e-03, 3.56947957e-03, 4.97127976e-03, 6.14363980e-03 ]
   uncompressed_sv_total: 89
   uncompressed_support_vectors:
      - [ -6., -3., -2., -1., -2., -1., -1., -1., -1., 0., -1., 0., -1.,
          0., 0., 0., 0., 0., 0., 0., 0., 0., 0., 0., 0., 0., 0., 0., 0.,
          0., 0., 0., 0., 0., 1., 0., 1., 0., 1., 1., 0., 1., 2., 2., 1.,
          2., 4., -16., 21., -6., -3., -2., -1., -2., -1., -1., -1., -1.,
          0., -1., 0., -1., 0., 0., 0., 0., 0., 0., 0., 0., 0., 0., 0.,
          0., 0., 0., 0., 0., 0., 0., 0., 0., 0., 1., 0., 1., 0., 1., 1.,
          0., 1., 2., 2., 1., 2., 4. ]
      - [ -5., -2., -2., -2., -1., -1., -1., -1., -1., 0., -1., -1., 0.,
          -1., 0., 0., 0., -1., 0., 0., 0., 0., 0., 0., 0., 0., 0., 0.,
          0., 0., 1., 0., 0., 1., 0., 1., 0., 1., 1., 0., 1., 1., 2., 1.,
          2., 2., 4., -18., 21., -5., -3., -2., -1., -2., -1., -1., 0.,
          -1., -1., 0., -1., 0., -1., 0., 0., -1., 0., 0., 0., 0., 0.,
          0., 0., 0., 0., 0., 0., 0., 0., 0., 1., 0., 0., 1., 0., 1., 1.,
          0., 1., 1., 1., 1., 2., 2., 2., 4. ]
      - [ -5., -3., -2., -1., -1., -1., -1., -1., -1., -1., 0., -1., 0.,
          0., -1., 0., 0., 0., -1., 0., 0., 0., 0., 0., 0., 0., 0., 0.,
          0., 1., 0., 0., 0., 1., 0., 1., 0., 1., 0., 1., 1., 1., 2., 1.,
          1., 3., 3., -17., 21., -5., -3., -2., -1., -1., -2., 0., -1.,
          -1., -1., 0., -1., 0., 0., -1., 0., 0., 0., -1., 0., 0., 0.,
          0., 0., 0., 0., 0., 0., 0., 1., 0., 0., 0., 1., 0., 1., 0., 1.,
          0., 1., 1., 1., 1., 2., 1., 2., 4. ]
      - [ -6., -3., -2., -1., -2., -1., -2., 0., -1., -1., 0., -1., 0.,
          -1., 0., 0., 0., 0., -1., 0., 0., 0., 0., 0., 0., 0., 0., 0.,
          1., 0., 0., 0., 0., 1., 0., 1., 0., 1., 1., 1., 0., 1., 2., 2.,
          1., 3., 4., -19., 21., -5., -3., -2., -1., -2., -1., -1., 0.,
          -1., -1., 0., -1., 0., -1., 0., 0., 0., 0., -1., 0., 0., 0.,
          0., 0., 0., 0., 0., 0., 1., 0., 0., 0., 0., 1., 0., 1., 0., 0.,
          1., 1., 1., 1., 1., 2., 1., 3., 4. ]
      - [ -6., -3., -2., -1., -2., -1., -1., 0., -1., -1., -1., 0., -1.,
          0., -1., 0., 0., 0., 0., 0., 0., 0., 0., 0., 0., 0., 0., 0.,
          0., 0., 0., 0., 0., 1., 0., 0., 1., 1., 0., 1., 1., 1., 1., 2.,
          1., 3., 3., -16., 21., -6., -3., -2., -2., -1., -1., 0., -1.,
          -1., -1., 0., -1., 0., -1., 0., 0., 0., 0., 0., 0., 0., 0., 0.,
          0., 0., 0., 0., 0., 0., 0., 0., 0., 1., 0., 0., 1., 1., 0., 1.,
          1., 0., 2., 1., 2., 1., 3., 3. ]
      - [ -5., -3., -2., -2., -1., -2., -1., 0., -1., -1., 0., -1., 0.,
          -1., 0., 0., 0., 0., 0., 0., 0., 0., 0., 0., 0., 0., 0., 0.,
          0., 0., 0., 0., 0., 1., 0., 1., 0., 1., 1., 0., 1., 1., 1., 2.,
          2., 2., 4., -17., 21., -5., -3., -2., -2., -1., -1., -1., -1.,
          -1., -1., 0., -1., 0., -1., 0., 0., 0., 0., 0., 0., 0., 0., 0.,
          0., 0., 0., 0., 0., 0., 0., 0., 0., 0., 1., 0., 1., 0., 1., 1.,
          0., 1., 1., 1., 2., 2., 2., 4. ]
      - [ -6., -3., -2., -2., -1., -1., 0., -1., -1., -1., 0., -1., 0.,
          0., -1., 0., 0., 0., 0., 0., 0., 0., 0., 0., 0., 0., 0., 0.,
          0., 0., 0., 0., 0., 1., 0., 0., 1., 0., 1., 1., 1., 0., 2., 1.,
          2., 3., 3., -16., 21., -6., -3., -2., -1., -2., -1., 0., -1.,
          -1., -1., 0., -1., 0., 0., -1., 0., 0., 0., 0., 0., 0., 0., 0.,
          0., 0., 0., 0., 0., 0., 0., 0., 0., 0., 1., 0., 0., 1., 0., 1.,
          1., 1., 0., 2., 1., 2., 3., 3. ]
      - [ -3., 0., -2., -2., -4., -6., -4., -18., 0., 0., 0., 28., 0.,
          0., 0., 0., 0., 0., 0., 0., 0., 0., 0., 0., 0., 0., 0., 0., 0.,
          0., 0., 0., 0., 0., 0., 0., 0., 0., 0., 0., 0., 0., 0., 0., 0.,
          0., 0., -28., 1., 0., 0., 0., 0., 0., 0., 0., 0., 0., 0., 0.,
          0., 0., 0., 0., 0., 0., 0., 0., 0., 0., 0., 0., 0., 0., 0., 0.,
          0., 0., 0., 0., 0., 0., 0., 0., 0., 0., 0., 0., 0., 0., 0., 0.,
          0., 0., 0., 0. ]
      - [ -1., 0., 0., 0., 1., 13., 4., 1., 0., 0., 0., 0., 0., 0., 0.,
          0., 0., 0., 0., 0., 0., 0., 0., 0., 0., 0., 0., 0., 0., 0., 0.,
          0., 0., 0., 0., 0., 0., 0., 0., 0., -1., -16., -2., 0., 0., 0.,
          1., -1., 20., 0., 0., 0., 0., 0., 0., 0., 0., 0., 0., 0., 0.,
          0., 0., 0., 0., 0., 0., 0., 0., 0., 0., 0., 0., 0., 0., 0., 0.,
          0., 0., 0., 0., 0., 0., 0., 0., 0., 0., 0., 0., -17., -2., 0.,
          0., 0., 0., 0. ]
      - [ -2., -4., -2., -2., -4., -2., -6., -4., -2., -6., -1., 0., 0.,
          0., 0., 0., 29., 0., 0., 0., 0., 0., 0., 0., 0., 0., 0., 0.,
          0., 0., 0., 0., 0., 0., 0., 0., 0., 0., 0., 0., 0., 0., 0., 0.,
          0., 0., 0., -29., 1., 0., 0., 0., 0., 0., 0., 0., 0., 0., 0.,
          0., 0., 0., 0., 0., 0., 0., 0., 0., 0., 0., 0., 0., 0., 0., 0.,
          0., 0., 0., 0., 0., 0., 0., 0., 0., 0., 0., 0., 0., 0., 0., 0.,
          0., 0., 0., 0., 0. ]
      - [ -2., -5., -6., -14., 0., 17., 2., 0., 0., 0., 0., 0., 0., 0.,
          0., 0., 0., 0., 0., 0., 0., 0., 0., 0., 0., 0., 0., 0., 0., 0.,
          0., 0., 0., 0., 0., 0., 0., 0., 0., 0., 0., 0., 0., -2., -2.,
          -13., 0., -2., 16., 0., 0., 0., 0., 0., 0., 0., 0., 0., 0., 0.,
          0., 0., 0., 0., 0., 0., 0., 0., 0., 0., 0., 0., 0., 0., 0., 0.,
          0., 0., 0., 0., 0., 0., 0., 0., 0., 0., 0., 0., 0., 0., 0., 0.,
          -1., -2., -12., 0. ]
      - [ 0., -2., 0., -1., -2., -2., -5., -3., -13., -9., 0., 0., 35.,
          0., 0., 0., 0., 0., 0., 0., 0., 0., 0., 0., 0., 0., 0., 0., 0.,
          0., 0., 0., 0., 0., 0., 0., 0., 0., 0., 0., 0., 0., 0., 0., 0.,
          0., 0., -35., 1., 0., 0., 0., 0., 0., 0., 0., 0., 0., 0., 0.,
          0., 0., 0., 0., 0., 0., 0., 0., 0., 0., 0., 0., 0., 0., 0., 0.,
          0., 0., 0., 0., 0., 0., 0., 0., 0., 0., 0., 0., 0., 0., 0., 0.,
          0., 0., 0., 0. ]
      - [ -4., -5., -7., -3., -9., 0., 18., 1., 1., 0., 0., 0., 0., 0.,
          0., 0., 0., 0., 0., 0., 0., 0., 0., 0., 0., 0., 0., 0., 0., 0.,
          0., 0., 0., 0., 0., 0., 0., 0., 0., 0., 0., 0., -1., 0., -3.,
          -14., 0., -2., 20., 0., 0., 0., 0., 0., 0., 0., 0., 0., 0., 0.,
          0., 0., 0., 0., 0., 0., 0., 0., 0., 0., 0., 0., 0., 0., 0., 0.,
          0., 0., 0., 0., 0., 0., 0., 0., 0., 0., 0., 0., 0., 0., 0.,
          -1., 0., -3., -15., 0. ]
      - [ -2., 0., 0., -2., -2., -5., -11., -15., -1., 0., 34., 0., 0.,
          0., 0., 0., 0., 0., 0., 0., 0., 0., 0., 0., 0., 0., 0., 0., 0.,
          0., 0., 0., 0., 0., 0., 0., 0., 0., 0., 0., 0., 0., 0., 0., 0.,
          0., 2., -36., 2., -1., 0., 0., 0., 0., 0., 0., 0., 0., 0., 0.,
          0., 0., 0., 0., 0., 0., 0., 0., 0., 0., 0., 0., 0., 0., 0., 0.,
          0., 0., 0., 0., 0., 0., 0., 0., 0., 0., 0., 0., 0., 0., 0., 0.,
          0., 0., 0., 1. ]
      - [ -2., -3., -3., -18., 0., 17., 1., 0., 0., 0., 0., 0., 0., 0.,
          0., 0., 0., 0., 0., 0., 0., 0., 0., 0., 0., 0., 0., 0., 0., 0.,
          0., 0., 0., 0., 0., 0., 0., 0., 0., 0., 0., 0., 0., -1., -2.,
          -15., 0., 0., 19., 0., 0., 0., 0., 0., 0., 0., 0., 0., 0., 0.,
          0., 0., 0., 0., 0., 0., 0., 0., 0., 0., 0., 0., 0., 0., 0., 0.,
          0., 0., 0., 0., 0., 0., 0., 0., 0., 0., 0., 0., 0., 0., 0., 0.,
          -1., -2., -15., 0. ]
      - [ -1., -3., -3., -5., -14., 0., 15., 3., 0., 0., 0., 0., 0., 0.,
          0., 0., 0., 0., 0., 0., 0., 0., 0., 0., 0., 0., 0., 0., 0., 0.,
          0., 0., 0., 0., 0., 0., 0., 0., 0., 0., 0., 0., 0., -2., -1.,
          -15., 0., 0., 20., 0., 0., 0., 0., 0., 0., 0., 0., 0., 0., 0.,
          0., 0., 0., 0., 0., 0., 0., 0., 0., 0., 0., 0., 0., 0., 0., 0.,
          0., 0., 0., 0., 0., 0., 0., 0., 0., 0., 0., 0., 0., 0., 0., 0.,
          -3., -1., -15., 0. ]
      - [ -8., -6., -5., -6., 0., 0., 1., 18., 0., 0., 0., 0., 0., 0.,
          0., 0., 0., 0., 0., 0., 0., 0., 0., 0., 0., 0., 0., 0., 0., 0.,
          0., 0., 0., 0., 0., 0., 0., 0., 0., 0., 0., 0., 0., 0., -17.,
          0., 0., -2., 16., 0., 0., 0., 0., 0., 0., 0., 0., 0., 0., 0.,
          0., 0., 0., 0., 0., 0., 0., 0., 0., 0., 0., 0., 0., 0., 0., 0.,
          0., 0., 0., 0., 0., 0., 0., 0., 0., 0., 0., 0., 0., 0., 0., 0.,
          0., -15., 0., 0. ]
      - [ -6., -4., -1., -3., -1., -1., -1., 0., -1., 0., 0., 0., 0., 0.,
          2., 1., 34., -2., 0., -1., -1., -2., 0., -2., -1., -1., -2.,
          -3., -1., -2., -2., -1., -2., -1., -1., -3., -2., -1., -1.,
          -2., -1., -1., -1., -1., 0., 0., 0., 0., 19., -7., -3., -1.,
          -2., -1., -1., -1., 0., -1., 0., 0., 0., 0., 0., 1., 0., 1.,
          0., 1., 1., 1., 2., 1., 1., 4., 1., 2., 2., 1., 2., 2., 2., 1.,
          2., 1., -30., 0., 1., 0., 0., 0., 0., 1., 0., 0., 0., 1. ]
      - [ -5., -2., -1., -2., -2., -1., 0., -1., -1., 0., 0., -1., 0.,
          0., 0., 0., 32., -1., 0., -1., -2., -2., -1., -1., -3., -1.,
          -2., -2., -1., -2., -1., -1., -2., -2., -1., -2., -1., -1.,
          -1., -1., -1., -1., 0., 0., 0., 0., 0., 0., 17., -4., -3., -1.,
          -2., -1., -2., 0., -1., 0., 0., 0., 0., 0., 0., 0., 0., 0., 1.,
          0., 1., 1., 1., 1., 2., 1., 1., 2., 2., 1., 1., 2., 1., 2., 2.,
          2., 1., 2., 2., 1., 1., 2., 1., -36., 0., 0., 0., 0. ]
      - [ -8., -4., -2., -3., 0., 0., 0., 0., 0., 0., 36., 0., 0., 0.,
          0., -1., 0., -1., -1., -1., -1., -2., 0., -1., -2., -2., -2.,
          -1., -2., -2., -2., -2., -1., -2., -2., -1., -2., -1., -2.,
          -2., -2., -2., 0., 0., 0., 0., 0., 0., 18., -6., -3., -2., -2.,
          -1., -1., -1., -1., 0., 0., 0., 0., 0., 0., 0., 0., 0., 1., 0.,
          1., 1., 1., 2., 0., 2., 0., 2., 2., 2., 1., 2., 1., 2., 2., 3.,
          1., 1., 2., 2., 2., 1., 2., -36., 0., 0., 0., 0. ]
      - [ -9., -4., -3., 0., 0., 0., 0., 0., 0., 35., 1., 0., 0., 0., 0.,
          -1., 0., -1., -1., -1., 0., -2., -1., -1., -1., -1., -2., -2.,
          -1., -2., -2., -1., -2., -2., -2., -1., -2., -2., -2., -1.,
          -2., -1., 0., 0., 0., 0., 0., 0., 23., -7., -4., -1., -2., -2.,
          0., -1., -1., 0., -1., 0., 0., 0., 0., 0., 0., 1., 0., 1., 1.,
          0., 1., 1., 1., 1., 1., 2., 1., 2., 1., 2., 1., 2., 2., 2., 2.,
          1., 2., 2., 1., 2., 3., -39., 0., 0., 0., 0. ]
      - [ -6., -3., -1., -2., -2., -1., 0., -1., -1., 0., -1., 0., 0.,
          33., 0., 0., 0., 0., -1., 0., -1., -1., 0., -1., -1., -1., -1.,
          -1., -1., 0., -2., -1., -1., -2., -1., -2., -2., -2., -1., -2.,
          -1., -1., -2., -3., -1., -1., 0., 0., 23., -6., -3., -2., -2.,
          -1., -2., 0., -1., 0., -1., 0., 0., 0., 0., 0., 1., 0., 1., 0.,
          1., 1., 1., 1., 1., 1., 1., 2., 1., 1., 2., 1., 1., 2., 2., 1.,
          1., 2., 1., -30., 0., 1., 0., 1., 0., 1., 0., 1. ]
      - [ -7., -4., -3., -2., -1., -1., -1., 0., -1., 0., 0., 0., 0., 1.,
          0., 1., 1., 31., -1., -1., -1., -2., -1., -1., -3., -1., -2.,
          -2., -1., -2., -1., -1., -1., -2., -2., -1., -1., -1., -1., 0.,
          -1., -1., -1., 0., -1., 0., -1., 0., 21., -7., -4., -2., -2.,
          -1., -1., -1., -1., 0., 0., 0., 0., 0., 0., 0., 1., 0., 1., 1.,
          2., 1., 2., 1., 1., 3., 2., 2., 2., 2., 2., 2., 1., 2., 2., 1.,
          -32., 1., 0., 0., 0., 0., 1., 0., 0., 0., 1., 0. ]
      - [ -9., -4., -1., 0., 0., 0., 0., 0., 0., 0., 0., 0., 32., 0., 0.,
          0., -1., 0., -1., 0., -1., 0., -1., -1., -1., -1., -1., -1.,
          -1., -1., -1., -2., -1., -1., -2., -2., -1., -2., -2., -2.,
          -1., -2., -2., -1., -2., 0., 0., 0., 21., -7., -3., -3., 0.,
          -2., -1., -1., 0., -1., 0., 0., 0., 0., 0., 1., 0., 0., 1., 0.,
          1., 1., 1., 1., 1., 1., 0., 2., 1., 2., 0., 2., 2., 1., 1., 2.,
          2., 1., 1., 2., 2., 1., -32., 0., 0., 0., 0., 0. ]
      - [ -4., -3., -1., -2., -1., -1., -1., -1., 0., 0., -1., 0., 0.,
          34., -1., 0., -1., -2., -1., -3., -7., 0., 0., 0., 0., 7., 4.,
          3., 0., 1., 1., 0., -37., 0., 0., 0., 0., 1., 0., 0., 1., 1.,
          1., 2., 1., 3., 3., -13., 17., -4., -3., -1., -2., -1., -1.,
          -1., 0., -1., 0., 0., 0., 0., 0., 0., 1., 0., 1., 0., 2., 2.,
          3., 0., -3., -3., -1., -1., -1., 0., -1., 0., -1., 0., 0., 0.,
          0., 0., 1., 0., 1., 1., 0., 2., 1., 1., 3., 4. ]
      - [ -7., -3., -3., -1., -1., -1., -1., -1., 0., -1., 38., 0., -1.,
          0., -3., 0., -2., -2., -4., -3., -5., -2., 10., 3., 3., 3., 2.,
          2., 1., 0., 1., 0., 1., 0., 0., 0., 0., -1., -1., 0., -2., -3.,
          -35., 0., 0., 1., 3., -4., 19., -6., -3., -1., -2., -1., -1.,
          0., 0., 0., 0., 0., 0., 1., 1., 2., 1., 1., 2., 4., -5., -2.,
          -4., -1., -1., -1., -1., 0., -1., 0., 0., 0., 0., 0., 0., 0.,
          0., 1., 1., 1., 0., 1., 2., 3., 2., 4., 3., 7. ]
      - [ -5., -5., -2., -1., -1., -1., 0., -1., 0., 0., 0., 1., 2., 33.,
          -1., -1., 0., -2., -2., -4., -3., -7., 0., 8., 7., 3., 2., 0.,
          1., 1., 0., 2., 0., -37., -2., -1., -1., 0., 0., 0., 0., 1.,
          1., 2., 1., 3., 5., -13., 22., -7., -3., -3., -1., -1., -1.,
          -1., 0., -1., 0., 0., 0., 0., 1., 0., 1., 0., 2., 1., 4., 1.,
          4., -4., -2., -4., -2., -1., -1., -1., -1., 0., -1., 0., 0.,
          0., 0., 0., 1., 0., 1., 0., 2., 1., 2., 1., 4., 4. ]
      - [ -9., -4., -2., -1., -2., -1., 0., -2., -1., 0., -1., 0., 37.,
          0., -1., -1., 0., -2., -3., -6., -6., 0., 0., 0., 2., 8., 4.,
          2., 1., 2., 0., 1., 0., 0., -36., -3., 0., 1., 0., 1., 0., 2.,
          1., 2., 1., 3., 3., -14., 22., -9., -4., -2., -1., -1., -1.,
          -1., 0., -1., 0., 0., 0., 0., 0., 1., 0., 1., 1., 1., 2., 1.,
          3., -1., -2., -2., -2., -1., -1., -1., 0., -1., 0., 0., 0., 0.,
          0., 1., 0., 0., 1., 0., 2., 1., 2., 1., 3., 3. ]
      - [ -8., -5., -1., 0., 0., 0., 0., 0., 31., 0., 1., 0., 0., 0.,
          -1., 0., -1., -2., -3., -6., -14., 0., 0., 0., 0., 15., 7., 3.,
          2., 1., 1., 0., 1., 0., 0., 0., -1., -1., -36., 0., 0., 0., 0.,
          0., 0., 2., 6., -8., 22., -6., -4., -3., -1., -2., -1., -1.,
          0., -1., 0., 0., 0., 0., 1., 0., 0., 1., 1., 2., 2., 3., 3.,
          0., -5., -3., -2., -2., -1., -1., -1., 0., 0., 0., 0., 0., 0.,
          0., 0., 1., 1., 1., 1., 2., 2., 2., 4., 4. ]
      - [ -6., -4., -2., -2., -1., -1., -1., 0., -1., 0., 0., 0., 0., 2.,
          36., -1., -1., -2., -2., -6., -7., -1., 1., 1., 12., 4., 2.,
          2., 1., 0., 1., 0., -43., 0., 0., 0., 0., 0., 0., 1., 0., 1.,
          2., 1., 2., 3., 4., -14., 20., -6., -3., -2., -2., -1., -1.,
          -1., 0., 0., -1., 0., 0., 0., 0., 1., 0., 0., 1., 2., 1., 2.,
          1., -3., -1., -2., -1., -1., -1., -1., 0., 0., 0., 0., 0., 0.,
          0., 0., 0., 1., 0., 1., 1., 1., 2., 2., 3., 5. ]
      - [ -10., -4., 0., 0., 0., 0., 0., 0., 0., 0., 0., 0., 33., -1.,
          -1., -1., -1., -1., -2., -4., -10., 0., 0., 0., 15., 2., 3.,
          2., 2., 1., 0., 1., 0., 0., 0., -38., 0., 0., 0., 0., 0., 0.,
          0., 0., 0., 0., 6., -6., 23., -7., -4., -3., -1., -1., -1., 0.,
          -1., 0., 0., 0., 0., 1., 0., 1., 1., 2., 1., 2., 3., -1., -3.,
          -3., -2., -2., -1., -1., -1., -1., 0., 0., 0., 0., 0., 0., 0.,
          0., 0., 1., 1., 1., 2., 2., 1., 3., 3., 5. ]
      - [ -8., -6., -2., 0., 0., 0., 0., 0., 0., 35., 0., 0., 0., -1.,
          -1., -1., -1., -4., -3., -8., 0., 0., 0., 0., 10., 6., 1., 2.,
          1., 0., 1., 0., 0., 0., 0., -1., -1., -36., 0., 0., 0., 0., 0.,
          0., 0., 4., 6., -10., 21., -7., -4., -2., -2., -1., -1., -1.,
          -1., 0., 0., 0., 0., 0., 1., 0., 1., 2., 1., 1., 3., 3., 0.,
          -4., -3., -2., -2., -1., 0., -1., 0., 0., 0., 0., 0., 0., 0.,
          0., 0., 1., 1., 1., 1., 1., 2., 3., 3., 4. ]
      - [ -1., -2., 0., -1., -1., -2., 0., -1., -1., -2., 0., -1., -1.,
          -2., 0., -1., -2., -1., 0., -1., -2., -1., -1., 0., -2., -1.,
          -1., 0., -2., -1., -1., 0., 0., 30., 0., 0., 0., 0., 0., 0.,
          0., 0., -1., 0., 0., -5., -6., -18., 13., 0., 0., 0., 0., 0.,
          0., 0., 0., 0., 0., 0., 0., 0., 0., 0., 0., 0., 0., 0., 0., 0.,
          0., 0., 0., 0., 0., 0., 0., 0., 0., 0., -12., 0., 12., 0., 0.,
          0., 0., 0., 0., 0., 0., 0., -1., -1., -4., -6. ]
      - [ -1., -1., -1., -1., -1., -1., -1., -1., -1., -1., -1., -1.,
          -1., -1., -1., -1., -1., -1., -1., -1., -1., -2., 0., -2., -1.,
          -1., -1., -1., -1., -1., -1., 0., 0., 30., 0., 0., 0., 0., 0.,
          0., 0., 0., 0., -1., -1., -9., 0., -19., 13., 0., 0., 0., 0.,
          0., 0., 0., 0., 0., 0., 0., 0., 0., 0., 0., 0., 0., 0., 0., 0.,
          0., 0., 0., 0., 0., 0., 0., 0., 0., 0., 0., -12., 0., 12., 0.,
          0., 0., 0., 0., 0., 0., 0., 0., -1., -1., -9., 0. ]
      - [ -1., -1., -1., -1., -1., -1., -1., -1., 0., -2., -1., -1., -1.,
          -1., -1., -1., -1., 0., -2., -1., 0., -2., -1., -1., -1., -1.,
          -1., -1., -1., 0., -2., -1., 0., 0., 0., 0., 33., 0., 0., 0.,
          0., 0., 0., 0., 0., 0., 0., -33., 10., 0., 0., 0., 0., 0., 0.,
          0., 0., 0., 0., 0., 0., 0., 0., 0., 0., 0., 0., 0., 0., 0., 0.,
          0., 0., 0., 0., 0., 0., 0., 0., 0., 0., -9., 0., 0., 0., 9.,
          0., 0., 0., 0., 0., 0., 0., 0., 0., 0. ]
      - [ -1., -1., -1., -1., -1., -1., -1., -1., -1., -1., -1., -1.,
          -1., -1., -1., -1., -1., 0., -2., -1., -1., 0., -2., -1., -1.,
          -1., -1., -1., -1., 0., 0., 0., 0., 0., 0., 30., 0., 0., 0.,
          0., 0., 0., 0., 0., 0., 0., 0., -30., 10., 0., 0., 0., 0., 0.,
          0., 0., 0., 0., 0., 0., 0., 0., 0., 0., 0., 0., 0., 0., 0., 0.,
          0., 0., 0., 0., 0., 0., 0., 0., -9., 0., 0., 0., 0., 0., 9.,
          0., 0., 0., 0., 0., 0., 0., 0., 0., 0., 0. ]
      - [ -1., -1., 0., -1., -2., 0., -1., -1., -1., -1., -1., -1., 0.,
          -1., -1., -1., -1., -1., -1., 0., -2., -1., -1., 0., -1., -2.,
          0., -1., -1., -1., -1., -1., -1., 0., 0., 0., 33., 0., 0., 0.,
          0., 0., 0., 0., 0., 0., 0., -33., 13., 0., 0., 0., 0., 0., 0.,
          0., 0., 0., 0., 0., 0., 0., 0., 0., 0., 0., 0., 0., 0., 0., 0.,
          0., 0., 0., 0., 0., 0., 0., 0., 0., 0., 0., -12., 0., 0., 12.,
          0., 0., 0., 0., 0., 0., 0., 0., 0., 0. ]
      - [ -1., -1., -1., -1., -1., -1., -1., -1., -1., -1., -1., -1.,
          -1., -1., -1., -1., -1., -1., -1., -1., -1., -1., -2., 0., -2.,
          -1., -1., 0., -2., -1., -1., 0., 0., 30., 0., 0., 0., 0., 0.,
          0., 0., 0., 0., -1., 0., -11., 0., -18., 13., 0., 0., 0., 0.,
          0., 0., 0., 0., 0., 0., 0., 0., 0., 0., 0., 0., 0., 0., 0., 0.,
          0., 0., 0., 0., 0., 0., 0., 0., 0., 0., 0., -12., 0., 12., 0.,
          0., 0., 0., 0., 0., 0., 0., 0., -1., -2., -9., 0. ]
      - [ 0., 0., 0., -1., 0., 0., 0., 0., 0., 0., 0., 0., 0., 0., -1.,
          0., 0., 0., 0., 0., 0., 0., 0., 0., 0., -1., 42., 0., 1., 0.,
          0., 0., 0., 0., 0., -1., 0., -1., -42., 0., 0., 1., 2., 2., 1.,
          3., 3., -12., 4., 0., 0., 38., 0., 0., 0., 0., 0., 0., 0., 0.,
          1., 0., 0., 0., 0., -24., -5., -4., -2., -1., -1., -1., -2.,
          0., -1., -1., 0., 0., 0., 0., 0., 0., 0., 0., 0., 0., 1., 1.,
          1., 0., 1., 2., 1., 2., 3., 2. ]
