%YAML:1.0
---
opencv_ml_svm:
   format: 3
   svmType: C_SVC
   kernel:
      type: LINEAR
   C: 1.
   term_criteria: { iterations:100 }
   var_count: 191
   class_count: 10
   class_labels: !!opencv-matrix
      rows: 10
      cols: 1
      dt: i
      data: [ 0, 1, 2, 3, 4, 5, 6, 7, 8, 9 ]
   sv_total: 45
   support_vectors:
      - [ -2.20968295e-03, 2.16151634e-03, 4.13108245e-03,
          7.04683131e-03, 7.22124428e-03, 7.05767050e-03, 5.32429432e-03,
          4.73491289e-03, -4.16005169e-05, 3.68010532e-03,
          -4.19024960e-04, 2.30791024e-03, -6.89818384e-03,
          -4.51280084e-03, -8.44490435e-03, -8.34698323e-03,
          -7.76075060e-03, -5.86645072e-03, 1.77806627e-03,
          7.59636692e-04, -6.90995343e-03, -6.01807237e-03,
          -1.37894992e-02, -1.85664222e-02, -1.77365411e-02,
          -7.25453719e-03, -6.25226647e-04, -4.04543709e-03,
          -5.67886466e-03, -1.50684966e-02, -1.28374295e-02,
          -1.41061684e-02, -1.35392859e-03, -4.38661827e-03,
          -3.55839962e-03, -2.26812134e-03, -4.70181601e-03,
          -9.79856309e-03, -1.12095168e-02, -4.11412120e-03,
          -2.31853468e-04, -1.32083159e-03, -9.77924792e-05,
          6.66591863e-04, 1.33384956e-05, 6.93237758e-04,
          -2.26652902e-03, 9.42755258e-04, -5.01398463e-04,
          4.00563295e-04, -2.11271108e-04, 6.93024660e-04,
          1.49937172e-04, -1.96720066e-04, 1.49068900e-03,
          -1.71417152e-04, 1.65761099e-03, -1.43651350e-03,
          1.81489508e-04, 1.03960570e-03, 3.22439359e-03, 3.91060894e-04,
          1.14797777e-03, 4.36376140e-04, 1.04357500e-03, 1.23698512e-04,
          7.42924283e-04, -5.29347511e-04, 3.92898684e-03,
          1.61566844e-04, 2.21472280e-03, 2.68457254e-04, 2.02457001e-03,
          2.06281012e-03, -2.65149691e-04, 1.07830705e-03,
          4.40168893e-03, 2.28698668e-03, 2.96046818e-03, 6.37733750e-03,
          3.51637253e-03, 3.54643725e-03, 1.30111342e-02, 1.29671050e-02,
          2.10297555e-02, 9.91752930e-03, 1.34531213e-02, 9.62298550e-03,
          1.17748622e-02, 1.01451855e-02, 1.37447137e-02, 1.90860201e-02,
          1.37872668e-02, 3.52795119e-04, -3.67098534e-03,
          1.62619203e-02, -2.69008079e-03, 1.46016367e-02,
          -8.17715190e-03, -4.81041614e-03, -6.59314077e-03,
          -3.84742185e-03, -4.68153600e-03, -3.14408005e-03,
          -4.58417600e-03, -3.73558863e-03, -3.24435346e-03,
          -3.26444418e-03, -3.13317840e-04, -3.61392973e-03,
          -3.21387663e-03, -1.85850239e-03, -1.97016681e-03,
          -2.03719991e-03, -3.10483295e-03, -1.72737846e-03,
          -3.58366407e-03, 5.18246205e-04, -4.95969543e-05,
          -6.03393186e-04, -1.76066987e-03, -1.01995305e-03,
          -7.15073722e-04, -2.35008984e-03, -6.65554951e-04,
          8.77337821e-04, -2.82527460e-03, -8.26284231e-04,
          9.37325458e-05, -1.08049531e-03, -3.77477962e-04,
          -2.84035993e-03, 4.12579742e-04, 1.96095600e-04,
          -7.33379682e-04, 8.06685013e-04, -1.55621892e-04,
          -8.38793640e-04, -3.13201657e-04, 5.09923790e-04,
          -7.33379682e-04, 9.67098284e-04, 9.95939830e-04,
          -5.69731870e-04, -1.59208453e-03, -4.81799187e-04,
          -3.48439644e-04, -3.39777071e-05, 8.02967988e-04,
          1.90595328e-03, 1.80138639e-04, -1.63836079e-03,
          -1.43496261e-03, 2.95651524e-04, 2.46767246e-04,
          -3.64296167e-04, 1.29996228e-03, 2.11674953e-03,
          2.56721134e-04, -1.82048953e-03, 1.76907412e-03,
          6.51098439e-04, 1.84118006e-04, 3.28868919e-04, 2.11718585e-03,
          1.25895953e-04, 6.81686855e-04, -3.79824254e-04,
          2.31681252e-03, 1.55447295e-03, 3.25663481e-04, 1.08301616e-03,
          1.29203580e-03, -1.71344873e-04, 1.15604629e-03,
          4.28049732e-03, 1.78109168e-03, 1.36194732e-02, 1.36110531e-02,
          1.35424966e-02, 1.68341817e-03, 6.09580474e-03, 1.01128872e-02,
          1.10937264e-02, 1.33075314e-02, 1.11521631e-02, 1.26450509e-02,
          1.87547430e-02, 1.77994017e-02, 1.76966246e-02, 7.05125649e-03 ]
      - [ 9.70773399e-04, 8.72614677e-04, -1.27247607e-04,
          7.24971120e-04, 3.98138247e-04, -8.02183567e-05,
          -1.42553516e-04, 4.11093642e-05, -3.67567263e-04,
          1.35538867e-04, -1.57965915e-05, -1.85881552e-04,
          2.76228184e-05, -5.32901264e-04, 2.60736444e-04,
          -2.62935442e-04, -2.36490712e-04, -2.04316355e-04,
          -8.62622401e-05, -1.52194733e-03, -9.50817252e-04,
          -2.82642734e-03, -2.76223384e-03, -2.82277376e-03,
          -1.81270367e-03, -1.04646228e-04, -1.61019107e-03,
          -2.75982870e-03, -4.56778007e-03, -6.44826936e-03,
          -5.36610372e-03, -3.67189152e-03, -5.41856280e-04,
          -2.39745923e-03, -2.81509641e-03, -5.66764083e-03,
          -6.64456096e-03, -7.25610880e-03, -4.58331779e-03,
          -4.42466902e-04, 3.59028723e-04, 4.88624908e-04,
          4.43997124e-04, 1.01055868e-03, 2.00606883e-04, 7.24326936e-04,
          6.45087450e-04, 1.93490574e-04, 8.18192260e-04, 6.88049535e-04,
          6.10848772e-04, 8.49506119e-04, 3.52940784e-04, 6.71387475e-04,
          9.62686550e-04, 6.83745369e-04, 6.05833076e-04, 9.56203672e-04,
          7.66386336e-04, 6.80636440e-04, 7.50163570e-04, 7.85245677e-04,
          6.42361701e-04, 8.54606915e-04, 7.74726388e-04, 4.08397987e-04,
          1.08143548e-03, 6.93360518e-04, 7.83034484e-04, 8.45680188e-04,
          5.95251156e-04, 4.82261908e-04, 1.18592521e-03, 6.19464088e-04,
          9.61227634e-04, 8.39386252e-04, 7.80502916e-04, 4.41527722e-04,
          7.90686405e-04, 9.44897882e-04, 9.87695879e-04, 3.30181356e-04,
          7.94385676e-04, 1.02563959e-03, 3.23295098e-04, 8.90294788e-04,
          8.27465614e-04, 1.04109594e-03, 1.02819002e-03, 4.95058426e-04,
          6.92170463e-04, 1.63553155e-03, 1.03517226e-03, 7.46563543e-04,
          -1.02140685e-03, -1.00596277e-02, -1.55479982e-02,
          -1.18007930e-02, 2.21660899e-04, 3.71818256e-04,
          5.19142413e-05, 2.95028531e-05, 1.59169198e-04,
          -3.24530731e-04, 4.50278254e-04, -4.09659871e-04,
          8.29743512e-05, -8.14330706e-05, 2.22758499e-05,
          -5.22423252e-05, -2.69886630e-04, -6.15027432e-07,
          2.78787775e-04, -3.27498710e-04, -1.81062642e-04,
          -1.55524976e-04, -4.40366624e-04, 3.24972571e-05,
          -1.87626953e-04, -2.39809917e-04, 2.81300076e-04, 0.,
          -4.06357402e-04, -2.37899789e-04, 0., -2.40540612e-04,
          -1.33253561e-04, -2.49927270e-05, -3.02160974e-04,
          -2.97040824e-04, -1.45499973e-04, -5.09610458e-04,
          -2.19641603e-04, -3.60790873e-04, -3.04040732e-04,
          -2.70137651e-04, -5.30081335e-04, -3.37006466e-04,
          -4.29754087e-04, -4.48368402e-04, -5.26918797e-04,
          -5.78138919e-04, -8.58263345e-04, -2.50984711e-04,
          -3.72763810e-04, -5.85968373e-04, -6.28334004e-04,
          -5.52232203e-04, -6.32206851e-04, -8.01529968e-04,
          -7.63319025e-04, -3.64924083e-04, -6.25038869e-04,
          -7.69015169e-04, -5.37119282e-04, -1.02485507e-03,
          -1.06511521e-03, -4.01872327e-04, -6.25969144e-04,
          -3.42336280e-04, -5.34656399e-04, -5.24994917e-04,
          -4.00253339e-04, -5.89510775e-04, -1.00085384e-03,
          2.49295239e-03, 7.44787790e-03, 6.97180023e-03, 4.33021365e-03,
          2.68569915e-03, 2.35160347e-03, 2.69078370e-03,
          -2.40266541e-04, 7.78329209e-04, 8.20132322e-04,
          1.52939279e-03, 6.85692532e-03, 7.57302949e-03, 7.95010105e-03,
          2.37485208e-03, 4.35504783e-03, 4.67037782e-03, 3.64289759e-03,
          1.67730404e-03, 5.31816273e-04, 6.93173672e-04, 5.66958333e-04,
          7.44471850e-04, 9.93872993e-04, 8.59415159e-04, 1.07006310e-03 ]
      - [ -6.04350171e-05, 4.66948579e-04, 3.21498694e-04,
          8.09585326e-05, 4.45874262e-04, -3.38628626e-04,
          -2.78050342e-04, -1.77243310e-05, -1.99731876e-04,
          1.89307160e-04, -4.86844685e-04, -1.76253583e-04,
          -3.64853986e-05, -1.93108048e-04, -2.98528787e-04,
          1.23983962e-04, -3.45289707e-04, -1.07799038e-04,
          -1.33130059e-03, -3.45269335e-03, -6.80567697e-03,
          -5.88061847e-03, -5.58519084e-03, -5.80767635e-03,
          -6.07834850e-03, -5.85776987e-03, -4.87095397e-03,
          -5.39166853e-03, -1.03550879e-02, -7.55433831e-03,
          -8.98269750e-03, -9.54273529e-03, -7.80418469e-03,
          -7.98294414e-03, 1.05630746e-03, 8.28347285e-04,
          9.36258759e-04, 1.89576717e-03, 2.50065653e-03, 3.66686191e-03,
          3.17949802e-03, 2.17913114e-03, 1.26569858e-03, 3.32179014e-04,
          4.65642624e-05, -2.61233276e-04, -6.28686161e-04,
          -1.25987048e-03, -1.24054437e-03, -2.30523618e-03,
          -2.41576903e-03, -2.91340379e-03, -3.56857991e-03,
          -5.10966126e-03, -2.91691883e-03, -2.61627370e-03,
          -8.83811328e-04, -5.82940527e-04, -3.54520540e-04,
          -2.14970380e-04, 4.01546713e-03, 3.77501152e-03,
          3.93488910e-03, 3.97507660e-03, 7.63866073e-03, 8.06578808e-03,
          5.50125493e-03, 4.20313794e-03, 4.53773187e-03, 6.53070118e-03,
          5.39573422e-03, 5.17085241e-03, 1.96947320e-03, 5.47674892e-04,
          5.65354771e-04, 2.07933597e-03, 3.75269400e-03, 5.18292747e-03,
          5.65304747e-03, 3.67328455e-03, 2.72050500e-03, 6.11583993e-04,
          3.02173430e-04, 3.71821178e-03, 5.21137426e-03, 6.17477018e-03,
          1.45071733e-03, 3.53006064e-04, 8.56260012e-05, 2.01772673e-05,
          7.79035618e-04, 6.44393731e-04, -1.18327269e-04,
          -2.49495526e-04, -1.00891595e-03, -3.15993372e-03,
          -6.85283681e-03, -5.81358746e-03, -1.28242158e-04,
          1.44697697e-04, 1.89609593e-04, -1.73941124e-04,
          -3.76491749e-04, -4.89333179e-05, 3.69999143e-05,
          -1.73550652e-04, -3.74160649e-04, 4.40203985e-05,
          2.17306706e-06, -4.45903745e-04, -1.49420477e-04,
          -6.52201925e-05, -2.38065521e-04, -4.93427506e-04,
          6.34702737e-05, -9.54251936e-06, -1.86333462e-04,
          -3.73643124e-05, -5.07870398e-04, -1.19354016e-04,
          -2.01608083e-04, -1.68564278e-04, -1.47403814e-04,
          -2.67176976e-04, -4.21541103e-04, -4.39270836e-04,
          -2.93639401e-04, -4.78445902e-04, -2.47968448e-04,
          -5.49180608e-04, -6.98927091e-04, -5.96712576e-04,
          -6.68053865e-04, -5.53991180e-04, -4.19548858e-04,
          -4.38700430e-04, -6.36041164e-04, -5.20940230e-04,
          -4.89622646e-04, -5.08437341e-04, -6.30295617e-05,
          1.32613804e-03, 1.63492910e-03, 8.30742996e-04, 1.23359403e-03,
          8.49394535e-04, 6.91754220e-04, 8.71199300e-04, 3.16693098e-04,
          4.79993818e-04, 3.00568732e-04, 5.48091484e-04, 5.09815349e-04,
          1.91133367e-04, 4.42068995e-05, 5.50383447e-05, 1.64868325e-04,
          3.75690070e-05, 1.03723985e-04, 3.88296408e-04, 3.77091346e-05,
          0., 2.07447971e-04, 1.97264817e-04, 5.53030441e-06,
          2.04534022e-04, 3.12528486e-04, -4.42068995e-05,
          -7.44634308e-05, 4.36824077e-04, -1.22603582e-04,
          3.69768008e-04, -1.66519516e-04, 1.80789735e-04,
          1.57905990e-04, -1.56274182e-04, -2.24847216e-04,
          2.83516856e-04, 6.91171736e-05, -2.29152029e-05,
          -6.40774553e-04, 7.20637981e-05, -1.31476540e-04,
          -3.84713436e-04, 1.26089822e-06, -3.89119668e-04,
          -1.37857845e-04, -6.84903236e-04, 9.55060459e-05,
          -8.66307411e-04, -1.06386631e-03 ]
      - [ 7.65451649e-03, 1.03499312e-02, 1.33442134e-02, 7.81186740e-04,
          -1.88104878e-03, 3.70620750e-04, 2.26551620e-03,
          -4.56247013e-03, -1.07651716e-03, 1.67408609e-03,
          -4.26341221e-03, -5.28436758e-05, -1.19856058e-03,
          -8.31802026e-04, -9.61929152e-04, -2.28355848e-03,
          3.75420507e-03, -1.48242759e-03, 2.67079915e-04,
          2.27555167e-03, 1.06070016e-03, 1.69609091e-03,
          -1.01349829e-03, 2.81534879e-03, 7.75873137e-04,
          5.13558443e-05, 3.44621949e-03, 1.45038648e-04, 1.76771963e-03,
          2.73856381e-03, -6.30177965e-04, 1.43867754e-03,
          2.47514271e-03, 4.21993318e-04, 4.94365254e-03, 2.74582929e-03,
          1.27789855e-03, 3.32415220e-05, 2.95376900e-04, 4.72182967e-03,
          3.63418250e-04, 1.48918142e-03, 3.65139218e-03, 1.78232498e-03,
          2.29233387e-03, 5.86279249e-03, -1.62150347e-04,
          3.85738700e-03, -2.67194351e-04, 2.52725650e-03,
          3.14004533e-03, 1.04449515e-03, -9.08250688e-04,
          3.80061218e-04, -8.23975715e-04, -4.46890201e-03,
          -2.58481293e-03, -8.52942187e-03, -9.31524020e-03,
          -1.18585229e-02, -9.30142123e-03, -5.62494388e-03,
          -9.16259363e-03, -8.20909720e-03, -3.75327468e-03,
          1.45071303e-04, 2.14732345e-03, 1.15235744e-03,
          -7.99253397e-03, -8.58821813e-03, -8.64671823e-03,
          1.13161572e-03, 1.89999305e-03, 3.13537125e-03, 1.82116823e-03,
          1.52766332e-03, 2.99947523e-03, 2.88903806e-03, 2.52620969e-03,
          3.02757486e-03, 1.66891553e-02, 2.13652346e-02, 2.30131932e-02,
          2.08321288e-02, 1.86863672e-02, 2.08975431e-02, 3.84379528e-03,
          1.29634235e-03, 1.27443520e-03, 2.37787515e-03,
          -5.05006639e-03, 1.03414510e-04, -2.58419639e-03,
          -1.24452476e-04, 2.54234968e-04, 5.44128614e-03,
          -1.87800266e-02, -1.61874685e-02, -7.83664454e-03,
          -9.91242286e-03, -1.17202930e-03, -5.87622076e-03,
          -2.25271890e-03, -3.34451068e-03, -4.28360933e-03,
          -2.04818510e-03, -3.49768740e-03, -3.42283421e-03,
          -1.33361071e-04, -7.73279986e-04, -4.16295091e-03,
          -1.61672753e-04, -3.12034879e-03, -1.94319422e-04,
          -1.17711013e-03, -3.41755047e-04, -1.26730907e-03,
          1.01226098e-04, -3.81244090e-03, 5.30798512e-04,
          -1.99819406e-05, 1.31163141e-03, -2.23527919e-03,
          4.78563335e-04, -2.84020207e-03, 1.63222116e-03,
          -1.84666016e-03, -2.95210426e-04, 1.07765802e-04,
          -4.69960243e-04, 3.36197525e-04, 4.35939146e-04,
          8.47422983e-04, 6.61458238e-04, -4.13341681e-04,
          1.00963854e-03, 2.03482035e-04, 1.91853021e-03, 7.83503463e-04,
          -3.30585171e-04, 3.65355099e-03, 8.75344221e-03,
          9.20925755e-03, 9.85482894e-03, 7.19090411e-03, 1.35123087e-02,
          8.84416420e-03, 8.90741777e-03, 6.34547602e-03, 7.65886344e-03,
          6.00816496e-03, 6.06591534e-03, 2.21269950e-03, 4.01730044e-03,
          -2.50724435e-04, 5.35104307e-04, 1.56803452e-03,
          7.47535145e-03, 5.02434466e-03, 4.95799165e-03, 3.83073650e-03,
          -3.70432134e-03, -8.91860051e-04, 1.96771813e-03,
          -4.36058408e-03, -4.11262456e-03, -3.44850607e-02,
          -3.18917744e-02, -2.73125153e-02, -2.13521160e-03,
          2.16205907e-03, 5.89893991e-03, 5.42027410e-03, 1.46392919e-03,
          7.09469430e-04, 5.92341414e-03, 8.86931084e-04, 5.39788883e-03,
          2.76193023e-03, 3.22558056e-03, 4.78868512e-03, 8.35425127e-03,
          5.13805868e-03, 1.00573534e-02, 7.30618555e-03,
          -7.77307549e-04, 1.28557312e-03, 7.36267539e-04,
          1.62748632e-03, 4.25261632e-03, -1.40089614e-04 ]
      - [ 2.28608958e-03, 3.20935808e-03, 5.54541638e-03, 1.58710533e-03,
          1.50465872e-03, 2.86123919e-04, -3.64527368e-04,
          -1.02141581e-03, -1.56544949e-04, -3.78768927e-05,
          -5.12006285e-04, -3.74055729e-04, -1.97711910e-04,
          -5.39565517e-04, -4.36981354e-04, -5.53946942e-04,
          4.02413891e-04, -3.81626363e-04, -9.98223841e-05,
          -4.77338530e-04, 1.37884199e-05, -1.37782466e-04,
          -2.29739817e-04, 0., -2.65916955e-04, 3.58629535e-04,
          -1.47640831e-05, -4.82704898e-04, -2.38965338e-04,
          1.54306472e-04, -1.62804368e-04, 4.01957717e-04,
          -5.80294436e-05, 6.64523905e-05, -1.63873759e-04,
          -1.04431463e-04, 2.19532609e-04, 3.25956571e-05,
          -2.66559975e-04, -3.61546001e-04, -2.64449534e-03,
          -2.41820537e-03, -2.63034715e-03, -8.98016151e-04,
          -4.81120922e-04, -1.16741250e-03, -1.01089792e-03,
          -1.84599718e-03, -2.64506764e-03, -2.48163170e-03,
          -4.43745591e-03, -4.82119527e-03, -5.51931979e-03,
          -4.76544956e-03, -4.92555834e-03, -4.46703751e-03,
          -5.08592464e-03, -3.30640655e-03, -3.66010447e-03,
          -6.58642675e-04, 6.52570307e-05, -1.79347058e-04,
          2.37254630e-04, -1.96741559e-04, 3.82046746e-05,
          -1.84352139e-05, 3.80742480e-03, 3.26357689e-03,
          5.96823916e-03, 2.99083395e-03, 2.75855651e-03, 8.93400516e-04,
          1.56828971e-03, 3.05510312e-03, 2.88942689e-03, 1.84665679e-03,
          3.36316298e-03, 3.26830661e-03, 3.29062575e-03, 2.07555620e-03,
          4.98446217e-03, 4.95937187e-03, 4.75592632e-03, 2.22999603e-03,
          9.34111793e-03, 9.32330545e-03, 7.77138723e-03, 6.51007111e-04,
          -5.37007872e-05, -7.51981934e-05, 5.18816407e-04,
          1.18364336e-03, -1.29391658e-04, -4.38140356e-04,
          -4.60706397e-05, 9.53277224e-04, -2.34413100e-03,
          -1.67486479e-03, -6.24843349e-04, -1.17391825e-03,
          -7.98733206e-04, -8.78065999e-04, -1.55683432e-03,
          -2.80837808e-03, -3.50034377e-03, -3.64161818e-03,
          -4.73274151e-03, -4.65636654e-03, -5.31118037e-03,
          -5.93415927e-03, -8.35098326e-03, -6.55404385e-03,
          -3.49838403e-03, -3.75299365e-04, -4.33605426e-04,
          -1.07419828e-05, -3.83236882e-04, -2.24100062e-04,
          -3.06930917e-04, -3.85277235e-04, 2.72022793e-04,
          3.74502488e-05, 6.81412232e-04, 7.96180859e-04, 1.49542093e-03,
          1.17991760e-03, 1.73130387e-03, 2.18391139e-03, 3.50557431e-03,
          3.60055687e-03, 4.01949603e-03, 3.14419833e-03, 4.63517057e-03,
          4.03373409e-03, 4.28153342e-03, 1.45019311e-03, 7.50480336e-04,
          5.83291927e-04, 8.07455333e-04, 6.40166516e-04, 5.22875751e-04,
          4.30281041e-04, 6.68333319e-04, 3.24080407e-04, 2.62308575e-04,
          3.32323631e-04, 2.64893228e-04, 1.80864998e-04, 2.05347809e-04,
          1.91721876e-04, 2.45534582e-04, 4.23368729e-05, 2.89545715e-04,
          4.51708329e-05, 1.47640831e-05, 2.06625060e-04,
          -2.06625060e-04, 0., 1.90113919e-04, 1.18089927e-04,
          2.66559975e-04, 0., 5.86852897e-04, 4.51708329e-05,
          -1.95332643e-04, 0., 3.68138746e-04, -8.80503285e-05,
          2.66559975e-04, 1.31327746e-04, -2.92652694e-05,
          2.13062856e-04, -1.09136323e-04, 1.18354103e-04,
          -2.12388230e-04, 1.48397448e-04, -3.66988330e-04,
          3.59523197e-04, -2.84949871e-04, -1.30211949e-04,
          -1.50230582e-04, -3.44374334e-04, -1.40568654e-05,
          2.45017756e-04, -4.82773845e-04, 4.40678377e-05,
          -2.82283727e-04, -4.51546337e-04, -4.81578725e-04,
          -6.12453558e-04, -1.11780188e-03 ]
      - [ -7.70839280e-04, 2.10984633e-03, 7.26222061e-04,
          1.27419992e-03, 2.01507195e-04, 2.18670280e-03, 3.10630910e-03,
          -8.41044937e-04, 1.28984137e-03, 9.51173482e-04,
          7.79933704e-04, 1.13493204e-03, 8.83612549e-04, 6.55316049e-04,
          -3.93505237e-04, -2.83349393e-04, 9.27545887e-04,
          -1.26377985e-04, 1.59498188e-03, 1.82795268e-03,
          7.14841532e-04, 9.82604921e-04, -2.16038861e-05,
          1.17044350e-04, -9.25293862e-05, 1.60282024e-03,
          9.33332485e-04, -7.83556199e-04, 1.53863453e-03,
          8.66789662e-04, -8.20968125e-05, 1.08544552e-03,
          1.68281302e-04, 3.97778960e-04, -4.59874398e-04,
          1.64714598e-04, 1.79311424e-03, 1.11854912e-04,
          -5.80028864e-04, -4.14607523e-04, 1.01309782e-03,
          5.65114315e-04, 2.28997160e-04, -4.89807862e-04,
          2.35640095e-04, 3.52890434e-04, -5.08693396e-04,
          1.32734596e-03, 3.11043317e-04, 4.43185330e-04,
          -5.23263006e-04, 5.89908275e-04, 6.54522446e-04,
          2.97133025e-04, -5.48354408e-04, -2.22563263e-04,
          7.04478647e-04, 1.06494338e-03, -4.37469535e-05,
          -4.63441102e-04, 7.48290913e-04, -6.16381119e-04,
          8.19237030e-04, 0., 3.80129932e-04, -7.38794275e-04,
          7.26262166e-04, 1.18447722e-04, 1.24424265e-03,
          -7.04478647e-04, 1.56124210e-04, 7.67506368e-04,
          4.46479506e-04, -4.66488564e-04, -4.20778029e-04,
          -8.80931737e-04, 1.73902558e-03, 1.12915132e-03,
          -7.89721613e-04, 7.99898291e-04, -1.04741100e-03,
          -4.25801700e-04, 6.02245418e-05, 1.09413126e-03,
          -4.47577477e-04, 7.69655802e-04, 7.68474012e-04,
          -2.83454661e-04, -6.28645881e-04, -9.19468061e-04,
          1.76461050e-04, 1.75274280e-03, -7.46349688e-04,
          -1.96870230e-03, 1.07057660e-03, 1.90719776e-02,
          1.40482504e-02, 1.50123732e-02, -8.55949882e-04,
          -3.08335118e-04, -1.81510602e-03, -7.68947508e-03,
          -4.09814296e-03, -3.14983772e-03, -3.49410251e-03,
          -3.51885008e-03, -3.27097671e-03, -3.01826000e-03,
          -5.33515494e-03, -5.94318612e-03, -6.94017997e-03,
          -8.02653562e-03, -7.90331233e-03, -8.25055223e-03,
          -3.55341285e-03, -2.82004406e-03, -4.54558758e-03,
          -3.25935124e-03, -6.98335143e-03, -6.87998254e-03,
          -6.69755042e-03, -8.44601262e-03, -8.46408680e-03,
          -7.83748738e-03, -7.41905021e-03, -6.71174005e-03,
          -8.51283036e-03, 1.76652253e-03, 1.21339522e-02,
          1.42959114e-02, 1.69466976e-02, 1.17272008e-02, 1.06212758e-02,
          1.40581727e-02, 9.25558805e-03, 9.30620264e-03, 2.10023276e-03,
          2.24649580e-03, 1.87543768e-03, 1.49762537e-03, 8.63226131e-04,
          1.28163362e-03, 1.30829052e-03, 6.00124127e-04, 8.14313826e-04,
          6.23623724e-04, 2.13877211e-04, 1.10094657e-03, 4.61847638e-04,
          1.64714598e-04, 3.85024352e-04, 5.48354408e-04, 0.,
          1.53077126e-04, 4.21733072e-04, 9.38578625e-04,
          -3.88059794e-04, 1.22732366e-04, 9.98200558e-05,
          1.20154495e-04, 6.50955713e-04, -1.09655542e-04,
          4.93757310e-04, -9.29748712e-05, 8.37709988e-04,
          -1.46231934e-04, -1.87802871e-04, -3.67344997e-04,
          8.42782902e-04, 7.04478647e-04, 1.30120912e-04,
          -4.58946277e-04, -1.20676756e-04, 1.91426981e-04,
          -8.04348034e-04, 6.84943399e-04, 3.03418201e-04,
          7.38382107e-04, -8.66251532e-04, -1.73257446e-04,
          6.76524302e-04, -4.69862745e-04, -2.41176618e-04,
          5.77269646e-04, -2.39350062e-04, -1.63520279e-04,
          -5.63519483e-04, 6.38914993e-04, -1.69501733e-03,
          1.44041097e-03, 5.63973408e-05 ]
      - [ -7.90774170e-03, 2.40505068e-03, 5.72751369e-03,
          -2.70545995e-03, -2.61857267e-03, 2.50364683e-04,
          -1.80164049e-03, -4.04623989e-03, -2.61350945e-02,
          -2.43287738e-02, -2.60825008e-02, -3.82421166e-03,
          -8.35861918e-03, -2.39379071e-02, -2.31285132e-02,
          -1.96737405e-02, -7.13128224e-03, -7.45691964e-03,
          -3.60516024e-05, -9.80401691e-03, -6.02781633e-03,
          -1.66216791e-02, -1.03505962e-02, -6.97461981e-03,
          -1.44900335e-03, -3.01728669e-05, -1.03515154e-02,
          -8.90544616e-03, -1.30178723e-02, -3.47556546e-03,
          -4.73689847e-03, -7.04923365e-03, -1.81992806e-03,
          -1.55125465e-02, -1.48131326e-02, -1.57180130e-02,
          -1.76938046e-02, -1.74699258e-02, -1.66755561e-02,
          -2.13846695e-02, -2.20923051e-02, -1.94638018e-02,
          2.17386754e-03, 4.61723685e-04, 9.13683441e-04, 4.73218039e-03,
          8.56617175e-04, 1.66173826e-03, 4.33617446e-04, 3.67624406e-03,
          2.17564846e-03, 5.72091900e-04, 1.96975563e-03, 4.42477129e-03,
          1.67979172e-03, 7.79184978e-04, 4.92790388e-03, 1.93055568e-03,
          1.46238611e-03, 2.83751171e-03, 3.42968735e-03, 1.70271110e-03,
          3.13195772e-03, 1.94169057e-03, 1.28614227e-03, 2.15246482e-03,
          3.62580293e-03, 2.93344585e-03, 5.73169440e-03, 2.62084161e-03,
          1.08653877e-03, 9.99112148e-04, 5.74661465e-03, 4.28550364e-03,
          1.98255619e-03, 2.64504552e-03, 5.99662261e-03, 3.12032364e-03,
          1.62251142e-03, 3.62956733e-03, 4.45897598e-03, 2.37564323e-03,
          5.60380053e-03, 4.76400554e-03, 4.97703813e-03, 3.38860531e-03,
          8.49023927e-03, 6.31361222e-03, 8.06142855e-03, 5.98917389e-03,
          5.92863653e-03, 1.20374402e-02, 1.17446519e-02, 8.68481956e-03,
          7.87725206e-03, 1.29679171e-03, -1.10304933e-02,
          -5.49802557e-03, 9.32262652e-03, -6.53998973e-03,
          -6.39963988e-03, -6.56863628e-03, -6.21740287e-03,
          -5.62406657e-03, -5.04950248e-03, -6.12134673e-03,
          -5.51724667e-03, -6.86639408e-03, -1.99723733e-03,
          -6.66446332e-03, -7.77093135e-03, -2.61471118e-03,
          -4.34992556e-03, -4.86986106e-03, -3.11936135e-03,
          -6.88964827e-03, -4.18620510e-03, -2.20693997e-03,
          -3.45985894e-03, -2.58290535e-03, -4.77587711e-03,
          -2.40734778e-03, -4.59291926e-03, -3.74914217e-03,
          -4.44389274e-03, -9.16026649e-04, -6.14521140e-03,
          -2.50264746e-03, 0., -3.74173652e-03, -2.64930050e-03,
          -2.61380686e-03, -3.05700372e-03, -3.18653905e-03,
          -1.72151497e-03, -2.18883296e-03, -1.58393255e-03,
          -3.26145603e-03, -3.75521579e-03, -4.58463677e-04,
          -8.30280362e-04, -1.17590930e-03, -2.65401858e-03,
          -4.16438607e-03, -1.54097669e-03, -2.96238530e-03,
          -1.23571153e-04, -1.46652994e-04, -3.71991983e-03,
          -2.44676927e-03, -1.24997634e-03, -1.73781940e-03,
          -1.36529678e-03, 1.89361788e-04, -1.43837463e-03,
          -2.11771159e-03, -1.15365617e-03, -3.74758942e-03,
          7.32283923e-04, -1.70936424e-03, 2.74264690e-04,
          -2.24332279e-03, 1.47131665e-04, 1.55694783e-04,
          -1.39787805e-03, 3.64842534e-04, -1.20935345e-03,
          8.09042423e-04, 1.23140006e-03, -6.59148209e-04,
          -1.09866087e-03, -6.70262554e-04, 1.84610893e-03,
          8.52431185e-05, 3.09804454e-03, 3.23329121e-03,
          -3.68270138e-03, 2.35756999e-03, -8.51250021e-04,
          3.96544114e-03, 1.50909182e-03, 5.99071570e-03, 5.77417959e-04,
          3.09346640e-03, 4.32005059e-03, 5.13913296e-03, 6.99113775e-03,
          4.96223290e-03, 4.47744271e-03, 5.92827564e-03, 9.39184334e-03 ]
      - [ -1.22718299e-02, 1.11395773e-02, 3.82350688e-03,
          1.22667281e-02, -8.03627633e-03, 3.33690573e-03,
          -3.39865510e-04, -1.70225631e-02, -6.10887539e-04,
          1.37138991e-02, -1.33921588e-02, -4.28735977e-03,
          1.39037648e-03, -1.23293803e-03, -1.68503504e-02,
          6.27407338e-03, -3.46274255e-03, -1.04364082e-02,
          -1.17706144e-02, -8.03120027e-04, -7.94448145e-03,
          -6.99030235e-03, -1.36080123e-02, -1.11865178e-02,
          -2.46307696e-03, -1.58991106e-02, -1.03496970e-03,
          -2.27755103e-02, -1.98639892e-02, -8.40706751e-03,
          -2.20277533e-02, -7.99220335e-03, -2.76281051e-02,
          -1.61868595e-02, -1.15302838e-02, -5.00183590e-02,
          -3.14885974e-02, -4.38933633e-02, -2.51036789e-02,
          -4.25613634e-02, -3.05719227e-02, -3.83644402e-02,
          -1.32805593e-02, -2.64723245e-02, 9.47283395e-03,
          5.68739744e-03, 1.56161850e-02, 4.18460555e-02, 7.01014847e-02,
          4.40023839e-02, 3.13645788e-02, 4.53978889e-02, 3.54882553e-02,
          3.03625017e-02, 3.67598422e-02, 2.53537595e-02, 3.56056839e-02,
          1.44610452e-02, 2.16981769e-02, 1.42918285e-02, 3.43161821e-02,
          2.11629588e-02, 6.46846183e-03, 3.96940438e-03, 6.93658786e-03,
          7.37450458e-03, 1.37804253e-02, -7.59060774e-03,
          1.30793201e-02, 1.17924875e-02, 4.29193955e-03,
          -5.46607003e-03, 1.35437222e-02, 1.88974645e-02,
          -1.25375798e-03, 5.07216109e-03, 2.38010194e-03,
          -5.43225603e-03, 8.04391806e-04, 8.64021480e-03,
          -2.42837030e-03, 4.29455517e-03, -7.23128859e-03,
          -6.74707349e-04, -2.10586557e-04, 7.27841817e-03,
          5.91034023e-03, 4.63069184e-04, -6.06850209e-03,
          -1.64232105e-02, 9.81911458e-03, -4.98492690e-03,
          -1.47885596e-02, -1.80027150e-02, -1.32111032e-02,
          -5.49011212e-03, -1.05890157e-02, -1.10242758e-02,
          5.59175154e-03, -8.66200309e-03, -6.87643769e-04,
          5.37342508e-04, 2.41983682e-03, -7.11492542e-03,
          1.52827827e-02, 2.91988836e-03, -8.11115932e-03,
          -1.21860728e-02, 4.52885590e-03, -9.86686908e-03,
          -1.26820626e-02, 7.04104966e-03, -6.26009516e-03,
          -1.99407153e-02, -2.24192650e-03, -1.19541818e-02,
          -1.17848942e-03, -6.51746104e-03, -1.43053494e-02,
          -9.05610621e-03, -5.59502980e-04, -8.78562743e-04,
          -1.30564505e-02, -1.72609650e-02, -1.46988314e-03,
          -1.51212998e-02, -6.16938202e-03, -1.02750761e-02,
          -2.24830713e-02, -8.84698064e-04, -2.08626799e-02,
          -4.73842211e-02, -2.33805012e-02, -2.43604686e-02,
          -2.89701428e-02, -3.03224847e-02, -3.73376645e-02,
          -5.30615263e-02, -5.20387180e-02, -2.53523160e-02,
          -1.05381552e-02, 3.15689035e-02, 2.26173233e-02,
          4.12034094e-02, 4.54483107e-02, 5.18522151e-02, 3.02479099e-02,
          5.23617044e-02, 3.39912511e-02, 1.65246334e-02, 4.16403823e-02,
          3.17899249e-02, 2.00585779e-02, 1.99286919e-02, 1.91492997e-02,
          0., 2.63170972e-02, 1.22592971e-02, 1.42673058e-02,
          1.77833461e-03, 4.82440926e-03, 0., 1.83046646e-02,
          2.13028979e-03, 8.91973078e-03, 4.01425501e-03, 1.22518111e-02,
          5.65973297e-03, 1.88155398e-02, 5.68121206e-03, 8.84104893e-03,
          1.84110517e-03, 1.98537707e-02, 8.50337371e-03, 6.48325961e-03,
          3.20649147e-03, -3.93020269e-03, 7.27327541e-03,
          -1.12408111e-02, 1.17813163e-02, -1.09477881e-02,
          1.07792076e-02, -2.22813315e-03, -4.24400903e-04,
          3.50067625e-03, -1.00743892e-02, -7.59534771e-03,
          -3.57426412e-04, -2.86154007e-03, -2.52436586e-02,
          -2.66044177e-02 ]
      - [ -1.23019563e-04, 1.19210244e-03, -4.66846541e-04,
          6.15536817e-04, 5.56669722e-04, -3.31579329e-04,
          -2.16125380e-04, -3.41333944e-04, -7.77001667e-04,
          9.09279566e-04, 1.06938311e-03, -1.63251840e-04,
          -9.06333808e-05, -3.78173456e-04, -2.88492796e-04,
          -4.84390766e-04, -7.23156772e-05, -6.38796409e-05,
          3.67743691e-04, -6.34571246e-04, 1.21780402e-04,
          -6.99549273e-04, 2.14065687e-04, -2.86105467e-04,
          -1.01682439e-03, 7.37710274e-04, -2.73069832e-04,
          -2.31243597e-04, -8.04959214e-04, 1.36988689e-04,
          -2.02517622e-04, 2.55534513e-04, -5.65703609e-04,
          -7.86797376e-04, 1.38368210e-04, -2.89248477e-04,
          -1.08058983e-03, -5.16373657e-05, -2.16759319e-04,
          -4.54984605e-04, -1.91547791e-04, 3.64496576e-04,
          -5.80317166e-04, -8.28340126e-04, -9.29261441e-04,
          -7.68364582e-04, -1.29645763e-04, -1.18025194e-03,
          -3.64320818e-04, -8.52326280e-04, -9.24124732e-04,
          -1.98554626e-04, -1.46343769e-03, -8.35813989e-04,
          -2.47121952e-03, -1.20296294e-03, -2.23485846e-03,
          -2.03453121e-03, -1.20717590e-03, -7.04502780e-03,
          -7.13979406e-03, -1.20957550e-02, -9.40119475e-03,
          -1.33116487e-02, -9.17696301e-03, -9.30451602e-03,
          4.21166839e-03, 5.07999398e-03, 1.22392271e-02, 6.81485329e-03,
          6.44463068e-03, 1.30112180e-02, 1.20150466e-02, 1.35861905e-02,
          3.76239698e-03, 2.25651986e-03, 1.07152481e-02, 1.03067299e-02,
          1.13162771e-02, 1.47052202e-03, 1.68536080e-03, 7.80623232e-04,
          6.77350501e-04, 1.77833333e-03, -5.30558355e-05,
          2.64484133e-03, 9.40459664e-04, 2.75105354e-03, 2.23438069e-03,
          1.62531820e-03, 2.92363198e-04, 1.45753217e-03, 3.79470177e-04,
          -3.93238093e-04, -4.85999597e-04, -1.08308382e-02,
          -1.55498823e-02, -1.36028603e-02, -9.29476169e-04,
          5.82833542e-04, 1.56903297e-05, 1.34569814e-03,
          -5.97901002e-04, -4.16645235e-05, 8.99822917e-04,
          -2.96070735e-04, -2.46161944e-04, 4.23305348e-04,
          9.56015196e-04, -3.57674289e-04, -4.27641673e-04,
          5.54326398e-04, 7.57157803e-04, -4.63709061e-04,
          3.60151025e-04, 2.74764199e-04, 5.06621960e-04, 1.91270046e-05,
          4.13673260e-05, -9.91487876e-04, 7.17624673e-04, 0.,
          6.07070921e-04, 2.48836259e-05, 1.90005579e-04,
          -6.68360619e-04, -5.16373657e-05, 5.16373657e-05,
          2.67537398e-05, 0., -3.40885832e-04, -2.67537398e-05, 0., 0.,
          0., 0., 0., 0., 0., 0., 0., 0., 0., 0., 0., -3.90311616e-04,
          -6.49360532e-04, -8.47586125e-05, 0., 0., 0., -5.94208774e-04,
          5.38949855e-04, -5.16373657e-05, 5.16373657e-05,
          -3.90311616e-04, 0., -2.55028567e-06, -3.79110163e-04,
          -1.31897841e-05, -6.45846128e-04, -7.80623232e-04,
          8.35325394e-04, -2.76512183e-05, -8.90279480e-04,
          -5.72588353e-04, 9.92124769e-05, -5.15683147e-04,
          -5.43166068e-04, 1.08118251e-03, -4.92006424e-04,
          7.14341877e-04, -1.02446391e-03, 1.56388414e-04,
          1.23372374e-04, -7.41641212e-04, -1.90864515e-03,
          1.05353328e-03, -3.15823039e-04, -1.38134486e-03,
          -2.55403196e-04, -5.98824874e-04, 2.43686518e-04,
          9.42332990e-05, -9.87103442e-04, 1.56500217e-04,
          -1.06907834e-03, -1.27596594e-03, 6.98177144e-04,
          -1.70017080e-03, -2.64271698e-03 ]
      - [ 3.98742547e-03, 3.01401014e-03, 6.21322368e-04, 9.30084032e-04,
          -1.39068288e-04, -2.00067254e-04, -3.17894912e-04,
          -1.34798582e-03, -2.70295795e-03, -2.46694358e-03,
          -2.83649913e-03, 6.93461858e-03, 8.37749243e-03,
          8.21340177e-03, 7.06837000e-03, 6.04985328e-03, 5.47618046e-03,
          1.72232324e-03, -1.34260987e-03, -4.06674016e-03,
          -4.00052825e-03, -3.26213054e-03, -4.43898048e-03,
          -4.48566489e-03, -4.78835357e-03, 1.79785609e-04,
          -3.77627299e-03, -3.90192657e-03, -7.08981091e-03,
          -6.03104010e-03, -5.37136709e-03, -1.56437140e-03,
          -9.63970306e-05, -2.76127248e-03, -3.23514361e-03,
          -6.12346269e-03, -7.32155796e-03, -8.32246989e-03,
          -5.07913576e-03, -6.91298861e-04, 2.92545155e-04,
          9.99513664e-04, 7.78612040e-04, 1.95975578e-03, 9.58674296e-04,
          1.20479264e-03, 8.92400742e-04, 1.09112574e-04, 1.56235392e-03,
          1.33790495e-03, 1.16406172e-03, 9.22268606e-04, 8.08202138e-04,
          1.22570083e-03, 1.68251898e-03, 9.75890143e-04, 1.26076629e-03,
          1.59076147e-03, 1.82709133e-03, 5.79942949e-04, 7.22869532e-04,
          1.46951864e-03, 9.85431601e-04, 1.47440471e-03, 1.20934588e-03,
          4.90349426e-04, 2.09772354e-03, 1.62458897e-03, 9.08942311e-04,
          1.08482398e-03, 1.01467152e-03, 7.43793731e-04, 1.25996512e-03,
          7.20351003e-04, 1.75911805e-03, 1.09058688e-03, 3.63244500e-04,
          7.86569843e-04, 1.09515374e-03, 9.21509054e-04, 1.01088989e-03,
          -5.35404870e-05, -8.39809701e-03, -7.68075604e-03,
          -1.19917840e-02, -2.37958762e-03, -2.59964541e-03,
          6.37047488e-05, -3.01473396e-04, -1.32929964e-03,
          -2.32900609e-03, -3.16855614e-03, -3.26325349e-03,
          -4.32702771e-04, 2.93383468e-03, -9.85149667e-03,
          -9.85149667e-03, -1.19805019e-02, 2.96103186e-03,
          2.87495786e-03, 1.41979323e-03, 1.39572029e-03, 1.68041640e-03,
          9.71862697e-04, 1.49729266e-03, 4.25220322e-04, 8.86422757e-04,
          5.16186934e-04, 4.63190750e-04, 1.30147650e-03, 4.85535566e-04,
          2.15063366e-04, 6.89470966e-04, 6.65789630e-05, 5.98259096e-04,
          3.65634449e-04, -4.40818212e-06, -2.17301451e-04,
          -1.12975649e-05, -4.21048935e-05, 6.95692375e-04,
          3.58747580e-04, -3.75363656e-04, 2.03291042e-04, 0.,
          -2.11644030e-04, 0., 3.65507614e-04, -6.20484992e-04,
          -3.13527009e-04, -2.75400544e-05, -6.72960654e-04,
          -5.89735340e-04, -3.89451598e-04, -1.67658436e-04,
          -3.12292948e-04, -8.38914013e-04, -2.97986728e-04,
          -1.13038707e-03, -6.55546901e-04, -6.74510840e-04,
          -7.12349545e-04, -1.72254420e-03, -5.83326619e-04,
          -6.07097289e-04, -1.02588173e-03, -7.96799490e-04,
          -7.03768048e-04, -1.36966573e-03, -1.74709188e-03,
          -1.39387569e-03, -1.17658110e-05, -1.26524072e-03,
          -1.30920589e-03, -1.24153832e-03, -1.54339522e-03,
          -2.16305978e-03, -1.06739497e-03, -1.60521758e-03,
          -3.30180366e-04, -1.24485965e-03, -1.07809587e-03,
          -1.60248170e-03, -1.14771130e-03, -1.95041194e-03,
          2.65651243e-03, 8.12992733e-03, 7.86183216e-03, 4.57167299e-03,
          5.28057804e-03, 5.49461925e-03, 5.19948453e-03,
          -3.72674142e-04, 1.64984993e-03, 1.84326957e-03,
          2.36129877e-03, 1.38714993e-02, 4.52188822e-03, 8.48706625e-03,
          -2.34800996e-03, 7.05138966e-03, 7.01988209e-03,
          6.99637108e-04, 9.38354584e-04, -3.35682346e-03,
          -7.97754386e-04, -1.75491208e-03, -4.05710516e-03,
          -3.52642103e-03, -3.41906515e-03, 6.45022883e-05 ]
      - [ 2.61801691e-03, 5.86293987e-04, 9.85852443e-04,
          -5.50259138e-04, -9.74675495e-05, 7.67335761e-04,
          -2.64286093e-04, -1.04962719e-05, -2.22959835e-03,
          -1.65314786e-03, -1.89775543e-03, 1.78612000e-03,
          3.01480922e-03, 3.24986340e-03, 7.57773814e-04, 2.27834890e-03,
          5.40160727e-05, 9.09009890e-04, -2.29653064e-03,
          -3.48198600e-03, -6.47056708e-03, -5.80419414e-03,
          -6.67257747e-03, -7.73102418e-03, -7.37995561e-03,
          -5.98334987e-03, -4.28191246e-03, -2.16076989e-03,
          -9.82664153e-03, -1.20971713e-03, -7.41964113e-03,
          -4.09150822e-03, -9.14705917e-03, -7.29488954e-03,
          1.03378168e-03, 1.34427811e-03, 1.64612045e-03, 2.68730614e-03,
          3.62400571e-03, 3.93290306e-03, 3.69613734e-03, 3.37904436e-03,
          2.34057033e-03, 1.24085788e-03, 6.19727711e-04,
          -4.39523923e-04, -1.94719865e-03, -2.73900153e-03,
          -2.71918718e-03, -4.01004823e-03, -3.70959030e-03,
          -4.17571096e-03, -4.38441522e-03, -5.89533895e-03,
          -3.18542938e-03, -2.96416297e-03, -4.55192436e-04,
          -9.68250795e-04, -6.91596360e-04, -1.25041336e-03,
          6.44383160e-03, 5.95380180e-03, 6.66844798e-03, 7.44983088e-03,
          8.75713024e-03, 8.82793311e-03, 7.60543719e-03, 6.82672113e-03,
          9.64524038e-03, 7.24283513e-03, 7.43631506e-03, 4.48368350e-03,
          1.39848632e-03, -5.27312550e-05, 1.42028657e-04,
          1.09529984e-03, 3.68076121e-03, 3.22658708e-03, 5.15718851e-03,
          2.65919324e-03, 2.41675088e-03, 1.64866986e-04,
          -3.41759040e-03, 2.41056341e-03, 1.49875600e-03,
          5.86284650e-03, -1.03397958e-03, -7.81754090e-04,
          -9.39316116e-04, -1.63498579e-03, -2.66476069e-03,
          -2.41945777e-03, -3.25157307e-03, -9.24515829e-04,
          2.22835387e-03, -8.77479278e-03, -2.99666123e-03,
          -9.19424929e-03, 2.45225383e-03, 1.84401206e-03,
          1.56974350e-03, 1.14596949e-03, 1.19652308e-03, 6.60239079e-04,
          1.04259385e-03, 7.67901365e-04, 5.47836768e-04, 6.53436291e-04,
          7.32388347e-04, 7.13229354e-04, 1.14534851e-04, 5.95049241e-05,
          9.25953937e-05, 2.21167022e-04, 6.06030400e-04, 6.70625828e-04,
          1.95300250e-04, -3.61221435e-04, -3.64019070e-05,
          -1.44200356e-04, 2.23058378e-04, 2.31791637e-04,
          -1.21321922e-04, -1.14298913e-04, -6.84204715e-05,
          -3.99016193e-04, -3.95789073e-04, 2.09715887e-04,
          -5.70121978e-04, -6.22933439e-04, -5.23943512e-04,
          -8.08655110e-04, -1.32859696e-03, -7.92682578e-04,
          3.57790064e-04, -7.30382686e-04, -6.39787642e-04,
          -1.62442913e-04, -6.16287580e-04, -9.01962165e-04,
          4.87231504e-04, 2.11962010e-03, 1.93696527e-03, 1.00638985e-03,
          1.56917609e-03, 1.49904436e-03, 9.79935052e-04, 1.54067588e-03,
          3.26234964e-04, 5.26065996e-04, 2.62419111e-04, 1.25208893e-03,
          1.03409961e-03, 6.90944085e-04, -1.36442890e-04,
          5.91888020e-05, 2.59525841e-04, -2.60661793e-04, 0.,
          7.22442870e-04, -6.88154323e-05, 1.23740203e-04,
          1.37630865e-04, 6.41148363e-05, 0., 3.61221435e-04,
          -1.91432016e-04, -5.83054061e-05, -2.76797567e-04,
          3.98511511e-05, 1.32682442e-06, -2.75607716e-04,
          3.55201220e-04, -2.20920876e-04, -4.80484799e-04,
          -9.25153610e-04, -5.54895669e-04, -4.50325990e-03,
          -4.22986504e-03, -4.72855335e-03, -1.01243972e-03,
          -1.46079436e-03, -4.40917676e-03, -4.65991162e-03,
          -4.75138472e-03, -1.43189181e-03, -2.85144593e-03,
          -4.21101414e-03, -3.22179450e-03, -3.41417897e-03,
          -2.28696479e-03 ]
      - [ 1.13082230e-02, 4.96288342e-03, 3.38816061e-03,
          -9.38336831e-03, -2.94927298e-03, 8.42802867e-04,
          -6.21062791e-05, -2.31913989e-03, 4.03983658e-03,
          2.99899094e-03, 2.90625799e-03, 4.78900550e-03, 6.44924864e-03,
          4.59125312e-03, 1.10531151e-02, 1.08772498e-02, 1.14367250e-02,
          2.16495176e-03, 7.71668041e-04, 1.81414634e-05, 6.88139210e-03,
          6.30882103e-03, 9.91083030e-03, 1.36146536e-02, 1.23271728e-02,
          5.51990001e-03, 3.54349590e-03, -5.04999880e-05,
          5.03653148e-03, 1.04208589e-02, 1.10356165e-02, 9.19492729e-03,
          2.96857394e-03, 8.77592247e-04, 5.65618230e-03, 5.74100995e-04,
          4.30078944e-03, 4.62864153e-03, 5.38242375e-03, 2.82564247e-03,
          1.28285831e-03, 1.06939732e-03, 3.52965528e-03,
          -1.06303126e-03, 2.61434610e-03, 1.54382316e-03,
          -2.93491205e-04, 2.35104258e-03, 7.39381590e-04,
          2.34082318e-03, 1.85672150e-04, -1.42409548e-03,
          2.03256321e-04, 5.24041126e-04, -3.36205331e-03,
          -5.82800293e-03, -6.20235549e-03, -7.05976412e-03,
          -9.24811605e-03, -1.03749111e-02, -7.93480128e-03,
          -6.63900794e-03, -1.19213928e-02, -6.16102340e-03,
          -2.54522334e-03, 1.51169923e-04, 2.36419219e-04,
          1.80517940e-03, -6.91897236e-03, -4.89074178e-03,
          -6.72599580e-03, 8.67175986e-04, 5.71168959e-04,
          -1.31796172e-03, 2.19372939e-03, 1.64748111e-04,
          -2.96717655e-04, 1.91498164e-03, -7.86886271e-03,
          -8.84467550e-03, -8.44927784e-03, 2.34736945e-03,
          -7.55232852e-03, 8.90414085e-05, -8.00729450e-03,
          1.62423903e-03, -4.94677946e-03, 4.29104723e-04,
          -7.60976225e-03, 1.04581146e-03, -7.45988311e-03,
          -3.53816152e-03, -9.48143844e-03, 2.22553778e-03,
          6.00220030e-03, -1.01024762e-03, -3.83669743e-03,
          -1.26009276e-02, 2.28181737e-03, 3.72267386e-04,
          1.79170386e-03, -7.34324043e-04, 1.09183369e-03,
          -3.36177676e-04, 1.13954465e-03, 7.88478879e-04,
          1.31511933e-03, 7.27800769e-04, 2.33014449e-04,
          -3.21141910e-04, -2.90913420e-04, 1.30748958e-03,
          -4.73081949e-04, 8.61752604e-04, 1.86695455e-04,
          -1.11436797e-03, 7.92256731e-04, 8.48636846e-04,
          -2.81317206e-03, -5.10404352e-04, -3.50955524e-04,
          3.15913931e-03, -2.74796062e-03, 1.64995971e-03,
          -1.50354952e-03, 1.27314808e-04, -3.27184971e-04,
          -1.89636648e-03, 2.74623337e-04, 1.28058228e-03,
          2.92064884e-04, -5.67381794e-04, -6.90980291e-04,
          8.85324378e-04, -1.03306444e-03, -5.23293507e-04,
          -1.72264746e-03, 3.24514345e-03, 5.70090197e-06,
          -1.19988993e-03, -4.44947538e-04, 3.28406022e-04,
          1.95733155e-03, 6.06849371e-03, 2.64153956e-03, 5.99666871e-03,
          5.56122977e-03, 4.47617844e-03, 3.37091996e-03, 1.92739023e-03,
          2.30108597e-03, 3.28927464e-03, 5.69696596e-04, 4.94294683e-04,
          -2.97949766e-04, 6.92735834e-04, 1.06035278e-03,
          8.47111177e-03, 5.18764649e-03, 6.81541208e-03, 1.90557528e-03,
          -1.60646089e-03, -1.42260804e-03, 2.29598973e-05,
          -4.05849982e-03, -2.68238643e-03, -3.12182307e-02,
          -2.85808872e-02, -2.91966684e-02, 6.41401159e-04,
          8.35594372e-04, 2.34900718e-03, 2.67309975e-03, 1.38123939e-03,
          -1.19650445e-03, -4.77056339e-04, 8.35159335e-06,
          -8.38554930e-03, -9.06483363e-03, -1.00857718e-02,
          -9.66027554e-04, 1.93782314e-03, -4.70539648e-03,
          -7.57797330e-04, -4.55511594e-03, -7.17100268e-03,
          -9.79323220e-03, -8.64660088e-03, -1.57713294e-02,
          -9.77637898e-03, -3.14154808e-04 ]
      - [ 5.88576659e-04, 1.41434104e-03, 4.52774391e-03,
          -7.91986298e-04, 1.04007078e-03, -1.43991422e-03,
          3.26010704e-05, -2.99033709e-04, 5.02668147e-04,
          1.20964122e-03, 3.32203956e-04, 7.33248831e-04, 4.94827796e-03,
          4.34728526e-03, 4.78265993e-03, 2.26325798e-03, 3.23917763e-03,
          1.42039987e-03, -9.48437737e-05, -3.81914550e-04,
          9.06062720e-04, 7.07402884e-04, 1.36388442e-03, 1.94372796e-03,
          2.61054491e-03, 1.18173938e-03, -3.46945162e-04,
          -3.75378513e-05, 5.20619389e-04, 6.47948124e-04,
          1.00617122e-03, 1.06930581e-03, 1.29175198e-04,
          -2.07870780e-05, -4.86719955e-06, -6.40755752e-04,
          3.66047636e-04, 7.53349013e-05, 2.32729013e-04,
          -4.50475200e-04, -4.81093675e-03, -4.76205396e-03,
          -4.79133660e-03, -1.86969596e-03, -6.15265162e-04,
          -1.75522664e-03, -1.78111496e-03, -3.96463927e-03,
          -3.16194817e-03, -3.68539803e-03, -5.43471100e-03,
          -5.89391030e-03, -6.07470004e-03, -4.07699961e-03,
          -5.67992544e-03, -4.83207591e-03, -5.40359691e-03,
          -3.58413276e-03, -4.28856676e-03, -8.15570180e-04,
          1.72892105e-04, -3.00033134e-04, -2.39005371e-04,
          -4.43798490e-04, 1.35198105e-04, -3.71007220e-04,
          2.29866896e-03, 1.63018797e-03, 4.91378782e-03, 2.84061139e-03,
          2.50077294e-03, 2.16904373e-04, 1.08328811e-03, 2.77030631e-03,
          2.14576465e-03, 1.57458917e-03, 3.62114212e-03, 3.17462417e-03,
          3.75378667e-03, 7.82209507e-04, 3.11188865e-03, 3.53242992e-03,
          2.18218798e-03, 1.50200992e-03, 7.23462738e-03, 7.09626777e-03,
          5.60236908e-03, 2.51020043e-04, -7.78804766e-04,
          3.62829131e-04, 1.62112468e-04, 7.51726853e-04, 7.96531909e-04,
          3.50566488e-03, 3.89496516e-03, -2.19812326e-04,
          -2.56100367e-03, -4.69069974e-03, 8.92459066e-04,
          -4.41628072e-04, -3.51114373e-04, -6.33880190e-05,
          -1.55736739e-03, -2.58738454e-03, -3.85387219e-03,
          -3.91635438e-03, -4.31873836e-03, -5.09156426e-03,
          -5.27646439e-03, -9.15052742e-03, -9.09734610e-03,
          -7.77845876e-03, -2.30116001e-03, 6.75482675e-04,
          -3.99034354e-04, 4.08205633e-05, -2.82904453e-04,
          1.80110947e-05, -2.51586986e-04, -4.82373114e-04,
          4.07787244e-04, 4.07303567e-04, 1.07189571e-03, 1.43128727e-03,
          2.78095622e-03, 2.11145123e-03, 1.99697190e-03, 2.65875622e-03,
          3.81586980e-03, 3.45357414e-03, 4.29374352e-03, 2.70378590e-03,
          5.69258817e-03, 5.18842274e-03, 5.77939721e-03, 2.16311426e-03,
          1.07232691e-03, 1.53195963e-03, 1.09104102e-03, 7.78392481e-04,
          6.31560804e-04, 6.35861710e-04, 1.03307026e-03, 4.39313560e-04,
          4.70153289e-04, 9.80038312e-04, 5.83381683e-04, 1.55698886e-04,
          5.19735877e-05, 9.25537315e-05, 5.39494969e-04, 2.99465552e-04,
          6.32580835e-04, 9.70609690e-05, -2.12520717e-05,
          5.97783182e-05, -1.19556636e-04, -8.15561652e-05, 0.,
          4.25041435e-05, 0., 6.52744726e-04, 0., 0., -2.49003933e-04,
          -3.33065436e-05, -9.19203012e-05, -5.36645421e-05,
          -6.49980211e-05, 4.03401151e-04, -3.64341860e-04,
          -3.81153543e-04, -3.18804377e-04, -2.88025039e-04,
          -5.45206189e-04, -3.66996828e-04, -2.57250969e-04,
          -4.50557889e-03, -4.18453990e-03, -3.86199099e-03,
          -7.96750013e-04, -1.26649474e-03, -2.53734714e-03,
          -2.74459296e-03, -4.82460996e-03, -3.30932415e-03,
          -2.76274397e-03, -3.24457791e-03, -2.81629968e-03,
          -3.34708486e-03, -3.48473457e-03 ]
      - [ 8.22692236e-04, -2.69322167e-03, -5.73560735e-03,
          -2.31957249e-03, -3.86028225e-03, -9.78202675e-04,
          -9.83365695e-04, 2.87934614e-04, 1.75253407e-03,
          8.88370734e-04, 1.67405792e-03, -1.85376685e-03,
          5.42312104e-04, -2.25901511e-03, -1.49590851e-04,
          1.10852288e-03, 1.56772544e-03, -1.20582758e-04,
          -7.20514799e-04, 8.81835062e-04, 5.36364410e-03,
          4.53672418e-03, 6.98801642e-03, 1.04061151e-02, 1.02310954e-02,
          4.21665516e-03, 3.53677222e-03, 2.98363459e-03, 5.98415826e-03,
          5.32886107e-03, 6.84314501e-03, 9.31420550e-03, 4.07474674e-03,
          6.43535890e-03, 4.69453214e-03, 4.19320632e-03, 4.25055018e-03,
          6.82684639e-03, 7.29034794e-03, 4.20303177e-03, 1.97069184e-03,
          5.78310573e-04, 1.04638530e-04, -1.63564880e-04,
          4.96554494e-05, 3.18926963e-04, 2.23669776e-04, 1.12180272e-03,
          1.43044558e-03, 6.70411682e-04, 1.60707088e-04,
          -2.29554978e-04, 1.33075055e-05, 5.20274567e-04,
          -2.19225208e-03, -2.05624761e-04, 7.00388046e-04,
          9.99744399e-04, -3.74223659e-04, -3.68264416e-04,
          -3.85587628e-04, 6.90398811e-05, -4.71510721e-04,
          -1.33458656e-04, -1.08325272e-04, -1.06147595e-03,
          5.09457604e-05, -2.20909336e-04, -1.20218559e-04,
          -4.39728610e-04, -1.82081561e-03, -8.04133961e-05,
          -3.62185412e-04, -1.28765905e-03, -2.80386739e-04,
          -1.56360143e-03, 1.22948235e-03, -5.04439522e-04,
          -4.93875844e-03, -5.82613936e-03, -5.33764483e-03,
          -3.31579172e-03, -5.11155324e-03, -3.75797693e-03,
          -5.65659115e-03, -4.48353356e-03, -6.33838261e-03,
          -6.75307726e-03, -6.08878816e-03, -1.73053471e-03,
          -3.13754240e-03, -4.14317520e-03, -2.23924941e-03,
          -2.35448079e-03, 7.39465249e-05, 1.90670532e-03,
          2.81607412e-04, -1.51058775e-04, 1.13628560e-03,
          1.86344769e-04, -9.60117090e-04, -1.27168298e-02,
          -7.53306272e-03, -6.23552641e-03, -6.30591391e-03,
          -2.28353543e-03, -3.72387283e-03, -4.13452461e-03,
          -3.67379352e-03, -3.33169173e-03, -4.67770826e-03,
          -4.99696378e-03, -3.81143112e-03, -4.58984496e-03,
          -2.56690709e-03, -4.61124908e-03, -2.70458334e-03,
          -3.98062315e-04, -2.79535004e-03, -2.33769976e-03,
          -3.33738397e-04, -2.83728656e-03, -4.12401604e-03,
          -2.43373192e-03, -4.03904775e-03, -2.43851542e-03,
          -3.67931859e-03, 9.55021416e-04, 1.78450812e-02,
          1.80636737e-02, 1.93064045e-02, 5.20930672e-03, 1.12585668e-02,
          1.69702061e-02, 1.48844086e-02, 7.27815181e-03, 2.70124921e-03,
          3.97493131e-03, 2.30741641e-03, 2.06243410e-03, 8.78503663e-04,
          1.53401087e-03, 1.40885334e-03, 5.44625393e-04, 1.32816716e-03,
          7.53653585e-04, 4.86208184e-04, 1.71382306e-03, 1.83740864e-04,
          -1.04222458e-03, 8.93182296e-05, 2.24182545e-03,
          1.18659134e-03, 2.47494580e-04, 1.01584237e-05, 2.10951679e-04,
          -4.82096395e-04, -6.37072371e-04, 2.58490967e-04,
          8.08089215e-04, -4.79454931e-04, -2.87302217e-04,
          1.82744858e-04, -1.17720529e-05, -2.76659295e-04,
          1.68672166e-04, 3.59898404e-04, -1.50575186e-04,
          -5.21970971e-04, 1.28097900e-05, -3.50584014e-04,
          -1.41314836e-03, -6.20625913e-04, 3.03351262e-04,
          -1.55563280e-03, -7.87658617e-04, -7.81943963e-05,
          -3.60451848e-03, -3.65570583e-03, -3.26811755e-03,
          8.94244731e-05, -3.46823107e-03, -3.87192098e-03,
          -2.03834102e-03, -4.49578930e-03, -7.61493854e-03,
          -5.87446243e-03, -6.89281384e-03, -6.52743783e-03,
          -6.19523926e-03, -1.96945877e-03 ]
      - [ 8.03138036e-03, -7.39882875e-04, 7.14377791e-04,
          -3.67754791e-03, 3.90913599e-04, 6.40716311e-03,
          5.56242594e-04, 5.12026995e-03, -8.25233012e-03,
          -2.36988477e-02, -1.80955920e-02, 5.94591838e-04,
          -1.78919826e-02, -1.14961024e-02, -2.12976825e-03,
          -1.91387516e-02, -3.61434463e-03, -7.08248746e-03,
          -4.25868332e-02, -2.43788529e-02, -1.60328168e-02,
          -6.27444545e-03, -1.14233065e-02, -8.93290900e-03,
          -1.66527962e-03, 2.51358375e-03, -9.43810679e-03,
          -1.09125329e-02, -7.93561712e-03, -2.36823907e-04,
          3.01850983e-03, -5.29797655e-03, 1.51304027e-06,
          -1.34597672e-02, -1.05109327e-02, -2.20559575e-02,
          -1.81693528e-02, 2.95937614e-04, -1.01577826e-02,
          -1.48509219e-02, -3.06537598e-02, -1.47124501e-02,
          2.63112434e-03, 3.64891998e-03, -5.29913232e-03,
          1.13880238e-03, 2.97119701e-03, 4.73781116e-03, 9.43861960e-04,
          5.92728611e-03, 5.57774957e-03, -2.87403725e-03,
          -2.02785782e-03, 5.42466156e-03, 7.17302784e-03,
          4.71520377e-03, 1.97379943e-03, 1.17229461e-03,
          -6.21083425e-03, -2.89409934e-03, 2.92795245e-03,
          5.86971594e-03, 6.29984867e-03, -1.54947268e-03,
          3.05502070e-03, -2.01732130e-03, 3.83167680e-05,
          4.12862608e-03, 8.85237847e-03, 1.00147119e-03, 3.33380140e-03,
          -3.21095879e-03, -8.50100478e-04, 3.50625301e-03,
          4.89234831e-03, 6.68289792e-03, 2.23037926e-03, 1.60285947e-03,
          -5.91660012e-03, -8.49907473e-03, -3.05329286e-03,
          -1.01976201e-03, -7.13045290e-03, -4.51638503e-03,
          -1.59115847e-02, -8.14707857e-03, -1.22044366e-02,
          -9.76306107e-03, -1.12659801e-02, -1.17608132e-02,
          -1.60214845e-02, -1.20486366e-02, -5.87374251e-03,
          1.03939213e-02, 4.83590318e-03, -8.60721245e-03,
          3.30715952e-03, -4.92605474e-03, 1.61427874e-02,
          4.19361691e-04, 1.98048481e-04, 1.28557340e-05, 1.47825296e-04,
          -5.47839329e-04, -3.49908914e-05, -1.48690504e-03,
          -1.89389742e-03, -2.38933973e-03, -3.51177849e-04,
          -9.45214124e-04, 3.63844703e-03, -2.58308463e-03,
          -2.69301794e-03, -6.20209379e-03, -2.23717443e-03,
          -6.18758285e-03, 4.26746067e-03, -1.13451958e-03,
          -4.25115414e-03, -2.81434483e-03, -7.16549065e-03,
          -1.87867938e-03, -3.20353801e-03, 6.18942780e-03,
          -4.60585998e-03, -3.41594173e-03, -9.52345785e-03,
          -1.96009804e-03, -3.52982053e-04, -4.18432942e-03,
          2.09845067e-03, 1.59093016e-03, -3.79255298e-03,
          -1.17470999e-03, -4.93677659e-03, 8.33244121e-04,
          -3.76895210e-03, -1.93392439e-03, -1.15185615e-03,
          -3.37987789e-03, -2.70209368e-03, -2.90556718e-03,
          -1.79660867e-03, -5.72535722e-03, 1.25446951e-03,
          4.85936832e-03, -9.14900971e-04, -5.72644116e-04,
          -6.40649209e-03, -5.31954225e-03, -5.67809911e-03,
          3.06768506e-03, 2.29276763e-03, -6.77128846e-04,
          -1.08219252e-03, -2.03642389e-03, -5.88887837e-03,
          -4.44878032e-03, -3.40005010e-03, 4.03392874e-03,
          -4.39628353e-03, -2.45878985e-03, -1.62753661e-03,
          1.88732287e-03, -6.96589332e-03, 1.42551353e-03,
          -1.89672259e-03, 4.34061838e-03, -2.58757523e-03,
          -3.59523855e-03, -4.04927740e-03, -4.03389474e-03,
          7.46113062e-03, 4.20165685e-04, -2.47296039e-03,
          -4.74777538e-03, -6.69860234e-03, -1.15335928e-02,
          -1.12075610e-02, -7.94742908e-03, 3.04223201e-03,
          -1.76224543e-03, -7.30155176e-03, -5.60060190e-03,
          -1.96147896e-02, -1.70034431e-02, -1.55649185e-02,
          -1.97960399e-02, -2.14775950e-02, -2.47559622e-02,
          -7.70745659e-03 ]
      - [ 4.03856626e-03, -4.34556394e-04, -1.24796177e-03,
          -7.32835755e-03, -7.88415596e-03, -5.94771979e-03,
          -2.63413321e-03, -6.19578455e-03, 2.89242726e-05,
          -1.46166800e-04, -1.72635401e-03, -1.78620324e-03,
          4.80178464e-03, 6.23013685e-03, 8.48990213e-03, 6.24586642e-03,
          8.45149346e-03, 3.93670192e-03, -3.61164892e-03,
          -1.14074477e-03, 3.73309688e-03, 4.49249800e-03,
          1.10458741e-02, 1.47194816e-02, 1.52938245e-02, 5.75013133e-03,
          1.06212501e-04, 1.97138707e-03, 4.97938413e-03, 1.39865540e-02,
          1.03236176e-02, 1.29935145e-02, -2.21606507e-03,
          3.73336417e-03, 2.56975810e-03, -8.28779535e-04,
          3.45644215e-03, 7.69019919e-03, 9.80166625e-03, 2.61452748e-03,
          -3.87020572e-03, -1.52028480e-03, -1.24440563e-03,
          1.00684352e-03, 3.68633750e-03, 2.49504973e-03, 6.03433745e-03,
          5.18707465e-03, 7.05399504e-03, 5.84452925e-03, 2.89474125e-03,
          4.05211002e-03, 1.49072963e-03, 4.17184317e-03, 2.93630734e-03,
          3.73895443e-03, 4.80060652e-03, 2.23092060e-03, 2.55908375e-03,
          4.11096116e-04, 2.14391504e-03, 4.28259838e-04,
          -1.38244475e-04, 3.22513151e-05, 7.55901739e-04,
          1.07954675e-03, 3.42485728e-04, 4.78356291e-04,
          -5.30108227e-04, -2.95903650e-04, -8.05985648e-04,
          8.82619570e-05, -1.14276445e-04, 6.35235105e-04,
          -1.70432060e-04, -6.98188960e-04, -1.79861439e-03,
          -3.71120695e-04, -5.38162282e-03, -4.06869361e-03,
          -3.42145585e-03, -3.57908593e-03, -1.28010577e-02,
          -1.34360977e-02, -2.01446544e-02, -8.77655763e-03,
          -1.41114062e-02, -8.70460179e-03, -1.03395907e-02,
          -1.13156820e-02, -1.47755370e-02, -1.84848364e-02,
          -1.31094288e-02, -4.49686218e-03, 4.52122325e-03,
          -1.23402746e-02, -8.81352811e-04, -1.73288379e-02,
          6.86520059e-03, 4.91651380e-03, 6.08443469e-03, 4.07073367e-03,
          5.53072290e-03, 2.56111147e-03, 4.91959322e-03, 3.23879882e-03,
          3.84872360e-03, 8.77690443e-04, 2.71424954e-03, 2.27878045e-04,
          5.01279254e-04, 1.68212119e-03, 7.29192805e-04,
          -1.65904654e-04, 5.30882098e-04, 1.24551891e-03,
          5.84114285e-04, 1.46457300e-04, -1.93316687e-03,
          -3.98353848e-04, 1.77254755e-04, 9.67387110e-04,
          -1.03376794e-03, 1.65064062e-04, -3.96588322e-04,
          -5.05812874e-04, -5.98158163e-04, -7.21556717e-05,
          -2.78693298e-03, -1.50147709e-03, -9.34770505e-04,
          -3.02974950e-03, -3.49313742e-03, -4.73944237e-03,
          -3.24070244e-03, -4.11412539e-03, -4.77543520e-03,
          -6.85285451e-03, -3.92390043e-03, -7.91004766e-03,
          -4.81765950e-03, 3.08018900e-03, 3.79482028e-03,
          8.26280843e-03, 7.46536767e-03, 4.86502936e-03, 3.92213464e-03,
          4.97238245e-03, 2.98980530e-03, -5.12844650e-04,
          4.38578008e-03, 4.74759052e-03, 2.45282357e-03, 3.59261129e-03,
          8.38526932e-04, 8.14571511e-04, -2.38914159e-04,
          7.05063751e-04, 5.86780021e-04, 1.87936425e-03,
          -3.98364849e-04, -4.51530563e-04, 4.37385897e-04,
          9.71370464e-05, -6.60337217e-04, 3.78494937e-04,
          1.17333889e-06, 2.99932202e-04, -7.88498961e-04,
          -2.28413017e-04, 1.14271650e-04, 4.10420267e-04,
          1.74544903e-03, -1.41270022e-04, -1.01922266e-03,
          -3.69879510e-03, -1.08717883e-03, -1.38059221e-02,
          -1.38122356e-02, -1.28313210e-02, -6.42507046e-04,
          -5.03819762e-03, -1.02410242e-02, -1.13918949e-02,
          -1.37039479e-02, -1.24418028e-02, -1.28207793e-02,
          -1.76266991e-02, -1.96245313e-02, -1.70880482e-02,
          -6.84259878e-03 ]
      - [ 2.24472233e-03, 2.55204877e-03, 2.37997316e-04,
          -3.68343177e-03, -3.12740682e-03, -2.70111603e-03,
          1.23246384e-04, -2.01541395e-03, -2.31689657e-03,
          -1.06916903e-03, -7.14655034e-05, 2.25714874e-03,
          5.98772988e-03, 5.32036088e-03, 8.70093051e-03, 5.51423244e-03,
          5.41724218e-03, 2.80357152e-03, 7.47680533e-05, 4.61422198e-04,
          2.63810914e-04, 5.54791128e-04, 1.58573070e-03, 2.62507075e-03,
          2.57590367e-03, 2.36904668e-03, 2.39770437e-04, 4.83420517e-05,
          5.06297394e-04, 3.06408224e-03, 3.42895649e-03, 3.77922738e-03,
          0., -4.83959448e-04, -1.57680741e-04, 1.14609447e-05,
          -1.28105792e-04, -6.75998235e-05, 2.85715039e-04,
          -7.62509764e-04, -3.41827807e-04, 4.98858572e-05,
          -5.30138321e-04, -2.95555656e-04, -4.06396721e-04,
          -2.76574283e-04, -1.03858032e-03, -1.25060370e-03,
          -2.63151160e-04, -3.52881354e-04, -8.41021363e-04,
          -7.55960122e-04, -8.82566208e-04, -8.30854930e-04,
          -2.49620015e-03, -1.04705233e-03, -1.87344919e-03,
          -2.73443852e-03, -7.35971087e-04, -8.52273870e-03,
          -8.35538097e-03, -1.19441319e-02, -7.84595963e-03,
          -1.02098547e-02, -6.67322380e-03, -5.27854031e-03,
          1.91429025e-03, 2.26935791e-03, 7.28876237e-03, 3.95056140e-03,
          4.26761806e-03, 8.06343183e-03, 8.32324009e-03, 8.64514057e-03,
          2.44552549e-03, 1.45421468e-03, 6.87792897e-03, 5.78747457e-03,
          6.74438151e-03, 1.16173690e-03, 7.66648795e-04, 8.46120936e-04,
          -4.39259456e-03, -3.18417908e-03, -7.52139464e-03,
          -1.05045142e-03, -3.73365683e-03, -3.01919616e-04,
          -1.79002387e-03, 4.34646092e-04, -4.15697554e-03,
          -4.87436214e-03, -4.87750024e-03, -2.95050959e-05,
          4.53108177e-03, -9.15941875e-03, -3.73446615e-03,
          -1.01853898e-02, 2.31971522e-03, 1.36500504e-03,
          1.94656651e-03, 2.32065492e-03, 7.65973527e-04, 2.05858098e-03,
          1.16994360e-03, 1.10911811e-03, 3.92379909e-04, 8.76640494e-04,
          1.59654452e-03, 3.37096513e-04, 5.40545851e-04, 2.74807127e-04,
          9.77281481e-04, 1.13023294e-03, 6.65418978e-04, 2.01426359e-04,
          7.99765869e-04, -3.28323687e-04, 4.38068877e-04,
          5.31012529e-06, 2.45477422e-04, 2.26618416e-04, 3.68655572e-04,
          3.13856843e-04, 1.13866423e-04, 1.12774396e-04, 3.93781556e-05,
          2.94274942e-04, -6.30288969e-06, -2.80443026e-04, 0.,
          -1.26954707e-04, -2.33989369e-04, 9.66957232e-05,
          2.14069325e-04, -1.12212794e-04, -1.19583754e-04,
          1.74633387e-04, -8.25510433e-05, -1.60859272e-04,
          1.28105530e-04, -1.52324556e-05, -1.42471778e-04,
          -1.15571038e-05, 2.17367255e-04, -5.43443544e-04,
          -6.30619470e-04, -5.38246131e-05, -3.17324128e-04,
          -1.52810724e-04, -8.59638021e-05, -1.93309243e-04,
          9.93444773e-05, 5.86926108e-05, -2.85187154e-04,
          -4.66639613e-04, -3.56994860e-04, -5.69720054e-04,
          -7.11193250e-04, 3.73457005e-05, -7.08570937e-04,
          -1.14437821e-03, -5.84238558e-04, -1.04872473e-04,
          -1.12726353e-03, -3.05607711e-04, -1.33387209e-03,
          -1.77693481e-04, -1.15708692e-03, -2.76625477e-04,
          -6.79993071e-04, -5.56615414e-04, -1.01214193e-03,
          -3.43715074e-04, -9.19053040e-04, -1.69297832e-03,
          -2.15210812e-03, -6.21910999e-03, -6.36783615e-03,
          -6.91704731e-03, -1.13862462e-03, -1.59172458e-03,
          -4.11419431e-03, -4.77640796e-03, -4.95791528e-03,
          -4.41257283e-03, -6.04645722e-03, -8.75155162e-03,
          -7.25206360e-03, -7.70539185e-03, -5.65371569e-03 ]
      - [ 2.93741527e-04, -6.63146318e-04, 8.01314251e-04,
          -7.49829996e-05, -4.95814951e-04, 4.14869428e-05,
          -4.62976401e-04, -2.09154794e-04, -6.91875524e-04,
          -8.21693538e-05, 1.13615395e-04, -2.67368305e-04,
          6.35386386e-05, -5.67299321e-05, -3.88746266e-04,
          6.19467610e-05, -2.35918269e-04, -1.02745369e-04,
          -4.80247778e-04, -6.99880475e-04, -3.39018856e-03,
          -1.68284262e-03, -8.36392224e-04, -9.73658229e-04,
          -2.32366798e-03, -4.58608242e-03, -1.51419360e-03,
          6.99005104e-05, -1.33629260e-03, 2.59888591e-03,
          -7.00416917e-04, -1.05453341e-03, -3.46547575e-03,
          -8.79318861e-04, 3.82228568e-03, 4.18517832e-03,
          3.81051470e-03, 4.02645767e-03, 4.41098073e-03, 3.37274862e-03,
          3.78697249e-03, 3.42120649e-03, 2.18748860e-03,
          -1.05125830e-03, -6.15334313e-04, -1.35461870e-03,
          -1.77213806e-03, -1.38244242e-03, -1.69749465e-03,
          -4.38084127e-03, -4.45429422e-03, -6.23272266e-03,
          -4.53406153e-03, -5.20629110e-03, -4.61719371e-03,
          -3.98751860e-03, -2.98549980e-03, -1.55589497e-03,
          -1.76570693e-03, -9.31209128e-04, 3.75988497e-03,
          3.05152591e-03, 3.52620496e-03, 2.70695146e-03, 3.06934468e-03,
          3.48412828e-03, 4.16736584e-03, 4.84444760e-03, 6.23306865e-03,
          4.47123731e-03, 5.91872679e-03, 5.24502527e-03, 1.00915250e-03,
          -7.64853496e-04, -8.16489279e-04, 1.24519807e-03,
          2.48760590e-03, 2.84777256e-03, 4.16032737e-03, 3.52019793e-03,
          2.62448285e-03, 8.54551581e-06, -2.77899177e-04,
          1.57111429e-03, 6.26995694e-03, 6.61605969e-03, 3.23312008e-03,
          -8.84083158e-04, -9.71752859e-04, -6.11665426e-04,
          -6.66988140e-04, -1.03347516e-03, -1.46521290e-03,
          -1.70217303e-03, -2.27271183e-03, 7.71611510e-03,
          9.21027921e-03, 7.76160089e-03, 1.21690602e-04,
          -2.72945006e-04, 3.05665511e-04, 5.23935378e-05,
          -5.56654006e-04, 3.75130912e-05, -5.10766113e-05,
          1.95029497e-04, 1.67711958e-04, 1.65221965e-04, 7.97519460e-05,
          -1.77316208e-04, -3.94796574e-04, -1.74875982e-04,
          -4.54246219e-05, 9.58811725e-05, -1.10807137e-04,
          1.24512619e-04, 7.50626205e-05, -1.97328573e-05,
          -3.37559643e-04, -6.97589276e-05, -2.03596443e-04,
          -1.47003477e-04, 2.26529795e-04, -3.46722809e-04,
          -1.11994421e-04, -3.65001499e-04, -2.20823800e-04,
          -3.27419664e-04, -1.15393894e-04, -4.70747109e-05,
          -5.47985604e-04, -3.41390929e-04, -6.32088457e-04,
          -5.26387070e-04, 3.21773812e-04, -3.05231893e-04,
          -2.19721078e-05, 2.46124429e-04, 5.59232139e-04,
          -1.71565029e-04, 1.27551635e-03, 1.77266484e-03,
          2.29029753e-03, 1.29793433e-03, 1.69751619e-03, 1.44419749e-03,
          1.23834237e-03, 1.56994257e-03, 1.36717421e-03, 1.41951803e-03,
          1.22595439e-03, 6.32236246e-04, 1.42246590e-03, 1.02791970e-03,
          8.46327399e-04, 1.30868889e-03, 1.35454722e-03, 5.89616189e-04,
          9.86042665e-04, 3.91091511e-04, 9.07367677e-04, 6.13108510e-04,
          9.85516235e-04, 7.96948210e-04, 1.19391782e-03,
          -1.65695115e-03, -4.80937632e-03, -4.61031916e-03,
          -2.36192602e-03, -5.68631012e-03, -5.69433486e-03,
          -5.88210905e-03, -2.70527089e-03, -4.13583452e-03,
          -4.46982961e-03, -2.31378223e-03, -4.08094237e-03,
          -4.26749978e-03, -8.60085431e-03, -4.84401686e-03,
          -6.54214201e-03, -5.58161223e-03, -5.40807983e-03,
          -4.43861680e-03, -7.91143626e-04, -6.19790051e-04,
          -1.52793247e-03, -1.16918783e-03, -1.61309517e-03,
          -1.71315204e-03, -1.96482986e-03 ]
      - [ 8.55868217e-04, 3.17308982e-03, 5.65285096e-03,
          -1.57512689e-03, -2.26966804e-04, -3.91450390e-04,
          2.22103161e-04, -4.34595509e-04, -4.41832148e-04,
          -8.29174882e-04, -8.03315896e-04, -5.23967959e-04,
          -4.72046580e-04, 7.49129613e-05, -1.52856461e-04,
          -1.34637870e-04, -8.77449202e-05, -2.84753623e-04,
          4.44101053e-04, 4.90474235e-03, 5.30951750e-03, 6.30546967e-03,
          4.37255204e-03, 5.06128976e-03, 3.56090674e-03, 2.12998173e-04,
          2.59985635e-03, 5.95726538e-03, 1.10219214e-02, 1.40809948e-02,
          1.03565408e-02, 5.80732711e-03, 2.29493366e-04, 2.74507771e-03,
          5.70892030e-03, 5.69689972e-03, 4.11116052e-03, 5.81967551e-03,
          5.79019915e-03, 4.17892542e-03, -8.55772698e-04,
          -7.65071483e-04, -6.67693734e-04, -1.27781951e-03,
          -4.29113454e-04, -7.69204227e-04, -1.10920612e-03,
          -5.35430736e-04, -1.66480709e-03, -2.79154046e-04,
          -7.14534719e-04, -1.14473398e-03, -1.35403499e-03,
          -1.34404714e-03, -1.64553430e-03, -1.36126904e-03,
          -1.07056426e-03, -2.18439754e-03, -1.75889523e-03,
          -2.13679275e-03, -7.53349799e-04, -2.17223330e-03,
          -2.08224589e-03, -1.81177689e-03, -1.35582394e-03,
          -9.32396972e-04, -1.62260630e-03, -7.64923694e-04,
          -2.25913641e-03, -1.69556518e-03, -1.70141272e-03,
          -1.30457990e-03, -9.62095626e-04, -9.28058580e-04,
          -1.14107330e-03, -1.06846204e-03, -6.40910934e-04,
          -1.11973425e-03, -9.97579074e-04, -7.36784830e-04,
          1.01093370e-04, 1.34561013e-03, 9.29630769e-04, 4.88565347e-05,
          2.48771743e-04, 2.62262387e-04, -6.04044006e-04,
          -1.32082391e-03, -1.04857318e-03, -1.10821589e-03,
          -1.11994857e-03, -1.11113035e-03, -7.12394249e-04,
          -8.22064874e-04, -1.39449595e-03, -1.38082891e-03,
          -1.60636462e-03, -1.72126608e-03, -2.50489172e-03,
          -2.02445430e-03, -1.01277744e-03, -1.16716244e-03,
          -8.27778073e-04, -5.72521647e-04, -9.65919811e-04,
          -6.39881255e-05, -6.16162026e-04, 4.40125965e-04,
          3.71747010e-05, -9.70345282e-04, 1.40265780e-04,
          -1.70435989e-04, -3.34577344e-04, 4.47077065e-04,
          3.01691645e-04, -2.13934589e-04, 2.54354236e-04,
          7.36163580e-04, 3.87017848e-04, 7.56660418e-04,
          -7.92466744e-05, 7.12685345e-04, 5.34483224e-05,
          7.33280904e-04, 8.06348980e-05, 7.70539686e-04, 4.86729805e-05,
          4.07588144e-04, 1.18648622e-03, 8.03755771e-04, 6.87003601e-04,
          7.65924808e-04, 5.19087364e-04, 1.06453570e-03, 6.87286491e-04,
          8.45660397e-04, 1.33084576e-03, 1.21603522e-03, 1.43698556e-03,
          7.54937471e-04, 1.16732193e-03, 4.64450661e-03, 4.81610326e-03,
          5.54160960e-03, 1.94103550e-03, 6.38143392e-03, 5.35938982e-03,
          5.37995342e-03, 3.97385424e-03, 4.78269858e-03, 4.61008633e-03,
          3.82663403e-03, 2.90660188e-03, 2.78068869e-03, 1.44681695e-03,
          7.05175393e-04, 1.82803278e-03, 4.60913085e-04, 3.64302483e-04,
          1.05906476e-03, 3.33223958e-04, -2.21255352e-04,
          4.99668997e-04, 1.07299758e-03, 1.14301941e-03,
          -5.07936673e-03, -7.79012917e-03, -1.13685774e-02,
          -5.41467313e-03, -3.85054504e-03, -4.60769655e-03,
          -4.29660873e-03, -4.17632936e-03, -1.80900819e-03,
          -2.12232349e-03, -2.88990187e-03, -1.12285111e-02,
          -1.11590233e-02, -1.44733759e-02, -5.52453287e-03,
          -6.60381606e-03, -7.86282495e-03, -5.69052901e-03,
          -4.49377950e-03, -2.86959112e-05, 8.99408042e-05,
          -1.89841841e-04, -3.63634957e-04, -1.06144021e-03,
          -1.07604824e-03, -1.10238220e-03 ]
      - [ 7.88719510e-04, 1.33370678e-03, 2.88835284e-03, 3.30335781e-04,
          6.55144337e-04, 2.03805059e-04, -3.85729567e-04,
          -3.62760591e-04, -1.30609900e-04, -3.07225455e-05,
          -2.01287839e-04, -2.13824795e-04, -9.28248264e-05,
          -3.17005070e-05, -3.27079295e-04, 5.72290555e-05,
          1.33059395e-04, -6.91489258e-05, -2.14555603e-05,
          7.52460619e-04, 9.78976139e-04, 1.49021763e-03, 1.44673872e-03,
          1.49966951e-03, 1.03911944e-03, 9.70392284e-05, 9.21564642e-04,
          1.82053575e-03, 2.72459467e-03, 3.95091623e-03, 2.99295783e-03,
          2.12589977e-03, 1.62028897e-04, 1.30123238e-03, 1.53451134e-03,
          2.46386812e-03, 2.59933667e-03, 3.16276005e-03, 2.24806392e-03,
          4.10044420e-04, -1.44426385e-03, -1.53965678e-03,
          -1.54501654e-03, -8.34027713e-04, -3.30675975e-04,
          -9.15546319e-04, -7.93698186e-04, -1.04458432e-03,
          -1.76005042e-03, -3.06008663e-03, -3.71952378e-03,
          -3.68173840e-03, -2.43122526e-03, -2.08784011e-03,
          -3.06943315e-03, -2.70381873e-03, -2.87964148e-03,
          -1.55918556e-03, -1.61583989e-03, -5.09846897e-04,
          -2.47492862e-04, -5.88844530e-04, -3.05097259e-04,
          -5.45718125e-04, -4.08824941e-04, -2.33810715e-04,
          3.87656200e-03, 3.80587508e-03, 4.23340080e-03, 3.20840278e-04,
          1.98277252e-04, 3.11616022e-04, -1.56897237e-04,
          1.18064089e-03, 8.84330948e-04, 8.46365991e-04, 9.90072382e-04,
          8.28077085e-04, 8.72874865e-04, 5.28693723e-04, 1.64367794e-03,
          1.92285795e-03, 3.17046396e-03, 2.17896909e-03, 5.64827630e-03,
          3.99417523e-03, 3.46883363e-03, 1.73828390e-04,
          -3.85508436e-04, -3.20369349e-04, -2.48791184e-04,
          -3.28867260e-04, -5.11382648e-04, -6.38127094e-04,
          -1.88737205e-04, 4.80446965e-03, 4.89429710e-03,
          3.70772276e-03, -7.91095023e-04, -8.79123574e-04,
          -5.98701183e-04, -3.49566282e-04, -9.45825479e-04,
          -1.05470326e-03, -1.54421420e-03, -1.13556080e-03,
          -2.40813917e-03, -2.91825552e-03, -3.28053720e-03,
          -3.46836424e-03, -5.67722740e-03, -4.95963404e-03,
          -3.81303625e-03, -1.22642014e-04, -2.39862071e-04,
          -6.33746868e-06, -1.19062388e-05, 7.30054089e-05,
          -6.78799333e-05, -2.33288098e-04, -1.19686163e-04,
          1.22092853e-04, 4.67538281e-04, 4.39879484e-04, 7.10649882e-04,
          7.83141004e-04, 7.15304050e-04, 8.59916268e-04, 1.36694766e-03,
          2.66161119e-03, 2.80485046e-03, 2.88038934e-03, 2.73886044e-03,
          2.43278756e-03, 2.55475543e-03, 1.27506594e-03, 7.62916170e-04,
          5.43906703e-04, 7.17160350e-04, 5.75327838e-04, 6.69718080e-04,
          6.16444915e-04, 8.90730938e-04, 3.45544366e-04, 3.88229382e-04,
          4.80751769e-04, 5.00493683e-04, 3.42694519e-04, 5.17143635e-04,
          6.06568588e-04, 5.24049683e-04, 2.65378563e-04, 4.81528550e-04,
          4.55710076e-04, 3.64636158e-04, 4.80775896e-04, 5.97325037e-04,
          2.04280033e-04, 4.52522159e-04, 2.58514192e-04, 3.52772244e-04,
          3.13783879e-04, 4.72420565e-04, 3.30747629e-04, 4.45511163e-04,
          -1.69761712e-03, -3.69665935e-03, -3.61138280e-03,
          -1.70348852e-03, -1.37735798e-03, -1.39941659e-03,
          -1.36010337e-03, 1.41361961e-04, -7.08364532e-04,
          -7.03169266e-04, -9.49639070e-04, -3.57049075e-03,
          -3.81226349e-03, -4.30034380e-03, -1.67909986e-03,
          -2.55323807e-03, -2.73750327e-03, -1.95048063e-03,
          -1.27158675e-03, -5.10371698e-04, -3.87191627e-04,
          -5.10835263e-04, -7.28471496e-04, -7.80267583e-04,
          -1.02678209e-03, -1.01496966e-03 ]
      - [ -8.21612077e-04, -3.42617597e-04, 3.73355870e-04,
          -3.51855560e-04, -6.24011409e-06, 1.39985699e-04,
          -3.08249510e-05, 1.07209315e-04, 4.65409903e-05,
          1.15752053e-04, 1.52177337e-04, 1.23301346e-04, 1.33528112e-04,
          3.07686103e-04, 5.12934166e-05, 1.17126248e-04, 8.04564261e-05,
          3.34010692e-05, 2.45743897e-04, 6.05554553e-04, 6.94147893e-04,
          1.66716124e-03, 1.77774380e-03, 1.80598325e-03, 6.70634210e-04,
          8.39956119e-05, 1.18289294e-03, 1.61564036e-03, 2.42139120e-03,
          3.96970939e-03, 3.24420840e-03, 2.37369235e-03, 1.92045700e-04,
          1.56351051e-03, 1.77542749e-03, 3.61137139e-03, 4.36892128e-03,
          4.56035137e-03, 2.76621082e-03, 2.01224801e-04,
          -1.06644999e-04, -2.86815834e-04, -2.41086353e-04,
          -5.47453878e-04, -1.88679667e-04, -2.98209750e-04,
          -2.50519253e-04, -8.73044337e-05, -3.94433620e-04,
          -4.60382755e-04, -4.72069572e-04, -2.48475437e-04,
          -2.60458735e-04, -3.63702100e-04, -5.44530980e-04,
          -4.81871248e-04, -2.77345418e-04, -3.00365587e-04,
          -5.04359545e-04, -3.35383986e-04, -3.31591087e-04,
          -6.26515131e-04, -2.59631226e-04, -5.01786359e-04,
          -6.53448340e-04, -2.28670193e-04, -5.06285578e-04,
          -4.46478749e-04, -3.98271921e-04, -3.68179579e-04,
          -3.17318336e-04, -2.69094890e-04, -5.55715407e-04,
          -4.44176578e-04, -5.92149736e-04, -4.12665424e-04,
          -3.46576009e-04, -3.72506853e-04, -6.08772621e-04,
          -3.28024966e-04, -6.34703261e-04, -2.66047311e-04,
          -4.59180184e-04, -5.14732208e-04, -3.07707465e-04,
          -4.33902052e-04, -6.13927317e-04, -3.29818518e-04,
          -5.78029954e-04, -5.37462358e-04, -4.97174624e-04,
          -6.36543205e-04, -8.80692969e-04, -7.77268375e-04,
          4.77722351e-04, 9.02119465e-03, 9.75510851e-03, 7.33599393e-03,
          -6.53914321e-05, -1.96884212e-04, -2.08904792e-04,
          -3.19628336e-04, -3.92945425e-04, -1.09532084e-05,
          -4.18297859e-04, -2.17634632e-04, -2.52990983e-04,
          -6.51392183e-05, -1.91763544e-03, -2.10615480e-03,
          -1.93022646e-03, -2.33127107e-03, -2.80334498e-03,
          -2.59982049e-03, -6.15313649e-04, -1.17067015e-03,
          -1.14199333e-03, -1.52530044e-03, -2.85530672e-03,
          -2.92947609e-03, -2.90915533e-03, -3.13246180e-03,
          -2.97072995e-03, -3.43072251e-03, -2.73236888e-03,
          -2.61209835e-03, -2.72147427e-03, 3.67538538e-04,
          2.25978810e-03, 4.01379494e-03, 5.02832280e-03, 5.38116740e-03,
          3.98207735e-03, 3.16708232e-03, 1.37221208e-03, 1.35436293e-03,
          8.36454623e-04, 6.17309299e-04, 6.75292220e-04, 5.62460162e-04,
          5.92212309e-04, 5.80788823e-04, 8.25467811e-04, 3.21533618e-04,
          4.97038127e-04, 5.19315246e-04, 4.96044871e-04, 4.68332728e-04,
          4.71062260e-04, 5.37535932e-04, 5.87529677e-04, 2.04875629e-04,
          5.15119871e-04, 5.28235105e-04, 4.96650697e-04, 5.81775792e-04,
          6.15182216e-04, 3.01744003e-04, 5.32282924e-04, 2.64034694e-04,
          3.83849198e-04, 2.39061366e-04, 4.31456399e-04, 3.17205471e-04,
          5.96450234e-04, -1.41650555e-03, -4.37190989e-03,
          -4.34047217e-03, -2.83953338e-03, -1.42831251e-03,
          -1.61460461e-03, -1.37241650e-03, 4.16538278e-05,
          -4.61860123e-04, -4.69092920e-04, -5.67809504e-04,
          -4.14976338e-03, -4.20357985e-03, -4.79575014e-03,
          -1.35284080e-03, -2.61335424e-03, -2.76723085e-03,
          -2.01220019e-03, -8.33980041e-04, -4.12813970e-04,
          -1.90277933e-04, -3.85898486e-04, -5.46336116e-04,
          -7.83840020e-04, -7.55945453e-04, -5.93041244e-04 ]
      - [ -4.04050248e-03, -1.96056557e-03, 1.98790547e-03,
          -3.60472477e-03, -2.59328028e-03, 4.53027867e-04,
          -1.59446534e-03, 6.23602900e-05, 1.42288380e-04,
          -1.82432088e-03, -1.24103588e-03, -1.14774646e-03,
          -5.91698941e-03, -5.36322221e-03, -6.59254380e-03,
          -1.39017357e-03, -1.83733180e-03, -1.33554859e-03,
          1.25087361e-04, 3.99840949e-03, 1.43712072e-03, 7.39792769e-04,
          -1.66004384e-03, 2.44389940e-03, 1.91659306e-03,
          3.72105133e-04, 9.92021291e-04, -4.37004579e-04,
          4.72786278e-03, 2.35691364e-03, 3.94000066e-03,
          -3.85161093e-03, 6.86458952e-04, 1.19431212e-03,
          3.27409455e-03, 2.16261623e-03, 4.63713368e-04, 2.93672597e-03,
          2.16311449e-03, 4.05382179e-03, -1.57642062e-03,
          1.43737299e-03, -2.19173919e-04, -2.19204673e-03,
          -7.96952576e-04, -1.81164674e-03, -8.37135231e-05,
          3.07595532e-04, -1.27428456e-03, -8.96284939e-04,
          -1.31517777e-03, -2.21119146e-03, -5.14016021e-04,
          -8.79267172e-04, -1.39783404e-03, -1.55944366e-03,
          -6.56081887e-04, -2.59347074e-03, -1.54419546e-03,
          -6.31063420e-04, -1.00813492e-03, -1.50184578e-03,
          -5.01841365e-04, -1.49689382e-03, -1.90938637e-03,
          7.20545300e-04, -2.21141684e-03, -2.46251095e-03,
          -1.58660708e-03, -8.04807234e-04, -1.00075628e-03,
          -1.34076062e-03, -1.44391251e-03, -1.13092212e-03,
          -2.62177130e-03, -6.39495149e-04, -4.78537782e-04,
          -1.73698785e-03, -7.51988046e-05, -1.94306416e-03,
          -1.76292751e-03, -4.06435429e-04, -2.14571031e-04,
          -9.49163339e-04, -7.81155075e-04, -6.89627137e-04,
          -3.72510694e-04, 2.10226426e-04, -1.42827106e-03,
          -4.13613707e-05, 7.89221758e-06, -5.52645710e-04,
          5.54620405e-04, 1.11197482e-03, 6.01941487e-03, 5.41929621e-03,
          5.41929621e-03, -2.44890107e-03, 8.61449819e-03,
          8.57099146e-03, 9.57017113e-03, -8.96560901e-04,
          -2.44550547e-03, -1.40209345e-03, -2.20615207e-03,
          -1.29536027e-03, -1.93092925e-03, -1.55534083e-03,
          -6.27326488e-04, -1.30020664e-03, -2.71605072e-03,
          -7.56942201e-04, -1.74316054e-03, -6.29690359e-04,
          -1.50109793e-03, -1.08293723e-03, -1.98351263e-04,
          -1.78278331e-03, -1.48707232e-03, -8.43446061e-04,
          -1.60820514e-03, -1.44133146e-03, 2.78607535e-04,
          -2.01095987e-04, -1.37318275e-03, -2.13200250e-03,
          -1.13446431e-05, -6.85964478e-04, 8.88259383e-05,
          -2.08451282e-04, -6.06272835e-04, -6.56521472e-04,
          -4.10181121e-04, -1.40547418e-05, -2.60811561e-04,
          5.35442901e-04, 4.75088687e-04, -1.07683300e-04,
          3.75950127e-04, 9.62694990e-04, 2.03603195e-04, 1.22690690e-03,
          1.64581602e-03, -1.13381830e-04, -5.56070241e-04,
          1.22879003e-03, 1.57733273e-03, 1.26495503e-03, 1.06586888e-03,
          2.62867589e-03, 1.42524554e-03, -1.26566563e-03,
          2.26137252e-03, 1.72035221e-03, 1.53651473e-03, 2.21442990e-03,
          2.97085592e-03, 2.44350726e-04, 2.03222199e-03,
          -1.06889238e-04, 1.44475058e-03, 1.73819833e-03,
          1.37825811e-03, 1.78522477e-03, 1.99773628e-03,
          -8.41945037e-03, -1.48840742e-02, -1.47826448e-02,
          -7.12853018e-03, -1.28011387e-02, -1.81919187e-02,
          -1.71785932e-02, -6.72949385e-03, -1.34861097e-02,
          -1.26530565e-02, -1.05244284e-02, -1.58914085e-02,
          -1.49822133e-02, -1.96758825e-02, -1.03685884e-02,
          -1.48672396e-02, -1.38867376e-02, -1.14878789e-02,
          -5.92502719e-03, -3.08799534e-03, 8.91927863e-04,
          1.30813569e-04, 4.78633330e-04, -9.59179248e-04,
          -2.22469796e-04, 1.89922226e-03 ]
      - [ -1.40680012e-03, -1.26087631e-03, 3.85006191e-04,
          -8.86957860e-04, -1.49938380e-04, 5.83964225e-04,
          -2.82511726e-04, -5.81226952e-04, -2.97576457e-06,
          7.78996618e-04, -3.84487124e-04, 1.92121341e-04,
          -5.00184949e-04, 1.69910520e-04, 1.02733175e-04,
          7.06618768e-04, -2.77593674e-04, -2.86791183e-04,
          1.03853868e-04, 2.55287974e-03, 2.82202847e-03, 4.53220308e-03,
          4.07364452e-03, 4.22994234e-03, 2.66367407e-03, 5.52786689e-04,
          2.27911002e-03, 4.97232564e-03, 7.02718413e-03, 1.16106868e-02,
          8.27154983e-03, 4.72319080e-03, 2.01342817e-04, 3.40772350e-03,
          3.34649440e-03, 5.96390292e-03, 6.33387594e-03, 8.06399807e-03,
          5.96008357e-03, 1.15171936e-03, -1.68372109e-03,
          -2.31826119e-03, -2.02721264e-03, -3.54673178e-03,
          -2.60645663e-03, -2.87459278e-03, -2.20379137e-04,
          9.22972453e-04, 1.02947198e-03, 1.40585966e-04, 5.70907781e-04,
          4.74348286e-04, -5.12784405e-04, -5.58299362e-04,
          -5.67640644e-04, -2.77150335e-04, -4.53858636e-04,
          -8.03903677e-04, -3.58749181e-04, -3.82207247e-04,
          -4.17060772e-04, -1.18442811e-03, -3.70004826e-04,
          -1.35934271e-03, -1.10853417e-03, -5.89346164e-04,
          -1.48306775e-03, -1.23519124e-03, -9.19977960e-04,
          -5.19667869e-04, -9.18757170e-04, -7.15721166e-04,
          -1.18551811e-03, -6.87146268e-04, -1.41371472e-03,
          -1.73340901e-03, -4.59143514e-04, -9.26824519e-04,
          -1.98149914e-03, -1.00596750e-03, -1.69402198e-03,
          -4.65731282e-04, -4.97610250e-04, -2.04432546e-03,
          -1.08272932e-03, -7.77357433e-04, -1.61899952e-03,
          -1.60163140e-03, -1.94152084e-03, -6.02085260e-04,
          -1.64377200e-03, -1.67519075e-03, -2.15203664e-03,
          -2.14560563e-03, -1.50236604e-03, 1.00027798e-02,
          1.00027798e-02, 7.10391067e-03, -9.28624650e-04,
          -2.40161098e-04, -5.46932919e-04, 6.28595939e-04,
          -1.96548019e-04, 3.96294636e-04, -2.94715428e-04,
          2.97232938e-04, -2.89899530e-04, 5.67735697e-04,
          -3.00645770e-04, -7.06352876e-04, 2.57715670e-04,
          -1.75680820e-04, -3.80964630e-04, -7.67744787e-05,
          4.28557214e-05, 5.86978334e-04, 1.65903784e-05, 2.72786332e-04,
          -1.09486376e-04, -1.22594080e-04, -3.80637939e-04, 0.,
          2.88825919e-04, -8.23077338e-04, 0., -9.87845706e-05,
          -7.10544526e-04, 6.55661352e-05, -8.17738255e-05,
          1.58138020e-04, -1.67908845e-04, -2.30619786e-04,
          -6.25922286e-04, -5.76135411e-04, -5.14892512e-04,
          -4.52113745e-04, -2.46947107e-04, -8.87321716e-04,
          -8.46533163e-04, 9.66197753e-04, 1.36943534e-03,
          2.77132611e-03, 4.56495723e-03, 2.06129649e-03, 2.02237768e-03,
          1.95759046e-03, 2.24499009e-03, 2.38402211e-03, 1.50838669e-03,
          2.81585939e-03, 2.16881465e-03, 1.53411203e-03, 2.01510568e-03,
          1.23126071e-03, 1.51817675e-03, 1.93771615e-03, 1.82515383e-03,
          5.77043684e-04, 1.31498137e-03, 7.92980194e-04, 1.00566482e-03,
          9.86098545e-04, 1.42155529e-03, 1.02030754e-03, 1.56478898e-03,
          -5.06198406e-03, -1.03674280e-02, -1.05079794e-02,
          -4.91386885e-03, -3.83803761e-03, -3.39845312e-03,
          -3.21012875e-03, 7.65435630e-04, -2.07043393e-03,
          -2.09467835e-03, -2.49002990e-03, -1.05692297e-02,
          -1.16461506e-02, -1.24887079e-02, -4.87572327e-03,
          -6.67342450e-03, -7.71047315e-03, -5.37446700e-03,
          -4.33788355e-03, -1.04561786e-03, -6.66431733e-04,
          -1.84905902e-03, -1.64882641e-03, -2.60591717e-03,
          -1.38877728e-03, -2.86706607e-03 ]
      - [ -7.00911274e-04, 6.56296150e-04, 2.11144888e-05,
          -1.48486742e-03, 9.05140769e-04, 3.92299698e-04,
          -2.70057848e-04, 5.60717948e-04, -2.23596842e-04,
          -8.67582348e-05, 4.36773495e-04, 3.68551729e-04,
          1.27735562e-04, 6.99074517e-05, 3.09852418e-04, 3.82415077e-04,
          -2.66210351e-04, 2.95087666e-04, 2.30578022e-04,
          3.22602387e-03, 3.18364496e-03, 4.26724507e-03, 3.44800972e-03,
          3.24085890e-03, 2.09831446e-03, 8.66950722e-05, 1.73857389e-03,
          4.39545838e-03, 7.43257813e-03, 9.66686383e-03, 6.73170853e-03,
          4.08965629e-03, -6.30672685e-06, 2.68847309e-03,
          4.17924440e-03, 4.45437664e-03, 2.16676272e-03, 5.09428512e-03,
          4.85226652e-03, 3.06876865e-03, -7.62076641e-04,
          -5.42290916e-04, -1.24276010e-03, -1.16977433e-03,
          -9.54393588e-04, -9.53660347e-04, -1.98395271e-03,
          -1.22419442e-03, -1.23602408e-03, -6.39583101e-04,
          -1.40878966e-03, -1.53555640e-03, -1.74802996e-03,
          -1.77817850e-03, -3.06281983e-03, -1.48724671e-03,
          -2.05218792e-03, -3.80164431e-03, -1.53930881e-03,
          -9.00144875e-03, -8.58974829e-03, -1.01094088e-02,
          -4.90577146e-03, -5.49885957e-03, -4.65583988e-03,
          -2.34870147e-03, 3.66536806e-05, -1.80245712e-04,
          1.64282741e-03, -1.99444650e-04, 2.65402510e-03,
          2.84507009e-03, 3.43690440e-03, 1.87624269e-03, 9.05819004e-04,
          1.85743591e-03, 2.97263172e-03, 4.60476411e-04, 1.18634000e-03,
          4.21616540e-04, -1.33570111e-05, 8.48762458e-04,
          1.14688679e-04, 8.33960949e-04, 2.63437716e-04, 1.25297462e-03,
          1.42674020e-03, 2.24422384e-03, 1.69576646e-03, 2.81012384e-03,
          2.83934525e-04, -3.62830215e-05, -1.24048034e-04,
          8.39511704e-05, -6.91382680e-04, -1.68708648e-04,
          7.88142788e-04, 6.75485237e-04, -6.53413648e-04,
          -6.44199841e-04, 2.17214198e-04, 9.64551116e-04,
          -7.05042563e-04, 1.08468090e-03, -3.16929887e-04,
          3.83812032e-04, -4.13286791e-04, 6.14973891e-04,
          9.79453325e-04, -7.70747953e-04, 4.16724826e-04,
          -1.10566689e-04, 1.11276546e-04, 1.20455190e-03,
          2.06569457e-04, -1.16029740e-04, 5.38162305e-04,
          -4.84736316e-04, 6.03451917e-04, 2.58610089e-04,
          -1.70046158e-04, 0., 6.07756025e-04, 1.17117255e-04,
          1.26133455e-04, 1.26679879e-04, 9.21198880e-05, 9.61805345e-05,
          4.72656247e-04, 2.19344569e-04, 2.53898266e-04, 3.81807622e-04,
          1.84967255e-04, 3.35984747e-04, 2.71655910e-04, 4.43818717e-04,
          7.83682568e-04, 4.05276427e-04, 5.44845359e-04, 4.42472403e-04,
          6.02410757e-04, 8.50902870e-04, 1.04161445e-03, 6.06626971e-04,
          2.74982594e-04, 3.85069230e-04, 1.93168322e-04, 8.10162339e-04,
          6.07375172e-04, 8.12600658e-04, 8.19243549e-04, 2.66342860e-04,
          9.38887650e-04, 1.00267876e-03, 1.05027098e-03, 1.80623800e-04,
          1.41354522e-03, 4.33706242e-04, 2.64078553e-04, 7.61211268e-04,
          1.48756750e-04, 1.42620105e-04, 4.00513120e-04, 7.66880403e-04,
          4.47250000e-04, -4.67924634e-03, -6.34467416e-03,
          -8.61303415e-03, -4.07868112e-03, -3.51844891e-03,
          -4.01151413e-03, -3.74820479e-03, -4.44770372e-03,
          -2.09700014e-03, -2.56928010e-03, -3.62787233e-03,
          -9.96852666e-03, -8.81733093e-03, -1.10082719e-02,
          -4.92190430e-03, -5.78552904e-03, -6.44515967e-03,
          -4.89467056e-03, -4.23286995e-03, -1.43858814e-03,
          -1.30286755e-03, -1.84100692e-03, -1.84651918e-03,
          -2.16802629e-03, -2.54051154e-03, -4.63846186e-03 ]
      - [ 6.39619480e-04, 2.30764342e-03, 2.62238132e-03,
          -7.95285974e-04, -1.23633698e-04, -1.53624293e-04,
          2.91779492e-04, -2.26125885e-05, 2.13193824e-04,
          -2.98897619e-04, 1.39465366e-04, -1.27003615e-04,
          3.51730378e-05, -1.22175334e-04, 1.51005006e-04,
          -3.03429173e-04, 2.94888916e-04, 3.75053060e-04,
          2.30793795e-03, 4.98115364e-03, 8.15139245e-03, 6.11194316e-03,
          6.94226893e-03, 9.45970695e-03, 9.31999646e-03, 9.27645620e-03,
          5.16496133e-03, 5.15027670e-03, 8.22436437e-03, 7.45164882e-03,
          8.23885202e-03, 7.91481137e-03, 6.98622083e-03, 7.00417766e-03,
          -6.31856383e-04, -5.54799568e-04, -1.12777960e-03,
          -1.42222096e-03, -2.40977551e-03, -3.92428227e-03,
          -3.93203413e-03, -2.26290291e-03, -1.03104906e-03,
          4.43592493e-04, 3.24804074e-04, 8.89763643e-04, 1.53622625e-03,
          1.53199653e-03, 1.30805280e-03, 3.04481154e-03, 3.19157657e-03,
          3.45149916e-03, 3.46743362e-03, 5.26669621e-03, 4.04761825e-03,
          3.84864141e-03, 1.19042827e-03, -1.07434264e-03,
          -6.76647236e-04, -1.54969573e-03, -4.16307664e-03,
          -2.56879441e-03, -3.83851980e-03, -4.56189597e-03,
          -7.90400337e-03, -7.57177826e-03, -4.50919010e-03,
          -4.51849774e-03, -4.89217928e-03, -4.97471821e-03,
          -5.29922778e-03, -5.20789390e-03, -4.37006215e-03,
          -1.70128624e-04, 2.97352934e-04, -2.58791470e-03,
          -3.00271413e-03, -4.73928172e-03, -5.73370466e-03,
          -5.17908158e-03, -2.65605375e-03, -6.53689058e-05,
          1.65977384e-04, -1.41657423e-03, -3.58358072e-03,
          -3.35253403e-03, -1.95034617e-03, 3.08764400e-04,
          2.58591666e-04, -1.83561919e-04, -1.49088830e-03,
          -1.02536019e-03, -4.23694786e-04, 8.63153022e-04,
          1.22033514e-03, 1.07747654e-03, -2.41261232e-03,
          -1.46374851e-03, -1.41889811e-03, -1.46721688e-03,
          -1.20480498e-03, -8.77562794e-04, -3.69846297e-04,
          -3.84977757e-04, -4.42955701e-04, -1.66580212e-04,
          -6.11287542e-04, -2.22172341e-04, -4.00150675e-05,
          -1.77628477e-04, -6.77131757e-05, -6.86896892e-05,
          -1.60893003e-04, 3.20633902e-04, -2.80274398e-04,
          2.16962144e-05, 2.17403678e-04, 4.12654044e-04,
          -2.12414408e-04, 1.93315995e-04, 2.93080666e-04,
          7.20448093e-04, -1.70791793e-06, 3.15854180e-04,
          -7.64495853e-05, 6.40814600e-04, 3.02214641e-04,
          6.36862882e-04, 4.09940025e-04, 8.33972124e-04, 9.43754567e-04,
          8.29901895e-04, 8.00362672e-04, 1.03810360e-03, 2.95724371e-04,
          5.25646552e-04, 7.28771382e-04, 8.08022683e-04, 4.32834611e-04,
          2.99644773e-04, 2.26447039e-04, 8.80387262e-04, 2.23083462e-05,
          1.40026526e-03, 1.13770424e-04, 1.89678790e-03, 9.73040354e-04,
          1.11265830e-03, 1.04184193e-03, 7.02006160e-04, 6.43554318e-04,
          1.15220924e-03, 6.14000950e-04, 9.13259981e-04,
          -1.57345654e-04, -3.76352808e-04, -9.40787024e-04,
          -3.38193611e-04, 9.43234831e-04, 9.80409095e-04,
          4.02374484e-04, -7.78105285e-04, -3.34050361e-04,
          -9.98504402e-05, -1.31343782e-04, 3.41832027e-04,
          -4.61995881e-03, -4.27976856e-03, -4.37152339e-03,
          2.62193033e-04, 3.45356646e-04, 5.66834584e-04, 6.97917829e-04,
          1.54692854e-04, 3.09546042e-04, 6.35212171e-04, 6.99103752e-04,
          4.76557878e-04, 8.73658399e-04, 7.69337523e-04, 7.49524566e-04,
          9.99530545e-04, 8.27485695e-04, 1.19313598e-03, 8.44486058e-04,
          -1.11215934e-03, -5.29491750e-04, 2.06398385e-04,
          5.70095981e-05, 2.26118049e-04, 1.44749996e-04 ]
      - [ 1.30993989e-03, 2.79818871e-03, 4.42744000e-03, 4.48708051e-05,
          8.08945857e-04, -8.15244566e-05, -8.37775442e-05,
          -5.98253740e-04, -4.07476582e-05, -1.44545542e-04,
          -3.11039854e-04, -1.70208208e-04, -1.15811650e-04,
          -1.60147087e-04, -4.20751399e-04, 1.29728314e-05,
          1.57968811e-04, -8.14271552e-05, 1.01327721e-03,
          3.08514363e-03, 5.13271755e-03, 4.08565579e-03, 4.90015512e-03,
          7.35163689e-03, 7.51955900e-03, 5.53741073e-03, 2.93823332e-03,
          3.24853859e-03, 5.33078378e-03, 4.92879143e-03, 7.20440829e-03,
          6.74973335e-03, 4.19207802e-03, 2.22443719e-03,
          -7.05354905e-04, -6.95833704e-04, -5.50312689e-04,
          -1.56977575e-03, -1.76715711e-03, -2.20606406e-03,
          -3.65585252e-03, -4.00857348e-03, -2.84095202e-03,
          -5.68430580e-04, -8.61968001e-05, -1.18768541e-03,
          -7.16104056e-04, -7.56560359e-04, -2.94556841e-04,
          -1.34579942e-03, -2.70239706e-03, -2.38894159e-03,
          -2.15383014e-03, -2.09150626e-03, -2.99807824e-03,
          -2.85602151e-03, -3.56133073e-03, -2.16677808e-03,
          -1.90587598e-03, 4.91713126e-06, 7.05037382e-05,
          -6.00693165e-05, 4.68827930e-05, -1.30134984e-04,
          -2.74545257e-03, -3.04035214e-03, 4.36294154e-04,
          3.84178798e-04, 1.01489329e-03, -2.24065292e-03,
          -8.09189340e-04, -1.15827064e-03, -6.80290512e-04,
          3.20800988e-04, 1.65742167e-04, -1.68166342e-04,
          2.95361067e-04, -8.54131009e-04, -2.90565891e-03,
          -2.01959535e-03, 1.20968391e-04, 2.62647285e-03,
          3.90049536e-03, 1.87697576e-03, 3.43401404e-03, 1.17791654e-03,
          2.46626232e-03, 4.76674642e-04, -2.93516205e-04,
          8.69159412e-05, 1.57379851e-04, -1.79754192e-04,
          5.25967698e-05, 1.21353427e-04, 2.50421173e-04, 3.85525776e-03,
          1.77170127e-03, 2.29466916e-03, -1.28658285e-04,
          -1.33071747e-03, -1.13869796e-03, -6.35491684e-04,
          -2.50280998e-03, -3.00456816e-03, -3.41448281e-03,
          -1.73986133e-03, -4.22814535e-03, -4.93307365e-03,
          -6.53424626e-03, -5.58349164e-03, -8.47431086e-03,
          -7.00241560e-03, -5.02293743e-03, -3.05889145e-04,
          -4.43992962e-04, 8.78575338e-06, -1.42914883e-04,
          1.49369676e-04, -1.95611748e-04, -3.05795576e-04,
          4.14634269e-05, 4.76911327e-06, 4.15184069e-04, 4.57325979e-04,
          9.24366817e-04, 1.36300595e-03, 2.72066309e-03, 3.05582373e-03,
          4.13607899e-03, 4.84575657e-03, 5.60757145e-03, 4.33376851e-03,
          3.71546508e-03, 3.78659857e-03, 4.08415031e-03, 2.58214772e-03,
          9.96253570e-04, 1.06707658e-03, 1.25008554e-03, 8.27801821e-04,
          3.51654424e-04, -6.38918311e-04, -8.49701697e-04,
          -1.58949042e-04, -5.12861356e-04, -3.16641352e-04,
          -3.21553787e-04, -3.95624462e-04, -1.23885649e-04,
          -3.25434521e-05, 1.47858836e-05, -3.99124139e-04,
          -2.95279868e-04, 1.26783689e-05, -5.59207983e-05,
          -5.81337408e-05, -1.60256488e-04, -4.64591358e-05, 0., 0., 0.,
          0., 0., 0., -1.30148692e-04, 0., 0., -3.65303458e-05,
          1.07550535e-04, -1.32639019e-04, -1.70026949e-04,
          7.08482985e-05, 8.80968000e-05, -1.00934827e-04,
          5.62362438e-05, -8.88141294e-05, -1.43230063e-04,
          -1.63082310e-04, -4.35000256e-05, 1.98190130e-04,
          -1.44893187e-04, 1.46867111e-04, -3.77774450e-05,
          2.22213130e-04, -1.30872562e-04, -1.24771264e-04,
          2.98033701e-04, -1.53734974e-04, -1.17751704e-04,
          -4.80658666e-04, 4.88222402e-04 ]
      - [ -8.49234057e-04, 3.65842352e-05, 1.15137573e-05,
          1.07334796e-04, -1.28049705e-05, 1.80478921e-04,
          4.18912125e-04, 1.22798432e-04, 1.90931343e-04, 2.02927142e-04,
          2.75111292e-04, 1.48677776e-04, 4.23779915e-04, 2.75362690e-04,
          1.66180092e-04, 6.90213928e-05, 9.07673457e-05, 1.20624727e-05,
          7.56731257e-04, 1.72200368e-03, 4.12100041e-03, 3.46058910e-03,
          3.24527011e-03, 3.69646330e-03, 3.53051070e-03, 3.41418153e-03,
          3.07907443e-03, 2.95003271e-03, 7.08073750e-03, 5.12458431e-03,
          5.75510133e-03, 6.15770649e-03, 5.00977412e-03, 5.15908841e-03,
          -5.95021935e-04, -5.70299337e-04, -4.94671694e-04,
          -1.26023893e-03, -1.34586496e-03, -2.00768257e-03,
          -1.57240534e-03, -1.17275014e-03, -5.56504063e-04,
          -1.76458445e-04, 2.20862476e-05, 1.79181399e-04,
          4.33252309e-04, 9.08291782e-04, 1.27202668e-03, 1.42378360e-03,
          1.12332148e-03, 1.73626002e-03, 2.23961240e-03, 3.05862003e-03,
          1.40915590e-03, 1.20305305e-03, 3.92640330e-04, 5.74046513e-04,
          2.42524315e-04, 3.15878337e-04, -2.45887786e-03,
          -2.63933046e-03, -2.46293657e-03, -2.89300247e-03,
          -4.93216794e-03, -5.06109465e-03, -2.97219167e-03,
          -2.50454061e-03, -2.84713600e-03, -4.53695934e-03,
          -3.05249961e-03, -2.90556182e-03, -1.87854675e-04,
          -2.92050099e-04, -2.75180762e-04, -9.75878444e-04,
          -2.59044115e-03, -2.87362351e-03, -3.39861121e-03,
          -1.46868103e-03, -1.32137642e-03, -2.99114763e-04,
          -3.86377709e-04, -2.36289948e-03, -3.09022074e-03,
          -3.25805601e-03, -5.38656139e-04, -8.67470226e-05,
          -1.53859073e-04, -2.12897052e-04, -2.79272470e-04,
          -2.27554352e-04, -6.31759613e-05, -4.61523159e-05,
          -1.74134238e-05, 7.83157349e-03, 5.04731387e-03,
          5.34238061e-03, -2.40637833e-04, -1.81271957e-04,
          -6.17557263e-04, -1.14861212e-03, -8.35209095e-04,
          -2.54097686e-04, -7.87247263e-04, -5.82772191e-04,
          -5.96012920e-04, -3.24717083e-04, -2.14374880e-03,
          -1.79168698e-03, -1.96025684e-03, -2.29554530e-03,
          -2.61688908e-03, -2.70720432e-03, -8.28237855e-04,
          -1.04044052e-03, -9.63524217e-04, -1.08075782e-03,
          -2.73092464e-03, -2.71866610e-03, -2.47467542e-03,
          -3.01498664e-03, -2.84304167e-03, -3.03167407e-03,
          -2.58978922e-03, -2.42621102e-03, -2.55956617e-03,
          9.59778670e-04, 3.06164054e-03, 4.54088347e-03, 5.69895096e-03,
          4.78876289e-03, 4.07801149e-03, 4.23543900e-03, 2.95982510e-03,
          2.93488335e-03, 9.60183388e-04, 8.43440241e-04, 9.72610258e-04,
          7.95525382e-04, 6.08265807e-04, -5.79296262e-04,
          -5.25438052e-04, -3.19563522e-04, -3.81486549e-04,
          -2.42315786e-04, -3.00070387e-04, -3.21169762e-04,
          -3.26461691e-06, -1.81217547e-04, -1.22305537e-05,
