%YAML:1.0
---
opencv_ml_svm:
   format: 3
   svmType: C_SVC
   kernel:
      type: LINEAR
   C: 1.
   term_criteria: { iterations:100 }
   var_count: 145
   class_count: 10
   class_labels: !!opencv-matrix
      rows: 10
      cols: 1
      dt: i
      data: [ 0, 1, 2, 3, 4, 5, 6, 7, 8, 9 ]
   sv_total: 45
   support_vectors:
      - [ -3.00395815e-03, -1.00589567e-03, -3.87129199e-04,
          9.94371600e-04, 2.38375447e-04, -2.43260502e-03,
          3.09988769e-04, 1.15526724e-03, 7.34716712e-04, 1.42540422e-03,
          -4.73283976e-03, -4.33399808e-03, -4.21988359e-03,
          -2.80002016e-04, 0., 0., -3.85102606e-03, 0., -8.39147251e-05,
          0., 0., 0., 0., 0., 0., 0., 0., 0., 8.39147251e-05, 0., 0., 0.,
          0., 2.80002016e-04, 6.86274783e-04, 2.80002016e-04,
          6.86274783e-04, 2.80002016e-04, 9.66276857e-04, 7.70189508e-04,
          4.43862256e-04, 4.93067596e-03, 2.23201630e-03, 2.02748692e-03,
          4.09257272e-03, 2.72846827e-03, 3.37148784e-03, 1.15919225e-02,
          -5.39473677e-03, -2.89883045e-03, -1.93255371e-03,
          -1.16236415e-03, -1.73646642e-03, -9.66276857e-04,
          -9.66276857e-04, -8.82362132e-04, -9.66276857e-04,
          -2.80002016e-04, -6.86274783e-04, -2.80002016e-04,
          -6.86274783e-04, -2.80002016e-04, 0., 0., 0., 0.,
          -8.39147251e-05, 0., 0., 0., 0., 0., 0., 0., 0., 0.,
          8.39147251e-05, 0., 0., 0., 0., 2.80002016e-04, 6.86274783e-04,
          2.80002016e-04, 6.86274783e-04, 1.96087305e-04, 9.66276857e-04,
          7.70189508e-04, 4.49217623e-03, 1.46182673e-03, 1.65255170e-03,
          2.07495363e-03, 3.75342672e-03, 2.72846827e-03, 3.74218496e-03,
          -1.79016206e-04, -7.52163120e-03, -4.97859204e-03,
          -2.81317206e-03, -2.19474267e-03, -2.21550115e-03,
          -1.71410129e-03, -7.00357836e-04, -7.10560533e-04,
          1.82783522e-04, -5.21840760e-04, 7.57410657e-04,
          3.03182984e-04, 8.23306909e-04, 8.82031105e-04, 1.56869926e-03,
          -2.38702279e-02, 1.78691139e-03, -1.24802999e-02,
          1.72557554e-03, 2.13646656e-03, 2.61882856e-03, 2.74033262e-03,
          4.83138440e-03, 5.71771571e-03, -5.14553487e-03,
          6.45933347e-03, -5.24418009e-03, -3.44722881e-03,
          -2.21255561e-03, -2.88441638e-03, -2.14926247e-03,
          -9.66276857e-04, -1.20003114e-03, -4.12796042e-04,
          -9.66276857e-04, -1.32793997e-04, -3.49502719e-04,
          -1.89928920e-04, 1.03756823e-02, 1.07409526e-02,
          8.39147251e-05, 9.71572381e-03, 8.66121799e-03, 1.28528650e-03,
          2.01646844e-03, 2.61882856e-03, 2.49255775e-03, 4.83138440e-03,
          5.92648285e-03 ]
      - [ 6.27276720e-04, 9.24955413e-04, 1.66796352e-04, 5.05854783e-04,
          -5.01687580e-04, -5.42672315e-05, 4.23267862e-04,
          -5.77176688e-04, -5.42672315e-05, -4.77535097e-04,
          -2.40104063e-03, -1.29756358e-04, -4.47420345e-04,
          -1.40821133e-02, -4.85869474e-04, -1.20863508e-04,
          -3.12648161e-04, -1.56706311e-02, 9.20788210e-04,
          9.24955413e-04, 9.24955413e-04, 1.84991083e-03, 1.21429970e-03,
          9.29122616e-04, 2.36448599e-03, 9.79222707e-04, 1.84991083e-03,
          1.79981079e-03, 1.32700137e-03, 1.84991083e-03, 9.83389909e-04,
          1.67478016e-03, 1.27690134e-03, 1.97550002e-03, 2.29316391e-03,
          9.33289819e-04, 1.90834526e-03, 9.24955413e-04, 1.90417806e-03,
          1.38960301e-03, 1.45675777e-03, 1.42664299e-03, 2.72059906e-03,
          1.37654296e-03, 1.92123279e-03, 2.32744589e-03, 3.74102895e-03,
          -1.42803723e-02, 5.22909453e-04, 8.66521033e-04,
          -4.16719422e-06, 5.77176688e-04, -9.24955413e-04,
          3.47778725e-04, 4.77535097e-04, -4.16719422e-06,
          -9.20788210e-04, -4.77535097e-04, -9.96416056e-05,
          -4.77535097e-04, -4.47420345e-04, 0., -4.81702300e-04,
          -5.18742250e-04, -3.51945928e-04, -5.73009485e-04,
          -8.70688178e-04, -1.44369772e-03, -9.24955413e-04,
          -1.44786492e-03, -9.79222707e-04, -8.70688178e-04,
          -2.02920870e-03, -1.38943049e-03, -1.84991083e-03,
          -1.84991083e-03, -1.49796496e-03, -2.14342237e-03,
          -1.50213216e-03, -1.27690134e-03, -1.84574362e-03,
          -1.37237576e-03, -5.86069538e-04, 1.59749445e-02,
          -6.91390247e-04, -8.08259123e-04, 4.68642247e-04,
          4.68642247e-04, -2.72289617e-04, 1.23401778e-02,
          3.79936397e-03, 1.37237576e-03, 1.40249054e-03, 1.80870364e-03,
          3.21811950e-03, -1.00063775e-02, -2.04729056e-03,
          3.35128582e-03, -1.58234697e-03, -6.48498652e-04,
          -8.53633508e-04, -9.66162595e-04, -4.77535097e-04,
          1.08420217e-19, 0., -5.42672315e-05, 5.42672315e-05, 0., 0.,
          0., 4.06213163e-04, -3.51945928e-04, 8.70688178e-04,
          -1.08420217e-19, 5.84344234e-05, 9.24955413e-04,
          9.24955413e-04, -3.51945928e-04, 2.32744589e-03,
          1.89584366e-03, 1.82992667e-02, -7.87717849e-03,
          -4.14724229e-03, -3.72993643e-03, -2.32744589e-03,
          -2.29733111e-03, -1.37237576e-03, -1.40249054e-03,
          -9.24955413e-04, 0., -9.24955413e-04, 0., 0., 0., 0.,
          9.24955413e-04, 0., 9.24955413e-04, 9.24955413e-04,
          9.24955413e-04, 1.84991083e-03, 2.29733111e-03, 2.32744589e-03,
          5.10231219e-03, -1.23975612e-03 ]
      - [ 1.63296075e-03, 5.76897990e-04, -3.99614801e-05,
          -5.91898046e-04, 7.95233864e-05, -1.75092529e-04,
          2.29044526e-05, 7.95233864e-05, -1.12393976e-03,
          -2.63815629e-03, -7.28859007e-03, -6.64357271e-04,
          -1.21912360e-02, -1.06539752e-03, 3.97682888e-04,
          4.06669802e-04, 6.08582806e-04, 1.36288698e-03, 1.81857566e-03,
          3.22639127e-03, 3.99488024e-03, 3.97682888e-04,
          -1.98841444e-03, -5.96524333e-04, -3.07618710e-03,
          -3.78209283e-03, -2.05265754e-03, -1.38756062e-03,
          -7.41566997e-04, -4.46311955e-04, -3.19762941e-04,
          -3.44594358e-04, 1.10299350e-03, 6.64357271e-04,
          9.16617271e-03, 4.45684837e-03, 5.37727028e-04, 2.37791706e-03,
          1.48084597e-03, 4.09741362e-04, 1.02623273e-03, 2.63229478e-04,
          7.99774192e-03, 8.35106621e-05, 8.26546864e-04, 6.28581387e-04,
          -5.25277574e-04, -4.58774110e-03, 1.05603121e-03,
          4.29708452e-04, -1.21631747e-04, 2.96724291e-04,
          -4.29574255e-04, -2.11744380e-04, 3.75537405e-04,
          -5.12303435e-04, -3.50895309e-04, -6.64357271e-04, 0.,
          -6.64357271e-04, -2.88819865e-04, -2.83955538e-04,
          -1.40663458e-03, -3.86702712e-04, -7.80603790e-04,
          -8.63198715e-04, -1.54983567e-03, -8.88783616e-05,
          -9.39116799e-05, 1.24915168e-04, 9.71694419e-04,
          1.29687192e-03, 1.18871918e-03, 1.00408727e-03, 4.88554477e-04,
          6.02281827e-04, 4.29708452e-04, 2.70590448e-04, 2.54615908e-04,
          3.58073921e-05, 0., 6.64357271e-04, 0., 2.11744380e-04,
          -8.44456508e-07, -2.29044526e-05, 7.86789315e-05,
          1.98841444e-04, 2.54615908e-04, -9.60241305e-04,
          -9.38944650e-05, -3.26827081e-04, -4.71057836e-04,
          -2.34783045e-04, -8.84499750e-04, -8.95712338e-03,
          1.36703178e-02, 6.31939096e-04, -1.22383889e-03,
          -1.17757637e-03, -5.06999437e-04, -1.02881379e-04,
          -7.36568472e-04, -1.75092529e-04, 1.63793025e-04,
          -4.65515855e-04, 0., 2.54615908e-04, 0., -8.99784354e-05,
          3.24627268e-04, -1.98841444e-04, 4.53457353e-04,
          6.20754436e-05, 2.11744380e-04, 7.63084565e-04, 7.07363011e-04,
          -3.41226805e-05, -8.51200055e-03, -1.42742763e-03,
          2.09714230e-02, -4.18464700e-03, -2.13743676e-03,
          -2.43921694e-03, -1.03668787e-03, -1.39970460e-03,
          -1.32221001e-04, -7.13529764e-04, -5.66474453e-04,
          -1.55969901e-04, -6.64357271e-04, 0., 0., -3.11858545e-04, 0.,
          4.03440412e-04, -3.11858545e-04, 4.06575815e-20,
          4.06575815e-20, 2.47551769e-04, 5.79377403e-04, 3.09627212e-04,
          6.94541377e-04, 1.89434458e-03, 1.56466139e-03 ]
      - [ -1.33154821e-03, -7.33020366e-04, -3.32271593e-04,
          -7.51163680e-05, 1.19455954e-05, -1.46055419e-04,
          -4.06575815e-20, 6.56326665e-05, -2.46188711e-06,
          -6.84771585e-05, 4.03210637e-04, -2.46188711e-06,
          3.46679066e-04, 1.86216173e-04, 6.56326665e-05, 4.12694353e-04,
          2.49386969e-04, 2.11561070e-04, 2.69227807e-04, 2.61332549e-04,
          4.00748744e-04, 2.73047277e-04, 3.61394050e-04, 4.38267132e-04,
          2.85300368e-04, 4.29563719e-04, 3.32271593e-04, 2.81950721e-04,
          3.82592465e-04, 4.83123789e-04, 3.06391303e-04, 0., 0.,
          -3.02194036e-03, 0., -3.81691824e-03, -2.56942376e-03,
          3.32271593e-04, 6.31707735e-05, 2.69100827e-04, 3.32271593e-04,
          3.32271593e-04, 6.01372391e-04, 5.07249439e-04, 4.56928567e-04,
          2.04054941e-03, 1.05998560e-03, 6.35187654e-03,
          -1.66135794e-03, -9.96814808e-04, -6.64543186e-04,
          -3.95442359e-04, -3.32271593e-04, -6.01372391e-04,
          -6.31707735e-05, -3.32271593e-04, -3.32271593e-04,
          -3.32271593e-04, 0., -3.32271593e-04, 0., -6.31707735e-05,
          -2.69100827e-04, 0., 0., 0., -2.69100827e-04, 0., 0., 0., 0.,
          0., 0., 0., 0., 0., 0., 1.35549554e-03, 2.21569844e-05,
          2.32901354e-03, 0., -1.00941327e-03, 0., -9.34762356e-04,
          -8.28846358e-04, 3.32271593e-04, 6.31707735e-05,
          2.69100827e-04, 3.32271593e-04, 3.32271593e-04, 3.32271593e-04,
          7.76350265e-04, 5.57570311e-04, 1.67080679e-03, 1.32908637e-03,
          -1.16462940e-02, -3.00686201e-03, -5.76396415e-04,
          -3.91368929e-04, 2.70785415e-04, 6.16131874e-05,
          6.66455657e-04, 8.97610153e-04, 1.16203469e-03, 7.70108716e-04,
          1.15008908e-03, 1.16386649e-03, 1.56278338e-03, 1.39112200e-03,
          1.41142157e-03, 1.48896349e-03, 4.07458632e-04, 3.75494041e-04,
          3.46679066e-04, -6.37930213e-03, -5.21016726e-03,
          -6.45916210e-03, 1.32908637e-03, 1.66135794e-03,
          2.80093192e-03, 1.47131057e-02, -4.00367705e-03,
          -2.26273038e-03, -1.26591558e-03, -9.96814808e-04,
          -1.20274478e-03, -6.64543186e-04, -3.32271593e-04,
          -3.32271593e-04, 1.07671309e-03, 1.38934166e-03, 0., 0., 0.,
          0., 3.22932401e-03, 2.18364899e-03, 3.93818773e-04,
          3.32271593e-04, 6.64543186e-04, -1.25000509e-03,
          -2.02495558e-03, 1.32908637e-03, 1.66135794e-03,
          2.80093192e-03 ]
      - [ -9.75973532e-03, -4.12087934e-03, -7.73307448e-03,
          -5.43420296e-03, -5.67504158e-03, -5.93501562e-03,
          -3.61520331e-03, -1.55717041e-03, -3.61520331e-03,
          -2.05803290e-03, -1.21567992e-03, -1.73254358e-03,
          -1.71289197e-03, -1.55536493e-03, 0., 5.13113569e-04,
          2.51333986e-04, 2.71646364e-04, -2.66446290e-03,
          -1.75933784e-03, -1.21288130e-03, -6.58389472e-04,
          -5.02667972e-04, -1.34306098e-03, -1.59282074e-03,
          -5.83430566e-03, -1.23926867e-02, -3.04989342e-04,
          -9.44676285e-05, -3.33429743e-05, -2.71646364e-04,
          -3.33429743e-05, 3.25082289e-03, 2.70226225e-03,
          4.76998603e-03, 2.35315552e-03, 1.24026267e-02, 2.89702695e-03,
          4.11212817e-03, 2.13380600e-03, 2.37944676e-03, 5.80257038e-03,
          1.37219820e-02, 6.91807969e-03, 5.27861342e-03, 6.06830139e-03,
          1.28573766e-02, 2.14759074e-02, -2.04514638e-02,
          -1.15891658e-02, -8.08002055e-03, -7.59686437e-03,
          -1.27136670e-02, -1.22201918e-02, -1.14784576e-02,
          -4.37965058e-03, -3.86653724e-03, -2.30936683e-03,
          -2.16004904e-03, -2.30936683e-03, 3.40419030e-03,
          1.24122459e-03, 2.03156308e-03, 1.27756118e-03, 5.32158557e-03,
          2.62804260e-03, 2.10042973e-03, 1.10635080e-03, 9.79980337e-04,
          9.72984591e-04, 7.03193655e-04, 6.13866432e-04, 4.41414042e-04,
          4.25512495e-04, 0., 3.45801614e-04, 2.03123818e-05, 0., 0., 0.,
          0., 1.80669886e-03, 1.80850434e-03, 1.79625326e-03,
          1.22123549e-03, 1.43186538e-03, 3.10394517e-03, 1.04591215e-03,
          1.30588631e-03, 2.80882255e-03, 4.87929396e-03, 6.28760085e-03,
          3.80397635e-03, 5.58172259e-03, 1.22135812e-02, 2.04177923e-03,
          -1.78126227e-02, 5.81806817e-04, -4.70166141e-03,
          -7.65211042e-03, -7.64886895e-03, -6.98951818e-03,
          -2.60986737e-03, -2.59942166e-03, -1.80669886e-03,
          -3.86653724e-03, 0., 0., 0., 0., 3.86653724e-03, 0.,
          3.86653724e-03, 3.86653724e-03, 5.95791312e-03, 7.76641723e-03,
          1.00880349e-02, 1.18386941e-02, 1.47268577e-02, 1.20883891e-02,
          2.73331665e-02, -2.87349131e-02, -2.00109147e-02,
          -1.05638830e-02, -8.72764923e-03, -8.85481015e-03,
          -7.27547146e-03, -3.67071410e-03, -3.54535901e-03,
          -1.92907744e-03, -3.89988022e-03, 0., -2.51333986e-04,
          -3.33429743e-05, -5.13113569e-04, 3.29976832e-03,
          -4.26657294e-04, 2.97427899e-03, 2.78276694e-03,
          5.10257948e-03, 6.01595454e-03, 7.80414650e-03, 9.96369123e-03,
          1.61883924e-02, 1.89867821e-02 ]
      - [ -1.79525726e-02, -7.50707276e-03, -6.68608258e-03,
          -1.93398306e-03, -4.39786445e-03, -3.55496118e-03,
          -2.62399716e-03, -6.19863044e-04, -2.62399716e-03,
          -1.39822427e-03, 1.32194065e-04, -1.43421872e-03,
          -1.02709094e-03, -9.30964015e-04, 1.37805624e-03,
          7.43811426e-04, 1.03717565e-03, 1.98681766e-04, 2.44540512e-04,
          1.62687400e-04, 1.62687400e-04, 0., 1.62687400e-04, 0., 0., 0.,
          0., 0., 0., 0., 0., 0., 0., 1.16990216e-03, 1.81972608e-03,
          2.00413400e-03, 1.59069127e-03, -8.57229898e-05,
          4.32873331e-03, 2.21628492e-04, 1.38615476e-04, 1.74950890e-03,
          6.60983101e-03, 6.52410788e-03, 3.10349301e-03, 3.44325555e-03,
          1.35989478e-02, 2.81088725e-02, -1.84608363e-02,
          -1.10274851e-02, -8.99613556e-03, -4.50275047e-03,
          -7.32754823e-03, -3.86620848e-03, -9.98958573e-03,
          -4.42120247e-03, -7.19694933e-03, -1.12983240e-02,
          -3.77464434e-03, -3.16060558e-02, -3.53627466e-02,
          -3.62243364e-03, -1.26715540e-03, 1.73718706e-02,
          2.65373923e-02, 1.57612395e-02, 6.29921351e-03, 7.23683741e-03,
          5.10200532e-03, 3.15019768e-03, 2.62938417e-03, 2.60492018e-03,
          1.61829963e-03, 1.53616001e-03, 1.33350282e-03, 0., 0., 0., 0.,
          0., 0., 2.30472325e-03, 2.90840189e-03, 2.30472325e-03,
          2.90840189e-03, 2.85510585e-04, 4.16044379e-03, 9.93774971e-04,
          1.38615476e-04, 2.39965855e-03, 5.91942482e-03, 5.61362505e-03,
          4.38359054e-03, 3.78970359e-03, 1.23420171e-02, 6.56147208e-03,
          -2.15863716e-02, -1.54830907e-02, -5.56667661e-03,
          -4.29662829e-03, -6.65492518e-03, -4.97377431e-03,
          -1.05748407e-03, -1.71351444e-03, 8.25272466e-04,
          -3.40767391e-03, 2.04399833e-03, 4.43222292e-04,
          3.25374800e-04, 1.62687400e-04, 5.37581230e-03, 1.62687400e-04,
          4.56767157e-03, 3.43285059e-03, 6.76579122e-03, 7.53724528e-03,
          1.03390440e-02, 9.94032808e-03, 3.44201457e-03, 4.11902228e-03,
          2.36052051e-02, -2.40325797e-02, -1.64568815e-02,
          -6.67019933e-03, -4.91804397e-03, -8.08350090e-03,
          -7.66322576e-03, -5.90223819e-04, -2.78668455e-03,
          -8.12263825e-05, -5.05043752e-03, 8.08140845e-04, 0., 0., 0.,
          5.21312514e-03, -8.08140845e-04, 4.76990268e-03,
          1.65186345e-03, 5.01515670e-03, 6.88078068e-03, 8.25179089e-03,
          9.26807057e-03, 1.68073475e-02, 2.07189880e-02 ]
      - [ -1.28306076e-03, -6.56806456e-04, -4.18349897e-04,
          -1.80952251e-04, -1.59747549e-03, -9.77992313e-04,
          -8.51613178e-04, 1.31771558e-05, -1.51487344e-04,
          -3.22132146e-05, -2.19536549e-03, -1.90234499e-03,
          -1.68279221e-03, -4.17382671e-06, 2.37927088e-04,
          1.15904651e-04, 1.30467975e-04, 2.58946471e-04, 5.32959566e-05,
          1.30467975e-04, 2.37927088e-04, 1.87442813e-04, 8.69692012e-05,
          1.57943403e-04, 1.30467975e-04, 2.37927088e-04, 2.88411364e-04,
          0., 1.64106707e-04, 2.37927088e-04, 1.01003068e-04,
          2.01442163e-04, 1.43944038e-04, 2.14590982e-04, 2.61263194e-04,
          2.64580303e-04, 3.05256923e-04, 2.21081544e-04, 3.68360546e-04,
          2.81425862e-04, 1.57977905e-04, 3.45386215e-04, 5.19352965e-04,
          6.63262501e-04, 2.94901925e-04, 5.52991696e-04, 9.87629290e-04,
          2.32098158e-03, 9.90399421e-05, -7.13781279e-04,
          -5.90333308e-04, -2.95431382e-04, -6.33832067e-04,
          -4.25369915e-04, -4.48344246e-04, -3.91731155e-04,
          -4.18879354e-04, -4.52518085e-04, -3.34226876e-04,
          -2.14590982e-04, -2.33753264e-04, -3.80112178e-04,
          -1.73408946e-04, -1.29938519e-04, -2.31436527e-04,
          -2.37927088e-04, -1.92146093e-04, -1.87442813e-04,
          -2.30907070e-04, -1.30467975e-04, -1.37453477e-04,
          -1.87442813e-04, -1.44467325e-04, -1.29938519e-04,
          -1.07459120e-04, -8.69692012e-05, 4.70328087e-06,
          -2.01971619e-04, -1.29938519e-04, -1.87408295e-04,
          -1.01003068e-04, 4.06587496e-05, 1.03285289e-04,
          4.82020514e-05, -9.81568737e-05, -2.94649053e-05,
          8.69692012e-05, 1.64963407e-04, 7.76669549e-05, 7.99836926e-05,
          2.68248696e-04, 4.39375435e-04, 7.99491827e-05, 6.10495976e-04,
          7.50266190e-04, 8.42404831e-03, -1.78451545e-03,
          -1.03887357e-03, -4.49599174e-04, -6.10495976e-04,
          -5.79139451e-04, -6.10495976e-04, -3.72568902e-04,
          -2.37927088e-04, -1.78140574e-04, -1.03285289e-04,
          -1.34641799e-04, 0., 0., 0., 2.37927088e-04, 0.,
          2.37927088e-04, 2.37927088e-04, 3.72568902e-04, 6.10495976e-04,
          5.79139451e-04, 7.45137804e-04, 1.18963548e-03, 1.65334740e-03,
          -1.61975008e-02, -2.66776863e-03, -1.55376492e-03,
          -1.55546051e-03, 6.71331421e-04, 2.74479599e-03,
          3.70416534e-03, 4.53492953e-03, -5.14086823e-05,
          4.66165040e-03, -4.41387092e-04, -9.41416598e-04,
          -1.33965642e-03, -1.07350014e-03, -2.92052934e-03,
          -2.08112784e-03, -1.09799753e-03, -1.21410319e-03,
          -1.10915676e-03, -1.08018680e-03, -8.28029879e-04,
          -4.63544216e-04, -5.62419009e-04, 5.95221172e-05,
          9.32748255e-04 ]
      - [ -1.41415768e-03, -8.33981321e-04, -2.28285469e-04,
          2.28285469e-04, 7.10375898e-04, 0., -1.23605438e-04,
          -7.10375898e-04, -2.28285469e-04, -1.06226676e-03, 0.,
          -1.06226676e-03, 0., -1.23605438e-04, -1.77264272e-03,
          -2.28285469e-04, -1.06226676e-03, -1.06226676e-03,
          -2.35281908e-03, -1.06226676e-03, -2.12453352e-03,
          -2.50194408e-03, -3.77410412e-04, 4.62647760e-03,
          1.29055232e-03, 1.89624820e-03, 1.06226676e-03, 1.06226676e-03,
          1.18587224e-03, 2.00092816e-03, 0., 0., 0., 1.06226676e-03, 0.,
          1.06226676e-03, 0., 1.06226676e-03, -1.04680024e-04,
          2.28285469e-04, -3.51890922e-04, 2.28285469e-04,
          1.06226676e-03, -9.38661338e-04, -4.56570939e-04,
          1.06226676e-03, 1.23605438e-04, -1.89254170e-05,
          -1.29055232e-03, -8.33981321e-04, -2.28285469e-04,
          2.28285469e-04, -1.23605438e-04, -1.04680024e-04,
          1.04680024e-04, 1.23605438e-04, -2.28285469e-04,
          -1.06226676e-03, 0., -1.06226676e-03, 0., -1.23605438e-04,
          -1.77264272e-03, -2.28285469e-04, -1.06226676e-03,
          -1.06226676e-03, -2.35281908e-03, -1.06226676e-03,
          -2.12453352e-03, -2.50194408e-03, -3.77410412e-04,
          4.85476293e-03, 1.06226676e-03, 1.89624820e-03, 1.89624820e-03,
          1.06226676e-03, 1.18587224e-03, 1.16694684e-03, 0., 0., 0.,
          1.06226676e-03, 0., 1.06226676e-03, 0., 9.38661338e-04,
          -1.04680024e-04, 2.28285469e-04, 0., 8.33981321e-04,
          -8.33981321e-04, 8.33981321e-04, -4.56570939e-04,
          -4.82090429e-04, 8.33981321e-04, -2.82246321e-02,
          2.43856218e-02, 6.55031437e-03, -1.77264272e-03,
          -1.06226676e-03, -1.64903724e-03, -1.18587224e-03,
          -1.23605438e-04, 2.28285469e-04, -1.06226676e-03,
          -9.38661338e-04, -1.23605438e-04, 0., 0., 0., 1.06226676e-03,
          0., 8.33981321e-04, 0., 8.33981321e-04, 1.29055232e-03,
          7.10375898e-04, 1.06226676e-03, 1.89624820e-03,
          -4.32110066e-03, 1.86060648e-02, -9.68400668e-03,
          -3.66889080e-03, -1.41415768e-03, -1.29055232e-03,
          -2.71130400e-03, -3.51890922e-04, -6.05695881e-04, 0.,
          -1.06226676e-03, -1.06226676e-03, 0., -1.23605438e-04, 0.,
          1.23605438e-04, 9.38661338e-04, 1.23605438e-04, 8.33981321e-04,
          0., 9.38661338e-04, 2.12453352e-03, 9.38661338e-04,
          1.89624820e-03, 2.58110464e-03, 5.08304872e-03 ]
      - [ -1.78778283e-02, -8.94163735e-03, -5.96109126e-03,
          -3.99307860e-03, -4.98617440e-03, -3.95546295e-03,
          -3.54610151e-03, -1.96801266e-03, -2.98054563e-03,
          -1.01253309e-03, -2.53356854e-03, -9.74917144e-04,
          -3.22122453e-03, -1.54047308e-03, 0., 0., 0., 0., 0.,
          -5.65555878e-04, 0., -5.27939992e-04, -1.78115175e-03,
          -1.25321175e-03, -1.09349587e-03, -2.30909185e-03,
          -2.87464773e-03, -3.56230349e-03, -3.96814337e-03,
          -2.03785170e-02, -1.61088388e-02, -1.45628741e-02,
          5.27939992e-04, 2.10602884e-03, 4.43682028e-03, 2.23274641e-02,
          2.76574045e-02, 1.41837308e-03, 2.22939290e-02, 3.09912441e-03,
          3.24877154e-04, 3.54610151e-03, 6.76732603e-03, 7.74224335e-03,
          3.30542284e-03, 5.43315150e-03, 1.43909901e-02, 8.10328405e-03,
          -1.77181121e-02, -1.03169493e-02, -5.96109126e-03,
          -3.14570707e-03, -5.10827405e-03, -3.66820162e-03,
          -2.85844575e-03, -3.50848562e-03, -3.66820162e-03,
          2.40678724e-04, -2.53356854e-03, -1.01253309e-03,
          -1.96801266e-03, -1.54047308e-03, 6.87655876e-04,
          5.65555878e-04, 0., 0., 0., 0., 0., 0., 0., 0., 0., 0.,
          -5.65555878e-04, 0., 0., 0., -5.65555878e-04, -1.21559587e-03,
          0., 2.87261268e-04, 2.69328454e-03, 2.87261268e-04,
          1.44007266e-03, 8.52817146e-04, 3.66820162e-03, 1.96801266e-03,
          -2.40678724e-04, 2.98054563e-03, 5.10827405e-03,
          6.48903148e-03, 2.61776708e-03, 5.55525161e-03, 1.24877384e-02,
          4.20490429e-02, -2.62755565e-02, -1.89120099e-02,
          -9.46957711e-03, -6.24835258e-03, -9.18231625e-03,
          -7.74224335e-03, -2.29288987e-03, -3.54610151e-03,
          -9.74917144e-04, -4.23375750e-03, 0., 0., 0., 0.,
          4.19614138e-03, -1.21559587e-03, 3.50848562e-03,
          2.29288987e-03, 3.83336283e-03, 6.12080749e-03, 8.61676037e-03,
          6.41351379e-03, 1.59586091e-02, 1.67521629e-02,
          -1.00541934e-02, -8.32559727e-03, 2.70121428e-03,
          -8.90402123e-03, -7.37946434e-03, -1.09634679e-02,
          -7.05458736e-03, -2.98054563e-03, -4.76169726e-03,
          -1.01253309e-03, -4.76169726e-03, 0., 0., -5.65555878e-04, 0.,
          2.98054563e-03, -1.78115175e-03, 3.50848562e-03,
          5.11738064e-04, 3.38990707e-03, 5.96109126e-03, 6.83560828e-03,
          5.32001816e-03, 1.38092330e-02, 1.50931105e-02 ]
      - [ 2.08598399e-03, 9.26500536e-04, 1.68300830e-04,
          -4.94538574e-04, -1.11664773e-03, 1.45331630e-03,
          7.31060107e-04, -2.45882635e-04, -2.49781704e-04,
          -7.66852056e-04, 7.73312582e-04, 1.80775078e-03,
          1.46292266e-03, -8.18158034e-03, 0., -4.45725709e-05,
          1.81656808e-03, -8.27737991e-03, 5.04281255e-04,
          5.04281255e-04, 5.04281255e-04, 1.00856251e-03, 6.79921941e-04,
          5.04281255e-04, 1.28298940e-03, 5.31388097e-04, 1.00856251e-03,
          9.81455669e-04, 7.34135625e-04, 1.00856251e-03, 5.31388097e-04,
          9.36883152e-04, 7.07028783e-04, 8.05815042e-04, 1.00856251e-03,
          5.04281255e-04, 5.31388097e-04, 5.04281255e-04, 5.31388097e-04,
          2.56961182e-04, 4.14052425e-04, -1.34598278e-03,
          2.42503083e-04, -1.63496879e-04, -1.18323381e-03,
          -1.34769618e-03, 4.98484354e-04, -1.17888432e-02,
          3.24675371e-03, 1.99001818e-03, 1.00856251e-03, 8.05815042e-04,
          5.04281255e-04, 7.07028783e-04, 5.04281255e-04, 5.04281255e-04,
          0., 0., 2.02747528e-04, 0., 0., 0., 0., -2.74426915e-04,
          -2.02747528e-04, -3.01533757e-04, -4.77174442e-04,
          -7.78708200e-04, -5.04281255e-04, -7.78708200e-04,
          -5.31388097e-04, -4.77174442e-04, -1.08024199e-03,
          -7.51601357e-04, -1.00856251e-03, -1.00856251e-03,
          -8.05815042e-04, -1.18420320e-03, -8.05815042e-04,
          -7.07028783e-04, -1.00856251e-03, -1.00856251e-03,
          -5.58494939e-04, 8.34905915e-03, -9.09776310e-04,
          -4.59708681e-04, -2.56961182e-04, -2.56961182e-04,
          -2.42730835e-03, 6.73559867e-03, 9.75845731e-04,
          -2.37147338e-04, -1.29864679e-03, -1.62212318e-03,
          5.33608909e-05, -5.63564990e-03, 2.95407884e-03,
          3.84949101e-03, 1.10469630e-03, 9.23994870e-04, 5.92291472e-04,
          8.52354060e-05, 2.69815908e-04, 3.85808380e-04,
          -2.84668669e-04, 1.99649556e-04, -4.05597209e-04,
          -2.24515243e-04, -5.62193571e-04, -4.00039862e-04,
          -5.33816929e-04, 1.70381144e-02, -2.56724597e-04,
          5.98758785e-03, -6.07880065e-04, -5.39417379e-04,
          -1.00856251e-03, -1.32864574e-03, -1.51284377e-03,
          -1.87268259e-03, 4.60058404e-03, -6.88710995e-03,
          6.51119844e-05, 1.82447664e-04, 0., 1.30223969e-04,
          6.51119844e-05, 0., 1.06909778e-04, 6.51119844e-05, 0.,
          6.51119844e-05, 1.30223969e-04, 9.13860204e-05,
          -4.06203931e-03, -4.84160101e-03, 0., -3.80018633e-03,
          -3.18819517e-03, -5.33608909e-05, 0., 0., 0., 0.,
          -3.51418904e-03 ]
      - [ 2.31751334e-03, 6.79349934e-04, 9.67151136e-05,
          -7.48573977e-04, -7.41090917e-04, 1.44711952e-03,
          6.23877335e-04, 4.86942212e-04, -1.06461998e-03,
          -9.94153204e-04, -3.75670916e-03, 6.66345702e-04,
          -5.36160823e-03, -8.06323427e-04, 6.91309746e-04,
          2.17511668e-04, 1.30263052e-03, 7.50799198e-04, 1.21380237e-03,
          1.76530296e-03, 2.67835590e-03, 2.87962175e-04,
          -1.43981085e-03, -4.31943248e-04, -2.11860565e-03,
          -2.03453563e-03, -1.23772654e-03, -8.48550000e-04,
          -4.78536589e-04, -3.59218480e-04, -2.01276853e-04,
          -2.02070747e-04, 8.29593570e-04, 0., 4.15054522e-03,
          3.65887699e-03, 3.05739304e-05, 5.72972873e-04, 6.88769040e-04,
          -1.15292918e-04, 1.38952193e-04, -1.78197492e-03,
          4.65274695e-03, -4.13262838e-04, -1.33043318e-03,
          -1.67758483e-03, -1.34465040e-03, -5.13502909e-03,
          2.76715960e-03, 1.44268747e-03, 7.37903058e-04, 5.89491450e-04,
          4.18480573e-04, 4.03347600e-04, 1.72588683e-04, 1.02218750e-04,
          1.57147748e-04, 0., 0., 0., -2.30758902e-04, -1.74555011e-04,
          -4.90032893e-04, -2.72921665e-04, -4.78844508e-04,
          -5.47328673e-04, -9.10479866e-04, 9.89536784e-05,
          1.14281625e-04, 3.64814565e-04, 5.81371190e-04, 7.50275853e-04,
          7.04568927e-04, 5.49214426e-04, 2.74499500e-04, 3.87906650e-04,
          2.32644670e-04, 4.18548261e-05, 1.15292918e-04, 2.67218293e-05,
          0., 0., 0., 0., -2.59274006e-04, -1.70702915e-04,
          -2.61332840e-04, -2.59366498e-04, -2.36695330e-03,
          -9.67253873e-04, -8.19942390e-04, -8.83960223e-04,
          -2.11215671e-03, -2.24070554e-03, -1.96923874e-03,
          -3.87849379e-03, 9.16066300e-03, 2.33116210e-03,
          1.08030764e-03, 5.16979548e-04, 5.45397459e-04, 3.64968815e-04,
          6.55085605e-05, 2.08395591e-04, -3.70411544e-05,
          -3.91226204e-05, -3.03675391e-04, -3.61799539e-05,
          -3.92733549e-04, -3.86882428e-04, -3.40060418e-04,
          1.56398769e-02, -2.77509185e-04, 5.02019515e-03,
          -5.68815856e-04, -4.87293000e-04, -8.46972165e-04,
          -1.23296492e-03, -9.44195874e-03, -3.68218496e-03,
          7.05901394e-03, -4.30762256e-03, 6.30619761e-04,
          5.23115974e-04, 4.56618174e-04, 2.17496694e-04, 4.31309280e-04,
          2.43925577e-04, 1.18580901e-04, 1.33234334e-06, 0.,
          3.00205102e-05, 6.00410203e-05, -1.46874198e-04,
          -1.68343983e-03, -2.36456259e-03, -2.45891919e-04,
          -3.78269074e-03, -3.93074937e-03, -4.24205500e-04,
          -5.89491450e-04, -7.64532422e-04, -8.91506672e-04,
          -1.10813195e-03, -1.76502869e-03 ]
      - [ -3.75250238e-04, -7.22110330e-04, -4.51585511e-04,
          -1.51550968e-03, -1.30835164e-03, 7.16034614e-04,
          7.46130885e-04, 1.09959889e-04, -1.81919590e-04,
          -4.44345264e-04, 1.13759912e-03, 7.22156081e-04,
          1.13971147e-03, 2.24409130e-04, 3.06609902e-04, 3.88810644e-04,
          2.40674149e-03, 1.77378781e-04, 5.18041779e-04, 2.12698826e-04,
          4.00520948e-04, 2.23375187e-04, 3.45115113e-04, 3.85625463e-04,
          2.61880428e-04, 4.00520948e-04, 2.94899597e-04, 2.69138603e-04,
          3.44081171e-04, 1.77378781e-04, 2.59579538e-04, 1.17103009e-05,
          1.17103009e-05, -2.50403117e-03, 0., -3.87693336e-03,
          -2.93466356e-03, 0., 0., 0., 0., 0., 0., -1.37278010e-04,
          -6.70782581e-04, -1.23194582e-03, 4.84730190e-05,
          3.89723945e-03, -2.42365095e-05, 0., 0., 0., 0., 0., 0., 0.,
          0., 0., 0., 0., 0., 0., 0., 0., 0., 0., 0., 0., 0., 0., 0., 0.,
          0., 0., 0., 0., 0., 1.16307999e-03, 0., 1.82362017e-03, 0.,
          -8.61088862e-04, 0., -1.16307999e-03, -9.62531252e-04, 0., 0.,
          0., 0., 0., 0., -2.20817194e-04, -5.33968792e-04,
          -1.30688841e-03, 2.42365095e-05, -1.20657170e-02,
          7.65168224e-04, 1.24739867e-03, 1.04051188e-03, 1.01822719e-03,
          1.07035262e-03, 1.11809990e-03, 9.14705393e-04, 1.30091084e-03,
          7.45694677e-04, 1.09452638e-03, 7.31127162e-04, 1.19223772e-03,
          6.96215255e-04, 1.11618906e-03, 8.78013787e-04, 1.21082058e-02,
          3.88006583e-06, 2.56115384e-03, -6.03834586e-03,
          -5.17739449e-03, -7.75386672e-03, 0., 0., 0., 7.96301477e-03,
          -2.59189098e-03, 7.52528358e-05, 7.52528358e-05, 0.,
          1.50505672e-04, 7.52528358e-05, 0., 9.93903232e-05,
          1.12444919e-03, 1.28789956e-03, 7.52528358e-05, 1.50505672e-04,
          1.08686872e-04, -9.93294525e-04, -2.51827878e-03,
          1.80841680e-03, -1.45155424e-03, -1.83454785e-03,
          -2.93573452e-04, -1.80841680e-03, -3.10154678e-03, 0., 0.,
          2.42365095e-05 ]
      - [ -2.57210783e-03, -1.01282157e-03, -1.62481389e-03,
          -2.19862862e-03, -2.57407851e-03, 1.95693853e-03,
          -1.48219708e-03, -3.15054553e-03, -2.23801192e-03,
          -2.23964849e-03, 5.13330149e-03, 4.75976989e-03,
          4.86212131e-03, 8.25966054e-05, 0., 4.12983027e-05,
          4.86598117e-03, 4.12983027e-05, -4.10998880e-04,
          -2.89088115e-04, -2.47789809e-04, -8.95887133e-05,
          -8.25966054e-05, -1.23894904e-04, -1.16902789e-04,
          -1.27632113e-03, -1.55618368e-03, -4.12983027e-05, 0., 0.,
          -4.12983027e-05, 0., 1.16641039e-03, 1.37224750e-04,
          1.75464340e-03, 0., 0., 0., -1.98413727e-06, 4.12983027e-05,
          -3.69218935e-04, -5.29010361e-03, 6.64664665e-04,
          -2.52300117e-04, -2.75646034e-03, -1.28382153e-03,
          2.81053624e-04, -8.32514279e-03, -1.87691156e-04,
          -4.12983027e-05, -7.56044901e-05, -4.12983027e-05,
          -2.77325395e-03, -1.07375579e-03, 0., -4.12983027e-05, 0.,
          -4.12983027e-05, -8.45807372e-05, -4.12983027e-05,
          -4.12983027e-05, 3.30386421e-04, 2.47789809e-04,
          1.23894904e-04, 2.00936780e-03, 3.49668670e-04, 2.37773856e-04,
          1.96475550e-04, 2.03467673e-04, 1.53193119e-04, 7.56044901e-05,
          1.62169366e-04, 7.56044901e-05, 8.45807372e-05, 0.,
          4.12983027e-05, 0., 0., 0., 0., 0., -4.12983027e-05, 0., 0.,
          -4.12983027e-05, -8.45807372e-05, -1.18886928e-04,
          -1.18886928e-04, -5.78624150e-03, -7.80775852e-04,
          -1.18886928e-04, -4.05099388e-04, -2.66716187e-03,
          -1.37539441e-03, -2.35597865e-04, 5.40838530e-03,
          -8.84357491e-04, 5.45627763e-03, 1.90177897e-03,
          1.63400939e-04, -1.64104931e-04, -1.50062260e-04,
          -1.78966613e-04, -1.54560141e-04, -4.84245858e-04,
          -4.73142049e-04, -9.98366973e-04, -3.89955996e-04,
          -9.98686184e-04, -1.12352066e-03, -7.64145341e-04,
          3.25356871e-02, -9.91354464e-04, 1.12189464e-02,
          -6.34932599e-04, -1.88146587e-04, 4.12983027e-05,
          -2.89646181e-04, 4.12983027e-05, 3.30944458e-04,
          9.22459271e-03, -1.27366688e-02, 4.49408806e-04,
          6.95772527e-04, 1.62169366e-04, 4.87913989e-04, 2.43956994e-04,
          7.75886292e-05, 3.47588386e-04, 2.00674564e-04, 0.,
          1.66368365e-04, 2.91438453e-04, 2.73726677e-04,
          -1.20081427e-02, -1.23809883e-02, -1.18886928e-04,
          -1.09883770e-02, -1.06608728e-02, -3.15554353e-04,
          -2.35789717e-04, -2.35789717e-04, -3.24338733e-04,
          -3.97959084e-04, -5.21662121e-04 ]
      - [ -1.68606977e-03, -1.22870051e-03, -1.37852458e-03,
          -1.70315453e-03, -1.98501465e-03, 2.41052802e-03,
          -1.48292421e-03, -2.88626505e-03, -1.97071908e-03,
          -2.17253854e-03, 5.45724621e-03, 4.79514664e-03,
          4.87470115e-03, 1.44944541e-04, 8.87029091e-05, 0.,
          4.87738056e-03, 0., 0., 0., 0., 0., 0., 0., 0., 0., 0., 0., 0.,
          0., 0., 0., 0., -1.44944541e-04, -8.87029091e-05, 0.,
          -1.44944541e-04, -2.33647443e-04, -8.87029091e-05,
          -2.33647443e-04, -5.73793950e-04, -5.82093606e-03,
          -7.68995902e-04, -4.27520950e-04, -3.24692670e-03,
          -1.48972170e-03, 3.78942900e-06, -9.17321630e-03,
          9.57823766e-04, 5.55997773e-04, 2.33647443e-04, 4.67294885e-04,
          2.33647443e-04, 2.33647443e-04, 2.33647443e-04, 2.33647443e-04,
          0., 8.87029091e-05, 0., -4.78316983e-03, -3.51565517e-03,
          -1.44944541e-04, -8.87029091e-05, 1.95146399e-03,
          3.30994395e-03, 9.34589771e-04, 5.55997773e-04, 3.78591969e-04,
          4.67294885e-04, 2.33647443e-04, 2.33647443e-04, 2.33647443e-04,
          1.44944541e-04, 8.87029091e-05, 1.44944541e-04, 0., 0., 0., 0.,
          0., 0., 0., 0., 0., 0., -2.33647443e-04, -8.87029091e-05,
          -1.44944541e-04, -6.01613801e-03, -9.13940428e-04,
          -2.33647443e-04, -6.25050743e-04, -2.64282525e-03,
          -1.48972170e-03, -6.35473407e-04, 8.03031027e-03,
          9.89098684e-04, 9.48808156e-04, 8.33725207e-04, 8.59658467e-04,
          1.59344272e-04, 2.35704181e-04, 5.71307419e-06, 6.12327131e-05,
          -2.79900763e-04, -2.86600931e-04, -7.46944977e-04,
          -3.69944551e-04, -9.45093692e-04, -1.12455001e-03,
          -7.53817556e-04, 3.17441300e-02, -1.07907248e-03,
          1.16909957e-02, -7.76937173e-04, -5.07754623e-04,
          -3.78591969e-04, -8.96144309e-04, -9.34589771e-04,
          -7.39387819e-04, 8.44902080e-03, -1.20938001e-02,
          1.33142469e-03, 1.29297923e-03, 9.02128464e-04, 7.37428141e-04,
          3.96834890e-04, 5.23536524e-04, 5.29436395e-04, 3.96834890e-04,
          0., 2.51890364e-04, 3.26374895e-04, 2.57135282e-04,
          -1.21671893e-02, -1.21064568e-02, -8.87029091e-05,
          -1.09677697e-02, -1.04778791e-02, -3.87819251e-04,
          -3.78591969e-04, -4.11053275e-04, -6.12239412e-04,
          -9.34589771e-04, -8.69120879e-04 ]
      - [ -6.42406056e-04, -4.75284643e-04, -3.84258077e-04,
          -6.00014173e-04, -3.39729851e-03, -1.23051938e-03,
          -1.76655245e-03, -2.17619026e-03, -9.62640450e-04,
          -7.63791148e-04, -2.69622542e-04, -2.07114717e-04,
          2.07127567e-04, 1.60059746e-04, 3.19551240e-04, 1.98197769e-04,
          1.40676228e-03, 3.36839410e-04, 2.80613080e-04, 1.49564163e-04,
          3.19551240e-04, 2.46268639e-04, 1.34047848e-04, 2.32774109e-04,
          1.60059746e-04, 3.19551240e-04, 3.82338272e-04, 1.04955880e-05,
          6.64900290e-05, 3.19551240e-04, 9.35697244e-05, 2.69281591e-04,
          2.09761158e-04, 1.39772645e-04, 1.90274208e-04, 1.68215221e-04,
          2.50630546e-04, 1.42203324e-04, 2.13055246e-04, 3.65074848e-05,
          1.81694413e-04, 2.22149411e-05, 8.47874344e-06, 2.99264153e-04,
          -4.81367926e-04, -2.09230624e-04, 3.14942474e-04,
          -4.52634366e-03, 7.45405210e-04, 0., -1.64262310e-04,
          -7.80534174e-05, -1.79778610e-04, -2.35773055e-04,
          -2.89336807e-04, -3.39838356e-04, -2.33342362e-04,
          -4.38332703e-04, -2.72280537e-04, -1.39772645e-04,
          -1.49564163e-04, -2.76642415e-04, -2.76251172e-04,
          -1.78710819e-04, -2.96129379e-04, -3.19551240e-04,
          -7.80534174e-05, -2.35773055e-04, -3.14780453e-04,
          -1.70555344e-04, -1.96834881e-04, -2.35773055e-04,
          -1.83072712e-04, -1.78710819e-04, -1.69987092e-04,
          -1.23552265e-04, -1.78710819e-04, -2.50630546e-04,
          -1.68215221e-04, -2.99264153e-04, -1.04065308e-04,
          -9.92945061e-05, -1.04955880e-05, -1.42203324e-04,
          -2.79777189e-04, -5.59944383e-05, -1.85503392e-04,
          -9.25019194e-05, -2.42560825e-04, -2.49933684e-04,
          -1.03371094e-04, -4.22322701e-05, -6.94913440e-04,
          -1.63037548e-04, -1.82306161e-04, 1.12523362e-02,
          1.04419293e-03, 3.69041722e-04, 5.71993471e-04,
          -7.81235358e-05, -1.69022955e-04, -8.56896149e-05,
          -7.48204475e-05, -1.41196273e-04, -1.95787085e-04,
          -9.75724906e-05, -3.62302439e-04, -1.41196273e-04,
          -2.67347699e-04, -3.31434130e-04, -3.41097679e-04,
          1.31528953e-03, -6.12772827e-04, 1.78811559e-03,
          -3.76832118e-04, -8.93465258e-05, 0., -8.57978466e-06, 0.,
          -1.74321103e-05, -6.21652091e-03, -3.59217310e-03,
          -2.45530711e-04, -7.16902141e-04, 3.03513464e-03,
          2.77321995e-03, 6.27825782e-03, 5.60729951e-03, 3.60035250e-04,
          7.49967480e-03, -1.81033203e-04, -1.28748140e-03,
          -1.48366077e-03, -1.37273024e-03, -8.56975280e-03,
          -6.09218748e-03, -1.59991928e-03, -8.23083613e-03,
          -7.33896531e-03, -1.87200692e-03, -2.04190402e-03,
          -1.40755461e-03, -1.84995809e-03, -1.63943798e-03,
          -1.14230474e-03 ]
      - [ 5.09405450e-04, -1.31935711e-04, -1.49255211e-04,
          -1.08590478e-03, -1.11424527e-03, 5.04436262e-04,
          6.12807169e-04, -4.63797332e-04, -4.13089612e-04,
          -7.77074951e-04, 1.59258291e-03, 1.30533322e-03,
          1.44970475e-03, 0., -3.08959192e-04, -1.01476500e-04,
          1.54365075e-03, -4.10435692e-04, -5.11912222e-04,
          -4.10435692e-04, -8.20871384e-04, -9.26877605e-04,
          -1.06006213e-04, 1.74774905e-03, 5.11912222e-04,
          7.19394884e-04, 4.10435692e-04, 4.10435692e-04, 4.10435692e-04,
          4.10435692e-04, 0., 0., 0., 0., 0., 0., 0., 0.,
          -1.01476500e-04, -3.08959192e-04, -5.45399264e-04,
          -8.44752241e-04, -4.77409834e-04, -1.02021196e-03,
          -1.78989640e-03, -2.49244040e-03, -1.10017508e-03,
          -4.05472238e-03, 1.49144384e-03, 9.22347885e-04,
          7.19394884e-04, 5.11912222e-04, 4.10435692e-04, 7.19394884e-04,
          1.01476500e-04, 4.10435692e-04, 3.08959192e-04, 0., 0., 0., 0.,
          0., -3.08959192e-04, -1.01476500e-04, -4.10435692e-04,
          -4.10435692e-04, -5.11912222e-04, -4.10435692e-04,
          -8.20871384e-04, -9.26877605e-04, -1.06006213e-04,
          1.84922549e-03, 4.10435692e-04, 7.19394884e-04, 7.19394884e-04,
          4.10435692e-04, 4.10435692e-04, 1.01476500e-04, 0., 0., 0., 0.,
          0., 0., 0., 0., -1.01476500e-04, -3.08959192e-04,
          -9.79715842e-04, -1.68450628e-04, -7.19394884e-04,
          -7.99155387e-04, -1.66736287e-03, -2.69992300e-03,
          -1.28396112e-03, -1.39020421e-02, 1.40492888e-02,
          5.43046743e-03, 1.27151690e-03, 7.19593896e-04, 7.52278778e-04,
          2.81786692e-04, 1.70348751e-04, 3.95707408e-04,
          -2.84279144e-04, -3.10569827e-04, -4.16165305e-04,
          -2.51178048e-04, -5.94849000e-04, -3.05113324e-04,
          -2.45664094e-04, 1.22758755e-02, -3.38625716e-04,
          4.54982696e-03, -6.14977325e-04, -7.51366257e-04,
          -9.22347885e-04, -1.26479415e-03, -1.33278361e-03,
          -5.77332173e-03, 5.08230506e-03, -3.55919264e-03,
          1.50164240e-03, 1.23069994e-03, 7.19394884e-04, 6.46676810e-04,
          7.86777178e-04, 2.02953001e-04, 5.19238121e-04, 6.73822869e-05,
          0., 6.73822869e-05, 1.34764574e-04, 1.03603517e-04,
          -3.28918896e-03, -5.01225144e-03, 0., -3.57527682e-03,
          -3.56576825e-03, -4.59258212e-04, -4.10435692e-04,
          -8.20871384e-04, -9.22347885e-04, -1.02835416e-03,
          -1.69439684e-03 ]
      - [ -1.61008048e-03, -1.45847618e-03, -1.24599296e-03,
          -1.91738084e-03, -1.28401269e-03, 2.55873473e-03,
          -2.11639958e-03, -2.83332611e-03, -2.02338817e-03,
          -1.96647760e-03, 5.36219124e-03, 5.01852622e-03,
          4.71977517e-03, 0., 0., 0., 4.67586052e-03, 0., 0., 0., 0.,
          -2.14598127e-04, -2.14598127e-04, 0., -2.14598127e-04,
          -4.29196254e-04, -4.29196254e-04, -4.29196254e-04,
          -6.43794425e-04, -1.28758885e-03, -5.15035540e-03, 0.,
          2.14598127e-04, 0., 2.14598127e-04, 7.94013124e-03,
          4.29196254e-04, 0., 0., 0., -5.85673377e-04, -6.15180237e-03,
          -9.56748670e-04, -2.32854800e-04, -3.72566539e-03,
          -7.80719391e-04, 5.21883740e-05, -1.10242376e-02,
          1.12513499e-03, 6.43794425e-04, 4.29196254e-04, 2.14598127e-04,
          4.29196254e-04, 2.14598127e-04, 2.14598127e-04, 0.,
          2.14598127e-04, 2.14598127e-04, 0., 2.14598127e-04, 0., 0., 0.,
          0., 0., 0., 0., 0., 0., 0., 0., 0., 0., 0., 0., 0., 0., 0., 0.,
          -2.14598127e-04, 0., 0., -2.14598127e-04, 0., -2.14598127e-04,
          0., -2.14598127e-04, 0., -6.52287761e-03, -9.56748670e-04,
          -4.29196254e-04, -2.41983129e-04, -3.33891949e-03,
          -7.80719391e-04, -6.95938768e-04, 1.18101528e-02,
          2.36996479e-04, 6.97155949e-04, 2.35823274e-04, 4.77798400e-04,
          -6.02640066e-05, -1.40011427e-04, -1.49139756e-04,
          -1.09092187e-04, -5.16585133e-04, -1.26131650e-04,
          -9.91905457e-04, -3.32818658e-04, -8.57314910e-04,
          -1.17008598e-03, -7.72624859e-04, 3.02166380e-02,
          -1.04819192e-03, 1.47744082e-02, -9.07326408e-04,
          -8.08887591e-04, -4.29196254e-04, -8.00271519e-04,
          -6.43794425e-04, -9.16513556e-04, 6.53000129e-03,
          -8.37063696e-03, 1.01962907e-03, 9.61508078e-04,
          4.29196254e-04, 5.37071261e-04, 3.75834701e-04, 2.14598127e-04,
          2.96087266e-04, 3.75834701e-04, 0., 1.61236560e-04,
          3.22473119e-04, 2.51704914e-04, -1.27435457e-02,
          -1.21724894e-02, -2.14598127e-04, -1.15618194e-02,
          -1.07054533e-02, -3.77051882e-04, -4.29196254e-04,
          -6.43794425e-04, -6.43794425e-04, -1.28758885e-03,
          -1.33973313e-03 ]
      - [ -6.03290158e-04, 7.57802976e-04, -3.50289221e-04,
          -1.21251342e-03, -1.81629177e-04, -1.32179091e-04,
          -4.18189622e-04, 4.50007152e-04, -7.44935079e-03,
          9.53589915e-04, -5.19175641e-03, -7.44131103e-04,
          -5.25938859e-03, 2.58337520e-03, 2.23707873e-03,
          4.75475128e-04, 6.40683901e-03, 1.23974774e-02, 2.40391120e-03,
          6.17430313e-03, 7.42710801e-03, -2.58380169e-04,
          -3.60206468e-03, -4.64189425e-03, -1.00116562e-02,
          -1.13077555e-02, -7.56389415e-03, -5.90789458e-03,
          -3.54218297e-03, -3.81997484e-03, -3.22023616e-03,
          -3.35382903e-03, 8.50169081e-03, 8.59832205e-03,
          2.10414571e-03, 2.50551361e-03, -1.40817650e-03,
          8.75706133e-03, 5.74805774e-03, -1.77239510e-03,
          -1.81383779e-03, -1.90716761e-03, 4.86719375e-03,
          -2.12024897e-03, -1.37614645e-03, -4.15693130e-03,
          -7.32807396e-03, 1.64285656e-02, -4.48676175e-04,
          -3.54602787e-04, 4.91681509e-04, -1.19853852e-04,
          -1.96280729e-04, -2.40150650e-04, -1.52614753e-04,
          -8.92381708e-04, 6.93088223e-04, -4.77992726e-04,
          -4.34473681e-04, 0., -2.94449594e-04, -1.00710918e-03,
          -3.73559858e-04, -7.23320758e-04, -4.06836654e-04,
          -1.42230408e-03, -8.75681872e-04, -8.13819992e-04,
          -8.63975380e-04, -4.34648928e-06, 4.56479331e-03,
          5.56461047e-03, 6.65702391e-03, 4.16389201e-03, 4.57926420e-03,
          3.73256044e-03, 3.33081698e-03, 3.74545087e-03, 2.59636994e-03,
          2.80363811e-03, 2.81611946e-03, 2.95884116e-03, 2.05641333e-03,
          -1.30587276e-02, 2.07782444e-03, 1.21598819e-03,
          -4.09085769e-03, -2.81562272e-04, 6.95773866e-04,
          -1.88175254e-02, -1.68188587e-02, -2.63964082e-03,
          -2.98599945e-03, -4.75403713e-03, -6.37347018e-03,
          1.18085193e-02, 8.16631783e-03, 4.70588496e-03, 4.66225581e-04,
          -1.12178351e-03, 6.51017763e-04, 4.12512512e-04,
          -3.04349116e-04, -4.96967637e-04, 8.26791453e-04,
          -8.66816496e-04, -5.51310623e-05, 1.18187912e-04, 0.,
          3.82836617e-04, -5.21979004e-04, 5.45539835e-04,
          -5.80990629e-04, 2.18588408e-04, -1.97852685e-04,
          7.33853725e-04, -3.77138378e-04, 1.70939800e-03,
          -2.24692607e-03, -8.13082978e-03, -7.23739574e-03,
          5.39073022e-03, 2.87556089e-03, 1.53862778e-03, 2.08275556e-03,
          7.26316299e-04, 1.03921723e-03, 1.02661550e-03, 6.08128379e-04,
          2.15650303e-04, 0., 0., 0., -5.04173106e-04, 0.,
          -7.97385699e-04, -5.04173106e-04, -1.52724527e-03,
          -1.23048946e-03, -1.51720911e-03, -2.03791121e-03,
          -2.44636228e-03, -3.64628597e-03, -3.77394236e-03,
          3.33508797e-04 ]
      - [ -2.24974123e-03, -1.12322660e-03, -4.44160512e-04,
          -4.56627022e-04, -2.44051807e-05, 6.08026494e-05,
          8.02605355e-05, 2.04332100e-04, 7.75602166e-05, 3.11636424e-04,
          3.23697994e-03, 2.23492971e-04, 4.04935330e-04, 6.31687045e-03,
          3.68311798e-04, 4.71748528e-04, 2.21217913e-03, 3.57321207e-03,
          2.43829345e-04, -5.89162009e-05, 1.32808287e-04,
          -4.09914472e-04, -1.67444668e-05, 1.23752339e-04,
          -5.22868126e-04, 3.86791580e-05, -3.47503781e-04,
          -4.08101245e-04, -8.84964757e-05, -4.60099633e-04,
          -1.24315484e-04, -7.17825140e-04, -5.60400833e-04,
          -5.40397363e-03, -6.95503084e-04, -4.44277655e-03,
          -4.16268548e-03, -4.24096186e-04, -5.20874572e-04,
          -4.37959534e-04, -4.82603908e-04, -4.82603908e-04,
          -2.78844935e-04, -1.24273320e-05, -1.40942648e-04,
          1.12391193e-03, 2.14626401e-04, 1.39377816e-02,
          -2.46699108e-03, -1.42770517e-03, -7.52934662e-04,
          -7.11341214e-04, -4.04935330e-04, -5.28997218e-04,
          -3.41132254e-04, -3.92641523e-04, -1.22937936e-05,
          -5.74315418e-05, -9.85294682e-05, 0., 0., 0., 1.22937936e-05,
          1.71801265e-04, 1.10823268e-04, 2.55841383e-04, 2.63463648e-04,
          4.81034367e-04, 4.04935330e-04, 5.31598867e-04, 4.44333244e-04,
          3.71908973e-04, 7.48224731e-04, 4.41636483e-04, 7.71599996e-04,
          7.90709804e-04, 5.96973638e-04, 1.93265383e-03, 6.92180300e-04,
          3.56120639e-03, 7.98552181e-04, -1.11037039e-03,
          6.43185398e-04, -4.83667897e-03, -4.72678454e-04,
          5.11405873e-04, -1.42443739e-03, 3.36779543e-04,
          4.21443518e-04, -3.23271193e-03, -4.33346350e-03,
          1.95101544e-04, 2.02482173e-04, 1.25806255e-03, 4.36992123e-04,
          -4.32782201e-03, -5.55812195e-03, -5.65643422e-03,
          3.89056659e-04, 7.18202558e-04, 9.46339627e-04, 1.17386191e-03,
          1.17075082e-03, 1.37520884e-03, 1.28457253e-03, 1.55851408e-03,
          1.32056710e-03, 1.95759465e-03, 1.70016882e-03, 1.78222242e-03,
          1.59846025e-03, 6.39072503e-04, 2.18013025e-04, 4.04935330e-04,
          -9.52710118e-03, -6.81010913e-03, -6.91745942e-03,
          3.44660948e-03, 2.15399475e-03, 4.32154536e-03, 2.25654826e-03,
          0., 0., 0., 0., 0., 0., 0., 0., 2.45564408e-03, 1.93562021e-03,
          0., 0., 0., 0., 3.15956050e-03, 2.55965022e-03, 2.49246341e-06,
          0., 0., -2.55965022e-03, -3.16205295e-03, 7.65413497e-05,
          2.87106639e-04, 2.02405895e-03 ]
      - [ -5.69938449e-03, -5.28513221e-04, -2.25277664e-03,
          -1.96876121e-03, -9.57411714e-04, -8.00129084e-04,
          -7.44015386e-04, -1.42816309e-04, -7.75504217e-04, 0.,
          6.32070517e-03, -2.03549775e-04, 0., 1.50448307e-02,
          1.84274148e-04, 1.70547530e-04, 2.43971893e-03, 1.49585502e-02,
          -2.64051277e-03, -2.14707712e-03, -2.00352236e-03,
          -2.53594085e-03, -4.39826120e-03, -4.59655514e-03,
          -3.56521201e-03, -3.42370919e-03, -4.24972130e-03,
          -2.39937869e-03, -1.87674805e-03, -2.18829210e-03,
          -1.64167874e-03, -1.99307618e-03, -1.52486505e-03,
          -1.76443683e-03, -1.94788282e-03, -1.15407386e-03,
          1.49206631e-03, -9.15950979e-04, -2.70966237e-04,
          -3.65978078e-04, -6.16153004e-04, 5.84252831e-03,
          4.13511042e-03, -1.48274921e-04, -5.75615966e-04,
          -3.93431197e-04, -1.75981852e-03, 2.25671716e-02,
          -6.95710443e-03, -4.26878920e-03, -6.28670305e-03,
          -3.53467534e-03, -4.25163284e-03, -5.53613715e-03,
          -1.86640967e-03, -1.23531290e-03, -3.38767168e-05,
          -1.50418738e-04, -6.62253471e-04, -1.63332123e-04,
          3.66703811e-04, 1.23684341e-03, 9.85638821e-04, 1.03300787e-03,
          1.36895687e-03, 1.90526585e-03, 5.22671966e-03, 3.05470172e-03,
          2.16476596e-03, 2.47842190e-03, 1.79182156e-03, 1.56478351e-03,
          2.74271378e-03, 1.91020174e-03, 2.30481266e-03, 2.57659890e-03,
          1.84720382e-03, 2.35393364e-03, 1.82293844e-03, 1.49337633e-03,
          2.15441524e-03, 2.03609723e-03, 1.46208098e-03,
          -1.59570295e-02, 1.60277169e-03, 8.84643639e-04,
          3.07443377e-04, 3.07443377e-04, 4.23182209e-04,
          -1.28436666e-02, -7.73267308e-03, -6.47314766e-04,
          -1.35796622e-03, -7.39457726e-04, -1.52359682e-03,
          8.63103848e-03, 9.30655573e-04, -1.35077361e-03,
          1.06595340e-03, -1.45676674e-03, -5.99396299e-04,
          -5.33809034e-05, -3.42052343e-04, -4.67846199e-04,
          1.18929936e-04, -8.94434110e-04, -1.68223080e-04, 0., 0., 0.,
          4.95203829e-04, 3.99230281e-04, 1.99711867e-04, 1.09414605e-03,
          8.92046199e-04, 1.09414605e-03, 2.39482429e-03, 2.71331612e-03,
          -3.30081093e-03, -1.24944909e-03, -5.79352584e-03,
          6.90331100e-04, 5.49131131e-04, 3.06242349e-04, 3.60839156e-04,
          1.36199364e-04, 8.21882277e-05, 5.57872445e-05, 2.46248819e-05,
          0., 0., 0., -1.52194829e-04, 0., -1.75043620e-04,
          -3.70057882e-04, -2.41825692e-04, -5.76263876e-04,
          -5.54077327e-04, -4.42310731e-04, -8.83812201e-04,
          -9.88132553e-04, -1.00858847e-03, -1.46112032e-03,
          4.46165167e-03 ]
      - [ -4.68583032e-03, -3.07347300e-03, -1.34355912e-03,
          -1.34113990e-03, -4.01561992e-04, -5.54336177e-04,
          -5.90456941e-04, -3.38458660e-04, -5.58584754e-04,
          3.57596786e-04, 1.27541181e-03, -1.48745719e-04,
          1.33019596e-04, 1.52981356e-02, 1.36639937e-04, 3.23895219e-04,
          1.65915408e-04, 1.63113307e-02, -9.48542962e-04,
          -9.44294326e-04, -9.44922620e-04, -1.89645763e-03,
          -1.29013276e-03, -9.47914668e-04, -2.43569585e-03,
          -9.80276032e-04, -1.89645763e-03, -1.86535274e-03,
          -1.35721930e-03, -1.89645763e-03, -9.80276032e-04,
          -1.73479086e-03, -1.32548623e-03, -1.52014266e-03,
          -2.21556984e-03, -9.48542962e-04, -1.14579604e-03,
          -1.14187622e-03, -1.14217575e-03, -7.64398545e-04,
          -1.36675290e-03, -1.33850111e-03, -1.24017068e-03,
          -4.88252554e-04, -1.02277787e-03, -8.11613398e-04,
          -1.51339429e-03, 1.83581207e-02, -4.63322550e-03,
          -2.87374901e-03, -1.21321890e-03, -1.15176756e-03,
          -7.66070676e-04, -8.55335384e-04, -7.34198547e-04,
          -7.94512220e-04, -6.54236937e-04, -4.01562499e-03,
          -6.71423972e-04, -1.65984314e-03, -5.88834193e-03,
          -1.64891753e-04, -3.62035030e-06, 5.04374097e-04,
          3.95507645e-03, 5.38955210e-03, 2.37744045e-03, 2.46210257e-03,
          1.66499300e-03, 2.03571934e-03, 1.33787282e-03, 1.27503485e-03,
          2.41335738e-03, 1.81065279e-03, 1.90007791e-03, 2.24807020e-03,
          1.51951436e-03, 2.24166783e-03, 1.52014266e-03, 1.32548623e-03,
          1.89708592e-03, 1.89645763e-03, 1.01263740e-03,
          -1.66590903e-02, 1.54178636e-03, 8.17981025e-04,
          7.05769708e-05, 8.64330577e-05, 6.21356128e-04,
          -1.33254780e-02, -1.33509713e-03, -6.76708936e-04,
          -5.51368576e-04, -4.71842723e-05, -1.19620538e-03,
          1.28077921e-02, -2.91947601e-03, -4.05275356e-03,
          -6.63862389e-04, -7.03477184e-04, -6.13680109e-04,
          2.67404335e-04, -4.25426144e-04, -5.90317883e-04,
          3.58225050e-04, -9.09569149e-04, -2.44924140e-05,
          3.62035030e-06, 7.24070060e-06, 4.24862264e-06, 5.42858674e-04,
          1.91478932e-04, 3.66100103e-05, 6.01178966e-04, 5.70074131e-04,
          3.80850397e-04, 1.01090944e-03, 1.42318523e-03,
          -4.83327685e-03, -2.48274812e-03, -6.03324035e-03,
          2.98743765e-03, 1.57625962e-03, 1.57606986e-03, 6.77337230e-04,
          8.70480784e-04, 6.73716888e-04, 4.87624289e-04, 2.25205455e-04,
          1.29399239e-04, 3.62035030e-06, 0., 0., 0., 0., 0., 0.,
          -1.64891753e-04, -3.54604708e-04, -3.54604708e-04,
          -5.76189777e-04, -8.38608656e-04, -8.97665799e-04,
          -1.57230021e-03, 5.18839946e-03 ]
      - [ -8.45847302e-04, -5.33702725e-04, -2.90022494e-04,
          -2.50156445e-04, -6.44689950e-04, -6.93110982e-04,
          -4.95050917e-04, 2.46754644e-05, -9.49756286e-05,
          5.75903578e-05, -1.22463168e-03, -1.11888058e-03,
          -9.19080572e-04, 2.13141367e-03, 1.41773155e-04,
          1.01413840e-04, 1.20123790e-04, 2.94376933e-03,
          -3.46967136e-05, -6.28580092e-05, 3.38813179e-21,
          -1.71241307e-04, -1.43915284e-04, -4.94469787e-05,
          -2.96122074e-04, 3.38813179e-21, -1.12304988e-04,
          -2.83546309e-04, -1.78647737e-04, -1.41773155e-04,
          -7.62656782e-05, -1.19236451e-04, -1.10525427e-04,
          -1.90388222e-04, -1.84648976e-04, -6.42006125e-05,
          -1.73293593e-05, -9.49756286e-05, -6.94291666e-05,
          -1.95072262e-05, -4.28758249e-05, -7.89151381e-05,
          -1.10998131e-04, 1.05733838e-04, -5.81010499e-05,
          -3.47324494e-05, -8.07326942e-05, 3.69235617e-03,
          4.26709121e-05, -5.67092618e-04, -3.51668597e-04,
          -2.67996511e-04, -2.40670473e-04, -3.04360379e-04,
          -2.63564114e-04, -3.19585612e-04, -1.08383298e-04,
          -1.84648976e-04, -1.93362255e-04, -4.28758249e-05,
          -7.89151381e-05, -1.55218819e-04, -9.49376335e-05,
          1.39183612e-05, -8.75692131e-05, -5.02822477e-05,
          1.07040702e-04, 1.20959063e-04, 5.26429085e-06, 1.54348920e-04,
          6.41648730e-05, 2.94681595e-05, 2.35043612e-04, 1.55691509e-04,
          2.20688293e-04, 2.35406187e-04, 1.55691509e-04, 2.09384758e-04,
          1.55691509e-04, 8.63215610e-05, 2.18038826e-04, 2.23303112e-04,
          1.41773155e-04, -2.87394179e-03, 1.19236451e-04,
          8.71568263e-05, -4.33507848e-05, 6.09955896e-06,
          6.71746457e-05, -1.81099621e-03, -4.41826887e-05,
          -2.55107316e-05, -9.88973261e-05, 9.14909033e-05,
          -1.23101199e-04, 5.34206582e-03, -3.07257287e-04,
          -3.98800737e-04, -1.00099584e-04, -2.42337643e-04,
          -2.33264058e-04, -5.02822477e-05, -1.41773155e-04,
          -1.41773155e-04, -3.07750233e-05, -1.41773155e-04, 0., 0., 0.,
          0., 9.14909033e-05, 5.02822477e-05, 0., 1.41773155e-04,
          1.41773155e-04, 1.41773155e-04, 2.83546309e-04, 3.33828561e-04,
          4.25319449e-04, 5.36317588e-04, -1.29520120e-02,
          3.07750233e-05, -1.37587209e-04, -3.40611499e-04,
          4.18265583e-04, 2.38334970e-03, 2.52246088e-03, 2.88279331e-03,
          1.08154774e-04, 2.78443191e-03, -1.36507762e-04,
          -5.35719679e-04, -7.23100791e-04, -6.27822941e-04,
          -1.82807713e-03, -1.29735458e-03, -7.44869350e-04,
          -8.61100503e-04, -8.06420459e-04, -7.87784229e-04,
          -8.45075701e-04, -6.24386303e-04, -7.78227928e-04,
          -6.60726742e-04, 6.46525354e-04 ]
      - [ -4.48083133e-03, -2.98802205e-03, 1.54438301e-03,
          -2.38939858e-04, 1.22119673e-04, 9.55602794e-04,
          7.31832930e-04, -5.06453856e-04, 5.57122694e-04,
          2.79262313e-03, 6.51004212e-03, -5.52516314e-04,
          1.07605727e-02, 1.52872438e-02, -1.41346781e-03,
          -8.34198319e-04, 9.29137412e-03, 1.09802689e-02,
          -3.95929022e-03, -4.66185529e-03, -4.77683730e-03,
          -5.73745416e-03, 3.44660279e-04, 6.61874306e-04,
          1.00462232e-03, 1.62049267e-03, -4.50310967e-04,
          -8.80887383e-05, -2.49825825e-04, -4.50310967e-04,
          -1.52952003e-03, -2.14895862e-03, -1.59730611e-03,
          -3.02034803e-03, -2.94700125e-03, -2.60312087e-03,
          -2.58787139e-03, -2.22367793e-03, -2.80053285e-03,
          -4.54796758e-03, -3.86465271e-03, -3.01944418e-03,
          -5.68972342e-03, -3.31709301e-03, -5.44860400e-03,
          -6.05537603e-03, -6.22251816e-03, 2.78958455e-02,
          -4.40841634e-03, -6.79553079e-04, 1.14352501e-03,
          -1.44188153e-03, 6.68123947e-04, 2.40861264e-04,
          -5.31223370e-04, -1.24686863e-03, 5.86997485e-04,
          -3.94897448e-04, -7.14508205e-05, 0., 0., 0., -1.90673978e-03,
          -9.72952461e-04, -3.76271841e-04, -1.72895112e-03,
          -1.96303311e-03, -2.29159649e-03, -1.88740995e-03,
          1.91684614e-03, 5.47137344e-03, 6.00674702e-03, 7.03097926e-03,
          5.35545778e-03, 5.70405647e-03, 5.67772659e-03, 4.67441790e-03,
          4.70740674e-03, 4.23221802e-03, 3.03612626e-03, 3.75167001e-03,
          2.90904986e-03, 3.06149339e-03, -1.85900200e-02,
          2.25316617e-03, 1.79238606e-03, -1.03050573e-02,
          -8.24609306e-05, -4.00587829e-04, -1.28142135e-02,
          -1.75355542e-02, -1.44645001e-03, -5.35054086e-03,
          -2.81788269e-03, -5.48832538e-03, 6.86655100e-03,
          4.07654373e-03, 2.85446504e-03, 2.91508459e-03, 2.66030733e-03,
          -1.35285466e-03, 1.79129979e-03, 1.51774427e-03,
          4.24810132e-04, 1.24540972e-03, -1.06703478e-03,
          -1.78375005e-04, 0., 0., 4.40959906e-04, 8.09765479e-04,
          -1.15926808e-03, -3.62199440e-04, -3.36267898e-04,
          -7.01559649e-04, -5.80680033e-04, -2.43301212e-04,
          -7.10818218e-03, -4.42533055e-03, -7.29227299e-03,
          -8.01246706e-03, 5.81233110e-03, 5.82966581e-03,
          4.73673176e-03, 3.59773543e-03, 1.84493011e-03, 2.45873886e-03,
          2.89180176e-03, 1.13899657e-03, 6.59871148e-04, 0., 0., 0., 0.,
          0., 0., -6.59871148e-04, -1.13899657e-03, -1.75280520e-03,
          -1.79886771e-03, -3.59773543e-03, -2.50480138e-03,
          -2.93896254e-03, -2.62222602e-03, 2.24640523e-03 ]
      - [ -5.03102224e-03, -2.86137639e-03, -1.50808610e-03,
          -1.51129684e-03, -5.13822655e-04, -6.75039832e-04,
          -6.75039832e-04, -1.77908107e-04, -6.75039832e-04, 0.,
          1.61217147e-04, -3.39125254e-04, 0., 1.37230167e-02, 0.,
          1.58006471e-04, 1.58006471e-04, 1.50719583e-02,
          -8.36256950e-04, -8.36256950e-04, -8.36256950e-04,
          -1.67251390e-03, -1.33659935e-03, -9.97474068e-04,
          -2.16964562e-03, -9.97474068e-04, -1.83373108e-03,
          -1.99494814e-03, -1.33659935e-03, -1.99494814e-03,
          -1.64234277e-03, -5.06128464e-03, -1.17538217e-03,
          -1.33338873e-03, -1.51129684e-03, -6.75039832e-04,
          4.64512594e-03, -9.97474068e-04, -8.36256950e-04,
          -5.00342401e-04, -9.97474068e-04, -9.97474068e-04,
          -9.97474068e-04, -1.61217147e-04, -8.19566019e-04,
          -3.22434295e-04, -8.19566019e-04, 1.60937514e-02,
          -4.86980518e-03, -3.18381074e-03, -1.35007966e-03,
          -8.49737262e-04, -6.75039832e-04, -1.17538217e-03,
          -5.13822655e-04, -6.75039832e-04, 0., 1.61217147e-04,
          -1.77908107e-04, 0., 1.61217147e-04, 0., 1.61217147e-04,
          4.97131725e-04, 3.39125254e-04, 4.97131725e-04, 8.36256950e-04,
          1.33338873e-03, 8.36256950e-04, 1.33338873e-03, 8.36256950e-04,
          8.36256950e-04, 1.83052046e-03, 1.33338873e-03, 1.67251390e-03,
          1.67251390e-03, 1.33338873e-03, 2.01163930e-03, 1.33338873e-03,
          1.01416511e-03, 1.67251390e-03, 1.51129684e-03, 8.36256950e-04,
          -1.53911822e-02, 1.35329028e-03, 5.17033390e-04,
          3.39125254e-04, 1.77908107e-04, 5.17033390e-04,
          -1.18725942e-02, -1.61217147e-04, -3.22434295e-04,
          -4.83651442e-04, 3.35914578e-04, -6.44868589e-04,
          1.42593822e-02, -4.72848956e-03, -2.86137639e-03,
          -1.52798777e-03, -1.03085604e-03, -1.01095438e-03,
          -1.77908107e-04, -5.13822655e-04, -6.75039832e-04, 0.,
          -8.36256950e-04, 0., 0., 0., 0., 4.97131725e-04,
          1.77908107e-04, -1.61217147e-04, 5.13822655e-04,
          5.13822655e-04, 6.75039832e-04, 1.35007966e-03, 1.20555342e-03,
          1.70268514e-03, 2.37772497e-03, -1.14018545e-02,
          9.67302884e-04, 6.44868589e-04, 4.83651442e-04, 4.83651442e-04,
          1.61217147e-04, 3.22434295e-04, 1.61217147e-04, 0., 0., 0., 0.,
          0., 0., 0., -1.61217147e-04, -1.61217147e-04, -1.61217147e-04,
          -4.83651442e-04, -1.61217147e-04, -3.22434295e-04,
          -4.83651442e-04, -8.06085765e-04, -8.06085765e-04,
          5.49540948e-03 ]
      - [ -2.29114341e-03, -1.11793703e-03, -4.06655774e-04,
          4.33114365e-05, 2.17532779e-05, 7.27746228e-05, 1.26298008e-04,
          2.54545248e-05, 2.46878900e-03, 1.57837337e-03, 4.23459522e-03,
          3.66201479e-04, 3.50969215e-03, 2.42104777e-03,
          -1.39744196e-04, 3.43648979e-04, -5.19017231e-05,
          -5.70404867e-04, -5.43017930e-04, -1.51959003e-03,
          -1.95052533e-03, 9.04710105e-05, 1.35779928e-03,
          7.76173547e-04, 1.24510250e-03, 3.22933425e-03, 1.71416183e-03,
          1.16096903e-03, 8.11637845e-04, 5.47839561e-04, 6.25162036e-04,
          8.77465427e-05, -2.29555299e-03, -3.95017955e-03,
          -3.15699959e-03, -4.11403365e-03, -3.44242970e-03,
          -1.41395733e-03, -2.65077455e-03, 9.13956756e-05,
          -1.43411104e-04, -6.72440583e-05, -3.37393116e-03,
          3.64788692e-04, 2.18360467e-04, 1.76212750e-03, 1.85571366e-03,
          9.34367627e-03, -2.37409631e-03, -1.29574665e-03,
          -6.37870631e-04, -5.73882775e-04, -4.36975126e-04,
          -3.66201479e-04, -2.63226306e-04, -3.86740576e-05,
          -2.20903123e-04, -3.70124530e-06, 0., 0., 1.02975180e-04,
          2.12318657e-04, 2.97293911e-04, 2.04032156e-04, 3.38739279e-04,
          4.69124556e-04, 6.87062682e-04, 4.69143233e-05, 3.42255546e-04,
          2.54562008e-04, -3.56365344e-04, -9.39156569e-04,
          -7.62688578e-04, -5.63291542e-04, -3.34052078e-04,
          -3.27579532e-04, -2.00843395e-04, 1.00989582e-03,
          -8.76944323e-05, 2.59280903e-03, 0., -1.58007175e-03, 0.,
          -1.14310451e-03, -8.84554815e-04, 1.65358098e-04,
          2.16072018e-04, 2.59577180e-04, 2.78507039e-04, 4.94436070e-04,
          7.05308397e-04, 8.01588467e-04, 9.58466320e-04, 2.00021127e-03,
          2.11469899e-03, -5.29321795e-03, -9.79782082e-03,
          -5.05979732e-03, 2.20313523e-04, 9.30957904e-04,
          7.98345543e-04, 9.44383733e-04, 1.25475565e-03, 1.37173687e-03,
          9.09923518e-04, 1.59271050e-03, 1.23027712e-03, 1.71915756e-03,
          1.50614011e-03, 1.59186963e-03, 1.49589556e-03, 5.01642236e-04,
          1.75583991e-04, 3.23878281e-04, -7.92547408e-03,
          -6.33655814e-03, -6.88140374e-03, 8.94676545e-04,
          4.90213279e-03, 7.32638920e-03, 2.07008026e-03,
          -1.45084260e-03, -6.73810777e-04, -3.07713519e-04,
          -5.67186507e-04, -1.92452659e-04, -3.44448199e-04,
          -2.24656469e-04, -1.01056976e-04, 1.99516327e-03,
          1.70319818e-03, 0., 0., 1.73748835e-04, 0., 3.19352490e-03,
          2.53912783e-03, 3.66201479e-04, 3.62500228e-04, 3.03766457e-04,
          -1.79149630e-03, -2.42063380e-03, 7.79661466e-04,
          1.02777872e-03, 1.71410514e-03 ]
      - [ -4.89048241e-03, -3.28739104e-03, -2.65829382e-03,
          -6.38853118e-04, -1.28067471e-03, -8.42329522e-04,
          -5.12313331e-04, -1.05270592e-03, 8.76533706e-03,
          5.78650599e-03, 1.35468440e-02, 2.18312052e-04, 1.42684449e-02,
          7.56712072e-03, -3.95821844e-04, -3.66678723e-04,
          -1.24483067e-03, -2.90902122e-03, -5.22237364e-03,
          -8.05054419e-03, -1.06393369e-02, -9.61404992e-04,
          1.77140246e-04, -5.75389713e-03, 3.71339871e-03,
          2.28248842e-04, -8.33597593e-03, 3.02234874e-03,
          1.01304951e-03, 1.24446116e-03, 6.37077843e-04, 3.98159027e-04,
          -9.30363219e-03, 1.42542063e-04, -6.21311227e-03,
          -3.27000185e-03, 9.48876608e-03, -5.39416587e-03,
          -2.88848300e-03, 1.03024777e-03, 9.77840245e-05,
          1.02449097e-02, -8.05827230e-03, 2.74640461e-05,
          5.39831781e-05, 1.66721700e-03, 2.70135817e-03, 1.99532267e-02,
          -9.21309274e-03, -5.24276961e-03, -1.24760959e-02,
          -6.42889878e-03, -1.38246510e-02, -5.74947894e-03,
          -5.55481762e-03, -4.79464041e-04, -8.46302079e-04,
          -2.88329407e-04, -3.04073881e-04, -2.78181891e-04,
          3.16196680e-03, 2.11969041e-03, 2.03391467e-03, 5.21707814e-03,
          7.14954594e-03, 6.09640358e-03, 1.06726578e-02, 3.30630783e-03,
          3.54378414e-03, 2.72455602e-03, -5.78723731e-04,
          -2.46483972e-03, -2.55389325e-03, -1.21067232e-03,
          -1.15189340e-03, -7.46901787e-04, -6.85520296e-04,
          -5.12705534e-04, -3.33596574e-04, -2.21131195e-04, 0.,
          -1.36964474e-04, 0., -1.42542063e-04, 1.42135439e-04,
          -1.00520389e-04, -1.02312901e-04, 6.00644635e-05,
          4.83328244e-04, 7.52450491e-04, 1.05763157e-03, 1.20868091e-03,
          9.50415211e-04, 1.91208522e-03, 3.16031626e-03, 1.99484709e-03,
          -9.47074406e-03, -1.72759034e-03, 6.09206082e-03,
          -1.35930290e-03, -1.87568413e-03, -1.49902457e-03,
          -1.54487730e-04, -3.99863144e-04, -9.16325138e-04,
          -3.92350397e-04, 0., -3.33596574e-04, 0., 6.45624459e-05,
          7.96362234e-04, 3.92350397e-04, 7.89497979e-04, 1.26217620e-03,
          1.51544495e-03, 1.83054304e-03, 3.13979480e-03, 3.70277325e-03,
          1.50454685e-03, 1.43262302e-03, -9.17139556e-03,
          -3.09865992e-03, -1.02554203e-03, 5.66271658e-04,
          -1.11481349e-03, 1.10021712e-04, -6.62056496e-04,
          -5.11623337e-04, -2.49780423e-04, -2.33235933e-05, 0., 0.,
          -1.36964474e-04, 7.07448460e-04, -2.43710296e-04,
          -1.81697342e-05, 3.54040909e-04, 3.51246621e-04,
          1.83072276e-04, -1.73224635e-05, 4.12499852e-04,
          2.39619039e-04, 7.16253242e-04, 4.30533401e-04, 1.59866735e-03 ]
      - [ -3.48874507e-03, -1.19351922e-03, 6.73541683e-04,
          1.05572341e-03, 3.90220201e-04, 6.69175526e-04, 5.78330539e-04,
          -2.40958747e-04, 3.40632210e-03, 2.06858525e-03,
          1.12701701e-02, 8.99229723e-04, 1.26327453e-02, 6.22118264e-03,
          -2.58696091e-04, 2.96541577e-04, -8.86187656e-04,
          -1.57103990e-03, -2.51324382e-03, -3.84917553e-03,
          -6.73448341e-03, -5.98308339e-04, 3.13729816e-03,
          8.89068819e-04, 4.77879029e-03, 5.32838563e-03, 3.18822963e-03,
          2.19864072e-03, 1.06857030e-03, 7.83090887e-04, 6.07216673e-04,
          3.60724167e-04, -7.07001006e-03, -1.29077189e-05,
          -6.37465995e-03, -8.17106571e-03, -5.99412597e-04,
          -2.04574387e-03, -3.37992795e-03, -6.91108056e-04,
          -1.24158571e-03, -1.42215705e-03, -1.06564071e-02,
          -6.24982058e-04, -9.34023468e-04, -4.91192564e-04,
          1.13232026e-03, 1.33356210e-02, -3.14609171e-03,
          -2.20145518e-03, -1.77655776e-03, -1.82878389e-03,
          -1.69299869e-03, -1.02008216e-03, -3.15820705e-03,
          -7.45223195e-04, -1.78034720e-03, -5.20726852e-03,
          -1.06750138e-03, -1.20200869e-03, -1.12169813e-02,
          -7.25604768e-05, 7.08579726e-04, 3.97314579e-04,
          4.37043700e-03, 1.24403955e-02, 4.50354069e-03, 6.67406432e-03,
          2.23829201e-03, 1.19497522e-03, -1.84217599e-04,
          -1.11005479e-03, -1.05328474e-03, -3.03717388e-04,
          -5.07863588e-04, -4.27077524e-04, -4.95557324e-04,
          -2.62758986e-04, -1.59607735e-04, -1.81622992e-04, 0., 0., 0.,
          -3.60320933e-04, 3.06735688e-04, 4.34836635e-04,
          2.25673975e-05, -2.31749291e-04, 3.26966314e-04,
          3.82032536e-04, 1.29064289e-03, -1.56048671e-04,
          1.08996732e-03, 9.81856836e-04, 1.86910830e-03, 4.05182550e-03,
          -1.47029823e-02, -4.48887469e-03, 1.00970210e-03,
          1.50019513e-03, 6.28613285e-04, 5.76055842e-04, 1.06528378e-03,
          4.43361903e-04, 7.45960919e-04, 3.43281601e-04, 4.50450927e-04,
          1.78126546e-04, 4.25811799e-04, 4.14022332e-04, 4.90559440e-04,
          1.60132811e-04, 7.30478496e-04, 6.10288349e-04, 6.93680660e-04,
          5.73009311e-04, 9.86383995e-04, 1.07677397e-03, 9.35178658e-04,
          -2.86800787e-03, -1.43506359e-02, 2.97460961e-03,
          2.52085994e-03, 2.44486355e-03, 5.71425015e-04, 1.57099252e-03,
          5.87709423e-04, 6.71052607e-04, 4.92430117e-04, 3.95734009e-04,
          2.12905899e-04, 0., 0., 5.73012920e-04, 0., 3.44457687e-04,
          5.73012920e-04, 4.86574019e-04, 8.36503023e-05,
          -9.29167218e-05, 1.78915841e-04, -1.89808765e-04,
          1.17956486e-04, -6.27349073e-04, 2.84182781e-04 ]
      - [ -9.77312448e-04, -4.21699515e-04, -2.42221256e-04,
          -8.10792335e-05, -4.41297685e-04, -4.30372515e-04,
          -2.43916118e-04, -1.46013379e-04, -3.24335924e-05,
          -8.41061683e-06, 1.96008201e-04, -9.81025747e-04,
          1.97182246e-03, 4.91113387e-05, -8.30123608e-05,
          -3.37161291e-05, -3.39010257e-05, -9.13177137e-05,
          -3.04136134e-04, -5.48513024e-04, -6.15022553e-04,
          9.58789042e-06, 4.53778513e-04, 2.23521260e-04, 4.57661808e-04,
          8.63050460e-04, 5.63374313e-04, 2.49136297e-04, 1.40129618e-04,
          2.82270106e-04, 9.19000522e-05, 2.00881317e-04, 1.15289789e-04,
          3.91073627e-05, -2.60157813e-03, -4.82932868e-04,
          1.14329676e-04, 7.53401691e-05, 2.95690788e-05, 9.34566124e-05,
          2.44842840e-06, 9.17962170e-05, -1.35925971e-03,
          2.55422114e-04, 1.09706889e-04, 2.33848856e-04, 4.22750862e-04,
          2.36645597e-03, -3.77618329e-04, -4.56766429e-04,
          -2.82696274e-04, -1.97651563e-04, -2.10028942e-04,
          -2.17168403e-04, -1.71280670e-04, -1.51416127e-04,
          -1.64141209e-04, -1.63675519e-04, -1.11416892e-04,
          -3.91073627e-05, -7.60515604e-06, -9.16401332e-05,
          8.51512596e-05, -1.10948376e-05, 1.15210159e-05,
          4.15061804e-05, 2.25931464e-04, -1.25585211e-04,
          -1.41753204e-04, -2.49041441e-05, -2.12096740e-04,
          -3.00230371e-04, -2.90382566e-04, -2.60231143e-04,
          -1.50096792e-04, -1.63284843e-04, -1.44084988e-04,
          -1.14329676e-04, -1.35662995e-04, -1.06142179e-04,
          -5.03938754e-05, -5.07845398e-05, 0., -4.22063786e-05,
          -1.67320206e-06, 3.43667198e-05, -3.59232763e-05,
          5.71058699e-05, 1.48612644e-05, 1.50133594e-04, 1.90046412e-04,
          2.21506998e-04, 1.80469899e-04, 3.73704446e-04, 4.38753836e-04,
          6.23086467e-03, -3.65949934e-03, -2.26521734e-04,
          -2.52250000e-04, -1.90786130e-04, -2.73848098e-04,
          -1.57652335e-04, -8.30619683e-05, -1.16146155e-04,
          -9.34566124e-05, -4.15061804e-05, 0., -7.46399746e-05, 0.,
          8.42199915e-06, 7.46399746e-05, 4.15061804e-05, 8.42199915e-06,
          1.24568149e-04, 1.24568149e-04, 1.32990157e-04, 2.16002518e-04,
          3.40620260e-04, 2.12961272e-03, 7.44882040e-04,
          -1.15980683e-02, -5.95097546e-04, -3.95224721e-04,
          -4.90922714e-04, -3.85280786e-04, 1.32227561e-03,
          2.53949454e-03, 2.53784843e-03, 1.07492298e-04, 2.95867166e-03,
          -8.24060189e-05, -3.53528740e-04, -5.72100573e-04,
          -4.46701393e-04, -1.66273990e-03, -1.12336816e-03,
          -5.81676955e-04, -6.79618970e-04, -5.87223098e-04,
          -5.90135867e-04, -6.22945954e-04, -3.15229699e-04,
          -4.43201105e-04, -2.61394394e-04, 1.15414376e-04 ]
      - [ -6.20073779e-03, -4.90902318e-03, 1.31432549e-03,
          5.81402797e-04, 9.77964257e-04, 1.38833642e-03, 1.08389149e-03,
          -1.12959638e-03, 8.30580480e-03, 1.26142418e-02,
          1.03435395e-02, 9.90302651e-04, 1.59209967e-02, 1.81258544e-02,
          5.39772026e-03, -2.02483474e-03, -4.12941677e-03,
          -7.24420743e-03, -7.68646691e-03, -1.48556307e-02,
          -1.65499821e-02, -7.40662776e-03, 4.25804965e-03,
          9.19361785e-03, 1.33744515e-02, 1.89869441e-02, 8.98193195e-03,
          7.30465772e-03, 4.27127909e-03, 3.96749936e-03, 2.13733688e-03,
          1.09443546e-03, -2.06097383e-02, -9.34541132e-03,
          -1.61543600e-02, -2.56776949e-03, -8.67890369e-04,
          -1.25101004e-02, -1.00965807e-02, -1.11139752e-03,
          -2.20188708e-03, -1.41550705e-03, -1.12604788e-02,
          -1.57835498e-03, -2.04747031e-03, 1.09751453e-03,
          1.91248057e-03, 1.16215423e-02, -5.62908081e-03,
          -3.66977300e-03, 9.33229225e-04, -1.05910898e-04,
          -8.44950555e-04, 1.51774229e-03, -6.15621102e-04,
          1.47701590e-03, -5.38858585e-04, 3.17918311e-04,
          1.79664767e-05, 0., 8.35741812e-05, 1.13423052e-03,
          9.34854543e-05, -4.00749501e-04, -2.62606860e-04,
          7.28147337e-04, 8.17463209e-04, -1.32843293e-03,
          -7.41539523e-04, -1.26576063e-03, -2.33462593e-03,
          1.07121456e-03, -2.05382355e-03, 1.57481234e-03,
          7.02610065e-04, 1.05465739e-03, -1.65078949e-04,
          9.29095026e-04, 7.87228171e-04, -1.85606594e-04,
          1.37243638e-04, 0., 0., 0., 7.19006755e-04, 8.25223629e-04,
          -5.83550500e-05, -1.84455115e-04, -1.03423954e-03,
          2.12002266e-03, -4.19473654e-04, 8.60249100e-04,
          4.49792860e-04, 1.52820384e-03, 3.03205941e-03,
          -3.37069505e-05, -6.97073899e-03, -5.85138379e-03,
          3.38094687e-04, 3.28271766e-03, -4.56829934e-04,
          1.09268818e-03, 1.05531700e-03, 8.85224668e-04,
          -2.13301770e-04, -5.31415862e-04, 0., -4.34700079e-04, 0.,
          1.73343196e-05, 1.30259048e-03, 2.56439962e-04,
          -6.94678747e-04, 1.38228424e-04, -1.73050945e-03,
          -9.03628534e-04, -2.81005159e-05, -7.41216633e-03,
          1.02669541e-02, -5.57920942e-03, -5.37020760e-03,
          -2.75892206e-04, 2.58945208e-03, 3.08128237e-03,
          5.30067075e-04, 2.11989647e-03, 8.79174680e-04, 2.48406519e-04,
          6.06020272e-04, 2.42852693e-04, 0., 0., 0., 5.64566348e-04, 0.,
          1.13638083e-03, 4.27322695e-04, 8.99295555e-04,
          -1.52727167e-04, -3.57596291e-05, -6.58165547e-04,
          2.05689124e-04, -5.94106619e-04, 8.12774641e-04,
          -5.05351345e-04 ]
      - [ -3.89038469e-03, -1.44450983e-03, -5.56871819e-04,
          -1.60796088e-04, -9.32538605e-05, -1.45404716e-04,
          1.14426202e-05, -3.02252069e-04, 4.26299637e-04,
          1.34418940e-03, 6.97106868e-03, 0., 9.98907723e-03,
          3.47336085e-04, -9.06771049e-04, -3.32817726e-04,
          -5.67759504e-04, -1.03974517e-03, -1.64634909e-03,
          -2.48448877e-03, -3.45221814e-03, -3.64328414e-04,
          1.61264394e-03, 3.37494421e-04, 3.28169274e-03, 2.40743370e-03,
          1.36946130e-03, 6.94349525e-04, 4.62482683e-04, 5.55192637e-05,
          -7.91755971e-04, -4.30875272e-03, -3.75247066e-04, 0.,
          -5.43750590e-03, -5.33484528e-03, 7.05025904e-03,
          -1.80095679e-03, -6.16659585e-04, -5.21508591e-05,
          -5.57935273e-04, -4.26404789e-04, -6.41250703e-03,
          1.35479218e-04, -2.45757692e-04, 4.79462993e-04,
          1.77345064e-03, 5.48462663e-03, -3.03439260e-03,
          -1.76321680e-03, -6.13762881e-04, -1.56613722e-04,
          -3.45513748e-04, -5.42442605e-04, 1.90078266e-04,
          3.30277981e-05, -1.84308024e-04, 2.08998201e-04,
          2.08998201e-04, 0., 5.23522729e-04, 2.37843633e-04,
          8.62534274e-04, 3.73525982e-04, 7.03021651e-04, 7.24606856e-04,
          1.21797353e-03, -1.42938070e-05, -1.42020377e-04,
          -5.72813675e-04, -9.10532835e-04, -9.97930416e-04,
          -9.30181763e-04, -7.54969369e-04, -3.72347742e-04,
          -4.98832553e-04, -3.44887056e-04, -2.74606828e-05,
          -1.56847338e-04, -2.24389558e-04, 0., -2.08998201e-04, 0.,
          -2.08998201e-04, 1.30013359e-04, -1.14426202e-05,
          3.70203925e-04, 1.51280226e-04, 1.76597096e-04, 7.89424928e-04,
          8.57593841e-04, 5.19137189e-04, 8.25950759e-04, 1.43039902e-03,
          1.85578328e-03, 9.39013809e-03, -1.22312196e-02,
          -1.77318219e-03, -8.20979651e-04, 8.49616044e-05,
          -4.68923652e-04, -3.83248349e-04, 1.13397393e-04,
          -1.45404716e-04, -2.27918121e-04, -1.82164207e-04, 0.,
          -1.56847338e-04, 0., 1.32360292e-04, 2.12526764e-04,
          -2.68339863e-05, -5.56711439e-06, 8.08361365e-05,
          1.24446233e-04, 4.77874040e-04, 6.95527764e-04, 4.73531516e-04,
          1.17659066e-02, 2.71384697e-03, -1.56541355e-02,
          -5.19441266e-04, 8.14330415e-05, 1.50156877e-04,
          5.45990515e-05, -6.85061377e-06, -9.32538605e-05,
          -1.07670123e-04, -5.90014715e-05, 2.53168710e-05, 0., 0., 0.,
          3.26593814e-04, 0., 1.67761173e-05, 1.17595628e-04,
          3.33444448e-04, -8.45519608e-05, 3.18053062e-04,
          3.65611922e-04, 3.98889213e-04, 1.62329074e-04, 4.37907293e-04,
          1.13782391e-03 ]
      - [ -1.66877307e-05, 2.12412071e-03, -4.15255490e-04,
          -2.79887754e-04, -4.79774171e-04, -3.67831031e-04,
          -3.62078601e-04, -4.40097472e-04, -4.25569044e-04,
          -4.22036188e-04, -4.86553239e-04, -3.82009690e-04,
          -4.85235476e-04, -3.30434588e-04, -3.62326362e-04,
          -5.75042854e-04, -3.68345150e-04, -2.43646049e-04,
          -1.33503834e-03, -7.05109211e-04, -1.00008468e-03,
          -5.62255620e-04, -2.18535238e-03, -2.33377400e-03,
          -2.06528581e-03, -1.53513509e-03, -2.74088280e-03,
          -6.24592183e-04, -7.53832108e-04, -4.10435518e-04,
          -6.37073244e-04, -4.40734766e-05, -5.14119051e-07,
          5.17044868e-03, 6.53347292e-04, 5.56617603e-03, 4.72793495e-03,
          1.70821790e-04, 2.15830607e-03, 2.56091706e-04, 3.24013788e-04,
          4.41597588e-03, 2.62700603e-03, -1.56749433e-04,
          -1.91629384e-04, -1.59541972e-03, -1.57480990e-03,
          -6.86186412e-03, 0., -5.36910120e-05, -2.81074666e-03,
          -1.27261854e-04, -2.10276572e-03, -3.91222024e-03,
          -6.30495633e-05, -5.36910120e-05, 0., -6.94714399e-05,
          -8.37025000e-05, -9.93927242e-05, -1.13030794e-04,
          3.82258935e-04, 3.22146050e-04, 1.21258525e-03, 1.54618477e-03,
          1.34306273e-03, 1.99861056e-03, 8.25073337e-04, 6.28725276e-04,
          4.68425336e-04, 3.00316198e-04, 4.36846429e-04, 2.08822574e-04,
          2.83282279e-04, 7.57132002e-05, 2.08822574e-04, 4.72691354e-05,
          -1.41231436e-03, -2.00429669e-04, -3.56291770e-03, 0.,
          1.97402737e-03, 0., 1.61274406e-03, 1.35358528e-03,
          -2.24512798e-04, -2.70304707e-04, -2.70304707e-04,
          -2.62513582e-04, -3.43875552e-04, -5.04176074e-04,
          -6.08486531e-04, -8.89630523e-04, -1.91746629e-03,
          -1.62355567e-03, 9.96454339e-03, 4.43850271e-03,
          4.46947059e-03, 4.35547903e-03, -2.23235824e-04,
          -1.45655964e-03, -1.71253155e-03, -1.66752981e-03,
          -1.98972342e-03, -1.58171344e-03, -2.31303181e-03,
          -1.72199239e-03, -2.43972149e-03, -2.10804213e-03,
          -2.14128802e-03, -1.85656617e-03, -5.17044857e-04, 0., 0.,
          1.09364614e-02, 9.46041010e-03, 1.08711477e-02, 5.36910120e-05,
          -5.99100534e-03, -5.21362852e-03, -8.75808578e-03,
          4.74811095e-04, 3.16006423e-04, 2.31715559e-04, 2.38816006e-04,
          1.50743217e-04, 9.57737284e-05, 6.14821402e-05, 0.,
          -2.35773204e-03, -2.46802019e-03, 0., -8.79825966e-05,
          -4.35593574e-05, -5.36910120e-05, -3.97499418e-03,
          -3.42367566e-03, -9.36128898e-04, -3.00316198e-04,
          -3.72764858e-04, 2.80412845e-03, 3.71136284e-03,
          -6.49137015e-04, -8.68885254e-04, -1.40901434e-03 ]
      - [ 8.78267805e-04, 9.23098007e-04, 6.30091294e-04, 5.26215998e-04,
          1.65754882e-05, 4.49518440e-04, 7.07799263e-05,
          -4.76406694e-06, 7.32363333e-05, 1.67231716e-04,
          -2.22533243e-04, 5.00207825e-05, -2.21769660e-04,
          -6.62086240e-05, -2.79796186e-05, -2.41107919e-04,
          -1.11803623e-04, -1.02087048e-04, -6.43169158e-04,
          -1.18312499e-04, -3.97702068e-04, -3.37284349e-04,
          -2.77032726e-04, -5.51248784e-04, -3.48076195e-04,
          -5.73712401e-04, -4.07348620e-04, -3.75454285e-04,
          -4.76841466e-04, -2.71455850e-04, -3.95308307e-04,
          -1.87992446e-05, -1.87992446e-05, 3.54613969e-03,
          -9.42924744e-05, 4.89093736e-03, 4.21415269e-03,
          -3.30015406e-04, -4.55949994e-05, -3.30015406e-04,
          -3.30015406e-04, -5.20143367e-04, -2.61204870e-04,
          -6.82706188e-04, -6.84731407e-04, -2.13474734e-03,
          -1.18826062e-03, -4.07366501e-03, 7.34422181e-04,
          5.31864898e-05, -7.10766239e-04, -5.48130891e-04,
          -2.37521643e-04, -4.50029038e-04, -2.01991363e-03,
          -4.89803962e-04, -4.46219667e-04, -1.69275224e-03,
          -4.28117259e-04, -1.05481059e-03, -1.32170552e-03,
          -2.56927829e-04, -1.66912389e-04, -2.33712271e-04,
          2.75019178e-04, 3.33755650e-03, 4.66561207e-04, 4.19268385e-03,
          9.48260596e-04, 6.58020144e-04, 5.42522816e-04, 4.30127926e-04,
          3.30015406e-04, 3.73599731e-04, 1.90127947e-04, 2.74925915e-05,
          0., -1.41433591e-03, -2.21076316e-05, -2.71994388e-03, 0.,
          1.20215118e-03, 0., 1.45898969e-03, 1.46775402e-03,
          -6.88105501e-05, -9.42924744e-05, -3.30015406e-04,
          -3.02522822e-04, -4.96927823e-04, -3.30015406e-04,
          -7.33414316e-04, -7.78994814e-04, -2.08787783e-03,
          -1.15695863e-03, 1.44370673e-02, 1.11033267e-03,
          -1.90626051e-05, -1.22127531e-04, -5.37445652e-04,
          -6.38794620e-04, -1.07934885e-03, -7.60386698e-04,
          -1.41721184e-03, -8.39815184e-04, -1.37223175e-03,
          -1.11478742e-03, -1.82331027e-03, -1.47351983e-03,
          -1.66502572e-03, -1.35871849e-03, -2.40260575e-04,
          1.53265486e-04, 1.11655274e-04, 8.84460378e-03, 8.15987866e-03,
          9.52556077e-03, -3.32493772e-04, -6.20061997e-03,
          -9.08804685e-03, -7.82547984e-03, 2.10900139e-03,
          1.50436955e-03, 1.17552874e-03, 7.75272492e-04, 6.58020144e-04,
          4.03103011e-04, 6.55753771e-04, 3.30015406e-04,
          -1.32940547e-03, -1.74506498e-03, 0., 0., 0., 0.,
          -3.77156259e-03, -2.84648314e-03, -7.27505016e-04,
          -3.53230978e-04, 5.67722273e-05, 2.39895959e-03,
          3.19615728e-03, -7.56333990e-04, -1.04075437e-03,
          -1.27493439e-03 ]
      - [ -5.50645673e-05, -4.74774934e-05, -6.44613028e-05,
          -4.74825320e-05, -2.69478536e-04, -1.01739170e-04,
          -1.10730653e-04, -7.65700388e-05, -4.96518551e-05,
          -6.87294087e-05, -1.46859221e-03, -9.25650587e-04,
          -6.64916588e-04, -3.98722987e-05, -2.71050543e-20,
          -5.91778553e-05, -3.98722987e-05, 4.58191280e-05,
          -7.01916724e-05, -4.72239371e-05, -7.35667936e-06,
          1.44700589e-05, -1.13659800e-04, -4.00936233e-06,
          -6.88740402e-05, -2.20599613e-05, 1.82656931e-05,
          -5.47957134e-05, -1.22320154e-04, 3.27357520e-05,
          -4.90871425e-05, 7.75446824e-05, 6.81850361e-05,
          1.11404958e-03, 6.77010830e-05, 1.25616905e-03, 5.23875467e-04,
          4.14972419e-05, 4.17137053e-05, 4.69836868e-06, 6.77010830e-05,
          5.45806179e-05, 4.69836868e-06, 4.16752446e-05, 3.63149229e-05,
          -4.26575018e-04, 2.83767749e-05, -1.59837495e-04,
          1.50347798e-04, 0., -6.30027134e-05, -2.66877905e-05,
          -6.77010830e-05, -7.28834057e-05, -6.00164894e-05,
          -1.04269566e-04, -5.48341704e-05, -1.14597111e-04,
          -7.75817680e-05, -2.34480121e-05, -3.65684791e-05,
          -7.26159124e-05, -7.33673514e-05, -4.61956115e-05,
          -7.30998654e-05, -9.11490934e-05, -2.66877905e-05,
          -7.28834057e-05, -8.27269978e-05, -3.65684791e-05,
          -5.01358045e-05, -7.28834057e-05, -4.12297559e-05,
          -4.61956115e-05, -5.45806179e-05, -3.18701095e-05,
          -4.61956115e-05, -3.62539315e-04, -4.61956115e-05,
          -7.42220494e-04, -3.13861601e-05, 4.13276546e-04, 0.,
          3.33992561e-04, 6.95385170e-05, -5.18231809e-06,
          -5.92789875e-05, -9.88068678e-06, -3.63149229e-05,
          -7.28463128e-05, -9.88068678e-06, -3.26296540e-05,
          -1.40407850e-04, -3.27180460e-04, -7.75446824e-05,
          6.30205078e-03, 2.47404707e-04, -2.47029704e-04,
          -3.39511389e-05, -3.64596373e-04, -3.20891355e-04,
          -3.53622076e-04, -3.53510724e-04, -3.83038714e-04,
          -3.50852410e-04, -3.75687057e-04, -3.46154062e-04,
          -3.90395406e-04, -3.75570700e-04, -3.68330395e-04,
          -3.17455881e-04, -1.45818354e-04, -2.20549209e-05,
          -7.35164031e-06, 2.29026307e-03, 1.39712915e-03,
          1.96414511e-03, 0., 0., -4.69836868e-06, -1.00999931e-02,
          4.69836868e-06, -1.16378294e-04, -3.15013574e-04,
          -7.21112519e-05, 2.37271393e-04, 1.51276169e-03,
          2.21508672e-03, 1.02052800e-04, 2.15432676e-03,
          -2.39757937e-05, -1.70118801e-04, -2.76281498e-04,
          -2.93623569e-04, -1.39672414e-03, -1.63538579e-03,
          -9.72299778e-04, -6.45705091e-04, -5.33073675e-04,
          -5.23409457e-04, -1.29187873e-04, 3.35564895e-04,
          -5.87147195e-04, -4.82626579e-04, -3.81908118e-04 ]
      - [ 1.32160215e-03, 6.34818338e-04, 7.75745139e-04,
          -7.23745907e-05, 4.13228292e-04, 2.93964607e-04,
          -2.74071586e-04, -3.79089965e-04, -1.03083861e-04,
          -2.90216354e-04, -5.71047480e-04, -4.65773046e-04,
          -6.01658481e-04, -4.95047367e-04, -8.33671947e-04,
          -8.04807059e-04, -8.91874835e-04, -9.51577676e-04,
          -1.25334470e-03, -1.05271314e-03, -1.78894959e-03,
          -1.22320699e-03, -1.77639027e-04, 6.22895139e-04,
          5.50960016e-04, 2.23311494e-04, 8.53463280e-05, 3.90264118e-04,
          -1.00086814e-04, 2.23035648e-04, -2.46229640e-04,
          8.53463280e-05, 8.53463280e-05, 5.16915740e-03, 0.,
          5.16392943e-03, 4.32070857e-03, 0., -1.41320124e-04,
          -3.96827498e-04, -3.62689170e-04, -6.01658481e-04,
          -5.73276600e-04, -1.13089650e-03, -7.19910255e-04,
          -2.74016196e-03, -1.84795074e-03, -8.89941771e-03,
          1.92869536e-03, 1.04969402e-03, 1.04451936e-03, 4.87348501e-04,
          7.03665661e-04, 7.37681228e-04, 0., 3.16655845e-04,
          1.36022732e-04, 2.60804780e-04, 8.01716669e-05, 0.,
          -1.19484655e-04, -2.21491791e-04, -3.46028362e-04,
          -4.26322775e-04, -2.60682049e-04, -7.03665661e-04,
          -7.94186606e-04, -6.31031056e-04, -1.22515252e-03,
          -7.03011290e-04, 7.74142332e-04, 1.11524004e-03,
          1.04981672e-03, 8.23027571e-04, 6.23371219e-04, 8.28324934e-04,
          3.40853701e-04, -8.75141879e-04, -6.22608131e-05,
          -3.25660873e-03, 8.53463280e-05, 2.06766301e-03, 0.,
          1.53441820e-03, 1.39377685e-03, 0., 0., -4.82173840e-04,
          -4.82173840e-04, -4.26322775e-04, -6.23371219e-04,
          -9.95455543e-04, -1.07984548e-03, -2.43607792e-03,
          -1.93329703e-03, 2.98887654e-03, 1.15982415e-02,
          8.93643685e-03, -2.89727119e-04, -6.70637470e-04,
          -1.15783222e-03, -1.13448070e-03, -1.31234655e-03,
          -1.48218160e-03, -1.44707388e-03, -2.18898128e-03,
          -1.68481027e-03, -2.31195800e-03, -2.03578407e-03,
          -2.03320268e-03, -1.79476314e-03, -6.02262036e-04,
          -3.06838134e-04, -4.82173840e-04, 1.00662187e-02,
          8.07725172e-03, 9.06001590e-03, -5.15096076e-03,
          -2.02565058e-03, -9.95825138e-03, -5.18747326e-03,
          1.92869536e-03, 1.64381543e-03, 1.07853499e-03, 9.86183179e-04,
          6.01658481e-04, 7.64691329e-04, 5.06494427e-04, 3.16655845e-04,
          -2.63691274e-03, -2.02211621e-03, 0., 0., 0., 0.,
          -3.69816273e-03, -3.15165543e-03, -6.31511619e-04,
          -3.40853701e-04, -6.23493979e-04, 2.37930426e-03,
          3.26331961e-03, -1.08383235e-03, -1.24169048e-03,
          -1.84852374e-03 ]
      - [ -3.06127098e-04, -2.21792143e-04, -3.06127098e-04,
          -3.02812579e-04, -3.09441588e-04, -2.18477653e-04,
          -3.06127098e-04, -3.06127098e-04, -3.06127098e-04,
          -2.21792143e-04, -3.90462024e-04, -3.06127098e-04,
          -3.09441588e-04, -2.18477653e-04, -3.06127098e-04,
          -3.93776514e-04, -2.18477653e-04, -1.88214195e-04,
          -5.11689403e-04, -2.21792143e-04, -3.90462024e-04,
          -2.44409603e-04, -3.21250001e-04, -4.12231544e-04,
          -2.56218016e-04, -3.97091004e-04, -3.06127098e-04,
          -2.65072216e-04, -3.47181951e-04, -1.88214195e-04,
          -2.79178115e-04, 0., 0., 2.91750836e-03, 0., 3.64013575e-03,
          2.71713221e-03, 0., 0., 0., 0., 0., 0., -9.72502821e-05,
          -5.61954148e-05, -9.57362237e-04, 0., -4.71666828e-03, 0., 0.,
          0., 0., 0., 0., 0., 0., 0., 0., 0., 0., 0., 0., 0., 0., 0., 0.,
          0., 0., 0., 0., 0., 0., 0., 0., 0., 0., 0., -1.06121600e-03,
          0., -2.07995716e-03, 0., 1.16700330e-03, 0., 1.09767541e-03,
          8.76494276e-04, 0., 0., 0., 0., 0., 0., -9.72502821e-05,
          -1.38305142e-04, -8.75252532e-04, 0., 1.59565732e-02,
          -9.18381265e-04, -1.29582663e-03, -1.06222613e-03,
          -1.16831297e-03, -1.18013902e-03, -1.21703139e-03,
          -1.14102138e-03, -1.39233028e-03, -1.00049097e-03,
          -1.38901582e-03, -1.05668639e-03, -1.47666526e-03,
          -1.28818071e-03, -1.30468083e-03, -1.08049437e-03,
          -3.08323302e-04, -9.94347738e-06, -3.31449269e-06,
          6.12676749e-03, 5.73404133e-03, 7.07477331e-03, 0., 0., 0.,
          -1.10653881e-02, 0., 0., 0., 0., 0., 0., 0., 0.,
          -1.14953623e-03, -1.57347159e-03, 0., 0., 0., 0.,
          -2.82990932e-03, -2.01114966e-03, 0., 0., 0., 2.01114966e-03,
          2.82990932e-03, 0., 0., 0. ]
      - [ -7.07043335e-03, -4.93536191e-03, 3.11703118e-03,
          2.84859771e-03, 1.44100701e-03, 2.31679343e-03, 1.42919843e-03,
          1.29350380e-03, 1.42919843e-03, 1.13722170e-03, 6.73652161e-04,
          8.66882619e-04, 5.05633827e-04, 6.42184052e-04, 1.07719109e-03,
          5.62213245e-04, 1.59809468e-04, 5.28666133e-04, 1.57528534e-03,
          1.38043822e-03, 5.31528029e-04, 3.55048658e-04, 7.23662786e-04,
          3.07404000e-04, 5.63372206e-03, 1.33603327e-02, 1.17056808e-02,
          3.27506859e-04, 2.51892605e-04, 1.89741593e-04, 1.37765252e-04,
          1.89741593e-04, -1.32656319e-03, -6.49786205e-04,
          -1.12219732e-02, -6.20114035e-04, -1.02701737e-02,
          -1.89546600e-03, -2.23666523e-03, -1.56921241e-03,
          -1.10128534e-03, -8.62466078e-03, -4.78459336e-03,
          -3.89576482e-04, -1.12023973e-03, -6.61892991e-04,
          -8.82955428e-05, 3.49491276e-03, 2.03262642e-03,
          3.60922531e-05, -2.14237691e-04, -5.30587044e-04,
          5.21835778e-03, 8.35016835e-03, 3.02632153e-03,
          -8.83395493e-04, -2.15803506e-03, -4.56774328e-03,
          -1.26210297e-03, -4.03370848e-03, -7.89808389e-03,
          -3.23661533e-03, -2.14877771e-03, -6.17975974e-03,
          6.70009234e-04, 3.82387848e-03, -8.98115744e-04,
          1.07235815e-02, 1.40186236e-03, 1.05693366e-03, 6.10475719e-04,
          6.19155355e-04, 6.68750261e-04, 3.45623266e-04, 8.65473412e-04,
          -3.43826890e-04, -6.41017687e-06, 0., 0., 0., 0.,
          1.31355075e-04, 0., 2.55257124e-04, 8.65230220e-04,
          1.30236091e-04, 7.55371118e-04, -4.42689256e-04,
          -4.49707732e-04, -9.56928197e-05, 2.78911815e-04,
          -6.17433514e-04, 5.09659701e-04, -8.19326262e-04,
          3.13618162e-04, 1.51197687e-02, -9.26114246e-03,
          -8.35807808e-03, -1.03955874e-02, -3.22288554e-03,
          1.51356426e-03, 2.03582481e-03, 1.76089804e-03, 1.08812307e-03,
          1.91707117e-03, 1.52355130e-03, 1.27815944e-03, 8.13130871e-04,
          9.21905274e-04, 4.60952637e-04, 4.60952637e-04, 4.60952637e-04,
          4.12945548e-04, 1.74482717e-04, 1.68442770e-04,
          -1.98960523e-04, -6.40333921e-04, -8.49223172e-04,
          -8.12067837e-03, -4.05671215e-03, -3.77789116e-03,
          4.21766099e-03, 3.73164425e-03, 2.39052763e-03, 1.37719873e-03,
          1.51976466e-03, 8.18203203e-04, 1.54547580e-03, 8.44343682e-04,
          4.09890024e-04, 6.50694245e-04, 4.80070885e-05, 1.31355075e-04,
          1.89741593e-04, 3.86612199e-04, 5.82763983e-04, 1.28774729e-04,
          4.19026968e-04, -1.32728790e-04, -3.15581041e-04,
          6.43021194e-04, -4.47692990e-04, 1.59009665e-04,
          -2.66008457e-04, 7.72776722e-04 ]
      - [ 1.29849126e-04, 5.37030210e-05, 5.60377339e-05, 3.76595526e-05,
          -1.23772502e-03, -6.00707484e-04, -3.93785333e-04,
          1.06097097e-04, 8.59887223e-05, 1.01477104e-04,
          -1.98756694e-03, -1.72635075e-03, -1.71468698e-03,
          1.25229126e-04, 2.33035564e-04, 1.18274424e-04, 1.25229126e-04,
          2.54853250e-04, 1.80486779e-04, 1.25229126e-04, 2.33035564e-04,
          1.78932154e-04, 8.83234316e-05, 1.61909833e-04, 1.25229126e-04,
          2.33035564e-04, 8.48660420e-04, 0., 3.22857013e-05,
          2.33035564e-04, 9.29434318e-05, 1.98815527e-04, 1.42026460e-04,
          8.63891109e-05, -4.63005388e-04, 1.22894417e-04,
          2.01150237e-04, 8.59887223e-05, 1.56535985e-04, 3.69056979e-05,
          1.78733389e-04, 1.23849895e-04, 5.29491663e-05, 2.10238999e-04,
          8.57899649e-05, -2.39507935e-05, 9.52791088e-05,
          1.49564247e-03, 1.18098233e-03, 0., -1.09740751e-04,
          -5.60377339e-05, 3.82788043e-04, -1.78932154e-04,
          -2.11618244e-04, -2.71875586e-04, -1.79332535e-04,
          -3.19424667e-04, -1.99794376e-04, -8.63891109e-05,
          -1.25229126e-04, -2.38055931e-04, -1.74312154e-04,
          -1.22894417e-04, -5.86392300e-04, -2.81165965e-04,
          -8.81246742e-05, -2.11019098e-04, -2.63188180e-04,
          -1.41272598e-04, -1.42426841e-04, -2.11019098e-04,
          -1.45112514e-04, -1.38937889e-04, -1.07806431e-04,
          -8.83234316e-05, -1.22894417e-04, -2.01150237e-04,
          -1.22894417e-04, -1.94195542e-04, -9.29434318e-05,
          -9.10091039e-05, 0., -8.59887223e-05, -1.98815527e-04,
          -1.62422330e-05, -1.28668660e-04, -5.31479272e-05,
          -3.76595526e-05, -1.45866361e-04, -5.31479272e-05,
          -1.89278999e-05, -9.85160441e-05, 4.81304087e-05,
          -1.66728583e-04, 5.72503638e-03, 1.01244461e-03,
          -4.83193260e-04, 2.29648194e-05, 0., 0., 0., 0., 0.,
          -3.69056979e-05, 0., 0., 0., 0., 0., 0., 0., 0., 0., 0., 0.,
          0., 0., 0., -3.69056979e-05, -1.76015906e-02, -4.33116511e-05,
          -2.85990100e-04, -5.96834172e-04, 1.44139992e-03,
          2.75556673e-03, 4.61851805e-03, 4.63508815e-03, 1.71201769e-04,
          4.54133749e-03, -1.79908486e-04, -9.41841339e-04,
          -1.20066234e-03, -1.06926111e-03, -2.96971225e-03,
          -2.16013682e-03, -1.16844196e-03, -1.41860486e-03,
          -1.27740263e-03, -1.26271497e-03, -1.40027620e-03,
          -9.90818720e-04, -1.21006987e-03, -1.07991672e-03,
          -8.00661859e-04 ]
      - [ 7.43539538e-04, -4.30424977e-03, 3.19839618e-03,
          2.15182360e-03, 3.19839618e-03, 1.75992947e-03, 1.75781269e-03,
          3.46121960e-04, 6.77476346e-04, -1.22363126e-04,
          -5.94501384e-04, -5.19053894e-04, -1.22363126e-04,
          -7.63107091e-04, -1.61497423e-03, -1.58636970e-03,
          -2.64328299e-03, -2.60938774e-03, 8.39886023e-04,
          5.31508587e-04, -2.23625428e-03, -2.38508987e-03,
          1.13865929e-02, 1.24543346e-02, 5.30619640e-03, 1.42451962e-02,
          1.68088190e-02, 2.96204863e-03, 2.92127905e-03, 2.13936623e-03,
          8.22682399e-04, 0., 0., -1.24479848e-04, -5.15583251e-03,
          -3.27763351e-04, -1.03109591e-02, -6.65191037e-04,
          -1.07935872e-02, -1.97018031e-03, -4.60520387e-03,
          -1.74132362e-02, -1.41837755e-02, -3.11861606e-03,
          -3.71241220e-03, -2.25666142e-03, -2.07782839e-03,
          -1.21447667e-02, 7.10368901e-03, 5.61614241e-03,
          2.32951920e-02, 8.62892997e-03, 9.48257931e-03, 1.34922275e-02,
          4.90108319e-03, 2.64539965e-03, 1.05902983e-03, 5.03916701e-04,
          8.71714787e-04, 5.84837049e-04, -2.11016019e-03,
          -3.58635955e-03, -3.59731074e-03, -5.04358253e-03,
          -9.28279664e-03, -7.08069094e-03, -1.44960796e-02,
          -6.23793341e-03, -7.17670470e-03, -5.60715701e-03,
          -6.61327271e-04, 6.60591666e-03, 1.17918348e-03,
          1.82409876e-03, 2.64245179e-03, 1.17918348e-03, 2.05089827e-03,
          1.08033640e-03, 0., 0., 0., 3.81553546e-04, 0., 1.24479848e-04,
          7.65896868e-04, 7.97784887e-04, 3.29972885e-04, 3.51279363e-04,
          -7.97629938e-04, 8.07113596e-04, -1.42300467e-03,
          -1.16585963e-03, -1.09916764e-05, -2.86361785e-04,
          -2.75180954e-03, -1.64663978e-02, 1.21100778e-02,
          5.30019496e-03, -4.04705247e-03, 2.75251828e-03,
          2.68819393e-03, 7.37631926e-04, 2.31598518e-04, 1.56900857e-03,
          -3.81553546e-04, 0., 0., 0., 0., 0., 0., 0., -1.08033640e-03,
          -2.13936623e-03, -3.21970251e-03, -3.19839618e-03,
          -5.86510217e-03, -6.67517260e-03, 3.35637573e-03,
          -9.72981472e-03, 8.35950719e-04, 5.29658981e-03,
          6.56569796e-03, 3.61089362e-03, 1.62971183e-03, 2.29129195e-03,
          2.61076936e-03, 1.69752573e-03, 2.01488636e-03, 0., 0., 0.,
          3.81553546e-04, 0., 5.06033364e-04, 9.47162218e-04,
          4.70021507e-04, 7.11526431e-04, -2.51916295e-04,
          -5.25773503e-04, 5.06861426e-04, -1.34075340e-03,
          -1.47147011e-03, 5.26354823e-04, -2.27139611e-03 ]
      - [ -6.98451884e-03, -2.87222164e-03, 4.76363348e-04,
          1.00310986e-04, 4.65918652e-04, 2.95766746e-04, 1.29193984e-04,
          1.39638680e-04, 1.39638680e-04, -3.81237878e-05,
          -6.89922526e-05, -1.21647747e-04, -1.14787093e-04,
          -1.97085974e-04, 0., -2.82350142e-04, -1.36666771e-04,
          -9.85429870e-05, 1.06959371e-03, 6.79356221e-04,
          3.35777499e-04, 2.18965652e-04, -4.10957000e-05,
          1.93234973e-05, 1.20268948e-03, 4.50365758e-03, 7.37140607e-03,
          -3.44270898e-04, -2.25521595e-04, -7.14375929e-04,
