%YAML:1.0
---
opencv_ml_svm:
   format: 3
   svmType: C_SVC
   kernel:
      type: LINEAR
   C: 1.
   term_criteria: { iterations:100 }
   var_count: 191
   class_count: 10
   class_labels: !!opencv-matrix
      rows: 10
      cols: 1
      dt: i
      data: [ 0, 1, 2, 3, 4, 5, 6, 7, 8, 9 ]
   sv_total: 45
   support_vectors:
      - [ -6.15012366e-03, 1.68739748e-03, 1.46906695e-03,
          2.87623284e-03, 1.23754228e-02, 1.23831900e-02, 1.14871713e-03,
          1.37401670e-02, 4.82428633e-03, 6.01948844e-03,
          -1.75782957e-03, -7.58250849e-03, -5.89768449e-03,
          -2.46074703e-02, -1.56806428e-02, -1.50389560e-02,
          -7.13328831e-03, -7.27835856e-03, -1.40554958e-03,
          2.91255978e-03, 3.97181045e-03, -9.84072220e-03,
          -2.03772932e-02, -2.39511561e-02, -3.33048105e-02,
          -1.25220660e-02, -2.81718113e-02, -1.56762376e-02,
          -1.43231740e-02, -8.47440120e-03, -7.08906259e-03,
          -9.25955176e-03, -1.08233560e-02, -8.99101794e-03,
          -1.03767440e-02, -1.22852521e-02, -1.34735191e-02,
          -1.25105251e-02, 2.57454958e-04, -1.28636835e-03,
          -2.51759822e-03, 8.94694065e-04, -1.60355726e-03,
          -9.34024341e-04, 5.44905837e-04, 1.85002387e-03,
          4.96452325e-04, -2.34017934e-04, 7.05780520e-04,
          2.70025828e-03, 2.68671138e-04, 3.92688176e-04, 6.23337575e-04,
          0., 1.08347973e-03, 2.23702169e-04, 2.21170974e-03,
          -1.64998544e-03, -8.96861660e-04, 2.21763039e-03,
          3.10304901e-03, 5.91964403e-04, 1.10419665e-03, 1.89439987e-03,
          3.21865245e-03, -1.09719310e-03, 2.43283249e-03,
          4.33646965e-05, 3.53818614e-04, 2.27987068e-03, 3.43231671e-03,
          3.33067728e-03, 3.28455842e-03, 1.01779972e-03, 3.88165208e-04,
          2.72599235e-03, 5.28300833e-03, 5.83045126e-04, 5.02928346e-03,
          1.51440955e-03, 4.04155347e-03, 3.48298927e-03, 1.46191921e-02,
          1.60213914e-02, 1.41173201e-02, 9.42795258e-03, 1.11257089e-02,
          1.63914617e-02, 2.16327086e-02, 2.28645243e-02, 3.13385166e-02,
          1.36214923e-02, 9.91672836e-03, 9.92165506e-03, 7.36432988e-03,
          2.73655429e-02, -3.73672950e-03, 5.84495859e-03,
          -1.03952112e-02, -9.38609522e-03, -6.87954575e-03,
          -5.08722570e-03, -4.49698418e-03, -6.82236301e-03,
          -7.01398542e-03, -4.94000316e-03, -5.46530774e-03,
          -3.50814359e-03, -3.71248927e-03, -4.59256629e-03,
          -1.13461015e-03, -5.40989731e-03, -3.07516917e-03,
          -7.86944001e-04, -2.71431589e-03, -2.42816517e-03,
          -4.89953207e-03, -1.05031580e-03, -5.01541130e-04,
          -1.87944155e-03, -2.06183456e-03, -1.30481529e-03,
          -3.55189061e-03, -1.70959684e-03, 8.64150818e-04,
          5.87447546e-04, -3.65683925e-03, -5.71378390e-04,
          -2.49148533e-03, -1.98615326e-05, -2.09159637e-03,
          -1.67899067e-03, -4.14304261e-04, -1.45327952e-03,
          1.09449762e-03, 5.19419205e-04, -2.61038425e-03,
          4.21349716e-04, -6.09680952e-04, -4.88736659e-05,
          -6.95590861e-04, 2.13703606e-03, 0., -2.63553578e-04,
          -3.21732601e-03, -1.00873865e-03, -3.78557306e-05,
          -1.39331084e-03, 2.40665046e-03, 1.76315929e-03,
          -6.72578288e-04, -1.10000663e-03, -1.86036597e-03,
          -4.26635117e-04, -2.85691232e-04, 1.30779319e-03,
          1.42906257e-03, 7.39187817e-04, -1.17436844e-04,
          -5.78552543e-04, -8.51206307e-04, 3.90114554e-04,
          1.06547074e-03, -5.50896812e-06, 1.09449762e-03,
          2.61524809e-04, -1.34060311e-03, 9.21456260e-04,
          1.39868713e-03, 1.76369189e-03, 2.01653643e-03,
          -2.38781067e-05, 2.60150782e-03, -8.66504794e-04,
          3.50071536e-03, 4.21053218e-03, 4.75043256e-04, 1.59581285e-02,
          1.63028445e-02, 1.43000353e-02, 2.28151237e-03, 4.73829173e-03,
          8.35869834e-03, 1.00302761e-02, 1.28556490e-02, 1.99111924e-02,
          1.88810751e-02, 2.86952630e-02, 1.35652609e-02, 1.37248263e-02,
          1.32211260e-02 ]
      - [ 2.67791306e-03, 1.30114250e-03, 3.78541794e-04, 3.69238624e-05,
          3.02002067e-04, -3.19108105e-04, 3.65343258e-05,
          3.90514848e-04, -8.40000750e-04, -5.23828028e-04,
          3.97733413e-04, -1.34872226e-03, 2.50412268e-04,
          -5.47539566e-05, -1.67642327e-04, -1.48955721e-03,
          4.34097019e-04, -5.13354724e-04, 3.07933282e-04,
          -2.07053404e-03, -7.95147195e-03, -8.29860568e-03,
          -7.83200748e-03, -8.76510167e-04, -6.44301064e-04,
          -1.53052283e-03, -6.07989309e-03, -8.05423222e-03,
          -7.56643107e-03, -9.06768441e-03, -9.37294308e-03,
          -9.13628377e-03, -1.00870748e-04, -2.90619559e-03,
          -5.38722984e-03, -5.21148415e-03, -8.61312728e-03,
          -5.27894543e-03, -4.95865522e-03, 5.70765638e-04,
          3.13281547e-04, 6.51346054e-04, 7.36927555e-04, 7.09218322e-04,
          8.56440747e-04, 9.26141627e-04, 2.42038281e-04, 9.35254619e-04,
          6.30396127e-04, 3.61554587e-04, 1.76594011e-03, 1.31798687e-03,
          4.74432280e-04, 1.23169401e-03, 1.04631810e-03, 6.73820963e-04,
          1.21568469e-03, 1.14388950e-03, 3.75288655e-04, 1.13284017e-03,
          1.19290873e-03, 1.51980272e-03, 9.41688602e-04, 1.21925876e-03,
          7.39200099e-04, 1.06867368e-03, 6.87127409e-04, 1.41154253e-03,
          1.13263784e-03, 8.23677168e-04, 1.03596784e-03, 6.01176522e-04,
          1.31874054e-03, 1.12064241e-03, 1.05098623e-03, 1.19027693e-03,
          1.52588380e-03, 4.22751968e-04, 1.11866114e-03, 2.52864882e-03,
          5.14182495e-04, 8.22252128e-04, 5.45654038e-04, 1.51735346e-03,
          4.49986372e-04, 1.01950113e-03, 7.90760270e-04, 7.59194780e-04,
          1.01169292e-03, 1.20503688e-03, 4.36751958e-04, 1.24530564e-03,
          9.09109833e-04, 1.36350119e-03, -6.49425853e-03,
          -1.32818725e-02, -1.96789950e-02, -1.41819371e-02,
          -7.23945326e-04, 4.02231701e-04, 6.78185141e-04,
          1.36129907e-04, -2.54263112e-04, 1.16975134e-04,
          4.49567800e-04, 7.87875761e-05, 1.28652551e-04,
          -5.10872560e-05, -4.67077276e-04, 4.33826848e-04,
          -4.14379931e-04, -2.02900163e-04, 6.80264420e-05,
          -6.86900748e-04, 4.56176378e-04, 0., -5.08782512e-04,
          -1.40446151e-04, -4.71252104e-04, -2.82246416e-04,
          1.59870557e-04, 3.07933282e-04, -5.16496832e-04,
          7.71432042e-06, 5.04229720e-05, -6.07030233e-04,
          2.42697963e-04, -2.42697963e-04, 0., -7.71432042e-06,
          -5.38298918e-04, -6.78582757e-04, -2.81182380e-04,
          -3.70028487e-04, -4.50138090e-04, -3.34795128e-04,
          -5.39367960e-04, -6.52617542e-04, -5.55605453e-04,
          -1.59651114e-04, -4.40585893e-04, -1.04601402e-03,
          -6.22645020e-04, -6.25928922e-04, -9.17089230e-04,
          -3.15501471e-04, -1.05507835e-03, -5.44398208e-04,
          -9.17722471e-04, -1.37437135e-03, -1.00340822e-03,
          -6.37004676e-04, -8.19865614e-04, -3.29913746e-04,
          -8.99149396e-04, -8.03367118e-04, -1.29785249e-03,
          -9.25482658e-04, -4.71962121e-04, -7.28447689e-04,
          -1.10141130e-03, -1.01821567e-03, -5.17072680e-04,
          -1.29617646e-03, -5.42255933e-04, -7.36289250e-04,
          6.15030807e-03, 7.98183028e-03, 7.75490003e-03, 2.31353799e-03,
          -9.92319779e-04, 1.65250211e-04, 4.88827820e-04,
          4.39347605e-05, -4.87511337e-04, 5.67642599e-03,
          1.10470364e-02, 1.10175768e-02, 9.65433475e-03, 6.66391384e-03,
          7.39678694e-03, 6.26427075e-03, 2.06172746e-03, 5.48330951e-04,
          1.30777352e-03, 9.07091773e-04, 9.52985312e-04, 1.18933816e-03,
          1.20339752e-03, 2.25659180e-03, 1.61545561e-03 ]
      - [ 1.08308124e-03, -3.17227037e-04, 9.73958173e-04,
          4.96510824e-04, 1.99200280e-04, -8.43765971e-04,
          -3.33890603e-05, -5.52287209e-04, -3.98238073e-04,
          -6.55509473e-04, -2.16163040e-04, 1.73991211e-04,
          -5.71721408e-04, 5.92964097e-05, 1.92283638e-04,
          -1.08961761e-03, 3.40720289e-05, -3.42943612e-03,
          -4.76222672e-03, -5.53823123e-03, -8.77717603e-03,
          -7.51840975e-03, -9.35909245e-03, -8.03496689e-03,
          -7.96345156e-03, -8.77307355e-03, -5.54324873e-03,
          -1.10309497e-02, -1.15581723e-02, -1.36211729e-02,
          -8.32833070e-03, -1.26007143e-02, -9.62737575e-03,
          -9.09399241e-03, -6.00883784e-03, 1.88714627e-03,
          1.84967159e-03, 1.99912861e-03, 5.99870970e-03, 5.84461773e-03,
          4.14170604e-03, 3.05793947e-03, 5.15629072e-04, 2.35623224e-06,
          -4.56870254e-07, -6.54949472e-05, -1.01721135e-03,
          -1.89744402e-03, -2.02866911e-04, -1.19749771e-03,
          -3.12263658e-03, -3.32016172e-03, -4.79837693e-03,
          -7.94769451e-03, -4.77996329e-03, -4.49748104e-03,
          -6.30256254e-04, -1.18087104e-03, -1.36637804e-03,
          -7.94539810e-04, -6.06556889e-04, 8.72700941e-03,
          8.34567565e-03, 8.13397020e-03, 5.12113795e-03, 1.24021536e-02,
          1.28215691e-02, 1.38012925e-02, 6.79231202e-03, 1.03648389e-02,
          7.27631385e-03, 6.39615301e-03, 1.93681917e-03, 2.58069049e-04,
          1.29171531e-03, 7.73613201e-03, 7.03341840e-03, 1.07354447e-02,
          6.34877291e-03, 6.46546064e-03, 2.15954171e-03, 8.75001715e-04,
          1.77589216e-04, 6.20709406e-03, 7.30699394e-03, 7.73489289e-03,
          3.22143943e-03, -1.93900793e-04, 6.82357466e-04,
          2.50042394e-05, 8.62829329e-04, 2.95887032e-04,
          -4.59214090e-04, -4.10511129e-04, -2.86587485e-04,
          -6.26197597e-03, -7.62146898e-03, -6.62196800e-03,
          -3.65416839e-04, 4.59999486e-04, -5.58984393e-05,
          -3.39436629e-05, 5.52697456e-04, 1.03271719e-04,
          -4.09427827e-04, -2.98196566e-04, -3.45912995e-04,
          1.72829139e-04, -6.15323836e-04, -3.98471369e-04,
          3.30322277e-04, -3.95233830e-04, -2.30644175e-04,
          -1.26690872e-03, 2.90574448e-04, 1.84863908e-04,
          -1.23066551e-04, -1.28832145e-03, -1.95368397e-04,
          -5.16171458e-05, -1.03156286e-04, -3.54472468e-05,
          -2.41126781e-06, -5.00811788e-04, -4.96851222e-04,
          -4.69761057e-04, -4.08413995e-04, -3.73743154e-04,
          -2.71458004e-04, -1.24586653e-03, -7.41609780e-04,
          -2.81005749e-04, -8.07405275e-04, -6.20182720e-04,
          -1.45382737e-03, -2.89757445e-04, -1.61774387e-03,
          -4.93916799e-04, -8.85929971e-04, -8.23754934e-04,
          2.39012865e-04, 1.43206073e-03, 1.69876986e-03, 1.69937790e-03,
          1.51171768e-03, 1.19871856e-03, 1.10897550e-03, 1.68434286e-03,
          7.06771156e-04, 8.32898368e-04, 1.00776902e-03, 2.58866523e-04,
          6.17514423e-04, 3.74861091e-04, 1.11185560e-04, 0., 0.,
          6.90381799e-04, 0., 2.31840851e-04, 0., 0., 1.00800054e-04, 0.,
          4.60941403e-04, 3.52757779e-05, 0., 0., 0., 2.96168437e-04,
          6.48651272e-04, 6.77852193e-04, -2.85954768e-04,
          6.83160033e-04, 2.51774880e-04, 3.43027386e-05, 5.62036876e-04,
          -2.57429900e-04, -5.01765229e-04, 1.50426611e-04,
          -5.09413250e-04, 4.96745226e-04, 5.97132530e-05,
          -6.58148725e-04, 4.47064696e-04, -5.52164274e-04,
          -4.23363199e-05, -8.80183536e-04, -5.44840586e-04,
          2.93279445e-04, -1.50547922e-03 ]
      - [ -2.99298428e-02, -6.38118805e-03, -1.03805047e-02,
          4.83756931e-03, -2.27923784e-03, -6.04461413e-03,
          2.15086550e-03, 8.83540045e-03, 1.03944947e-03, 1.05132172e-02,
          5.87763591e-03, 5.74695272e-03, 5.47638489e-03, 1.61389876e-02,
          2.17542630e-02, 7.31140608e-03, 1.34993000e-02, 3.45049484e-04,
          5.09218872e-03, -5.43844933e-03, 6.28494332e-03,
          -2.55178264e-03, 2.27641594e-03, 7.74256932e-03,
          -2.45044054e-03, 5.19264163e-03, 9.64500301e-04,
          -3.73697607e-03, 1.24435790e-03, -1.78153289e-03,
          5.49519714e-03, -3.29041551e-03, -1.75616832e-03,
          -1.09193102e-03, 6.20508939e-03, -2.91679869e-03,
          7.71102612e-04, 3.96605581e-03, -5.47623867e-03,
          1.35277340e-03, -1.91677629e-03, 3.60810827e-03,
          3.54626239e-03, 4.68158571e-04, 2.94167176e-03, 3.61960311e-03,
          -1.07406219e-03, -6.67173124e-04, 5.32014808e-03,
          -2.12488277e-03, 1.89773354e-03, 4.80920775e-03,
          -3.00574838e-03, -1.14885897e-05, -4.92301013e-04,
          -3.13023361e-03, 3.63851059e-03, 2.19219946e-03,
          -6.19158009e-03, -3.05130333e-03, -1.29174553e-02,
          -1.94584560e-02, -1.64126828e-02, -1.45426616e-02,
          -1.18189948e-02, -1.68903619e-02, -3.31947580e-04,
          4.70816344e-03, -8.27072712e-04, -9.22145415e-03,
          -1.58725251e-02, -3.70172481e-03, -8.08434840e-03,
          8.12717807e-03, 5.50161488e-03, 3.51317832e-03, 1.04854964e-02,
          3.06735351e-03, 1.20456684e-02, 1.42358872e-03, 1.60717983e-02,
          8.43913574e-03, 5.43161388e-03, 3.02218776e-02, 1.87912956e-02,
          3.70375924e-02, 1.49397105e-02, 1.29598286e-02, 7.41635216e-03,
          -1.35308485e-02, -1.79003719e-02, -3.10891010e-02,
          -8.05403478e-03, -2.54048295e-02, -2.95668524e-02,
          1.29207466e-02, -4.07646932e-02, 3.71237402e-03,
          -2.00404357e-02, -1.15913339e-02, -8.21042061e-03,
          -1.34066967e-02, -6.02907268e-03, -8.69503897e-03,
          -6.42415322e-03, -1.04344096e-02, -6.37595495e-03,
          -1.20059112e-02, -2.89258827e-03, -4.30268189e-03,
          -6.38992898e-03, -5.70369326e-03, -1.19694611e-02,
          -2.94674025e-03, -4.16565221e-03, -1.02628423e-02,
          -6.83508348e-03, 1.98502513e-03, -3.70052666e-03,
          -8.23070947e-03, 2.17442401e-03, -2.31673848e-03,
          -8.45312513e-03, 2.83337198e-04, 2.52771913e-03,
          -6.37256354e-03, -1.32808439e-03, -3.03516226e-05,
          -3.54496716e-03, -4.41982783e-03, -1.87950989e-03,
          3.34847020e-04, -4.45896666e-03, 3.21588363e-03,
          -2.92596081e-03, -4.40862915e-03, -3.52391903e-03,
          1.91015715e-03, 4.79359971e-03, -4.42389725e-03,
          9.16137011e-04, 3.34847020e-04, -5.08655421e-03,
          -2.65643769e-03, -5.47614368e-03, 2.11658119e-03,
          1.08895181e-02, 3.23803117e-03, 3.01803946e-02, 2.50938404e-02,
          2.99031641e-02, 3.53243668e-04, -6.35731686e-03,
          8.14656820e-03, -1.63295120e-03, 7.37815676e-03,
          1.17065348e-02, -1.55567148e-04, 1.84169486e-02,
          1.18767880e-02, 7.49259442e-03, -5.28080668e-03,
          -7.53262732e-03, -8.41655303e-03, -2.49104556e-02,
          -2.53136922e-02, -3.61593738e-02, -2.73195952e-02,
          -2.93547977e-02, -4.61639883e-03, 8.24266393e-03,
          5.63302077e-03, 4.16589808e-03, 8.22928268e-03, 8.46336968e-03,
          1.15844561e-02, 2.71436153e-03, 4.18506749e-03, 6.86913077e-03,
          1.37871290e-02, 1.03151286e-02, 7.25612976e-03, 1.00107230e-02,
          1.41116343e-02, 8.35604221e-03, 1.73461605e-02,
          -3.91199663e-02, -2.93751732e-02, -3.29436362e-02,
          1.02959611e-02, 2.07395367e-02 ]
      - [ 1.75374642e-03, 3.79093736e-03, 5.03102411e-03, 3.13210860e-03,
          1.02683471e-05, 2.03516611e-04, -4.56852111e-04,
          -6.53687923e-04, -7.42206292e-04, -1.07928785e-03,
          -1.20474624e-05, -9.69978981e-04, -2.92277429e-04,
          -6.03697321e-04, -6.70175577e-05, -6.42426370e-04,
          1.83576107e-04, -4.94963839e-04, -1.43897323e-05,
          -1.06668938e-03, -1.77388756e-05, -7.09642540e-04,
          3.31532028e-05, 1.18465337e-04, -2.48500641e-04,
          -9.94986331e-05, -3.06735717e-04, 2.83549234e-05,
          -3.93369031e-04, 1.94235297e-04, 7.46713267e-05,
          -3.83035658e-05, -4.50159394e-04, 2.13239487e-04,
          -2.63996830e-04, -3.02535045e-05, -4.36132686e-04,
          1.95495377e-04, 7.89990518e-05, -2.25911941e-03,
          -3.02906963e-03, -2.81638396e-03, -1.70720159e-03,
          -2.69748591e-04, -5.74868638e-04, -1.25320104e-03,
          -1.21292809e-03, -3.95186897e-03, -5.02909720e-03,
          -7.53211556e-03, -5.25168469e-03, -7.03852251e-03,
          -4.99703083e-03, -6.94939913e-03, -5.90299536e-03,
          -9.19017754e-03, -8.79590958e-03, -6.78811409e-03,
          -3.17338831e-03, -5.41066365e-05, -3.19099112e-04,
          4.24690050e-04, -1.31345121e-04, -9.95987721e-05,
          5.98320388e-04, 1.09886285e-03, 3.17679369e-03, 2.99709430e-03,
          3.68299522e-03, 3.68278846e-03, 3.65680223e-03, 2.59478390e-03,
          2.49792612e-03, 4.38080262e-03, 4.75402316e-03, 2.87458114e-03,
          3.14386981e-03, 3.06914118e-03, 3.73455929e-03, 5.24300057e-03,
          4.52287029e-03, 7.18699768e-03, 4.04826459e-03, 8.02520663e-03,
          1.08435443e-02, 1.23098101e-02, 7.70134898e-03, 2.12965813e-03,
          4.32674133e-04, 5.13023813e-04, 6.06601185e-04, 9.83946491e-04,
          1.11289237e-05, -3.47813300e-04, 3.19281244e-05,
          1.85980243e-04, -2.47577694e-03, -3.71443364e-03,
          -1.03399751e-03, -1.27864210e-03, -8.89735878e-04,
          -9.86041501e-04, -2.40358384e-03, -3.26083088e-03,
          -5.38948365e-03, -6.26253895e-03, -6.52016187e-03,
          -8.68178811e-03, -1.02772089e-02, -1.18296444e-02,
          -9.46948864e-03, -9.31686070e-03, -3.64732323e-03,
          -2.79844622e-03, -4.73376480e-04, -1.71110791e-04,
          -1.84459859e-04, -2.72848236e-04, -5.50397781e-05,
          -2.86097958e-04, 7.80753675e-04, 1.35405036e-03,
          1.75472349e-03, 1.00454432e-03, 1.02190604e-03, 1.88178546e-03,
          2.78493739e-03, 2.62625329e-03, 3.28700407e-03, 3.91743565e-03,
          4.85651940e-03, 4.28802799e-03, 3.89798218e-03, 3.16754519e-03,
          3.02737928e-03, 2.49548582e-03, 7.98257650e-04, 1.39939168e-03,
          7.55227578e-04, 6.91169291e-04, 6.34558732e-04, 8.62978748e-04,
          4.82567732e-04, 5.87662915e-04, 4.38867166e-04, 4.87900455e-04,
          3.72891664e-04, 2.36949869e-04, 2.60983710e-04, 2.49889214e-04,
          2.50344543e-04, 0., 1.54796973e-04, 1.96097171e-04,
          1.32251807e-05, 0., 0., 3.85120686e-04, 5.54252649e-04,
          1.31943843e-05, -6.69864239e-05, 6.69864239e-05,
          5.03119139e-04, 0., 2.25892814e-04, 1.31943843e-05,
          5.03119139e-04, -2.63510356e-05, 2.18796951e-04,
          3.39363614e-04, -2.02002593e-05, 6.58706005e-04,
          -1.18151082e-04, 2.81860091e-04, -2.20916249e-04,
          2.38691544e-04, 6.99788288e-05, -1.12155234e-04,
          -7.09918386e-04, 6.72609603e-05, 2.53285780e-05,
          2.56728185e-06, -2.48912693e-05, -8.47080839e-04,
          7.18859956e-04, -1.08833401e-05, -4.74613480e-04,
          -4.61862364e-04, -6.11885393e-04, -4.10222216e-04,
          -1.83759746e-03 ]
      - [ -2.31571379e-03, 2.10639671e-03, 1.60313153e-03,
          1.63720583e-03, 2.46316567e-03, -7.72101048e-04,
          9.27689602e-04, 3.13012366e-04, 2.81510083e-03, 2.25607096e-03,
          -1.51512344e-04, 1.05380220e-03, 1.09534664e-03,
          -9.42748506e-04, -1.30054622e-03, 2.04111380e-03,
          2.17062677e-03, 4.30836604e-04, 1.94235845e-03, 7.59146409e-04,
          1.51278000e-04, 1.18784350e-03, 1.20252045e-03, 3.06515285e-04,
          4.47353785e-04, 7.53419416e-04, 9.89793567e-04,
          -1.69722643e-03, 1.82661472e-03, 1.50309701e-03,
          1.79829204e-03, 6.03961060e-04, -9.71276721e-04,
          1.11737696e-03, 1.96659268e-04, 1.37718895e-03, 3.19234736e-04,
          -3.71546397e-04, 7.09963148e-04, -1.05318402e-04,
          2.27880245e-03, 7.45416968e-04, -1.28239801e-03, 0.,
          6.28473179e-04, 6.92053989e-04, 2.52313935e-03,
          -1.10867224e-03, 1.22575468e-04, -1.17604039e-03,
          1.53837015e-03, 0., 5.69160387e-04, 0., 2.74806109e-04,
          1.20425120e-03, 1.21044880e-03, 1.73725799e-04,
          -9.73423070e-04, 6.80525205e-04, 4.11298010e-04,
          1.11379439e-03, 0., -7.74398097e-04, 1.20798266e-03,
          -3.28875808e-06, 1.47905736e-03, -7.67800957e-04,
          1.25794031e-03, -7.45416968e-04, 3.20271240e-04,
          1.60702050e-03, -4.90460719e-04, 3.52993811e-04,
          -2.67018477e-04, 1.32540264e-03, 4.83865937e-04,
          3.74693598e-04, -2.14300468e-04, -8.75478436e-04,
          6.60471385e-04, 8.01260292e-04, -3.32284631e-04,
          -2.53968581e-04, 8.59908178e-04, -1.17206597e-03,
          2.92540505e-03, -9.07366164e-04, 1.07455126e-03,
          -1.13909203e-03, -1.06448203e-03, 2.30090297e-03,
          -4.76771791e-04, -1.96364825e-03, 8.15849402e-04,
          2.54003052e-02, 1.50443995e-02, 1.72963217e-02, 1.29285548e-03,
          -3.59138311e-03, -4.18178970e-03, -4.70428215e-03,
          -4.27929265e-03, -3.41239572e-03, -3.74732516e-03,
          -2.42167665e-03, -4.22070362e-03, -3.56184901e-03,
          -1.48123112e-02, -1.33193322e-02, -1.31042991e-02,
          -3.81585606e-03, -9.81443655e-03, -8.04240722e-03,
          -7.20629841e-03, -2.44081602e-03, -7.37693999e-03,
          -8.53404123e-03, -6.56623067e-03, -1.04846247e-02,
          -1.01253791e-02, -1.12471990e-02, -1.04854060e-02,
          -1.27535835e-02, -1.28243612e-02, -2.59131496e-03,
          -3.85507825e-03, 6.86508417e-03, 1.26682119e-02,
          1.98649466e-02, 1.90372430e-02, 1.68807637e-02, 1.55164069e-02,
          1.77593231e-02, 1.91855971e-02, 8.67523905e-03, 2.97587714e-03,
          2.40079942e-03, 1.65892905e-03, 1.46633782e-03, 2.33381707e-03,
          9.50078713e-04, 5.96905884e-04, 2.45680171e-03, 1.22488476e-03,
          1.05012220e-03, 4.93164465e-04, 3.49406386e-04, 1.96659268e-04,
          9.14643868e-04, -1.81547744e-04, 5.00782451e-04,
          4.48531908e-04, 0., 7.35647976e-04, 0., 0., 6.80525205e-04, 0.,
          0., 7.56367663e-05, -1.77014546e-04, -3.27056681e-04, 0.,
          7.66326411e-05, -9.50633766e-05, -1.99948016e-04,
          3.50442890e-04, 7.66326411e-05, -8.34901410e-04,
          1.66227680e-03, -1.77014546e-04, -1.45508937e-04,
          -4.30379499e-04, -2.39146302e-05, 6.48331072e-04,
          -5.46269584e-04, 1.25249499e-03, -2.32792881e-04,
          1.03585931e-04, -4.27651335e-04, 1.38503427e-04,
          -9.32492316e-04, 4.85964760e-04, -1.42166682e-03,
          8.82976805e-04, -2.71042663e-04, -1.74067798e-03,
          -1.22635800e-03, 1.50204042e-03, 2.02739175e-05 ]
      - [ 2.16382998e-03, -9.50267015e-04, -2.78080726e-04,
          -3.18749412e-03, -6.17979327e-04, 1.28223782e-03,
          9.54078452e-04, -9.20942146e-03, -8.97397473e-03,
          -2.73059569e-02, -2.86614280e-02, -2.45339926e-02,
          -1.82164591e-02, -2.77191848e-02, -2.83200368e-02,
          -2.69965213e-02, -1.18048554e-02, -9.43572447e-03,
          -1.44060655e-03, -1.28071215e-02, -1.78745072e-02,
          -1.94803551e-02, -9.11454763e-03, 1.15304673e-03,
          -2.44682608e-03, 8.62017856e-04, -1.74286626e-02,
          -1.24453660e-02, -1.62451193e-02, -1.21865394e-02,
          -1.09719336e-02, -2.73386594e-02, -1.53406914e-02,
          -1.41089102e-02, -1.58001520e-02, -1.76913347e-02,
          -3.62401679e-02, -1.82364900e-02, -1.58336349e-02,
          2.39355164e-03, -2.50385655e-03, 5.45527134e-03,
          1.19675731e-03, 9.25448781e-04, 2.47977674e-03, 3.14032077e-03,
          3.68488458e-04, 2.93929735e-03, 1.16620364e-03, 5.12264436e-03,
          2.07517436e-03, 2.30224989e-03, 5.13993204e-04, 5.02742641e-03,
          1.09730032e-03, 3.49185499e-03, 3.78375594e-03, 1.33262062e-03,
          8.77557555e-04, 1.88718783e-03, 4.61845659e-03, 2.74976203e-03,
          3.20515828e-03, 3.55887879e-03, 1.46845111e-03, 2.99991830e-03,
          3.63344653e-03, 2.79323990e-03, 1.45322701e-03, 5.10682818e-03,
          2.46101548e-03, 2.73931632e-03, 4.68470994e-03, 3.67785525e-03,
          1.22591178e-03, 4.63979319e-03, 6.37062080e-03, 1.24736782e-03,
          4.18683467e-03, 4.31426708e-03, 4.32284176e-03, 4.53315116e-03,
          4.28587664e-03, 7.36937625e-03, 6.97366078e-04, 5.20515908e-03,
          7.91884586e-03, 8.57904647e-03, 5.87086938e-03, 7.66887050e-03,
          4.24901536e-03, 7.13039842e-03, 7.44173722e-03, 1.19771864e-02,
          1.22809689e-02, 1.05213244e-02, -1.70154665e-02,
          -9.62738786e-03, -6.35960721e-04, -3.01366439e-03,
          -4.39149607e-03, -1.73137849e-03, -3.25963157e-03,
          -4.11083829e-03, -5.43617504e-03, -6.61793770e-03,
          -6.40441291e-03, -3.60149518e-03, -4.41090809e-03,
          -5.97556075e-03, -3.44200409e-03, -8.32756981e-03,
          -3.40530230e-03, -3.43961664e-03, -4.37659444e-03,
          -6.42155390e-03, -5.87906642e-03, -2.54616234e-03,
          -2.72782706e-03, -5.46229724e-03, -2.38992856e-03,
          -4.52781375e-03, -2.78658839e-03, -5.84631460e-03,
          -2.93345936e-03, -3.97767639e-03, -3.00271274e-03,
          -4.11546649e-03, -9.34321433e-04, -2.12876778e-03,
          -3.39626148e-03, -4.58147237e-03, -2.27857055e-03,
          -4.10281215e-03, -2.02252925e-03, -4.87342593e-04,
          -3.44385160e-03, -2.26379279e-03, -4.36956435e-03,
          -1.52938577e-04, -3.92711675e-03, -1.18081458e-03,
          -7.23993347e-04, -2.84643238e-03, -2.52657314e-03,
          -3.69295711e-03, -6.80253084e-04, -7.84101314e-04,
          -6.00093452e-04, -4.50876728e-03, -1.00883958e-03,
          -3.13539384e-03, 1.32306028e-04, -4.60981246e-04,
          -2.07107444e-03, -1.15939777e-03, -1.84284558e-03,
          -3.56779993e-03, -1.62110745e-03, 8.89007177e-04,
          -3.31433199e-04, -2.17253400e-04, -1.58989930e-03,
          -1.08294340e-03, -1.80156645e-03, -1.02220068e-03,
          -1.40070065e-03, 1.11889036e-03, -7.69203645e-04,
          9.60825055e-05, -2.60460330e-03, -1.23504622e-04,
          2.65748939e-03, -9.19644372e-04, 4.45807772e-03,
          1.56647374e-03, 5.65488765e-04, -1.52691687e-03,
          2.74132309e-03, 1.89061917e-03, 2.69630458e-03, 4.90214769e-03,
          2.53099366e-03, 2.06605252e-03, 1.10293750e-03, 4.71372670e-03,
          4.90062870e-03, 6.40281476e-03, 7.24252732e-03, 8.07049591e-03,
          1.13457637e-02 ]
      - [ -1.02966465e-03, -1.59968901e-02, -1.64990630e-02,
          3.90936211e-02, -2.04544887e-02, -4.06880258e-03,
          -1.55814318e-02, -1.33347511e-02, 1.91241701e-03,
          -3.08331707e-03, -3.26194875e-02, 2.26991083e-02,
          7.10188644e-03, 6.81277830e-03, -1.15338471e-02,
          -1.12447226e-02, -1.81537624e-02, -3.03703453e-02,
          -2.02185158e-02, -3.40032647e-03, -4.54387860e-03,
          -3.39981392e-02, -1.55186802e-02, -1.52970143e-02,
          9.37613752e-03, -2.03144252e-02, -9.96249169e-03,
          -2.73055173e-02, -7.38423178e-03, -2.59128399e-02,
          -1.91652123e-02, -1.28444778e-02, -5.84854633e-02,
          -1.59987416e-02, -5.07880338e-02, -3.59955840e-02,
          -3.08801457e-02, -3.91019173e-02, -5.67716174e-02,
          -4.92894277e-02, -5.06285951e-02, -4.52978723e-02,
          -6.99717402e-02, 3.90720181e-03, -5.82333514e-03,
          1.73546597e-02, 5.18964082e-02, 6.44992590e-02, 7.10906461e-02,
          6.14833161e-02, 5.23955673e-02, 7.55574107e-02, 3.52404527e-02,
          4.48546149e-02, 4.66549098e-02, 4.08286192e-02, 3.44009101e-02,
          4.63438071e-02, 4.06647213e-02, 3.62396501e-02, 6.04486745e-03,
          1.44991502e-02, 1.65880304e-02, -3.13593727e-03,
          1.11560235e-02, 2.92395288e-03, 1.40431046e-03, 1.17309391e-02,
          3.08424663e-02, -1.38503930e-03, 2.87049301e-02,
          1.06063606e-02, 1.10913198e-02, 2.02651508e-02, 7.16631161e-03,
          7.69115472e-03, 2.11018696e-02, 4.03279759e-04,
          -8.47700238e-03, 1.17565319e-02, 1.43226259e-03,
          8.92632827e-03, 5.87596605e-03, -2.30507068e-02,
          4.00948105e-03, -1.46505958e-03, 5.59533713e-03,
          -8.33108742e-03, -1.64159096e-03, -9.22872499e-03,
          -6.52226340e-03, -1.81572058e-03, -3.04126646e-02,
          1.55761503e-02, -2.47207172e-02, -3.71060409e-02,
          -4.40713065e-03, 9.77922045e-03, 7.51539017e-04,
          -9.93582793e-03, -1.49085317e-02, 7.40715349e-03,
          1.09010004e-02, -6.83448743e-04, -1.74078066e-02,
          -1.10350573e-03, -1.07894768e-03, -1.45047880e-03,
          6.66733598e-03, 1.31436661e-02, -2.20655836e-02,
          -1.62025690e-02, -1.45834852e-02, -3.47614400e-02,
          6.74046855e-03, -1.18689537e-02, -4.25474253e-03,
          -1.63832195e-02, -1.94870420e-02, -2.27201730e-02,
          -1.12457876e-03, 2.28763605e-03, -1.93998963e-02,
          -5.35052177e-03, -1.00830700e-02, 1.31587253e-03,
          -1.14489067e-02, -2.07354538e-02, -3.33873481e-02,
          -1.41999144e-02, -4.68594544e-02, -4.21532989e-02,
          -3.31967659e-02, -4.90290113e-02, -5.06576411e-02,
          -5.77253625e-02, -4.87300530e-02, -4.44864668e-02,
          -5.03226966e-02, -3.33130695e-02, -2.43078521e-03,
          -2.98446650e-03, 6.34006709e-02, 7.06936792e-02,
          6.37116134e-02, 6.48559332e-02, 5.52203991e-02, 5.89207187e-02,
          5.63600697e-02, 3.41848917e-02, 5.28561026e-02, 2.43508667e-02,
          3.42065282e-02, 3.97157073e-02, 2.27238387e-02, 0.,
          1.79846343e-02, 2.04177741e-02, 6.21283194e-03, 5.99323446e-03,
          5.34149865e-03, 1.06063606e-02, 1.07052401e-02, 0.,
          1.00622978e-03, -8.39340594e-03, 9.58066154e-03,
          1.00211492e-02, 1.33789554e-02, 6.47514313e-03, 2.12323349e-02,
          1.25271278e-02, 1.99425071e-02, 2.43820399e-02, 1.86132267e-02,
          2.75575984e-02, 1.00700734e-02, -5.73131535e-03,
          -2.01908834e-02, -2.56648083e-04, -1.41646294e-02,
          1.81747656e-02, 1.58868395e-02, -1.92971304e-02,
          1.41527085e-02, -3.92781310e-02, 3.43283010e-03,
          8.81257094e-03, 1.39431562e-02, -3.01435553e-02,
          -2.23832112e-02 ]
      - [ -1.33030862e-03, -4.17897274e-04, 6.99040305e-04,
          1.95169021e-04, 1.82054850e-04, -2.42248076e-04,
          -5.75356476e-04, 9.94584872e-04, -1.57496004e-04,
          -2.41702728e-04, 2.61568534e-03, -1.78389437e-03,
          1.40098727e-03, -1.40793447e-04, -3.14328587e-04,
          -1.82027335e-03, 1.42815593e-03, -1.15246675e-03,
          1.57496004e-04, -5.38922613e-04, 5.85834729e-04,
          -3.82907048e-04, -1.59615627e-03, 1.83506636e-04,
          4.08954511e-04, 3.90665693e-04, 2.16777698e-04, 0.,
          -2.15982413e-03, -3.36372395e-05, 3.66106833e-04,
          1.82054850e-04, -4.57925518e-04, -6.66993612e-04,
          -6.49736146e-04, 0., -1.91069103e-03, -3.92117479e-04, 0.,
          5.15435997e-04, -2.31849612e-03, -5.04596355e-05,
          -7.56772526e-04, -1.23573269e-03, -4.25388542e-04,
          -9.02692336e-05, -1.08811050e-03, -2.08610843e-04,
          -1.02695997e-03, -2.04296480e-03, 4.78849135e-04,
          -2.63025123e-03, -1.94564450e-03, -1.87057524e-03,
          -8.96925863e-04, -2.37256940e-03, -2.28430144e-03,
          -3.09738726e-03, -2.91866693e-03, -5.14154742e-03,
          -1.03402520e-02, -1.58628803e-02, -2.35206131e-02,
          -2.21040919e-02, -1.87066179e-02, -1.40362661e-02,
          -5.14019339e-04, 1.03510143e-02, 1.35942819e-02,
          1.30827175e-02, 2.00189762e-02, 2.00979598e-02, 1.36662135e-02,
          8.79000220e-03, 7.51135126e-03, 4.39340482e-03, 1.15757762e-03,
          1.21154748e-02, 1.18650598e-02, 1.41449980e-02, 1.32382673e-03,
          4.42577119e-04, 3.07518244e-03, 1.09995203e-03, 2.45057279e-03,
          1.65999227e-03, 1.27323484e-03, 2.01072847e-03, 3.49046709e-03,
          5.77581208e-03, 2.04884665e-04, 2.20983871e-03, 3.06689792e-04,
          7.98056077e-04, 9.30721522e-04, -1.87300835e-02,
          -1.69798508e-02, -1.67079847e-02, -1.74938922e-03,
          8.09977937e-04, 8.17872176e-04, 5.74717647e-04, 5.85737056e-04,
          -9.92578105e-04, -1.11671921e-03, 6.82240061e-04,
          3.90410481e-04, 2.65563751e-04, -2.90122582e-04,
          1.31841458e-03, -2.18767417e-03, -6.80435391e-04,
          1.99250528e-03, -1.31206971e-03, 1.58694584e-03,
          8.33242782e-04, -7.39717099e-04, 4.17860458e-04,
          -8.75604455e-04, -8.45322153e-04, -9.50771384e-04,
          7.91861559e-04, -8.75604455e-04, 0., 1.82054850e-04,
          -1.08665868e-03, 0., 0., 7.91861559e-04, 0., 0.,
          -2.08610843e-04, -1.47732440e-03, 3.90665693e-04, 0.,
          4.25754726e-04, 0., 0., 0., 0., 0., 0., -3.92117479e-04, 0.,
          0., 0., -3.92117479e-04, 0., 0., -4.41125332e-04,
          -3.92117479e-04, 0., -7.56772526e-04, 4.23616366e-05,
          -4.25754726e-04, -1.53705987e-05, 3.66106833e-04,
          -1.20853784e-03, -3.26041772e-04, 8.75604455e-04,
          -8.17872176e-04, -8.33242782e-04, 3.46686400e-04,
          7.89426122e-06, -6.03023276e-04, -1.22664205e-03,
          9.18186925e-05, -9.67678323e-04, -8.09977937e-04,
          -1.06530759e-04, -6.36294310e-04, 6.66536391e-04,
          -2.47669662e-03, 1.54458429e-03, -1.46788091e-03,
          -1.26797706e-03, 1.14439090e-03, -9.61151964e-04,
          -9.57297743e-04, -1.75151031e-03, 4.75690351e-04,
          -1.61715923e-03, 3.67507833e-04, -1.43397111e-03,
          -1.31672970e-03, -6.22630701e-04, -1.82054850e-04,
          -1.50733336e-03, -1.07549084e-03, 2.95087317e-04,
          -4.80226940e-03 ]
      - [ 7.98717234e-03, 4.10684198e-03, 7.99405621e-04, 1.75357726e-03,
          -6.13232260e-04, -1.77641248e-03, 7.13227841e-04,
          -3.45415156e-03, -3.79678840e-03, -2.48138513e-03,
          -1.65946363e-03, 7.27334898e-03, 9.34134237e-03,
          1.28957592e-02, 6.16789609e-03, 6.15330366e-03, 5.74105140e-03,
          2.97445711e-03, 3.90694803e-03, -3.15825478e-03,
          -1.02509120e-02, -1.03579005e-02, -7.63941230e-03,
          -2.35335622e-03, -2.52658571e-03, -4.52261977e-03,
          -4.82465373e-03, -8.49034730e-03, -7.37601705e-03,
          -1.05188396e-02, -1.06650591e-02, -1.08597707e-02,
          -3.65381711e-03, -1.48542796e-03, -9.73027665e-03,
          -9.86256637e-03, -1.31539376e-02, -6.37113908e-03,
          -7.26479199e-03, -1.90511555e-03, 1.17805460e-03,
          9.30094044e-04, 7.14396185e-04, 1.73152622e-03, 1.37883984e-03,
          6.70812005e-05, 7.89874466e-04, 1.87603442e-03, 1.28162815e-03,
          -1.95684377e-04, 1.97963812e-03, 1.52438518e-03,
          1.53872732e-03, 1.23013800e-03, 1.65817281e-03, 1.11103058e-03,
          1.34534703e-03, 1.95698906e-03, 1.50621019e-03, 1.09221903e-03,
          1.91965967e-03, 1.44352624e-03, 9.54076182e-04, 1.95496250e-03,
          7.45928846e-04, 1.72260101e-03, 1.41613744e-03, 1.85304298e-03,
          1.68493437e-03, 8.27992393e-04, 1.30631519e-03, 2.15304596e-03,
          1.02209998e-03, 1.43707509e-03, 5.92485419e-04, 1.52664713e-03,
          1.66645297e-03, 9.28286405e-04, 2.12821108e-03, 2.03239569e-03,
          1.15622219e-03, 7.22199213e-04, -1.08804349e-02,
          -9.94338561e-03, -1.20655624e-02, 2.94787926e-04,
          1.95083092e-04, -3.16204131e-03, -4.38702805e-03,
          -4.35085129e-03, -5.77256735e-03, -2.42793746e-03,
          -2.51170993e-03, -3.15466849e-03, -1.06558548e-02,
          -1.60697736e-02, -1.60697736e-02, -6.08107261e-03,
          3.81271797e-03, 2.79897242e-03, 3.61792743e-03, 1.82525185e-03,
          1.03768078e-03, 1.20943645e-03, 2.90074619e-03, 1.30679703e-03,
          1.35090586e-03, 8.53380072e-04, 4.61761665e-04, 1.45847024e-03,
          -1.94299762e-04, 8.49869975e-04, 1.31448309e-04,
          9.07885114e-05, 4.47805069e-04, 6.51359675e-04, 2.40910173e-04,
          7.88073405e-04, 3.24591347e-05, -1.72721833e-04,
          4.47805069e-04, 1.97418922e-04, 4.40168835e-04,
          -1.99258648e-04, 2.96519778e-04, -3.54399730e-04,
          7.47516984e-04, -2.82541383e-04, -9.12561663e-05,
          -4.83767188e-04, -8.22056027e-04, -5.79110580e-04,
          -9.50888905e-04, -5.77019855e-05, -8.65351176e-04,
          -1.74426139e-04, -1.19359081e-03, -3.88336222e-04,
          -1.44532393e-03, -4.11547167e-04, -5.18041954e-04,
          -8.17084278e-04, -1.06941804e-03, -1.38951780e-03,
          -7.46267906e-04, -3.67433880e-04, -1.76127779e-03,
          -2.09861581e-04, -1.66031916e-03, -2.33105430e-03,
          -2.04102183e-03, -8.93137767e-04, -9.05647699e-04,
          -1.14720222e-03, -1.54134375e-03, -1.37705344e-03,
          -1.86847930e-03, -2.06651026e-03, -8.75251950e-04,
          -2.12354283e-03, -1.80520467e-03, -4.67935257e-04,
          -1.55714666e-03, -1.52882864e-03, -1.72589091e-03,
          -2.17935909e-03, 7.79898139e-03, 8.41632579e-03,
          6.97877491e-03, 2.83941044e-03, 5.32039849e-04, 2.92537385e-03,
          1.29115803e-03, 2.82923318e-03, 1.08288671e-03, 7.08072539e-03,
          1.60722136e-02, 7.88140763e-03, 8.81447457e-03, 1.49405433e-03,
          8.70130677e-03, 1.04839569e-02, 1.09227665e-03,
          -1.80818455e-03, -3.94045375e-03, -4.39796783e-03,
          -2.26004166e-03, -4.83418582e-03, -2.72546010e-03,
          -2.69131595e-03, -9.17270139e-04 ]
      - [ 5.21752238e-03, 2.17285356e-04, 1.39628001e-03, 1.57373783e-03,
          -9.48168221e-04, -2.09886860e-03, 2.87780676e-05,
          -4.76186955e-03, -2.86966446e-03, -1.97003339e-03,
          -2.34405146e-04, 2.35013547e-03, 3.95007432e-03,
          8.19240231e-03, 1.18237943e-03, 2.68328213e-03,
          -5.01972623e-04, -3.98448959e-04, -2.08599586e-03,
          -6.34558080e-03, -8.24700948e-03, -5.41203050e-03,
          -7.68198818e-03, -3.34150717e-03, -9.02070012e-03,
          -8.00346676e-03, 1.77976646e-04, -4.82325582e-03,
          -7.21574854e-03, -1.41045786e-02, -4.11366532e-03,
          -8.86051171e-03, -8.99940263e-03, -7.79884541e-03,
          -2.68601300e-03, 2.20000325e-03, 2.50708591e-03,
          2.37539643e-03, 6.15637703e-03, 7.21847219e-03, 4.75564506e-03,
          3.91467428e-03, 9.11531213e-04, 7.38007715e-04,
          -7.39950192e-05, -1.10953953e-03, -1.41915900e-03,
          -2.94823106e-03, -1.23455096e-03, -2.74655060e-03,
          -4.21462534e-03, -5.03618829e-03, -5.05484501e-03,
          -8.07188824e-03, -5.17051155e-03, -4.14876314e-03,
          -1.65749481e-03, -1.05381187e-03, -9.14302596e-04,
          -1.54999993e-03, 1.89231185e-03, 9.87519789e-03,
          9.61569510e-03, 7.30686635e-03, 6.57023629e-03, 1.22650564e-02,
          1.20216813e-02, 1.32159181e-02, 8.38094763e-03, 1.43933659e-02,
          9.34385508e-03, 9.71516687e-03, 2.01689242e-03,
          -2.53004284e-04, 5.35627245e-04, 6.45974604e-03,
          6.14418741e-03, 1.03690904e-02, 5.34557132e-03, 5.63951628e-03,
          7.39491021e-04, 4.84878023e-04, -5.77819673e-03,
          4.29002009e-03, 5.76699339e-03, 1.10774431e-02, 2.26161652e-03,
          -3.76028940e-03, -5.30638965e-03, -5.49767213e-03,
          -7.46952370e-03, -2.95956247e-03, -3.33551574e-03,
          -4.04789997e-03, -3.04978481e-03, -1.44774606e-02,
          -3.93999321e-03, -5.80612663e-03, 3.70949972e-03,
          2.82469438e-03, 1.98100600e-03, 1.83907326e-03, 1.91359734e-03,
          1.62229955e-03, 1.13941752e-03, 6.90605084e-04, 1.42248836e-03,
          4.62130556e-04, 8.79592088e-04, 6.88260538e-04, 4.82595962e-04,
          2.91048753e-04, -6.68688372e-05, 2.40646827e-04,
          5.04629104e-04, 9.58965800e-04, 1.57901450e-04,
          -9.16102290e-05, 0., -2.67179075e-05, -1.45998929e-04,
          2.87531093e-05, 5.10265643e-04, -7.62160867e-04,
          -2.76943494e-04, -7.03706231e-04, 2.53626466e-04,
          -6.30409399e-04, -2.50406243e-04, -1.84469973e-03,
          -6.85635896e-04, -2.37591637e-04, -1.60769664e-03,
          -3.16057296e-04, -1.09730626e-03, -8.27101976e-05,
          -1.48355810e-03, -1.46163927e-07, -9.38663317e-04,
          -9.14661854e-04, 4.72308311e-04, 2.08038790e-03,
          2.21222243e-03, 1.33121246e-03, 2.07116734e-03, 1.93085603e-03,
          1.13107625e-03, 3.10339080e-03, 3.94653354e-04, 7.36932445e-04,
          8.95479694e-04, 3.04457237e-04, 1.08137168e-03, 9.15313198e-04,
          4.52978915e-04, -8.20867281e-05, -8.46200928e-05,
          3.19808431e-04, 2.87697071e-06, 1.41082355e-05, 1.51488930e-04,
          5.90401061e-04, -8.30123536e-05, 1.68452068e-04,
          -1.60773618e-06, 0., 3.10048956e-04, -3.45622684e-04,
          -8.72300079e-05, -8.30123536e-05, 8.77142375e-05,
          -1.47606668e-04, -4.69536055e-04, 6.71396032e-04,
          -4.32518777e-04, -6.08455972e-04, -6.70532288e-04,
          -7.31085194e-03, -6.57524820e-03, -6.51049241e-03,
          -8.99527338e-04, -1.18323241e-03, -2.81584286e-03,
          -4.21073101e-03, -5.79625694e-03, -5.26517909e-03,
          -4.92074341e-03, -7.25266105e-03, -4.09654062e-03,
          -4.43199370e-03, -4.76753013e-03 ]
      - [ -3.44495312e-03, -6.52362779e-03, -1.58501025e-02,
          -1.02155395e-02, -1.91563517e-02, -5.91559848e-03,
          2.56987032e-03, -6.11122325e-03, -1.33745023e-03,
          3.56342318e-03, 6.09508250e-03, 1.16962353e-02, 9.92553029e-03,
          1.63157489e-02, 1.10569661e-02, 5.32347430e-03, 1.08998399e-02,
          8.57952051e-03, 6.18710322e-03, -2.50048121e-03,
          -2.25255266e-04, 9.16392356e-03, 1.67127959e-02,
          1.91210806e-02, 2.37062052e-02, 1.17383888e-02, 2.05926728e-02,
          1.16694933e-02, 1.25027038e-02, 7.60394800e-03, 9.70860105e-03,
          8.63784738e-03, 8.83153919e-03, 7.34091271e-03, 1.08377514e-02,
          9.65844374e-03, 9.51045658e-03, 1.23103606e-02,
          -2.23804513e-04, 2.08961219e-03, 2.82137305e-03,
          1.92375411e-03, 2.28464557e-03, 2.78556673e-03, 2.10893969e-03,
          2.11879821e-03, 1.90962324e-04, -6.14070334e-04,
          2.85571511e-03, 1.28278730e-03, 3.07501690e-03,
          -1.79226641e-04, -7.97162123e-04, 5.28833480e-04,
          -1.13423717e-04, -1.11267413e-03, 8.51519930e-04,
          2.48946337e-04, -6.55926205e-03, -9.03470814e-03,
          -1.04240337e-02, -1.38104865e-02, -9.25049093e-03,
          -1.09284706e-02, -1.15132853e-02, -2.85700709e-03,
          -1.57744659e-03, 1.25915732e-03, -9.64338658e-04,
          -2.07235012e-03, -1.02639403e-02, -4.75998363e-03,
          -5.63148735e-03, 7.21470104e-04, 4.18081589e-04,
          1.39239407e-03, 2.28404952e-03, 8.93647375e-04, 3.76146403e-04,
          -4.87900892e-04, 2.62246211e-03, 1.99878635e-03,
          -1.21880649e-02, 3.94517416e-03, -2.09103897e-03,
          1.06825586e-02, -2.64553633e-03, -6.35243766e-03,
          -9.19135660e-03, -9.96327121e-03, -2.12922059e-02,
          -1.35506485e-02, -9.71839391e-03, -9.46188997e-03,
          -1.29482625e-02, -9.20628663e-03, -1.02963457e-02,
          2.11231411e-03, -8.12394228e-06, 2.66445312e-03,
          1.56864035e-03, -7.70794693e-04, 9.37892182e-04,
          1.35989394e-03, 1.19891891e-03, 6.60954742e-04, 2.13330961e-03,
          -1.45205634e-03, 2.38784894e-04, 1.13006949e-03,
          -2.48539983e-03, 4.64090495e-04, -3.09583358e-03,
          9.34281969e-04, 2.01807148e-03, -2.58856127e-03,
          1.35915319e-03, 3.16779595e-04, -2.16382556e-03,
          -2.54510855e-03, 2.99809501e-03, 1.08681840e-03,
          -2.00411631e-03, -5.97929582e-04, -2.47009913e-04,
          -9.11747164e-04, 4.30814805e-04, 4.04550112e-04,
          -3.60775797e-04, -2.07338203e-03, 1.72779884e-03,
          3.27352027e-04, -1.33338885e-03, 1.62157521e-03,
          -2.19427911e-03, -1.55228819e-03, -4.08936816e-04,
          1.07258768e-03, 1.91329443e-03, -1.38356656e-04,
          -2.54436291e-05, -1.03258272e-03, -2.50826497e-03,
          2.77874031e-04, -1.22903357e-03, 2.78339209e-03,
          1.06738742e-04, 3.51952738e-03, 1.17912386e-02, 9.42186080e-03,
          1.41472295e-02, 1.96028443e-04, -1.09711161e-03,
          2.56991712e-03, -2.12636590e-03, 2.66080606e-03,
          3.33381630e-03, 1.26171275e-04, 1.07393861e-02, 9.73064080e-03,
          3.42440931e-03, -1.02718209e-03, -5.17705083e-03,
          -2.00744625e-03, -1.34729994e-02, -1.98609475e-02,
          -1.82236433e-02, -2.26718076e-02, -1.58423670e-02,
          -1.10609373e-02, 1.78393710e-03, 1.02470047e-03,
          -6.86671061e-04, 4.02342016e-03, -2.06735451e-03,
          7.51276908e-04, 1.58462918e-03, -1.43610649e-02,
          -1.51546458e-02, -1.14774248e-02, 4.17656818e-04,
          9.84591548e-04, -2.02477467e-03, -3.51909106e-03,
          -9.38274991e-03, -1.10524790e-02, -1.96205024e-02,
          -1.82043873e-02, -1.63492411e-02, -4.84790979e-03,
          -1.24376779e-03 ]
      - [ 3.68859759e-03, 5.32929366e-03, 9.64713399e-04,
          -1.48158707e-03, -4.58359905e-03, 1.59243145e-03,
          5.21269860e-04, -1.40769396e-03, -2.81223154e-04,
          3.18750936e-05, 6.75906835e-04, 5.59034059e-03, 5.00241807e-03,
          5.10530686e-03, 2.89184949e-03, 3.63561767e-03, 3.55259469e-03,
          1.45352725e-03, 6.78238866e-04, -2.12999948e-04,
          4.44219797e-04, -7.95231699e-06, 3.50878458e-04,
          9.12872725e-04, 5.56629268e-04, 6.91778143e-04, 1.27261854e-03,
          1.38870825e-03, 1.09085254e-03, 2.17846507e-04, 1.36395276e-04,
          1.65417194e-04, 3.40758183e-04, 4.39877884e-04,
          -2.49948615e-04, -7.37199225e-05, -3.13836150e-04,
          7.09841188e-05, -1.54727604e-04, -3.81381274e-03,
          -4.71813651e-03, -5.00281621e-03, -2.36214814e-03,
          -5.87055751e-04, -8.81433079e-04, -2.08242424e-03,
          -1.90596422e-03, -4.19478305e-03, -5.72372042e-03,
          -6.71262527e-03, -5.00919018e-03, -5.29164402e-03,
          -6.60327729e-03, -8.19983985e-03, -6.88393787e-03,
          -8.62941984e-03, -8.22841097e-03, -6.84192777e-03,
          -2.87949573e-03, -1.75537090e-04, -5.14979591e-04,
          -9.01672174e-04, -4.39295291e-05, -8.93165998e-05,
          -2.80759792e-04, 1.31875172e-03, 1.26442383e-03,
          1.64673827e-03, 1.53538655e-03, 2.62170611e-03, 2.20701424e-03,
          1.90878520e-03, 1.56483683e-03, 3.77905741e-03, 3.46642919e-03,
          2.72184028e-03, 2.68086512e-03, 2.13199784e-03, 2.79629626e-03,
          2.05389061e-03, 2.69104331e-03, 5.47476532e-03, 7.89592275e-04,
          8.22917931e-03, 7.10883690e-03, 1.24545647e-02, 4.93050367e-03,
          1.25578325e-03, -1.16037985e-03, -1.58267899e-03,
          -2.16709590e-03, -1.90504547e-03, 2.14422029e-03,
          1.74582296e-03, 2.61797127e-03, -4.23513586e-03,
          -2.75669270e-03, -3.50949075e-03, 1.50653010e-04,
          -2.73278682e-04, -1.00397861e-04, -9.98176693e-05,
          -1.60064595e-03, -2.86266557e-03, -5.09853428e-03,
          -5.30088414e-03, -5.45730628e-03, -9.46816057e-03,
          -1.15348725e-02, -1.29392929e-02, -9.92329232e-03,
          -9.18302685e-03, -4.67993971e-03, -1.55407772e-03,
          5.42952512e-05, -1.71593900e-04, 2.22711824e-04,
          -1.27630701e-05, -3.05718248e-04, -1.45882412e-04,
          1.32978754e-03, 1.36579992e-03, 1.98539393e-03, 1.88435987e-03,
          2.06387416e-03, 2.42537260e-03, 2.79052905e-03, 2.47976580e-03,
          3.01335100e-03, 4.30436851e-03, 7.36949220e-03, 6.42320793e-03,
          4.41021845e-03, 3.85940191e-03, 3.93874617e-03, 3.78396432e-03,
          1.20829418e-03, 1.57729909e-03, 7.58376031e-04, 1.42685766e-03,
          1.00054243e-03, 9.59622208e-04, 6.06158224e-04, 7.28556653e-04,
          6.00225118e-04, 7.84645730e-04, 6.81188831e-05, 8.52876226e-04,
          1.90310893e-04, 1.49924483e-04, 3.91257112e-04, 4.23457765e-04,
          2.43012313e-04, 6.24862849e-04, 8.61586959e-05,
          -1.28939893e-04, -3.80655052e-04, 2.38355817e-04,
          9.81738631e-05, 4.32959467e-04, -4.98033878e-05,
          2.06725104e-04, -1.04608822e-04, 3.47210676e-04,
          -5.62489331e-05, 0., 2.32606282e-04, -1.22859346e-04,
          -2.36493020e-06, -1.44742837e-04, -4.95467502e-05,
          -1.41521363e-04, -1.33679277e-04, -2.75822531e-04,
          -1.23889418e-04, -7.97407294e-04, -1.76509842e-04,
          -6.53741416e-03, -7.38284457e-03, -6.59793848e-03,
          -8.40673514e-04, -6.04269619e-04, -1.89195003e-03,
          -2.93497718e-03, -4.39007441e-03, -4.92367567e-03,
          -4.16591298e-03, -4.10632091e-03, -3.81404953e-03,
          -4.70796460e-03, -3.86732118e-03 ]
      - [ 3.70977586e-03, -1.84482220e-03, -4.46356321e-03,
          -6.77329814e-03, -2.70712096e-03, 1.50254287e-03,
          9.79083008e-04, -3.04664811e-03, 6.66622014e-04,
          1.75547588e-03, 3.99129046e-03, 3.32937879e-03, 1.58899545e-03,
          3.46703571e-03, 1.98146398e-03, 1.65890518e-03, 2.12769723e-03,
          9.24611057e-04, 1.00352954e-05, -1.86676707e-03,
          -5.21506481e-05, 5.83606958e-03, 1.09696789e-02,
          1.34257972e-02, 1.54811768e-02, 7.47396285e-03, 1.32843005e-02,
          7.51495920e-03, 7.54962349e-03, 7.04020960e-03, 6.94784801e-03,
          7.00548384e-03, 9.14176833e-03, 8.14115722e-03, 8.99828039e-03,
          8.57645273e-03, 8.03874992e-03, 9.36371647e-03, 1.37036724e-03,
          -2.85004848e-04, 1.32038945e-03, 1.70256675e-03,
          3.86090076e-04, 5.67240524e-04, 3.54632648e-04, 3.87853761e-05,
          1.69932420e-04, 1.41121412e-03, -2.09105085e-04,
          -1.39528164e-03, 6.48678397e-04, 2.37375047e-04,
          1.31537789e-04, 0., -4.57782269e-04, 2.57778214e-04,
          1.86394434e-04, 8.23313894e-04, -7.91910395e-04,
          -4.85293975e-04, 1.24544051e-04, -7.10869499e-04,
          -5.39037865e-04, -6.26837136e-04, -5.31731930e-04,
          -1.21473207e-03, -2.73195823e-04, -1.77689362e-04,
          4.02762467e-04, -7.30311964e-04, 5.36723155e-06,
          -2.59946659e-03, -1.26063731e-03, 3.50900431e-04,
          -1.88433845e-03, -1.13923405e-03, -4.15320450e-04,
          -2.42281327e-04, -8.02943599e-04, -2.27992400e-03,
          -1.63552968e-03, -2.99963960e-03, -1.11574316e-02,
          -8.57838150e-03, -1.10926339e-02, -6.09695492e-03,
          -3.58182867e-03, -6.07848540e-03, -3.65392352e-03,
          -5.78187359e-03, -8.42686091e-03, -4.56671836e-03,
          -6.11960946e-04, -1.65398698e-03, -5.86230541e-04,
          2.66459677e-03, 8.60417029e-04, 1.19638315e-03, 1.65889913e-03,
          -1.92677660e-03, -5.05132182e-03, -9.10882559e-03,
          -7.31866388e-03, -7.85372872e-03, -5.87614300e-03,
          -4.05861903e-03, -4.76554921e-03, -4.08294098e-03,
          -6.92777336e-03, -8.46420694e-03, -6.38395082e-03,
          -2.28304323e-03, -3.18080955e-03, -3.09468340e-03,
          -3.86269740e-03, -2.86314217e-03, -3.36684543e-03,
          -1.02761306e-03, -2.44119321e-03, -4.80462704e-03,
          -1.42755080e-03, -4.46720188e-03, -4.62942384e-03,
          -2.87473318e-03, -4.49875696e-03, -9.41984006e-04,
          -1.78084034e-03, 6.54975697e-03, 1.98623277e-02,
          2.38234624e-02, 2.03165673e-02, 1.90727152e-02, 1.45778675e-02,
          2.31320560e-02, 2.41167750e-02, 1.24403564e-02, 5.61816059e-03,
          2.43361434e-03, 3.45884450e-03, 2.10731174e-03, 3.64477676e-03,
          8.32626305e-04, 6.64981431e-04, 2.37133307e-03, 2.22493149e-03,
          1.42217800e-03, 1.89112639e-03, 6.80327008e-04,
          -1.05731876e-03, -7.11250686e-05, 4.65069956e-04,
          6.55153533e-04, 1.06517470e-03, 4.59383038e-04, 8.74769525e-04,
          -5.86855458e-04, -4.45072714e-04, 1.68577797e-04, 0.,
          6.16727164e-04, 9.82941710e-04, 9.71028116e-04,
          -6.54726173e-04, 2.73195823e-04, -5.25586889e-04,
          1.35106573e-04, 2.73195823e-04, 5.14122483e-04,
          -4.85340861e-04, -5.16362663e-04, -1.47386410e-04,
          1.68577797e-04, -1.42908178e-03, -4.22366487e-04,
          -1.61276257e-03, -3.45090666e-04, -1.61051715e-03,
          -1.17998745e-03, -1.88663614e-03, -2.62762723e-03,
          -3.29088798e-04, -1.50960509e-03, -4.41128109e-03,
          -3.03729973e-03, -5.21929096e-03, -1.15491142e-02,
          -8.61068070e-03, -8.47698003e-03, -7.85076991e-03,
          -5.53561561e-03, -4.72184550e-03 ]
      - [ 3.98506746e-02, 7.84874987e-03, 4.36770683e-03,
          -9.38477693e-04, -7.89187290e-03, 4.19695536e-03,
          2.03955323e-02, -2.28470992e-02, -9.25123051e-04,
          -2.84096021e-02, -2.84516737e-02, -2.46453155e-02,
          -2.49770228e-02, -1.60790347e-02, -3.05141062e-02,
          -5.51919825e-03, -2.16226578e-02, -3.01205423e-02,
          -1.88804138e-02, -2.89212894e-02, -4.08135504e-02,
          -6.05263654e-03, -4.32375306e-03, 2.00355682e-03,
          -7.67264003e-03, 1.32822455e-03, -1.60166174e-02,
          -3.67538701e-03, -2.13574972e-02, -1.44431193e-04,
          -1.13500319e-02, -3.56650986e-02, -1.13988575e-02,
          -5.12429047e-03, -6.56009559e-03, -4.44712583e-03,
          -3.88973281e-02, -6.29896531e-04, -2.06018817e-02,
          6.23006001e-03, 2.33750514e-04, 1.29477773e-02, 8.20914656e-03,
          6.62979810e-03, -1.03251531e-03, 5.38188079e-03,
          9.28687572e-04, 4.55616741e-03, 4.99967160e-03, 1.57812133e-03,
          6.75853109e-03, -5.40697342e-03, -3.29153240e-03,
          1.40507724e-02, -2.38384539e-03, 9.58918687e-03,
          1.43060638e-02, -5.42107737e-03, -6.08899212e-03,
          -7.78865349e-03, 7.05805048e-03, 9.40166321e-03,
          8.84797331e-03, 1.21325469e-02, 2.38295319e-03,
          -1.03609459e-02, -1.27342413e-03, 5.40225580e-03,
          8.52947310e-03, -9.15466109e-04, 1.48194213e-03,
          4.25310479e-03, -8.43328238e-03, 4.31519980e-03,
          4.00249101e-03, 1.06653497e-02, 3.68337758e-04, 8.84959567e-03,
          -5.23389503e-03, -1.19134681e-02, -3.17487423e-03,
          3.33063421e-03, -1.37830209e-02, -1.03489645e-02,
          -1.53038595e-02, -1.71482451e-02, -1.62758548e-02,
          -6.46454049e-03, -2.42286939e-02, -3.17079164e-02,
          -4.32583876e-02, -1.59664787e-02, -3.14957323e-03,
          4.44357237e-03, 2.57113273e-03, -9.54013597e-03,
          -5.49846282e-03, -1.53627684e-02, 1.42674837e-02,
          7.38283806e-03, 1.71770528e-03, 7.06490269e-03, 5.96695673e-03,
          7.29252910e-03, -1.89717593e-05, -4.09919908e-03,
          -3.49275931e-03, -1.46810978e-03, -6.26951735e-03,
          -2.22853851e-03, 6.80600805e-03, -5.41400677e-03,
          -1.16743650e-02, -5.25683910e-03, -6.54956605e-03,
          -8.39804485e-03, -4.67060413e-03, 2.16182321e-03,
          7.56799418e-04, -1.82478037e-02, -3.50210420e-03,
          -8.79712962e-03, 5.49769308e-03, -7.14750448e-03,
          -7.80395465e-03, -2.31723743e-03, -2.97398830e-04,
          -9.35045909e-03, 4.32303129e-03, -7.60842767e-03,
          -1.97729305e-03, -1.01440381e-02, 3.53353843e-03,
          -6.70129759e-03, -2.58373888e-03, -3.79320787e-04,
          -6.07835420e-04, -1.18865576e-02, -1.00402478e-02,
          4.87726368e-03, -1.16432272e-02, -3.76718561e-03,
          -1.32822455e-03, -7.17065157e-03, 2.58706161e-03,
          -4.42504697e-03, 6.55626738e-03, -4.14998317e-03,
          -1.44342775e-03, -7.14655081e-03, -7.50591885e-03,
          -5.15822787e-03, 1.43555887e-02, 6.34548999e-03,
          -1.79836666e-03, -6.94345264e-03, -1.51376855e-02,
          -3.08446470e-03, -4.72608255e-03, 1.03989616e-02,
          1.12049957e-03, 5.04550245e-03, -1.25517724e-02,
          6.95745868e-04, -7.36216223e-03, 3.02658393e-03,
          3.78849660e-03, 4.24304139e-03, 1.91709073e-03,
          -9.00139939e-03, -4.32660198e-03, -1.87005335e-03,
          5.87511761e-03, 1.03946244e-02, 4.86952439e-03,
          -6.60407683e-03, 4.70414176e-04, -1.20969051e-02,
          -1.46617796e-02, -1.47207109e-02, 9.85312369e-03,
          6.68202620e-03, -8.94434191e-03, -8.60621501e-03,
          -1.37591185e-02, -2.91886795e-02, -2.27573495e-02,
          -2.76542529e-02, -2.85316282e-03, -1.44724511e-02,
          8.38508538e-04 ]
      - [ 6.58718077e-03, -1.78492127e-03, -4.01581405e-03,
          -2.59234454e-03, -1.00586433e-02, -1.24996156e-02,
          -1.36780227e-03, -1.64727196e-02, -2.40952638e-03,
          -2.97611626e-03, 2.38098612e-04, 7.83164427e-03,
          4.48166998e-03, 2.10851636e-02, 1.58585645e-02, 1.56889316e-02,
          6.99341577e-03, 3.60435899e-03, -6.11948606e-04,
          -1.01567223e-03, -7.08026625e-03, 7.26060104e-03,
          1.84062179e-02, 2.09132601e-02, 2.83222031e-02, 1.09402826e-02,
          2.37908792e-02, 1.35222562e-02, 1.48857171e-02, 6.08605007e-03,
          4.50977404e-03, 7.85507634e-03, 5.66329481e-03, 1.07605690e-02,
          7.91860931e-03, 1.18235908e-02, 9.65880416e-03, 9.02011059e-03,
          -4.51672170e-03, -4.39311611e-03, -6.88595464e-03,
          -5.77054080e-03, -4.43207938e-03, 1.06397923e-03,
          1.55161368e-03, -7.12040928e-05, 9.58277285e-03,
          6.08807197e-03, 1.08301407e-02, 4.43603937e-03, 4.78327135e-03,
          5.72719891e-03, 4.08530887e-03, 4.96610301e-03, 5.46580506e-03,
          6.08559977e-03, 2.55574356e-03, 5.37755853e-03, 2.36673350e-03,
          3.77698801e-03, 7.71605468e-04, 2.72008590e-03,
          -6.75418647e-04, 2.76806823e-04, -1.41223799e-03,
          3.41765187e-03, -1.95677159e-04, -1.95677159e-04,
          4.26327402e-04, -4.03863989e-04, -3.82412923e-04,
          -1.27173692e-03, -1.02007412e-03, 1.29021064e-03,
          -4.66492638e-04, 1.95677159e-04, 0., -1.45855441e-03,
          -5.10557741e-03, -4.96203138e-04, -5.50261978e-03,
          -1.18062180e-03, -1.38033489e-02, -1.35409804e-02,
          -1.80482455e-02, -7.51270028e-03, -6.71715708e-03,
          -1.88398547e-02, -2.28499286e-02, -2.06442680e-02,
          -3.34887095e-02, -1.43121127e-02, -1.18316961e-02,
          -1.13678956e-02, -4.45700902e-03, -2.32960600e-02,
          -6.61948463e-04, -9.10561997e-03, 8.71556904e-03,
          9.60583426e-03, 9.21913143e-03, 4.02874127e-03, 4.54813987e-03,
          6.10369351e-03, 7.89099187e-03, 1.05355598e-03, 7.20783789e-03,
          2.23959913e-03, 3.03421821e-03, 2.62028916e-04, 2.33700429e-03,
          2.55091349e-03, -8.64233589e-04, 0., 1.80159032e-03,
          2.13789591e-03, 6.55969314e-04, -8.48632422e-04,
          4.32169967e-04, -1.26236130e-03, 1.04430958e-03,
          -4.94798645e-04, 6.59597805e-04, -1.48250361e-03,
          -1.36239629e-03, -6.12139585e-04, -2.46046577e-03,
          -1.33036287e-03, -4.77262354e-03, 2.71913414e-05,
          -4.54104692e-03, -2.79994798e-03, -5.48425270e-03,
          -5.98038826e-03, -4.10209922e-03, -6.37909165e-03,
          -4.33836691e-03, -1.16501097e-02, -6.89907419e-03,
          -9.64764412e-03, 6.24122506e-04, 7.66542100e-04,
          1.00537008e-02, 9.25181806e-03, 1.01986378e-02, 8.11984204e-03,
          4.70155850e-03, 4.59844386e-03, 4.17669816e-03, 2.37289467e-03,
          7.91110937e-03, 4.46720142e-03, 3.84321227e-03, 3.18390178e-03,
          3.01044877e-03, 1.29983341e-03, -7.17278803e-04,
          2.57319584e-03, 8.32433463e-04, 9.46516753e-04, 1.92105421e-03,
          9.08495393e-04, -9.98400734e-04, 0., -1.04430958e-03,
          4.32169967e-04, 1.09863968e-03, 4.37362120e-04,
          -1.11690816e-03, -5.66230738e-04, 0., 0., 4.32169967e-04,
          2.33456003e-03, -1.75664783e-04, -4.44574747e-04, 0.,
          -1.72137059e-02, -1.46389958e-02, -1.61567461e-02,
          -1.54602039e-03, -3.13065248e-03, -7.61313224e-03,
          -1.24604059e-02, -1.35943806e-02, -1.96706671e-02,
          -1.76207777e-02, -2.78801024e-02, -9.77492332e-03,
          -1.50835598e-02, -1.02649862e-02 ]
      - [ 3.73677840e-03, -7.62670825e-04, 2.13898165e-04,
          -2.17222958e-03, -4.25694417e-03, -4.31211852e-03,
          -2.20134528e-03, -5.76519500e-03, -3.48276086e-03,
          -2.58051301e-03, 3.48060217e-04, 5.67312818e-03,
          6.84015593e-03, 1.44993290e-02, 1.00247785e-02, 1.09317480e-02,
          8.58922955e-03, 5.13830222e-03, 4.35091415e-03, 3.87086948e-05,
          4.65268560e-04, 1.53703021e-03, 3.38867260e-03, 4.56299074e-03,
          7.10143568e-03, 3.36316950e-03, 7.09155528e-03, 2.99990783e-03,
          3.40226712e-03, 4.98662179e-04, 9.58440942e-05, 6.15709228e-04,
          1.44699967e-04, 3.12971424e-05, -8.59952008e-04,
          4.83273063e-04, 4.13968082e-04, 1.45493817e-04, 1.13153670e-04,
          3.68932146e-04, -2.36295018e-04, -7.24273210e-04,
          -1.02439092e-03, -9.81478137e-04, -3.01752589e-04,
          -9.92894871e-04, -7.07310566e-04, 3.26318579e-04,
          -1.11191196e-03, -2.50748172e-03, -2.17286884e-04,
          -2.63612182e-03, -9.88641172e-04, -1.29951455e-03,
          -3.18186381e-03, -1.45077577e-03, -2.21377355e-03,
          -3.74783133e-03, -2.28895899e-03, -6.78689918e-03,
          -1.29690878e-02, -1.83199272e-02, -2.26161983e-02,
          -1.57526154e-02, -1.18270824e-02, -8.94067250e-03,
          -1.37998501e-03, 4.68916027e-03, 6.97752787e-03,
          8.89083557e-03, 1.15903094e-02, 1.24592511e-02, 8.73654429e-03,
          5.59400255e-03, 4.36928030e-03, 2.24424200e-03, 1.62840573e-04,
          5.51798614e-03, 6.40195096e-03, 5.82138263e-03, 1.50189037e-03,
          1.32774736e-03, -3.46203800e-03, -5.36189880e-03,
          -3.94785730e-03, 7.36980932e-04, 3.48984322e-04,
          -3.93803930e-03, -4.35992982e-03, -2.87530059e-03,
          -1.13113401e-02, -4.81397612e-03, -2.61207880e-03,
          -2.07514083e-03, 6.43583247e-04, -1.46214580e-02,
          -5.33131603e-03, -7.84325879e-03, 3.69985774e-03,
          3.39086563e-03, 2.71956576e-03, 2.24411977e-03, 2.36856379e-03,
          2.07824726e-03, 9.24894412e-04, 2.04203697e-03, 1.42996025e-03,
          9.47479217e-04, 1.05351431e-03, 1.25279371e-03, 3.02138971e-04,
          4.09053813e-04, 1.45917176e-03, 5.13357867e-04, 1.03061204e-03,
          1.54069508e-03, 4.00510442e-04, 1.09913723e-04, 3.12971424e-05,
          -4.87986972e-06, 2.80665728e-04, 1.96428271e-04,
          1.54455556e-04, 1.13153670e-04, 2.59117805e-04,
          -1.43381592e-04, 1.54455556e-04, 1.49577769e-04,
          4.83962824e-04, -1.59368952e-04, 0., 2.36860986e-04,
          -3.20093968e-04, 5.00968890e-04, -1.74678746e-04,
          6.97065261e-05, 1.74678746e-04, 1.39221142e-04,
          -1.65284495e-04, 0., 1.54455556e-04, -3.44479689e-04,
          -7.49790575e-04, 4.82453906e-05, 7.13118294e-04,
          4.71011328e-04, -8.62646441e-04, -5.73757061e-05,
          -7.47907965e-04, -8.89852061e-04, -3.31016956e-04,
          1.74678746e-04, 5.18874614e-04, -1.20578392e-03,
          -2.14406493e-04, -1.13107392e-03, -2.73143196e-05,
          -1.25822355e-03, -1.46996113e-04, 4.24498197e-04,
          -6.45365391e-04, -1.10869296e-03, -1.52443768e-03,
          -1.67276899e-04, -1.29935890e-03, -1.95954088e-03,
          8.82983324e-04, -9.91974375e-04, -1.37001136e-03,
          -2.79173744e-03, -7.16435839e-04, 0., -3.34804552e-03,
          7.49472063e-04, -1.42567686e-03, -1.93361740e-03,
          -1.06128806e-03, -8.36728979e-03, -8.29907786e-03,
          -8.12002737e-03, -2.40038591e-03, -2.11179955e-03,
          -1.63787813e-03, -8.15801416e-03, -7.77533697e-03,
          -9.57686827e-03, -9.05262027e-03, -1.12285363e-02,
          -5.07486425e-03, -6.48560375e-03, -8.11627693e-03 ]
      - [ -2.91632302e-03, -7.41046038e-04, 2.65201379e-04,
          1.85255893e-03, -2.13747335e-04, 3.78704426e-04,
          -1.23919907e-03, -3.33161122e-04, -2.75053724e-04,
          -5.63901383e-04, -1.91537983e-04, 4.00481338e-04,
          3.93654103e-04, -3.58710065e-04, -2.45315867e-04,
          5.91714983e-04, -4.80708200e-04, 5.50171535e-04,
          2.36459397e-04, -4.69400967e-03, 8.40398599e-04,
          7.37968308e-04, 9.05218883e-04, -2.14206846e-03,
          -7.05627678e-03, -3.91123397e-03, -2.21589091e-03,
          1.46921771e-03, 1.15143450e-03, 1.44259934e-03, 3.05341021e-03,
          3.95631231e-03, -6.89270266e-04, 9.92486253e-04,
          2.55151233e-03, 4.58731176e-03, 5.37951104e-03, 5.49206650e-03,
          2.58000358e-03, 4.07709554e-03, 5.85094467e-03, 5.96063118e-03,
          2.87771435e-03, -1.12921197e-03, -1.49267551e-03,
          -1.11720781e-03, -2.26759422e-03, -2.81903148e-03,
          -1.98363746e-03, -4.12185863e-03, -7.99310300e-03,
          -9.67514794e-03, -7.65546458e-03, -9.37962253e-03,
          -5.66550251e-03, -5.46404114e-03, -2.38506892e-03,
          -3.37865576e-03, -2.09468114e-03, -1.86343095e-03,
          1.87886634e-03, 5.79595752e-03, 6.49798010e-03, 9.65697691e-03,
          6.52180659e-03, 7.48041784e-03, 5.47538558e-03, 7.82811549e-03,
          6.81281183e-03, 8.05962272e-03, 8.13754648e-03, 8.04144330e-03,
          1.14089437e-03, -1.73154497e-03, -7.20890239e-05,
          7.96885882e-03, 8.18294007e-03, 8.22578277e-03, 5.94677357e-03,
          5.20312693e-03, 6.40515797e-03, -1.00769522e-03,
          -1.25394668e-03, 3.89430393e-03, 7.57557852e-03,
          6.80980366e-03, 2.59379949e-03, -1.25962251e-03,
          -6.24253764e-04, -6.74590759e-04, -3.85086110e-04,
          -2.33078469e-03, -1.39831286e-03, -3.12455348e-03,
          7.08503462e-03, 7.86151178e-03, 1.51341809e-02, 9.12552513e-03,
          -6.93319947e-04, 3.32742784e-04, -1.35639348e-04,
          2.62766087e-04, 7.51098443e-04, -5.32713195e-04,
          -9.48628061e-04, 5.57698604e-06, 4.07522311e-04,
          1.34468646e-04, -3.35357938e-04, -1.09442987e-03,
          -3.84478975e-04, -5.87676404e-05, 1.92860214e-04,
          2.59627064e-04, -2.60340894e-04, -4.37761155e-05,
          2.51261750e-04, -2.74147402e-04, -9.56130862e-06,
          -6.06951799e-05, -6.36760786e-04, -6.88022119e-04,
          2.53287290e-04, -6.31885487e-04, -1.99969960e-04,
          -3.35368444e-04, -2.18165005e-04, -3.59914557e-04,
          7.57439993e-05, -1.28538278e-03, -2.72306119e-04,
          -1.05012953e-03, 7.26569269e-05, -5.90969110e-04,
          -5.91646414e-04, -1.18712720e-03, 7.92109859e-05,
          7.93611340e-04, 8.75215977e-04, 3.17308091e-04, 6.16128033e-04,
          2.03813054e-03, 3.03203426e-03, 4.07561474e-03, 2.53459695e-03,
          1.79896969e-03, 2.99873040e-03, 2.43478571e-03, 2.65186932e-03,
          2.09913938e-03, 2.34536710e-03, 1.04937830e-03, 1.56326231e-03,
          2.02929252e-03, 1.58055255e-03, 1.49812934e-03, 1.84459495e-03,
          1.97991054e-03, 1.09658414e-03, 1.57395203e-03, 1.66657986e-03,
          1.13768200e-03, 1.26478646e-03, 1.86388404e-03, 1.65220792e-03,
          9.59679950e-04, -3.40340566e-03, -2.87249452e-03,
          -7.90111162e-03, -5.54391369e-03, -4.22864500e-03,
          -3.15042539e-03, -5.85597055e-03, -5.77361416e-03,
          -2.98777525e-03, -8.12497083e-03, -1.35588981e-02,
          -1.35329477e-02, -1.29751973e-02, -9.82068386e-03,
          -1.05353119e-02, -1.27438987e-02, -3.86600080e-03,
          -3.90697690e-03, -1.61278481e-03, -1.38818508e-03,
          -2.53414828e-03, -2.45396653e-03, -2.15163617e-03,
          -2.50942260e-03, -2.21390161e-03 ]
      - [ -8.26110970e-03, -3.50520154e-03, -1.81247923e-03,
          6.96579984e-04, -1.11258507e-03, -1.88657909e-03,
          4.93690022e-04, 9.14892531e-04, -3.39394901e-04,
          2.80734530e-04, 1.30396441e-03, 7.45140715e-05, 1.30697037e-03,
          1.75378635e-03, 2.38929107e-03, 7.05095939e-04, 4.64313984e-04,
          8.80985463e-04, 4.51596599e-04, 5.61666954e-03, 1.03676645e-02,
          1.25859156e-02, 6.44536922e-03, 6.61726901e-03, 2.11674091e-03,
          3.86440591e-03, 5.90983266e-03, 1.21357646e-02, 1.18915839e-02,
          1.10901771e-02, 1.42857302e-02, 1.35450317e-02, 7.01448740e-03,
          1.94285833e-03, 1.04783019e-02, 1.07127624e-02, 1.22488206e-02,
          8.08901154e-03, 7.81648327e-03, 6.07538177e-03,
          -8.94563971e-04, -1.08810351e-03, -8.78473977e-04,
          -1.88280398e-03, -1.25847582e-03, -6.94624498e-04,
          -1.76349515e-03, -1.97268697e-03, -1.51951716e-03,
          -8.78763851e-04, -1.63627113e-03, -2.30441685e-03,
          -2.61645648e-03, -1.20906858e-03, -2.66284705e-03,
          -1.38240715e-03, -1.45638140e-03, -1.26865553e-03,
          -1.70901243e-03, -1.40536937e-03, -2.06688954e-03,
          -2.12778430e-03, -2.71520787e-03, -2.56353000e-04,
          -2.48025521e-03, -1.99225545e-03, -1.68112933e-03,
          -1.25790271e-03, -1.41127571e-03, -1.58831640e-03,
          -2.61727185e-03, -1.83075108e-03, -2.54087104e-03,
          -1.28893030e-03, -3.74800933e-04, -1.66951190e-03,
          -7.40681018e-04, -1.22561690e-03, -2.19163066e-03,
          -1.57356216e-03, -8.80758336e-04, -2.68720614e-04,
          -9.09805240e-04, -1.35541032e-03, 4.20320168e-04,
          -1.55182276e-03, -1.45822682e-03, -4.90071368e-04,
          -1.83557015e-04, -1.78985845e-03, -1.60655589e-03,
          -4.73827729e-03, -1.83944148e-03, -2.73807440e-03,
          -5.32665150e-03, -1.31302641e-03, -9.81919584e-04,
          5.45455143e-03, -4.04826412e-03, -1.67280273e-03,
          -1.75566191e-03, -1.87131600e-03, -2.70452409e-04,
          -1.00141868e-03, -1.38721289e-03, -7.86710181e-04,
          4.24236023e-05, -1.20391487e-03, -2.12406361e-04,
          8.64821021e-04, -1.27206964e-03, -6.86637941e-04,
          6.15832369e-06, 6.93997543e-04, 1.10218744e-03,
          -8.91650096e-04, -3.76126518e-05, 3.63420724e-04,
          -2.13281208e-04, -6.49416063e-04, 1.20512687e-03,
          1.23598299e-03, -3.68155888e-04, 2.09054822e-04,
          1.05300860e-03, 7.03161186e-06, -2.57299762e-05,
          6.94316579e-04, 5.69927914e-04, 3.48485628e-04, 1.44038640e-03,
          1.55798148e-03, 2.08860176e-04, 1.77040091e-03, 8.88754090e-04,
          2.38805209e-04, 9.14665929e-04, 1.50943070e-03, 2.03745742e-03,
          1.09086360e-03, 2.00297311e-03, 2.29110732e-03, 3.91816429e-04,
          1.10157253e-03, 1.03472988e-03, 1.10116159e-03, 3.25318240e-03,
          5.49942721e-03, 1.10965623e-02, 1.12081654e-02, 1.24314725e-02,
          1.41171552e-03, 5.96177124e-04, 3.22605134e-03, 9.13045078e-04,
          2.47965031e-03, 3.46341613e-03, 5.87521936e-04, 1.56679493e-03,
          2.03568675e-03, 4.84964141e-04, -9.78810422e-05,
          -1.35709462e-03, 6.82101760e-04, -1.02423748e-03,
          1.05364691e-03, -8.46860744e-03, -1.07070953e-02,
          -9.66174435e-03, -3.90495243e-03, -2.12883996e-03,
          -6.97363494e-03, -2.86998414e-03, -5.03711822e-03,
          -2.83452752e-03, -6.38639135e-03, -8.28448404e-03,
          -1.45507967e-02, -1.66212432e-02, -9.30484943e-03,
          -7.82382861e-03, -8.03833641e-03, -6.12783059e-03,
          -2.78230547e-03, -4.17290197e-04, 1.49207335e-04,
          -6.45524589e-03, -6.83893077e-03, -7.96244480e-03,
          -1.36506616e-03, -7.87027006e-04 ]
      - [ -5.86295500e-05, 1.98756182e-03, 2.69500352e-03,
          1.61812268e-03, 3.57199169e-04, 2.69933313e-04,
          -1.46736580e-04, -9.71345871e-05, -1.84370496e-04,
          -4.19125456e-04, -1.17720418e-04, -1.44227724e-05,
          -1.36722542e-06, -4.56322945e-04, -2.23042603e-04,
          2.49924429e-04, -1.79203285e-04, 1.64023411e-04,
          -3.20190411e-05, 5.19247318e-04, 3.57195758e-03,
          4.13272670e-03, 3.69125442e-03, 1.59969181e-03, 9.60200909e-04,
          1.52795808e-03, 2.60797329e-03, 4.25219210e-03, 3.97700816e-03,
          4.09097318e-03, 4.73792758e-03, 4.55943868e-03, 1.55864505e-03,
          1.23198982e-03, 3.10738967e-03, 3.20085348e-03, 3.66912060e-03,
          2.90578394e-03, 2.90239858e-03, 1.52465454e-05,
          -2.12310068e-03, -2.01422488e-03, -1.27690798e-03,
          -4.86596109e-04, -9.23902611e-04, -8.33953090e-04,
          -9.72763053e-04, -2.42921989e-03, -2.54656794e-03,
          -6.29387517e-03, -5.74577646e-03, -6.12599356e-03,
          -2.55980017e-03, -3.41195869e-03, -4.18336689e-03,
          -6.27879146e-03, -5.92595106e-03, -4.80111782e-03,
          -1.42799609e-03, -5.64334332e-04, -1.01394102e-03,
          -5.17248060e-04, -5.11730206e-04, -7.03702972e-04,
          -4.32462752e-04, -6.30945782e-04, 3.70880734e-04,
          4.16661642e-04, 5.85582282e-04, 1.19323283e-03, 9.32399766e-04,
          7.96763052e-04, -9.02803804e-05, 5.85017493e-04,
          3.25285015e-03, 2.58873799e-03, 2.24864041e-03, 1.86365403e-04,
          1.22529105e-04, 5.28846215e-03, 5.84541867e-03, 6.34851446e-03,
          1.76187488e-03, 3.70155042e-03, 7.10804667e-03, 6.37276890e-03,
          4.27909894e-03, 5.66957053e-04, -3.79006960e-04,
          -1.37981770e-04, -1.12455549e-04, -3.67984350e-04,
          -5.39795903e-04, -9.25801403e-04, 1.63839082e-03,
          4.75649070e-03, 5.05342055e-03, 2.80223275e-03,
          -1.21314847e-03, -1.01341517e-03, -9.94969741e-04,
          -7.76741595e-04, -1.12157222e-03, -1.59098522e-03,
          -4.18731989e-03, -3.37154418e-03, -3.82239860e-03,
          -4.13553184e-03, -6.18336955e-03, -7.64555158e-03,
          -5.71605843e-03, -5.97636309e-03, -2.13373918e-03,
          -1.58498972e-03, -3.82331928e-04, -1.64653829e-05,
          -9.03281107e-05, -6.49758513e-05, 1.62359793e-05,
          -6.23728047e-05, -1.90370221e-04, 4.63775214e-04,
          7.48744351e-04, 4.84671502e-04, 5.35673404e-04, 1.13718899e-03,
          1.76924933e-03, 1.52340764e-03, 2.19916925e-03, 2.51103402e-03,
          3.70829878e-03, 2.64169206e-03, 3.49790277e-03, 2.60637118e-03,
          2.03089812e-03, 1.46536482e-03, 1.23459776e-03, 1.13640586e-03,
          8.24299350e-04, 4.60548094e-04, 9.78781958e-04, 1.09259435e-03,
          6.64617750e-04, 6.64949417e-04, 5.66222065e-04, 6.05501817e-04,
          9.49436857e-04, 6.44713466e-04, 4.62934055e-04, 8.54164013e-04,
          8.96768353e-04, 3.95467505e-04, 4.31432767e-04, 7.82591291e-04,
          4.91955259e-04, 4.73099179e-04, 5.92716096e-04, 6.76151831e-04,
          3.54222342e-04, 7.19079690e-04, 5.31616854e-04, 3.06871021e-04,
          4.67730744e-04, 5.29764802e-04, 4.93592990e-04, 7.51248735e-04,
          -3.18776164e-03, -4.07649763e-03, -3.74273537e-03,
          -1.76076626e-03, -6.01266278e-04, -1.89176027e-03,
          -9.17132886e-04, -1.76984363e-03, -6.59592857e-04,
          -2.36783596e-03, -4.01855679e-03, -5.70553308e-03,
          -5.54936752e-03, -3.72113311e-03, -2.60234601e-03,
          -3.56421201e-03, -1.75617053e-03, -1.38167734e-03,
          -2.88142415e-04, -4.50157939e-04, -9.47430381e-04,
          -1.13324809e-03, -7.97435583e-04, -1.59977784e-03,
          -1.61453546e-03 ]
      - [ -2.33119819e-03, -6.66656357e-04, -1.94420107e-04,
          3.17095459e-04, 3.21523956e-04, 1.21282719e-04,
          -5.96868049e-05, 7.89294718e-05, 5.66810952e-04,
          1.40862830e-04, 1.25981911e-04, 9.19503393e-04, 3.29043833e-04,
          -1.10755318e-04, 1.03925515e-04, 6.10977353e-04,
          2.33360537e-04, 3.21172498e-04, 1.87753423e-04, 1.01727282e-03,
          4.85140271e-03, 4.79687797e-03, 4.55611525e-03, 5.86535549e-04,
          2.66757183e-04, 7.40579795e-04, 4.20939038e-03, 4.84418590e-03,
          4.49384749e-03, 5.62116271e-03, 5.48265688e-03, 5.45529881e-03,
          -5.83858018e-05, 1.76253344e-03, 2.86780996e-03,
          2.91068968e-03, 4.65496304e-03, 3.29291611e-03, 2.71617062e-03,
          -2.04643395e-04, -3.57436948e-04, -1.90916689e-04,
          -3.20904859e-04, -4.11533518e-04, -4.16470226e-04,
          -1.28627216e-04, -5.03705291e-04, -4.76072048e-04,
          -3.73693154e-04, 5.43889792e-06, -8.52774305e-04,
          -7.59748917e-04, -5.99212304e-04, -7.35358393e-04,
          -3.70818831e-04, -4.45871265e-04, -3.21587460e-04,
          -6.67734654e-04, -5.50757686e-04, -6.87953492e-04,
          -5.29633020e-04, -4.52512555e-04, -2.30200734e-04,
          -7.96593260e-04, -3.52400908e-04, -9.42112238e-04,
          -3.66877881e-04, -9.72093199e-04, -2.09413163e-04,
          -3.67501867e-04, -7.16253126e-04, -3.39789636e-04,
          -8.35068582e-04, -6.41985971e-04, -1.65885402e-04,
          -5.00175636e-04, -7.44563877e-04, -5.91471209e-04,
          -8.81988730e-04, -9.63312690e-04, -3.56121862e-04,
          -5.70185017e-04, -7.10982480e-04, -5.99235005e-04,
          -2.69091659e-04, -6.64116640e-04, -5.71686774e-04,
          -5.91057469e-04, -3.68492154e-04, -5.73672121e-04,
          -8.21100082e-04, -6.73080678e-04, -6.70804176e-04,
          -8.39897722e-04, 3.47172073e-03, 1.21192932e-02,
          1.24178166e-02, 9.13934316e-03, 3.50411923e-04,
          -2.81904242e-04, -6.93367037e-04, -7.12858862e-04,
          -1.42223478e-04, -3.92059999e-04, -8.25960597e-04,
          -1.70689746e-04, -8.67058872e-04, -6.16950856e-04,
          -4.29843133e-03, -4.15557856e-03, -5.52178035e-03,
          -1.71360921e-03, -3.73166916e-03, -2.29027076e-03,
          -2.44537066e-03, -6.64414780e-04, -2.57232250e-03,
          -3.01226508e-03, -3.10039381e-03, -3.60879581e-03,
          -3.80361918e-03, -3.67069873e-03, -3.45712993e-03,
          -5.34598250e-03, -4.43143258e-03, -1.66900537e-03,
          -5.56632120e-04, 1.64153555e-03, 3.95529671e-03,
          5.81866363e-03, 6.76634908e-03, 7.31234718e-03, 4.68994631e-03,
          3.68609722e-03, 2.51090340e-03, 1.96079584e-03, 1.07263657e-03,
          1.03826227e-03, 7.24417856e-04, 4.66004072e-04, 7.74966960e-04,
          8.62583925e-04, 6.29691640e-04, 6.75810210e-04, 8.36876163e-04,
          3.31028685e-04, 8.60870990e-04, 4.41612909e-04, 6.18101796e-04,
          1.11920119e-03, 4.11194545e-04, 5.54516038e-04, 5.29308920e-04,
          4.78558533e-04, 5.71890851e-04, 4.54206369e-04, 7.57551868e-04,
          7.58890819e-04, 2.63008522e-04, 7.30144558e-04, 5.87402435e-04,
          5.33474376e-04, 2.39928529e-04, 7.54879031e-04, 5.54760743e-04,
          4.58907511e-04, -3.56103759e-03, -4.48348280e-03,
          -4.36478294e-03, -1.36728492e-03, 6.27308444e-04,
          4.22749959e-04, 1.85696321e-04, 2.69041222e-04, 1.09041124e-04,
          -3.77025013e-03, -6.30068360e-03, -6.54289685e-03,
          -5.42390486e-03, -3.75371194e-03, -4.58354037e-03,
          -4.03462583e-03, -1.21839123e-03, -3.29104951e-04,
          -8.87236616e-04, -3.00733751e-04, -5.65308612e-04,
          -1.09479809e-03, -1.20758999e-03, -7.56793888e-04,
          -1.50551286e-03 ]
      - [ -1.56791620e-02, -8.62227567e-03, -5.76457940e-03,
          -2.75966339e-03, -2.33342545e-03, -2.28173379e-03,
          -2.64777290e-03, -2.33296189e-03, -1.84236688e-03,
          -1.22109428e-02, -7.59793865e-03, -6.44246675e-03,
          -4.94487910e-03, -6.91885687e-03, -7.54380459e-03,
          -4.25764313e-03, -3.02627939e-03, 1.22599828e-03,
          -9.91831883e-04, 3.83872353e-03, 7.10927229e-03,
          8.48201849e-03, 5.28402952e-03, 3.50472028e-03, 9.81929625e-05,
          1.78015989e-03, 6.84867566e-03, -2.03250442e-04,
          1.83005130e-03, 3.88668414e-04, 1.72603671e-02, 4.51634265e-03,
          3.77121521e-03, 2.28699576e-03, 8.47672857e-03, 9.64394119e-03,
          1.26534002e-02, 5.11077186e-03, 6.53178990e-03, 5.09378314e-03,
          1.07101383e-04, 4.95790271e-04, -1.38567376e-03,
          -1.38369133e-03, -1.45378511e-03, 1.46120996e-03,
          -1.60821120e-03, -9.17856407e-04, -3.96510557e-04,
          4.63717181e-04, -2.71468121e-03, -3.76183703e-03,
          2.71287718e-04, -6.96097050e-05, -1.40129414e-03,
          -2.05448945e-03, 2.88921845e-04, -2.04004603e-03,
          -1.06161600e-03, -2.20647734e-03, -1.96278235e-03,
          -8.56977305e-04, -1.08644064e-03, -6.43930573e-04,
          -1.01290457e-03, -3.20743280e-03, -1.64284185e-03,
          -2.28920020e-03, -3.85943567e-04, -2.94434634e-04,
          2.32199163e-04, -1.44072378e-03, -2.83830077e-03,
          -1.18377665e-03, -1.65669399e-03, -1.95474975e-04,
          -1.17410405e-03, -1.21495966e-03, -2.79933418e-04,
          -2.80917389e-03, -1.69194094e-03, -2.31767830e-04,
          1.63485689e-04, -1.95654589e-04, -8.37683969e-04,
          -1.59081607e-03, 1.72262988e-03, 2.62883818e-03,
          -1.20394991e-03, 6.02717104e-04, 4.66051075e-04,
          -1.05787185e-03, 5.37449261e-04, 2.18921318e-03,
          1.58397704e-02, 5.04570641e-03, 1.68516245e-02, 2.70812539e-03,
          7.91716389e-03, 1.01348376e-02, 9.95911751e-03, 2.77403672e-03,
          3.01651750e-03, 2.11165939e-03, -1.72665936e-03,
          -2.21077888e-03, -2.09160335e-03, -1.95844984e-03,
          -1.35748880e-03, -2.02272995e-03, -2.31339666e-03,
          -2.54505454e-03, -1.25711190e-03, -1.23678963e-03,
          -2.64375238e-03, -2.27423175e-03, -1.17790897e-03,
          -1.34772854e-03, -7.28848157e-04, -3.94606777e-03,
          -1.62202760e-03, -4.41325037e-03, -2.22790428e-03,
          -5.88807161e-05, -1.80302490e-03, -2.25998717e-03,
          -1.66516413e-03, -6.22925349e-04, -3.10265389e-03,
          2.75402796e-04, 2.97393068e-04, -6.08196075e-04,
          -2.24294630e-03, -3.16762715e-03, -1.12385023e-03,
          1.18197652e-03, 1.30156009e-03, -9.37714474e-04,
          -7.80188711e-04, 1.13407627e-03, -6.36649667e-04,
          3.98443808e-04, 1.19629712e-03, 3.78265424e-04,
          -1.22650177e-03, 8.20997870e-04, 3.62179265e-03,
          2.22853952e-04, 7.94405118e-04, -8.71849305e-04,
          3.67376837e-03, -1.51370536e-03, 2.65324954e-03,
          1.45463611e-03, 1.98732852e-03, 6.20880572e-04, 2.56588426e-03,
          1.58716156e-03, -4.84566524e-04, 3.90760321e-03,
          1.68504834e-03, 7.56973517e-04, 2.11382774e-03, 3.44092469e-03,
          1.68953231e-03, -2.30082529e-04, -1.07448436e-02,
          -1.29084522e-02, -1.76614001e-02, -1.08137615e-02,
          -9.44038946e-03, -9.20690130e-03, -9.30468272e-03,
          -2.03859061e-02, -8.97524506e-03, -2.93040872e-02,
          -1.83082614e-02, -2.62059234e-02, -1.52737042e-02,
          -1.84018314e-02, -1.39071895e-02, -1.88903473e-02,
          -7.07663735e-03, -5.85211255e-03, -2.01837998e-03,
          7.45076453e-04, 3.49115115e-04, -8.14822211e-04,
          1.33031703e-04, 4.08610766e-04, 4.08793660e-03 ]
      - [ -3.17427912e-03, -1.56109943e-03, 4.72027241e-05,
          -2.44338607e-05, -8.08675482e-04, 3.44461383e-04,
          -1.71455995e-05, 2.18361529e-04, -1.12591726e-04,
          3.54103540e-04, -1.95535176e-04, 1.19567453e-03,
          6.45292341e-04, -2.80764856e-04, -1.15895015e-03,
          1.01664860e-03, -1.98346970e-04, 4.39894327e-04,
          -1.60317650e-04, 1.31733634e-03, 8.31800513e-03,
          8.32023006e-03, 6.55555772e-03, 7.27292616e-04, 2.87221395e-04,
          1.48573308e-03, 6.08070707e-03, 8.08935706e-03, 7.49081140e-03,
          9.09995381e-03, 8.66587181e-03, 9.40127485e-03, 1.40854332e-04,
          2.34245253e-03, 4.56443289e-03, 5.28816786e-03, 7.99078215e-03,
          5.31416712e-03, 3.30179976e-03, -1.06272451e-03,
          -2.14132760e-03, -1.62995211e-03, -2.59352592e-03,
          -1.16137182e-03, -1.89549336e-03, -1.48268091e-03,
          3.89086257e-04, -6.39127276e-04, 1.52037642e-03,
          4.50504012e-04, -3.38980783e-04, -1.04117862e-05,
          -2.76127219e-04, -2.91150674e-04, -1.02289632e-04,
          -3.72215931e-04, -1.13796756e-04, -6.75309217e-04,
          -5.55844395e-04, 1.45118327e-06, -1.15048734e-03,
          -1.12941954e-04, -4.09955974e-05, -1.96707970e-03,
          2.58830434e-04, -1.48428674e-03, -9.88447340e-04,
          -1.18431461e-03, -8.53275007e-04, -3.60365841e-04,
          -1.09038025e-03, -6.50755479e-04, -2.38890504e-03,
          -8.88937793e-04, -1.70371553e-04, -9.28648398e-04,
          -1.86594343e-03, -6.71549235e-04, -1.27309654e-03,
          -1.40074373e-03, -1.40726694e-03, -8.50218348e-04,
          -5.08130877e-04, -1.88888249e-03, -9.38550453e-04,
          -1.79343915e-03, -7.19278876e-04, -1.53983734e-03,
          -8.85289919e-04, -1.22964301e-03, -4.37474751e-04,
          -2.16201157e-03, -1.38612522e-03, -1.16799318e-03,
          6.17990922e-03, 1.12709142e-02, 2.10907198e-02, 1.55580454e-02,
          3.00406129e-04, -3.60978913e-04, -5.44701543e-05,
          7.56793961e-05, 1.15360330e-04, 1.60498330e-05,
          -1.29842269e-03, 9.71405825e-04, -2.22005314e-04,
          -3.23363842e-04, 6.55140320e-04, -7.11527944e-04,
          -1.71436419e-04, -3.65686894e-04, 7.53760163e-04,
          -9.67105461e-06, -4.77260677e-04, 2.12425366e-04,
          7.72256986e-04, -2.94549973e-04, -4.24947211e-05,
          -3.51386007e-05, -4.77260677e-04, -3.34503557e-06,
          9.67105461e-06, -9.67105461e-06, -1.04395044e-03,
          1.69925494e-04, 1.53342175e-04, -5.15968888e-04,
          -2.89195828e-04, -2.24072035e-04, 3.13255383e-04,
          -3.19080689e-04, -1.22381770e-03, 5.49153301e-05,
          -6.53424591e-04, -1.40395627e-04, -1.61697529e-03,
          3.69581045e-04, -1.30421191e-03, 5.12705185e-04,
          7.08189094e-04, 1.19226333e-03, 2.95815407e-03, 2.12867558e-03,
          1.94455695e-03, 2.03053141e-03, 2.46712891e-03, 1.17324083e-03,
          2.09382246e-03, 3.19719804e-03, 1.58678647e-03, 9.81814577e-04,
          1.73650344e-03, 2.03482504e-03, 1.38191925e-03, 1.81230856e-03,
          1.34210696e-03, 2.65507796e-03, 4.75186796e-04, 1.53081829e-03,
          1.16393028e-03, 1.70157338e-03, 8.75588681e-04, 1.31812657e-03,
          1.00197620e-03, 1.31954765e-03, -6.48939703e-03,
          -8.51182546e-03, -8.20545573e-03, -2.20747222e-03,
          9.71723348e-04, -3.59467464e-04, -5.65433875e-04,
          6.39961800e-05, 4.85071127e-04, -5.72785642e-03,
          -1.07626524e-02, -1.16612846e-02, -1.01341754e-02,
          -7.00075086e-03, -7.69667746e-03, -6.15304476e-03,
          -2.58136331e-03, 2.23084362e-06, -1.27113820e-03,
          -1.50762126e-03, -1.00791908e-03, -1.29419239e-03,
          -1.97270419e-03, -2.45558610e-03, -3.26016010e-03 ]
      - [ -6.97414856e-04, -2.18288414e-03, -7.81083054e-06,
          -7.52026564e-04, -4.00192279e-04, 9.91807436e-04,
          -5.28704841e-04, 4.48498991e-04, 5.40492823e-04,
          3.61630839e-04, 1.11803913e-03, -2.44637922e-04,
          1.04993943e-03, 3.68863548e-04, -3.05115045e-05,
          -2.78627936e-04, -2.44139756e-05, 9.59496654e-04,
          7.24923157e-05, 3.34620522e-03, 6.97450666e-03, 8.02981667e-03,
          5.87788038e-03, 5.82317030e-03, 3.13135609e-03, 3.83011834e-03,
          3.46400309e-03, 7.93737173e-03, 7.95287825e-03, 9.45186988e-03,
          9.64596868e-03, 9.59815551e-03, 5.79867698e-03, 7.29355030e-04,
          7.81783834e-03, 8.38552974e-03, 9.81363282e-03, 5.61641529e-03,
          7.37060700e-03, 4.77902777e-03, -1.25335914e-03,
          -6.25983754e-04, -1.34318369e-03, -1.73724780e-03,
          -1.16172864e-03, -4.31095890e-04, -1.98344071e-03,
          -9.29956790e-04, -1.56656420e-03, -1.50660891e-03,
          -1.32780254e-03, -3.21760844e-03, -1.81500532e-03,
          -1.32177840e-03, -3.76884849e-03, -9.38894285e-04,
          -2.39046593e-03, -4.34456440e-03, -2.81188521e-03,
          -6.62391540e-03, -1.18723810e-02, -1.25765242e-02,
          -1.34407515e-02, -7.22746085e-03, -9.14898235e-03,
          -7.93682877e-03, -1.52951851e-03, -3.05009133e-04,
          1.07127405e-03, 3.99032282e-03, 2.78381421e-03, 3.23601463e-03,
          1.54975604e-03, 5.86298411e-04, 4.61525779e-04, 1.46106794e-03,
          1.28730875e-03, 2.02020118e-03, 1.31635589e-03, 2.84651876e-04,
          9.42026381e-04, 1.57726769e-04, 1.37602526e-03,
          -3.31415184e-04, 1.75976846e-03, 8.87273694e-04,
          1.68555346e-03, 1.11504318e-03, 2.86822813e-03, 4.67068143e-03,
          1.09292811e-03, 9.39630787e-04, 9.19879938e-04, 4.58197377e-04,
          3.24655557e-03, 4.64704208e-04, 2.29794998e-03, 8.74215839e-05,
          -9.70813911e-04, 9.48996676e-05, 5.41650588e-05,
          4.63407778e-04, 2.01855306e-04, 1.54511858e-04,
          -1.22162432e-03, 5.99908468e-04, 3.56104923e-04,
          -5.58547676e-04, 6.25704008e-04, 2.43007962e-04,
          -6.13215205e-04, -8.90392257e-05, 1.06950977e-03,
          -1.61876102e-04, 3.43084743e-04, 9.67955159e-04,
          8.73493991e-05, -3.57138284e-04, 0., -8.37853950e-05,
          -1.94499895e-04, 1.27722858e-04, 1.61876102e-04,
          1.92112493e-04, -2.81333341e-04, 9.28417940e-05,
          -9.28417940e-05, 2.39020912e-04, 3.60145670e-04,
          4.20687400e-04, 3.01198306e-04, 5.28058270e-04, 2.61693844e-04,
          5.13529172e-04, 6.07658876e-04, 6.47038920e-04, 7.88348843e-04,
          3.27677641e-04, 5.48313721e-04, 4.70690138e-04, 1.16085098e-03,
          8.18303495e-04, -4.80576928e-05, 6.32524781e-04,
          8.09947029e-04, 3.96843650e-04, 1.80598945e-04, 1.05172093e-03,
          6.19819562e-04, 1.31498731e-03, 6.64998603e-04, 1.00151764e-03,
          1.04302762e-03, 1.67846389e-04, 1.07756280e-03, 9.39703896e-04,
          9.64965380e-04, 2.08986494e-05, 6.92517380e-04, 1.69152813e-03,
          1.38580406e-04, -2.89990392e-04, 1.02276762e-03,
          8.35593150e-04, 4.20598051e-04, 3.05295805e-04,
          -7.27115897e-03, -8.08182638e-03, -8.24581366e-03,
          -5.67202503e-03, -3.99407232e-03, -5.86383836e-03,
          -4.23298869e-03, -5.29551599e-03, -4.56524501e-03,
          -6.03519008e-03, -7.19785364e-03, -1.17307920e-02,
          -1.16133662e-02, -8.47777445e-03, -6.00180263e-03,
          -8.31318554e-03, -4.26460151e-03, -5.71482535e-03,
          -1.27920462e-03, -1.67697133e-03, -1.07005576e-03,
          -3.35554266e-03, -1.49959838e-03, -2.09215656e-03,
          -3.59011325e-03 ]
      - [ -6.20163465e-03, -1.06739323e-03, -2.21796473e-03,
          5.69885771e-04, -8.84453126e-04, -9.50185291e-04,
          1.35126244e-03, 1.54729118e-03, 3.79999756e-06, 8.63801921e-04,
          1.12333428e-03, 6.57623343e-04, 1.18565361e-03, 1.66016794e-03,
          3.25903762e-03, 6.49210997e-04, 1.46189018e-03, 4.09350637e-03,
          5.07640280e-03, 6.53152773e-03, 9.77742672e-03, 7.76476413e-03,
          1.00040911e-02, 8.09846818e-03, 1.25578167e-02, 1.24303233e-02,
          8.32338817e-03, 9.74048208e-03, 9.58840270e-03, 1.35762682e-02,
          8.64155870e-03, 1.04858493e-02, 8.49946402e-03, 8.14584456e-03,
          5.60709368e-03, -2.53442721e-03, -1.93777133e-03,
          -3.09497025e-03, -5.02498494e-03, -5.69981756e-03,
          -5.56153292e-03, -3.93562671e-03, -1.38198945e-03,
          -3.91481997e-04, 3.84475803e-04, 9.38256213e-04,
          7.46135833e-04, 2.05431273e-03, 1.15549087e-03, 2.25267722e-03,
          2.98113329e-03, 4.94868774e-03, 3.76867899e-03, 8.30839574e-03,
          5.37909102e-03, 4.83639119e-03, 1.25360757e-03, 1.20040320e-03,
          -3.23825167e-04, -7.24627986e-04, -7.96908571e-04,
          -8.52186698e-03, -7.11285928e-03, -7.03620538e-03,
          -5.94092952e-03, -1.23544214e-02, -1.15110595e-02,
          -1.32202366e-02, -5.79630584e-03, -9.31773707e-03,
          -6.65578479e-03, -5.42324828e-03, -3.41973687e-03,
          4.65301127e-04, 8.00860016e-06, -5.88064594e-03,
          -5.32898400e-03, -9.70468670e-03, -7.83594977e-03,
          -7.99647532e-03, -2.36223522e-03, 2.99194158e-04,
          -5.90687196e-05, -3.37836077e-03, -6.31945068e-03,
          -6.59478223e-03, -3.53550422e-03, 9.11286275e-04,
          4.45758458e-04, -5.09845384e-04, -1.74920948e-03,
          -3.35110840e-03, -4.90711886e-04, -1.50980358e-03,
          -3.49105708e-03, 9.12764284e-04, -3.00804852e-03,
          2.86788354e-03, -3.12494836e-03, -1.42166833e-03,
          -1.03067269e-03, -1.67020946e-03, -1.15620787e-03,
          -9.90000204e-04, -5.23202471e-04, -5.56578045e-04,
          -7.65749661e-04, -3.78093566e-04, -4.42534656e-04,
          7.41187308e-04, -1.37255667e-03, -1.06588286e-05,
          -2.01219809e-04, 1.66442653e-04, 1.74603672e-04,
          -1.42431899e-03, 0., 9.05754161e-04, -6.11851632e-04,
          -8.34120961e-04, 9.89843393e-04, 1.07088871e-03,
          -5.89032774e-04, 4.25153528e-04, 7.78915652e-04,
          1.73710010e-04, 3.43732769e-04, 7.45929836e-04, 3.80653364e-04,
          9.18370264e-04, 1.32035161e-03, 8.65163398e-04, 1.68430779e-04,
          1.39294332e-03, 8.49873468e-04, 2.48749391e-04, 7.67073536e-04,
          9.38378973e-04, 9.64399078e-04, 1.64636629e-04,
          -8.49046701e-05, -1.52201427e-03, -2.19360832e-03,
          -2.17116158e-03, -2.07410124e-03, -7.24341022e-04,
          -1.91005907e-04, -7.54851324e-04, 5.69902686e-03,
          5.72257629e-03, 5.65456878e-03, -4.68134996e-04,
          -1.49568054e-03, 8.13582272e-04, -1.20959681e-04,
          8.40828405e-04, 1.04118395e-03, -1.50033506e-03,
          1.74957816e-03, 1.13252108e-03, -2.56369676e-04,
          -7.41046097e-04, -1.92112988e-03, -3.21663043e-04,
          -1.43959012e-03, -1.62867934e-03, -7.28563929e-04,
          -3.24473227e-03, -2.68979720e-03, -2.03162222e-03,
          9.87906242e-04, 6.37287623e-04, 3.12651711e-04, 8.56750936e-04,
          5.44548850e-04, 1.06041902e-03, 1.16669165e-03, 7.68299040e-04,
          1.00823015e-03, 1.82163867e-03, 1.30772765e-03, 8.80878360e-04,
          1.53112307e-03, 9.48757806e-04, 1.90503802e-03, 1.59895129e-03,
          -3.56383063e-03, -2.26170034e-03, -4.36832057e-03,
          2.11879262e-03, 4.29999409e-03 ]
      - [ 7.66338257e-04, 3.55774187e-03, 3.72122182e-03, 5.95112157e-04,
          -3.89588589e-04, 6.46932691e-04, 7.04635924e-04,
          -3.21122585e-04, -3.44553409e-04, -5.03563322e-04,
          -5.84616442e-04, -4.15455725e-04, -8.17235705e-05,
          -3.66490945e-04, -2.65908224e-04, 2.03794159e-04,
          -9.09017472e-05, 1.34295039e-03, 6.34670584e-03,
          6.34538382e-03, 7.82495271e-03, 2.77399248e-03, 6.17498206e-03,
          8.35425500e-03, 1.07190376e-02, 8.35948344e-03, 5.01030730e-03,
          4.80009895e-03, 5.44180349e-03, 7.59813655e-03, 6.34870771e-03,
          5.29703125e-03, 4.30844072e-03, 4.33845492e-03, 3.73619818e-03,
          -1.41169585e-03, -1.22431142e-03, -1.55755202e-03,
          -3.00326664e-03, -4.89289500e-03, -5.60474722e-03,
          -4.60345717e-03, -1.52932352e-03, -4.88041405e-05,
          -4.85638186e-04, -1.08188938e-03, -4.27033199e-04,
          -2.36325827e-03, -5.09912521e-03, -8.50747619e-03,
          -4.37390944e-03, -5.78352436e-03, -2.56138528e-03,
          -3.45957652e-03, -2.84577045e-03, -6.92673260e-03,
          -7.73003604e-03, -5.10857487e-03, -9.46331769e-04,
          2.85089918e-04, -2.81882880e-04, -1.56757166e-03,
          -1.21176720e-03, -1.74251222e-03, -2.48463475e-03,
          -4.14830493e-03, -2.52765161e-03, -3.30739515e-03,
          -5.83202112e-04, -2.65673571e-03, -3.11097334e-04,
          -1.05570664e-03, -1.04577199e-03, 1.15710567e-03,
          7.20017124e-04, -2.34479690e-03, 2.78466818e-04,
          -1.35095674e-03, -3.21950647e-03, 5.82374050e-04,
          2.42092274e-03, 7.72135798e-03, 3.19897011e-03, 2.42803828e-03,
          4.99770138e-03, 1.93146814e-03, 2.56381300e-03, 3.44019267e-04,
          -4.07257321e-04, 3.33932781e-04, 1.24211001e-04,
          1.80426636e-04, 1.73478416e-04, -1.20829216e-04,
          -1.04857900e-03, 4.83448151e-03, 2.79735681e-03,
          2.87070870e-03, -7.74537155e-04, -1.71825860e-03,
          -1.03008479e-03, -7.55746791e-04, -3.26406164e-03,
          -4.42566629e-03, -5.82045130e-03, -5.50689083e-03,
          -6.26947638e-03, -7.03606429e-03, -9.07626469e-03,
          -1.08586308e-02, -9.28089861e-03, -9.92187392e-03,
          -2.68487213e-03, -2.07317853e-03, -3.45078850e-04,
          -3.53753683e-04, -1.04079918e-04, 5.86136885e-04,
          -9.68178865e-05, 2.28238241e-06, 4.96476860e-05,
          8.97004851e-04, 7.55683461e-04, 7.31549633e-04, 7.22931174e-04,
          1.47775793e-03, 4.24934365e-03, 4.08846652e-03, 4.35297564e-03,
          4.87310626e-03, 6.31576311e-03, 4.95308638e-03, 5.66624384e-03,
          6.57703029e-03, 5.43361856e-03, 4.40859143e-03, 1.96049432e-03,
          1.90098607e-03, 1.95667846e-03, 6.12046628e-04,
          -1.23107850e-04, -4.69822611e-04, -1.04843848e-03,
          -3.54708551e-04, -6.93165115e-04, 3.52247116e-05,
          -1.69262988e-04, -6.30865572e-04, -1.20328492e-04,
          -4.73817090e-05, -3.14191828e-04, -2.50044744e-04,
          -1.38993637e-04, 1.91337618e-04, -5.76954153e-05, 0., 0.,
          -4.46104241e-05, 6.52796007e-05, -5.76954153e-05, 0., 0., 0.,
          0., -8.01719798e-05, 0., 0., 2.14094985e-06, 0.,
          -1.12675472e-04, 3.09088427e-05, 2.66411462e-07,
          1.17931093e-04, -6.09742885e-04, 2.87760049e-04,
          -2.42010501e-04, 2.45619536e-04, -1.59551011e-04,
          -6.53860479e-05, -2.36623891e-04, 5.52897691e-04,
          -7.59702307e-05, 1.42150020e-04, -5.14504092e-04,
          5.83132089e-04, 5.16149612e-06, -1.60628158e-04,
          9.36450135e-08, 3.58395948e-04, -9.09183349e-04,
          1.65194971e-04 ]
      - [ -1.68391818e-03, 6.39309757e-04, -2.78470892e-04,
          1.75270587e-04, 5.15198568e-04, 3.61709099e-04, 3.50709568e-04,
          3.07199312e-04, 5.13866486e-04, 5.20126254e-04, 7.56829686e-05,
          6.80452853e-04, 4.62789729e-04, 2.43377690e-05, 1.38626900e-04,
          4.42885444e-04, 6.24727400e-04, 1.76803698e-03, 2.24678288e-03,
          2.69791670e-03, 5.01358602e-03, 4.14515426e-03, 5.10622095e-03,
          4.51845629e-03, 4.29974962e-03, 4.12233127e-03, 2.96545704e-03,
          6.04478223e-03, 7.91717507e-03, 8.72502383e-03, 5.15114050e-03,
          7.67933484e-03, 5.79037517e-03, 5.86975599e-03, 2.87211500e-03,
          -9.49825335e-04, -9.98689327e-04, -7.53902656e-04,
          -3.26052215e-03, -2.93746870e-03, -1.89596449e-03,
          -1.16310245e-03, -2.62407091e-04, 0., 1.73217850e-04,
          4.90866834e-04, 4.13668604e-04, 9.82946716e-04, 2.59839639e-04,
          4.71856241e-04, 1.71129499e-03, 1.73243054e-03, 2.58461945e-03,
          4.06107167e-03, 2.44431011e-03, 1.99296768e-03, 8.70036136e-04,
          6.32154057e-04, 3.86264757e-04, 5.25823969e-04,
          -1.40869204e-04, -5.10055013e-03, -4.98236483e-03,
          -4.42722207e-03, -3.17187351e-03, -7.53258681e-03,
          -7.39834504e-03, -7.75713753e-03, -3.45332781e-03,
          -6.93402393e-03, -3.69548565e-03, -2.95121805e-03,
          -2.02093710e-04, -6.28611670e-05, -2.42678128e-04,
          -4.39991429e-03, -4.13383823e-03, -6.26324676e-03,
          -2.74814316e-03, -2.64691119e-03, -2.72948499e-04,
          -3.85728781e-04, -6.90369052e-04, -3.42631806e-03,
          -3.78223090e-03, -3.96793801e-03, -8.56508501e-04,
          -4.72454776e-05, -6.98740259e-05, -2.80860433e-04,
          -7.10935507e-04, 8.60577929e-05, 8.76361955e-05,
          6.31830562e-06, -2.86738912e-04, 1.17439777e-02,
          6.16594125e-03, 6.66747568e-03, -1.23620222e-04,
          -9.01771593e-04, -7.29261723e-04, -1.14440650e-03,
          -1.34330220e-03, -1.02703483e-03, -8.56879051e-04,
          -3.11539683e-04, -1.02054456e-03, -4.46018967e-04,
          -5.06537035e-03, -4.32606600e-03, -6.07838482e-03,
          -1.59103703e-03, -3.58757167e-03, -2.72159418e-03,
          -2.78948946e-03, -1.00012054e-03, -3.06955632e-03,
          -3.09394021e-03, -3.07489256e-03, -4.34626825e-03,
          -3.83865973e-03, -3.83752235e-03, -3.88445123e-03,
          -5.29133063e-03, -5.24466392e-03, -1.56677398e-03,
          -3.31427553e-04, 1.51902949e-03, 4.28508501e-03,
          7.59897847e-03, 7.80676678e-03, 6.83186390e-03, 5.61304530e-03,
          6.04474032e-03, 6.26435550e-03, 3.44831194e-03, 1.86047028e-03,
          1.22540281e-03, 1.18928601e-03, 9.54179035e-04, 7.19970558e-04,
          -4.17949108e-04, -7.03802099e-04, -2.79836473e-04,
          -4.36944305e-04, -3.64863750e-04, -3.82961472e-04,
          -7.90716207e-04, -3.03335226e-04, -1.09169254e-04,
          -6.12039352e-04, 5.15186875e-05, -2.29090598e-04,
          -1.98260546e-04, 1.13257163e-04, 0., 0., -1.24684680e-04, 0.,
          -5.72135468e-05, -1.04902130e-04, -8.87524948e-05,
          -2.21199429e-04, 0., 0., -3.26101552e-04, -1.66403071e-04,
          1.52337398e-05, 0., -3.26101552e-04, -1.25880702e-04,
          -8.87524948e-05, 1.85665649e-05, -2.61229376e-04,
