<?xml version="1.0"?>
<opencv_storage>
<opencv_ml_svm>
  <format>3</format>
  <svmType>C_SVC</svmType>
  <kernel>
    <type>LINEAR</type></kernel>
  <C>1.</C>
  <term_criteria><iterations>100</iterations></term_criteria>
  <var_count>166</var_count>
  <class_count>10</class_count>
  <class_labels type_id="opencv-matrix">
    <rows>10</rows>
    <cols>1</cols>
    <dt>i</dt>
    <data>
      0 1 2 3 4 5 6 7 8 9</data></class_labels>
  <sv_total>45</sv_total>
  <support_vectors>
    <_>
      3.05987400e-04 7.54617387e-04 1.04975002e-03 1.36931834e-03
      1.38433382e-03 1.56968506e-03 1.76525698e-03 1.95677811e-03
      1.96415070e-03 2.07093800e-03 2.19618599e-03 1.88864628e-03
      1.43546623e-03 1.46917987e-03 1.29558682e-03 1.14616635e-03
      9.55438358e-04 7.67362479e-04 7.47168087e-04 6.58383360e-04
      5.50802855e-04 4.57321003e-04 4.41847078e-04 3.34822660e-04
      3.09856870e-04 2.05238277e-04 1.47475774e-04 -7.68385653e-04
      -7.53975473e-04 -8.19455308e-04 -8.55099410e-04 -8.96406767e-04
      -8.93731427e-04 -9.37428500e-04 -9.13256023e-04 -8.77660292e-04
      -8.70795397e-04 -8.96628830e-04 -9.21308994e-04 -8.61540728e-04
      -8.70795397e-04 -8.81932967e-04 -9.24877997e-04 -9.26974870e-04
      1.54798516e-04 7.03734331e-05 1.30803339e-04 -1.38908770e-04
      -1.01359234e-04 -5.94772981e-04 -1.22779270e-03 -1.13242876e-03
      -1.07242237e-03 -1.10666873e-03 -9.08495684e-04 -7.20419805e-04
      -5.72660181e-04 -4.40374453e-04 -4.75970184e-04 -1.04611572e-04
      4.50102409e-04 3.62839812e-04 2.55522522e-04 2.94368423e-04
      1.24491125e-04 7.03628175e-05 -1.22229350e-04 -1.02908059e-04
      -3.11112963e-04 -5.42859081e-04 -1.72912652e-04 -2.16663466e-04
      4.85777855e-05 1.77418158e-04 2.26049669e-04 3.42043088e-04
      4.48830280e-04 4.57405229e-04 5.06085111e-04 2.57903506e-04
      1.31010573e-04 3.81499522e-05 1.93055908e-04 7.47700687e-05
      -4.59307594e-05 -1.48077728e-04 -2.72656878e-04 -3.61932471e-04
      -5.51289879e-04 -7.33102032e-04 -7.44525285e-04 -7.58935465e-04
      -6.93046371e-04 -5.34912047e-04 -4.29287815e-04 -3.29125614e-04
      -1.21258905e-04 1.95422312e-04 2.01133938e-04 1.93032567e-04
      1.88981881e-04 1.96354435e-04 1.63148448e-04 1.57436836e-04
      1.75897716e-04 1.87320955e-04 1.53386150e-04 1.41962912e-04
      1.41962912e-04 1.85660014e-04 1.97083253e-04 1.78066301e-04
      1.32708272e-04 1.02824160e-04 1.02824160e-04 1.10925524e-04
      1.40809643e-04 1.36758958e-04 1.29386404e-04 1.56880764e-04
      1.56880764e-04 1.62592391e-04 1.66643062e-04 1.31047331e-04
      1.35098016e-04 1.46013597e-04 1.47674538e-04 1.47674538e-04
      1.71847030e-04 2.01731134e-04 2.05781820e-04 2.13154373e-04
      1.83270269e-04 1.77558642e-04 2.11493447e-04 2.11493447e-04
      2.26967357e-04 1.85660014e-04 2.07442761e-04 2.18866000e-04
      2.28628298e-04 2.06845551e-04 2.36729669e-04 3.10908072e-04
      2.48750119e-04 2.54461716e-04 2.98158819e-04 3.15293699e-04
      3.21005296e-04 3.21005296e-04 3.46838729e-04 3.95518640e-04
      2.14375134e-04 5.01234099e-05 4.34305584e-05 -2.06046941e-04
      -1.71514941e-04 -7.69442704e-05 6.10530551e-05 2.04762007e-04
      1.07737105e-04 5.00059514e-06 -9.30880269e-05 -2.29759331e-04
      -3.60260659e-04 -5.34334569e-04</_>
    <_>
      7.80512113e-04 1.26341614e-03 1.45102048e-03 2.03923159e-03
      1.54705299e-03 1.61811977e-03 2.04535015e-03 2.10055965e-03
      1.98369729e-03 2.16399622e-03 2.23851693e-03 1.35314837e-03
      4.29329957e-04 4.19167394e-04 3.65243643e-04 5.01689326e-04
      7.86420205e-05 2.59649059e-05 1.46779596e-04 -2.72024219e-04
      -2.84302136e-04 -4.96780209e-04 -4.89156868e-04 -5.20580215e-04
      -5.50319033e-04 -4.99411544e-04 -4.87140584e-04 -6.37534715e-04
      -5.81403554e-04 -6.87513617e-04 -6.76422380e-04 -7.61868432e-04
      -8.37151951e-04 -9.75865056e-04 -8.35043553e-04 -6.95740629e-04
      -7.81186740e-04 -8.46134790e-04 -8.02440511e-04 -7.79834110e-04
      -8.55541613e-04 -8.66632850e-04 -8.46134790e-04 -7.16994458e-04
      -6.11640222e-04 -9.23353829e-04 -8.46890616e-04 -7.31373788e-04
      -6.99784548e-04 -8.19511188e-04 -6.00914471e-04 -6.30819297e-04
      -2.48370750e-04 -5.08952537e-04 -6.50390575e-04 -3.25060304e-04
      -4.13900474e-04 -1.20583391e-04 -1.83761877e-04 5.10758837e-04
      1.69403770e-03 1.63195375e-03 1.23825506e-03 1.28557626e-03
      8.27512355e-04 5.45611430e-04 4.30094631e-04 1.10695476e-03
      8.83300381e-04 1.08915509e-03 -3.99526121e-04 -5.36296749e-04
      -5.15208871e-04 -6.82050188e-04 -9.00853425e-04 -2.98540341e-04
      2.57970096e-04 3.63269850e-04 8.68939271e-04 7.22138386e-04
      5.97008271e-04 5.60022483e-04 6.55048236e-04 5.01233677e-04
      2.28732577e-04 3.28558031e-04 2.22024057e-04 1.83559678e-05
      -4.38938550e-05 9.96258605e-05 7.64295983e-05 -2.06975892e-05
      -5.27107659e-05 -4.36412869e-04 -5.94437297e-04 -7.10709894e-04
      -7.09357264e-04 -7.51109095e-04 -8.24284216e-04 -9.02100059e-04
      -8.66035989e-04 -7.34953210e-04 -6.29175047e-04 -6.16141304e-04
      -1.68870072e-04 1.40311240e-04 1.31022869e-04 5.28042961e-04
      5.94343641e-04 6.04082306e-04 6.45834079e-04 6.68274588e-04
      6.47020759e-04 4.51579719e-04 5.38378430e-04 5.91645425e-04
      6.77091477e-04 6.24414359e-04 6.01973908e-04 6.13655022e-04
      7.53720640e-04 9.25799483e-04 9.45110864e-04 7.65235804e-04
      7.42629403e-04 7.53554748e-04 8.47983640e-04 9.33429750e-04
      8.60844506e-04 9.46456508e-04 9.66954511e-04 1.09356258e-03
      1.00600813e-03 9.86862695e-04 1.11659290e-03 1.01827900e-03
      1.12363324e-03 9.61723912e-04 1.14488706e-03 1.10313529e-03
      1.10491179e-03 8.31323036e-04 5.25344745e-04 7.94709718e-04
      5.91048563e-04 5.92991069e-04 7.50259671e-04 7.29595718e-04
      6.74386276e-04 8.02936789e-04 7.23012548e-04 8.22844915e-04
      7.22263707e-04 9.35331627e-04 6.06035639e-04 -3.13368975e-04
      -7.65825389e-04 -2.37320573e-03 -2.16263649e-03 -1.90014602e-03
      -2.10380717e-03 -2.33964738e-03 -2.54271878e-03 -2.87206611e-03
      -3.06496792e-03 -3.23249120e-03</_>
    <_>
      1.82127650e-03 2.28818948e-03 2.24306039e-03 2.66165496e-03
      2.69990927e-03 2.91597936e-03 3.14798323e-03 3.22087109e-03
      3.24688945e-03 3.45657347e-03 3.80370906e-03 2.94306548e-03
      1.80635881e-03 1.88397849e-03 1.98414689e-03 1.86003186e-03
      1.79988914e-03 1.67580904e-03 1.86487776e-03 1.57861947e-03
      1.40206923e-03 9.86596919e-04 1.07870565e-03 8.70880496e-04
      6.92084606e-04 5.68139658e-04 2.78068590e-04 1.72164582e-04
      -8.61059743e-05 -5.85039845e-04 -5.51226607e-04 -5.39350323e-04
      -7.23466277e-04 -8.02085036e-04 -7.66641693e-04 -7.35662470e-04
      -8.29239900e-04 -8.80616892e-04 -1.10008928e-03 -8.66226444e-04
      -1.04871229e-03 -1.28314330e-03 -1.14290125e-03 -1.14793365e-03
      -1.31095317e-03 -1.25744473e-03 -1.39927329e-03 -1.70416501e-03
      -1.49532140e-03 -1.81802909e-03 -1.52752781e-03 -1.62935420e-03
      -2.42196652e-03 -2.46315589e-03 -2.09258264e-03 -2.13864329e-03
      -1.90195790e-03 -1.62274891e-03 -1.68452191e-03 -1.65299862e-04
      -1.22717727e-04 7.76952147e-05 1.84668810e-04 7.16009527e-05
      3.22601467e-04 3.59244790e-04 1.06712081e-03 1.67205266e-03
      1.71753706e-03 1.31006446e-03 -2.19523645e-04 -5.67219569e-04
      -8.64564732e-04 -7.59111019e-04 -8.99352948e-04 -5.93754754e-04
      -4.81651019e-04 -1.97469068e-04 -1.38880991e-04 1.31921857e-04
      3.45161679e-05 6.97072901e-05 3.47629684e-04 3.62020131e-04
      -1.53396351e-04 2.61977286e-04 1.64768629e-04 7.26868893e-05
      7.27303486e-05 5.11325816e-05 -3.99741512e-05 -6.00085914e-05
      4.89342674e-05 1.80419829e-05 -2.00455383e-04 -1.68544633e-04
      6.44341708e-05 3.22956970e-04 6.91101945e-04 1.30665966e-03
      1.51754369e-03 1.62242923e-03 1.45433389e-03 1.60291954e-03
      1.44338910e-03 1.18577364e-03 1.17036467e-03 1.11214374e-03
      9.77861579e-04 9.73149145e-04 2.46225361e-04 -3.69040237e-04
      -5.77161030e-04 -9.43494379e-04 -6.96168572e-04 -9.28062131e-04
      -1.19075342e-03 -1.24306197e-03 -5.55903302e-04 -7.98153284e-04
      3.07706563e-04 8.30393052e-04 1.13333471e-03 1.01353403e-03
      1.22894906e-03 1.24431448e-03 1.34165352e-03 1.31031103e-03
      1.37254584e-03 1.60543364e-03 1.66462967e-03 1.67999510e-03
      1.58762163e-03 1.60974415e-03 1.74296426e-03 1.02598243e-03
      9.83781996e-04 8.16050044e-04 6.73246395e-04 5.11951512e-04
      4.90985520e-04 3.76966898e-04 3.49156937e-04 1.03461258e-04
      1.23495702e-04 2.74638965e-04 1.52801324e-04 -9.54519419e-05
      -1.68331790e-05 -2.15864304e-04 -3.44841596e-04 -1.33002628e-04
      -2.06020850e-04 -2.00716007e-04 6.71931557e-05 -3.93659466e-05
      -1.34597678e-04 -2.20901100e-04 -1.05722873e-04 -3.85259715e-04
      -7.04885053e-04 -8.94020835e-04 -1.32916460e-03 -1.33596512e-03
      -1.13750214e-03 -9.14311619e-04</_>
    <_>
      1.04818039e-03 1.59447547e-03 1.24154892e-03 6.46230299e-04
      4.34696442e-04 1.31095279e-04 1.80243092e-04 2.02767478e-04
      3.29184346e-04 5.82319568e-04 6.77124423e-04 1.02587952e-03
      1.24740542e-03 5.56594459e-04 2.12582730e-04 8.07879667e-04
      8.96946236e-04 6.87233463e-04 1.60980780e-04 8.50851866e-05
      -2.01180839e-04 -3.90415225e-04 -2.88927607e-04 -4.66888392e-04
      -6.63942017e-04 -6.91863708e-04 -8.44076218e-04 -9.34446580e-04
      -1.28122640e-03 -1.24086440e-03 -1.27180305e-03 -1.45406590e-03
      -1.44815852e-03 -1.45545881e-03 -1.34253583e-03 -1.39750587e-03
      -1.45782123e-03 -1.43980631e-03 -1.61790871e-03 -1.65036228e-03
      -1.58287131e-03 -1.50950369e-03 -1.49844482e-03 -1.33400422e-03
      -1.23834552e-03 -1.10923208e-03 -1.09850813e-03 -1.05653435e-03
      -9.69889807e-04 -9.81997349e-04 -8.32200632e-04 -2.91721866e-04
      -1.54074049e-04 1.29727880e-04 8.46906449e-04 1.22236717e-03
      9.48982604e-04 1.53773220e-03 2.49844231e-03 2.34095356e-03
      2.56607984e-03 2.56502395e-03 2.57858890e-03 2.53380300e-03
      2.69861659e-03 2.50201882e-03 2.29989248e-03 2.12797872e-03
      2.14080350e-03 1.85384671e-03 2.41012109e-04 1.00909034e-03
      1.08059321e-03 1.27744931e-03 1.15270319e-03 1.24099432e-03
      9.56050935e-04 6.88568456e-04 7.21750373e-04 6.08763832e-04
      5.78494510e-04 6.93739159e-04 6.65301399e-04 4.73928812e-04
      1.82147254e-04 1.43106809e-04 2.01155257e-04 1.08569766e-04
      3.28351816e-05 8.01372371e-05 4.74729051e-04 3.78166151e-04
      2.68604868e-04 2.47148098e-04 1.66485872e-04 1.60647454e-04
      8.28541379e-05 3.68957299e-05 5.29907720e-06 6.58229546e-05
      -1.50876185e-05 -1.56673486e-05 -2.23714224e-07 1.27898049e-04
      7.02078032e-05 8.24217932e-05 5.59885884e-05 9.14434568e-05
      1.14385839e-04 1.20209501e-04 1.44301783e-04 9.69997200e-05
      8.86256894e-05 3.51351046e-05 5.72308381e-05 7.58204260e-05
      9.06260611e-05 1.56385082e-04 -1.49733125e-04 -2.03155287e-04
      -3.67018161e-04 -3.39830673e-04 -4.09939588e-04 -4.99968941e-04
      -5.23079827e-04 -8.02275375e-04 -9.30267212e-04 -1.02594902e-03
      -7.86225079e-04 -6.76839030e-04 -4.63353004e-04 -1.37141527e-04
      -1.81196519e-04 -2.15470427e-04 -1.35836206e-04 -1.23593083e-04
      -2.27367520e-04 -2.74338003e-04 -3.28898343e-04 -2.47794756e-04
      -3.41062725e-04 -3.16836231e-04 -2.28829274e-04 -4.22355166e-04
      -4.06294828e-04 -4.04667575e-04 -4.13459609e-04 -3.74401512e-04
      -2.17766443e-04 -2.19376452e-04 -2.84741458e-04 -1.35130496e-04
      -4.14233145e-05 7.87289391e-05 3.29660106e-04 1.15217073e-04
      1.17823991e-04 1.85562298e-04 3.49039212e-04 5.19530673e-04
      8.20178655e-04 1.21778552e-03 1.21151516e-03 1.23393605e-03
      1.18843769e-03 1.03208679e-03</_>
    <_>
      1.45445159e-03 1.38590834e-03 9.95630631e-04 7.17479270e-04
      2.91346132e-05 3.40949249e-04 3.79384728e-04 3.70643626e-04
      1.53959641e-04 5.48496027e-04 1.15902990e-03 6.59189594e-04
      -3.72456198e-05 -1.49441385e-05 3.72322073e-04 1.92982989e-04
      1.22378275e-04 -4.22170124e-04 -4.66539816e-04 -1.84098855e-04
      -2.08863668e-04 -2.74590770e-04 -2.02380557e-04 -3.97390628e-04
      -4.27227758e-04 -4.80181014e-04 -4.70666215e-04 -4.70379891e-04
      -5.22859918e-04 -7.45447818e-04 -7.90321385e-04 -7.93840911e-04
      -8.68184259e-04 -8.56168743e-04 -8.40106630e-04 -7.82170391e-04
      -8.61158420e-04 -8.12505255e-04 -8.25376308e-04 -7.49114028e-04
      -8.00337410e-04 -8.42470617e-04 -7.82257470e-04 -7.91681057e-04
      -7.84849690e-04 -8.17122753e-04 -7.49213039e-04 -7.94846739e-04
      -6.05432899e-04 -8.62385263e-04 -5.98676561e-04 -2.79481319e-04
      -2.47770135e-04 -1.76442161e-04 1.70576677e-04 -1.12812377e-04
      1.41046170e-04 3.17466649e-04 2.76918116e-04 1.75352336e-03
      2.20797607e-03 1.89323584e-03 1.58588425e-03 1.76564790e-03
      1.72179053e-03 1.50957773e-03 1.23956730e-03 1.75015873e-03
      1.40377821e-03 1.03738345e-03 -8.65484588e-04 -1.55823224e-03
      -2.26275739e-03 -2.14703195e-03 -2.03447859e-03 -2.10308027e-03
      -9.61090554e-04 -7.92500970e-04 -9.82749043e-04 -1.20536378e-03
      -4.89644881e-04 -3.68952577e-04 2.11309758e-04 1.33158849e-03
      1.86344120e-03 2.04339554e-03 1.93677167e-03 1.77599012e-03
      1.82710763e-03 1.89325691e-03 1.78454118e-03 1.67993514e-03
      1.76263775e-03 1.68573693e-03 1.56513625e-03 1.61565142e-03
      1.22269487e-03 1.14840688e-03 9.51319875e-04 7.51464744e-04
      4.13996022e-04 3.15605022e-04 1.79139053e-04 -1.94388376e-05
      -8.00891547e-04 -1.50420284e-03 -2.02734559e-03 -2.54669483e-03
      -2.70363945e-03 -2.79488578e-03 -2.68830266e-03 -2.41232780e-03
      -2.10344838e-03 -1.51355425e-03 -1.36765093e-03 -1.11547869e-03
      -9.33319447e-04 -8.64543603e-04 -5.80199354e-04 -3.82821047e-04
      -2.36377819e-04 -9.74658105e-05 1.58077833e-04 1.69035207e-04
      3.80050245e-04 9.19890124e-04 1.00773131e-03 1.06387073e-03
      1.17691827e-03 1.20559591e-03 1.24349585e-03 1.30844524e-03
      1.29859871e-03 1.29326317e-03 1.41917181e-03 1.36859098e-03
      1.27817609e-03 1.10923499e-03 1.10134133e-03 8.09435733e-04
      7.52866967e-04 7.01661455e-04 6.37642574e-04 3.72368027e-04
      3.95891024e-04 3.35848192e-04 3.62560764e-04 1.21755496e-04
      1.56702590e-04 -2.60265606e-05 -1.28814325e-04 6.59144062e-05
      1.69649255e-04 3.34496959e-04 1.30427579e-04 1.72334214e-04
      9.34454947e-05 1.14507435e-04 4.12115769e-04 4.58867493e-04
      -3.39724327e-04 -8.94069904e-04 -7.95517291e-04 -9.06217378e-04
      -8.98707251e-04 -6.99314347e-04</_>
    <_>
      -9.39144171e-04 -2.80456925e-06 5.56911145e-05 -4.38499992e-04
      2.89481570e-04 6.23519940e-04 9.25273402e-04 6.40743703e-04
      4.60599607e-04 7.49294821e-04 6.22205669e-04 1.18372485e-03
      1.14798150e-03 -6.71086091e-05 -1.14148250e-03 -1.15053845e-03
      -9.28932044e-04 2.46543961e-04 -1.30109047e-03 -8.87860253e-04
      -6.19971426e-04 -1.32295268e-03 -1.09964411e-03 -8.23791721e-04
      -1.21522625e-03 -1.01186731e-03 -9.39339516e-04 -9.41108738e-04
      -1.47615094e-03 -1.18507817e-03 -1.42358546e-03 -1.38150179e-03
      -1.53894490e-03 -1.61775830e-03 -1.42559805e-03 -1.37857243e-03
      -1.47915457e-03 -1.31914171e-03 -1.23127957e-03 -1.19227765e-03
      -1.33555126e-03 -1.25475461e-03 -1.14484609e-03 -7.86630320e-04
      -8.64086498e-04 -6.10837480e-04 -9.43282444e-04 -7.77903828e-04
      -1.07691856e-03 -1.11344922e-03 -7.43994839e-04 -4.89116297e-04
      2.92259610e-05 1.28361071e-03 1.03792793e-03 -2.09520120e-04
      -1.46821156e-04 1.06188247e-03 2.40402692e-03 2.31671822e-03
      2.74839392e-03 2.76614819e-03 2.62700813e-03 2.33865017e-03
      2.78623961e-03 2.50030449e-03 2.65775574e-03 1.71479175e-03
      1.54356542e-03 1.42805127e-03 -5.82002976e-04 4.38011310e-04
      4.14246490e-04 1.00126985e-04 1.86462261e-04 3.52628413e-04
      -3.50320537e-04 6.12462056e-04 1.17529929e-03 1.67650217e-03
      1.84761966e-03 2.61387229e-03 2.74835317e-03 2.53482093e-03
      1.72573759e-03 1.60189718e-03 1.49320124e-03 1.24836771e-03
      9.40322585e-04 1.11813785e-03 9.75104340e-04 1.05035095e-03
      1.28902891e-03 1.26377121e-03 1.39628781e-03 1.78660441e-03
      2.07639020e-03 2.61122314e-03 3.37992492e-03 3.44144856e-03
      3.27680027e-03 3.17465933e-03 2.74833478e-03 2.54093995e-03
      2.19627004e-03 1.83371303e-03 2.35226820e-04 -1.27985724e-03
      -3.44248908e-03 -4.22386965e-03 -4.90139704e-03 -5.56155015e-03
      -6.35150215e-03 -6.67857565e-03 -5.80965308e-03 -3.71333584e-03
      -2.90573016e-03 -2.37113051e-03 -2.01803353e-03 -1.71202607e-03
      -1.21422089e-03 -8.46777810e-04 -9.33577307e-04 -5.50903671e-04
      -5.18287998e-04 -5.09017031e-04 -4.58646682e-04 -4.34712972e-04
      -3.63861356e-04 -1.19758857e-04 -4.59268704e-05 -7.85880038e-05
      3.52305615e-05 -6.62865341e-06 1.23452455e-05 -1.54080499e-05
      3.42269573e-06 2.67828087e-04 2.41670394e-04 -3.53989672e-05
      -1.35923538e-05 -1.53978515e-04 -6.50645015e-05 -1.25853447e-04
      -2.39838104e-04 -1.51032626e-04 -1.55144866e-04 -2.49876466e-04
      8.04894516e-05 9.68739769e-05 8.87479255e-05 4.81138006e-04
      3.97080759e-04 6.78708893e-04 1.40893064e-03 1.08307321e-03
      4.13189962e-04 3.48074420e-04 -2.16136134e-04 -1.01932662e-03
      -1.20510743e-03 -1.55209727e-03 -1.49231788e-03 -1.47408794e-03
      -1.16286357e-03 -1.22020382e-03</_>
    <_>
      6.97628187e-04 1.00210612e-03 1.34476973e-03 1.78971526e-03
      1.78423896e-03 2.00998690e-03 2.27479241e-03 2.45049107e-03
      2.42918450e-03 2.69535207e-03 2.96768639e-03 2.36818171e-03
      1.48540013e-03 1.64688169e-03 1.29784155e-03 1.07378175e-03
      6.61138678e-04 4.67207603e-04 5.14052052e-04 4.08501772e-04
      3.07931594e-04 9.12243195e-05 3.15560719e-05 -1.16161154e-05
      -4.34743488e-05 -1.09453664e-04 -1.09123102e-04 -1.46706385e-04
      -1.05529172e-04 -2.91564007e-04 -2.44934548e-04 -3.47340916e-04
      -2.76154169e-04 -3.45893437e-04 -2.29479396e-04 -2.34523672e-04
      -2.19192836e-04 -3.34496173e-04 -2.63152149e-04 -2.15150998e-04
      -1.81794865e-04 -2.15480002e-04 -9.03324035e-05 -8.05276941e-05
      -6.63607498e-05 -1.08166838e-04 -1.04165265e-04 5.41303889e-05
      1.61819611e-04 1.49948421e-04 2.20941060e-04 2.87375937e-04
      1.61856427e-04 -2.53995095e-04 -4.13732487e-04 -3.15660931e-04
      -5.96296275e-04 -4.67795384e-04 -8.18995992e-04 1.46224833e-04
      1.02709525e-03 9.03269101e-04 6.67850894e-04 6.90603512e-04
      5.33438055e-04 3.37931153e-04 1.91519342e-04 7.39619951e-04
      6.45340770e-04 1.00058247e-03 -3.59671794e-05 -6.34123207e-05
      1.03404884e-04 -2.34427367e-04 -4.82061936e-04 -6.00525469e-04
      -5.78539213e-04 -7.52796594e-04 -9.37430421e-04 -1.48327940e-03
      -1.64796144e-03 -1.43261545e-03 -1.17163837e-03 -9.78271011e-04
      -7.09503889e-04 -3.63250263e-04 -2.18976958e-04 -1.54833848e-04
      1.99150491e-05 9.93175054e-05 8.57880732e-05 1.33008565e-04
      2.20525631e-04 1.57123548e-04 9.63286075e-05 4.49329491e-05
      1.33405687e-04 1.28227970e-04 2.54470273e-04 2.67137832e-04
      2.75201630e-04 2.89035699e-04 2.80230073e-04 3.29375122e-04
      5.18053886e-04 5.19477762e-04 4.64654615e-04 4.98371548e-04
      5.15395193e-04 5.61307359e-04 5.78908075e-04 5.15124004e-04
      4.89440456e-04 4.33251174e-04 4.20035998e-04 4.49994928e-04
      4.84434073e-04 4.71218926e-04 4.74909582e-04 5.29217301e-04
      4.84619348e-04 4.98684763e-04 5.28259261e-04 4.29638021e-04
      4.42853168e-04 3.80716170e-04 4.41130105e-04 4.37290262e-04
      5.25685493e-04 5.53481921e-04 5.51315199e-04 5.51315199e-04
      4.50410153e-04 4.93199797e-04 5.66543662e-04 5.77542465e-04
      5.78524079e-04 5.23981114e-04 5.37327665e-04 5.23135124e-04
      5.71565120e-04 5.00157126e-04 5.55310806e-04 6.33658550e-04
      5.91378426e-04 6.53543335e-04 6.50476664e-04 6.32525305e-04
      6.24249806e-04 6.08459930e-04 6.59582380e-04 7.36300659e-04
      7.07620929e-04 7.97199493e-04 8.60544795e-04 8.90996365e-04
      1.03717297e-03 1.24675164e-03 1.57851586e-03 1.88581087e-03
      1.66234572e-03 1.43967324e-03 1.32258516e-03 1.07241387e-03
      8.88604030e-04 5.99280000e-04</_>
    <_>
      4.48822335e-04 3.57770850e-03 3.38069722e-03 1.91003946e-03
      1.68671680e-03 8.35082319e-04 1.84731360e-03 1.04342087e-03
      1.61758886e-04 -3.99362558e-04 -1.14154641e-03 3.75128846e-04
      3.30485636e-03 1.15180132e-03 6.51419570e-04 1.99485454e-03
      2.51644547e-03 9.76887095e-05 -1.53027207e-03 -1.66462117e-03
      -1.88887515e-03 -2.21100240e-03 -1.77240616e-03 -2.14874977e-03
      -2.12693680e-03 -1.69791176e-03 -1.63861923e-03 -1.23701862e-03
      -1.55647960e-03 -1.48532994e-03 -1.37856312e-03 -1.43565587e-03
      -1.52378879e-03 -1.68244052e-03 -1.82262587e-03 -2.16764957e-03
      -2.10459181e-03 -1.90664036e-03 -1.74511713e-03 -1.64886052e-03
      -1.78631826e-03 -1.33014901e-03 -1.62071607e-03 -1.68489804e-03
      -2.23936327e-03 -2.26810551e-03 -1.90884841e-03 -1.90052157e-03
      -1.75170717e-03 -2.13340670e-03 -2.49975803e-03 -1.23763422e-03
      -9.81011428e-04 6.57788943e-04 1.81815180e-03 1.47248071e-03
      1.87365140e-03 -7.71825784e-04 1.00928172e-03 -2.98076979e-04
      -8.84192763e-04 -8.40487308e-04 4.65848425e-05 3.65178130e-04
      1.12462719e-03 1.15232633e-05 5.08175290e-05 7.73104548e-04
      2.00096215e-03 2.44114641e-03 -3.02765518e-03 -2.40497175e-03
      -3.15179932e-03 -2.72561866e-03 -2.69259396e-03 -1.31096481e-03
      -7.15557660e-04 2.76465198e-06 5.35199477e-04 5.44480805e-04
      1.46001938e-03 1.97186018e-03 2.62352708e-03 2.72807642e-03
      2.38525658e-03 2.03653821e-03 1.56154716e-03 1.46892702e-03
      1.73289445e-03 1.80100708e-03 1.21955865e-03 1.51643087e-03
      1.46455842e-03 1.45479583e-03 1.25322537e-03 1.20240753e-03
      1.14002498e-03 1.26002752e-03 1.24877214e-03 5.24734496e-04
      -1.58055031e-04 5.97115395e-05 -3.05101625e-04 -3.57721612e-04
      -9.02597734e-04 -9.36120516e-04 -1.61031843e-03 -2.05161306e-03
      -2.59399670e-03 -3.68963229e-03 -4.89092898e-03 -4.43588803e-03
      -4.08108719e-03 -3.29706096e-03 -2.51238793e-03 -1.48139638e-03
      -2.08867178e-03 -3.64696933e-03 -4.78560431e-03 -5.00475941e-03
      -4.22087405e-03 -3.43131716e-03 -2.56150123e-03 -2.05574487e-03
      -1.86713249e-03 -2.08085612e-03 -1.52102963e-03 -8.46712908e-04
      -9.12669988e-04 -5.64552261e-04 -3.58263816e-04 -2.87705479e-04
      9.52818737e-05 7.08434207e-04 8.88219336e-04 1.13194645e-03
      1.41029316e-03 1.54898362e-03 1.71622436e-03 1.64588564e-03
      1.87161029e-03 2.27935240e-03 2.46672006e-03 2.45643244e-03
      2.05280888e-03 2.26542936e-03 1.57207053e-03 1.11399486e-03
      1.49303849e-03 1.19580072e-03 1.26916124e-03 1.59360468e-03
      1.51976093e-03 1.62306416e-03 2.38651573e-03 2.41867499e-03
      9.09864029e-04 -3.12655669e-04 -9.95395822e-05 -6.83906139e-04
      -1.42175506e-03 -1.09712186e-03 -3.01433750e-03 -2.79721641e-03
      -2.85464292e-03 -2.40394217e-03</_>
    <_>
      -1.74124289e-04 1.58380461e-03 1.32250274e-03 7.23509467e-04
      9.38263256e-04 1.85135147e-03 2.01331009e-03 1.91077846e-03
      1.71531178e-03 2.28796666e-03 2.20134319e-03 2.57874746e-03
      2.76618078e-03 2.21114256e-03 1.11007295e-03 1.96924643e-03
      2.30517215e-03 1.06084975e-03 -1.20649944e-04 7.24971003e-04
      -5.16746695e-05 -2.35762753e-04 2.12523752e-04 -1.81834374e-04
      -7.24881480e-04 -6.96828414e-04 -3.89034278e-04 -5.29318058e-04
      -9.40262631e-04 -1.03967683e-03 -1.13566325e-03 -1.07905373e-03
      -1.29303662e-03 -1.42983103e-03 -1.43639790e-03 -1.49617193e-03
      -1.56541436e-03 -1.70732231e-03 -1.70361064e-03 -1.49601686e-03
      -1.17687520e-03 -1.15638238e-03 -1.35568762e-03 -1.27579935e-03
      -1.44494476e-03 -1.51553762e-03 -1.53431518e-03 -1.43899990e-03
      -1.43671094e-03 -1.87942467e-03 -1.69384480e-03 -7.70586135e-04
      -1.87350623e-03 -9.59513884e-04 -1.12556957e-03 -9.08822287e-04
      -1.01951859e-03 -5.79894695e-04 1.19313155e-03 7.97725923e-04
      1.44933839e-03 1.70266978e-03 1.28574774e-03 8.37548752e-04
      1.48538675e-03 1.56467338e-03 7.22248515e-04 7.67351012e-04
      1.19260757e-03 1.11437577e-03 -2.62185058e-04 8.79548679e-05
      -6.32263138e-04 -7.90385704e-04 -6.12704083e-04 -4.61268268e-04
      -1.05880678e-03 -7.87448720e-04 -5.94617857e-04 -2.08611091e-04
      2.29403944e-04 9.68208537e-04 1.09003426e-03 1.09284394e-03
      2.90346099e-04 3.96585616e-04 7.49668339e-04 2.62517395e-04
      1.52907305e-05 3.13602097e-04 2.12198531e-04 2.66812131e-04
      3.05335299e-04 2.30744627e-04 2.96618789e-04 2.37442684e-04
      1.63044097e-04 -4.97506880e-05 -1.61923774e-04 -3.41077543e-06
      -6.88146683e-05 -1.00930498e-04 -1.15017567e-04 1.74948771e-04
      2.73004953e-05 -5.19615314e-05 -2.91014614e-04 -1.24172351e-04
      -2.27612574e-04 -2.30461636e-04 -3.59894882e-04 -5.50687080e-04
      -6.13488490e-04 -5.33007900e-04 -8.78610357e-04 -1.05737487e-03
      -1.24431122e-03 -1.25104166e-03 -1.62720226e-03 -2.17221747e-03
      -2.56263930e-03 -2.78307265e-03 -3.75097827e-03 -4.52428544e-03
      -5.80997532e-03 -5.58380270e-03 -4.96539799e-03 -4.39589331e-03
      -3.59978853e-03 -2.80056894e-03 -5.90761425e-04 1.18116196e-03
      2.22149864e-03 2.53892131e-03 3.09269642e-03 3.09011247e-03
      3.18184821e-03 3.25393118e-03 3.11812316e-03 3.22836242e-03
      3.07581015e-03 2.87618535e-03 2.47177831e-03 2.06071697e-03
      1.90993887e-03 1.73499493e-03 1.43498112e-03 1.39232504e-03
      1.65877107e-03 9.92021640e-04 9.03634646e-04 1.17169099e-03
      1.19144551e-03 1.50261901e-03 1.75197341e-03 1.53902161e-03
      1.10791717e-03 6.83582795e-04 -1.13684517e-04 -4.14913375e-04
      -2.65212497e-04 2.36798951e-04 1.51929882e-04 -1.92818316e-05
      -3.31916417e-05 1.96304289e-04</_>
    <_>
      5.60044835e-04 1.86254867e-04 -1.50608597e-04 -3.64318461e-04
      -6.58679463e-04 -1.18035835e-03 -1.43985311e-03 -1.56846561e-03
      -1.75086490e-03 -1.75924564e-03 -1.84332673e-03 -1.90708402e-03
      -2.07640301e-03 -2.00729119e-03 -1.99953839e-03 -2.08622753e-03
      -2.00466695e-03 -2.00973800e-03 -1.98258250e-03 -1.90131832e-03
      -1.97246065e-03 -1.94078428e-03 -1.95645145e-03 -1.72848033e-03
      -1.55491347e-03 -1.63238612e-03 -1.56205893e-03 1.28280441e-03
      1.41001726e-03 1.43214746e-03 1.28907012e-03 1.63773668e-03
      1.58440915e-03 1.64272799e-03 1.80667569e-03 1.94307510e-03
      1.91694859e-03 1.89585902e-03 2.16831407e-03 2.14220490e-03
      2.14335113e-03 2.07088375e-03 2.76906905e-03 3.15228151e-03
      -5.26903350e-05 3.46181099e-04 2.86641734e-04 -3.22993437e-05
      1.11939073e-04 3.11845681e-04 -1.25354243e-04 -1.74897490e-04
      -2.24458170e-04 -2.13393549e-04 -2.21502807e-04 -1.43037651e-05
      1.36859933e-04 1.61071104e-04 5.07197459e-04 6.54228264e-04
      7.65162811e-04 6.07255322e-04 8.61865294e-04 9.66668071e-04
      1.01533136e-03 1.47713674e-03 1.27781194e-03 1.10876875e-03
      7.94796448e-04 2.64705217e-04 9.45831853e-05 5.72754419e-04
      5.29339013e-04 2.07357589e-04 -2.18094297e-04 -7.00418546e-04
      -1.14216504e-03 -1.25169172e-03 -1.21158268e-03 -1.35737483e-03
      -1.10812369e-03 -1.18624570e-03 -1.79670833e-03 -1.43936195e-03
      -1.03803002e-03 -6.74210081e-04 2.62715825e-04 5.05206059e-04
      5.94590034e-04 7.39097013e-04 8.33931961e-04 8.54159880e-04
      8.95500067e-04 9.52578790e-04 6.35374046e-04 -5.52475743e-04
      -6.13174052e-04 -4.87076584e-04 -3.76155338e-04 2.86856055e-04
      5.00220689e-04 5.60792745e-04 4.77162917e-04 4.90175909e-04
      4.30020154e-04 4.60098003e-04 5.20926493e-04 5.22800547e-04
      5.18974615e-04 5.32194681e-04 5.48007956e-04 5.95756283e-04
      5.74044068e-04 5.99998573e-04 6.79982826e-04 5.63731301e-04
      4.61121468e-04 5.58455067e-04 5.45658928e-04 6.11080264e-04
      6.50350703e-04 5.97218052e-04 5.48799871e-04 6.43443840e-04
      6.42260653e-04 6.31308183e-04 6.79294812e-04 7.93464365e-04
      7.40439806e-04 6.55118667e-04 6.81497739e-04 7.93464365e-04
      8.16583866e-04 7.93464365e-04 6.87387015e-04 7.79041438e-04
      7.93884508e-04 6.74401585e-04 7.37450202e-04 7.59454153e-04
      7.29967433e-04 6.29593851e-04 7.12678127e-04 7.54300505e-04
      7.12396752e-04 4.49913263e-04 3.27600457e-04 1.84640943e-04
      8.62109209e-06 -1.53596819e-04 -1.73824723e-04 -2.41923626e-04
      -4.59417613e-04 3.69967456e-05 -2.16158616e-04 3.97375348e-04
      -4.51126743e-06 -6.93888578e-04 -1.22203119e-03 -2.28325394e-03
      -2.57063401e-03 -2.54557468e-03 -2.67199683e-03 -2.69906688e-03
      -2.51860195e-03 -1.55795552e-03</_>
    <_>
      4.86009114e-04 -9.71717054e-06 -3.91624664e-04 -1.09898858e-03
      -1.59202050e-03 -2.15803506e-03 -2.55033770e-03 -2.45793001e-03
      -2.34212959e-03 -2.51896516e-03 -2.53371079e-03 -2.62108701e-03
      -2.48438027e-03 -2.39348621e-03 -2.43446534e-03 -2.54359958e-03
      -2.29963660e-03 -2.33823783e-03 -2.00531515e-03 -1.50830299e-03
      -1.34942494e-03 -1.28527591e-03 -1.59623823e-03 -1.39164948e-03
      -1.16315053e-03 -1.15253124e-03 -1.08574529e-03 1.00190926e-03
      1.26226677e-03 1.33076787e-03 1.37205073e-03 1.73190632e-03
      1.52496737e-03 1.90921628e-03 2.05594883e-03 1.95515435e-03
      1.90796866e-03 1.90634897e-03 2.03656987e-03 1.88220944e-03
      2.01324793e-03 2.20550806e-03 2.78799632e-03 2.88678985e-03
      5.52417827e-04 1.12216256e-03 4.20799799e-04 1.03056733e-03
      3.46529065e-04 6.30544848e-04 1.00209087e-03 8.75570113e-04
      7.14496011e-04 2.91978649e-04 -3.51850758e-06 -1.51936867e-04
      -2.01165312e-04 -5.48783806e-04 -7.23680074e-04 -1.26955099e-03
      -7.23813078e-04 -4.75670124e-04 6.66482607e-04 3.37445352e-04
      6.91702822e-04 6.08383736e-04 4.56813723e-04 1.22968596e-03
      1.49347540e-03 1.07452797e-03 -7.18528754e-04 -5.53937803e-04
      -6.94746414e-05 -7.06203689e-04 -1.21430028e-03 -1.64684665e-03
      -2.16319878e-03 -1.44465710e-03 -8.09407269e-04 -1.17638148e-03
      -1.21057662e-03 -1.08907104e-03 -1.48793333e-03 -8.33163678e-04
      -2.34437903e-04 4.89158730e-04 9.87811247e-04 1.49594387e-03
      1.97732425e-03 2.27315957e-03 2.46168161e-03 2.37277686e-03
      2.66911113e-03 2.27867858e-03 2.13240390e-03 1.20395771e-03
      7.38150964e-04 3.14341334e-04 4.89568745e-04 7.84803764e-04
      8.91711505e-04 9.32395575e-04 8.06728203e-04 8.03408329e-04
      6.70072157e-04 5.63086651e-04 5.58300468e-04 5.33595216e-04
      3.76531476e-04 -2.58986722e-04 -4.68160055e-04 -1.23535097e-03
      -1.58194080e-03 -2.38618464e-03 -2.32193037e-03 -2.67683039e-03
      -2.87400885e-03 -1.77554600e-03 -1.83667347e-03 -1.50562928e-03
      -1.03915075e-03 -8.47440853e-04 -7.29436520e-04 -2.44058014e-04
      -2.10951752e-04 -4.22614867e-05 1.88049467e-04 2.68557051e-04
      3.10463278e-04 4.28630301e-04 5.45626506e-04 6.21577026e-04
      7.31638283e-04 8.68860108e-04 7.35781097e-04 8.55864433e-04
      8.18500237e-04 8.21820111e-04 6.59332552e-04 4.66400728e-04
      3.51863826e-04 2.73815560e-04 1.99962727e-04 1.92100793e-04
      2.61116336e-04 3.56431963e-04 1.71642372e-04 1.49345069e-04
      -1.07281785e-05 -1.72655287e-04 -4.32508765e-04 5.98205479e-05
      5.29781100e-04 1.46006839e-03 6.34101045e-04 6.12539472e-04
      1.24531784e-04 -2.37649278e-04 -1.05876219e-03 -2.14188942e-03
      -2.29355134e-03 -1.46239297e-03 -1.52469787e-03 -9.76862269e-04
      -6.54582924e-04 2.54422455e-04</_>
    <_>
      -5.28440651e-05 -1.40405522e-04 -1.36073184e-04 -2.38293083e-04
      -2.34969659e-04 -4.62322729e-04 -1.06618681e-03 -1.30229304e-03
      -1.54762832e-03 -1.71971996e-03 -1.93900557e-03 -1.84109341e-03
      -2.23810202e-03 -2.25526397e-03 -2.31742812e-03 -2.21726578e-03
      -2.21610419e-03 -2.07353965e-03 -2.69149872e-03 -2.88670091e-03
      -2.78708409e-03 -3.19203432e-03 -2.79999315e-03 -1.94635475e-03
      -6.26621768e-04 -5.75380516e-04 5.17351727e-05 3.86875443e-04
      5.02685143e-04 8.70166579e-04 6.88421773e-04 7.11409666e-04
      8.53436824e-04 1.38937379e-03 1.68143876e-03 1.68547838e-03
      1.92508963e-03 1.70336757e-03 1.04928005e-03 1.17504701e-03
      1.29085220e-03 1.67783909e-03 1.67219073e-03 1.51204527e-03
      6.70437643e-04 1.32570881e-03 6.58087447e-05 -6.67431741e-04
      3.83774750e-04 -1.78647795e-04 -2.24247895e-04 2.16864428e-04
      1.26041344e-03 5.20094472e-04 6.85107603e-04 9.81337740e-04
      6.10232528e-04 9.20711958e-04 1.20233209e-03 6.28051057e-04
      9.90931061e-04 3.74064257e-04 1.38604140e-03 1.27025077e-03
      1.28465716e-03 4.02680686e-04 2.91072065e-04 6.32261450e-04
      -1.91512314e-04 -3.84191750e-04 6.62636245e-04 1.10869424e-03
      1.85239408e-03 1.84394908e-03 1.22091675e-03 1.05675298e-03
      1.29045302e-03 1.78394828e-03 1.66362606e-03 9.11210373e-04
      8.26001167e-04 6.79946679e-04 8.30642297e-04 1.59712613e-03
      1.39903044e-03 1.19217462e-03 1.79142028e-03 2.11385847e-03
      2.17442540e-03 2.19178689e-03 3.18206125e-03 2.33376608e-03
      1.55727414e-03 1.00135233e-03 5.13986743e-04 -7.14323600e-04
      -8.82077264e-04 -1.21289247e-03 -1.09915971e-03 -1.17010274e-03
      -9.67208180e-04 -9.60849109e-04 -1.14817906e-03 -8.68430769e-04
      -7.69140024e-04 -9.49638663e-04 -9.63327242e-04 -1.17343978e-03
      -1.08430465e-03 -1.34346704e-03 -1.00973924e-03 -9.26115841e-04
      -9.97134484e-04 -1.41096080e-03 -1.15239411e-03 -8.20363115e-04
      -1.01654872e-03 -7.18696625e-04 -7.36396818e-04 -8.88301991e-04
      -8.56799539e-04 -1.02112442e-03 -8.10787955e-04 -1.79690809e-03
      -2.14692228e-03 -3.04395938e-03 -3.78200947e-03 -4.93822107e-03
      -3.90426442e-03 -3.92832700e-03 -2.79962621e-03 -1.31360127e-03
      -1.29861908e-03 -1.46316434e-03 -1.72256073e-03 -1.60654599e-03
      -1.55152939e-03 -1.50934514e-03 -7.90927152e-04 3.78918019e-04
      2.93382473e-04 9.17013793e-04 1.19365635e-03 1.20582920e-03
      1.21336291e-03 1.18598982e-03 9.36484081e-04 9.94683011e-04
      1.05920364e-03 1.06774678e-03 1.12873618e-03 1.06106244e-03
      1.32308516e-03 1.70269515e-03 9.47187538e-04 -6.08291419e-04
      -4.47565166e-04 -2.92687706e-04 3.49552065e-05 7.34816887e-04
      5.62053232e-04 1.40135922e-03 8.12630751e-04 1.52492081e-03
      1.25907233e-03 6.78028853e-04</_>
    <_>
      2.86018942e-04 -3.03576497e-04 -4.79710317e-04 -6.52845774e-04
      -7.77591602e-04 -8.93607445e-04 -1.11301232e-03 -1.19555241e-03
      -1.19114947e-03 -1.30402227e-03 -1.34110544e-03 -1.39701983e-03
      -1.31878105e-03 -1.25742320e-03 -1.35323289e-03 -1.37265399e-03
      -1.38441694e-03 -1.42975617e-03 -1.35506457e-03 -1.33042422e-03
      -1.22117973e-03 -1.23775343e-03 -1.10043213e-03 -9.25430621e-04
      -7.04287726e-04 -6.01597480e-04 -4.46808757e-04 6.86201558e-04
      7.55863788e-04 7.83067895e-04 7.84000498e-04 8.70193180e-04
      9.10868286e-04 9.63916362e-04 1.01981137e-03 1.04171666e-03
      1.13739748e-03 1.10696570e-03 1.23374560e-03 1.24399748e-03
      1.28557777e-03 1.30118628e-03 1.46573957e-03 1.48670282e-03
      1.49400235e-04 3.24847613e-04 2.21463590e-04 2.15587032e-04
      2.02590221e-04 6.59151643e-04 1.06186559e-03 1.06186559e-03
      9.49365261e-04 8.78445106e-04 7.18086027e-04 5.12997096e-04
      2.26287229e-04 -6.19171697e-05 -9.88482570e-05 -1.53492991e-04
      -7.19246163e-05 -3.87801629e-05 -8.86369889e-05 -9.25184650e-05
      1.34061644e-04 1.86895064e-04 2.08156198e-04 4.02273668e-04
      5.19886496e-04 7.91390717e-04 -1.45817219e-04 1.19305529e-04
      2.92467070e-04 -1.05232575e-04 -4.64542100e-04 -6.78579614e-04
      -8.79922824e-04 -6.72524387e-04 -6.56635675e-04 -4.76860267e-04
      -3.12395976e-04 -3.16402235e-04 -4.77099064e-04 -2.79744301e-04
      4.07862855e-04 7.20753800e-04 8.30256264e-04 9.07290727e-04
      1.04772591e-03 1.25490036e-03 1.25327730e-03 1.23905356e-03
      1.21288560e-03 1.12076919e-03 1.00290589e-03 7.29171094e-04
      5.15343796e-04 2.30093050e-04 1.87794794e-04 -1.84397446e-04
      -4.43210854e-04 -5.47420583e-04 -7.46916397e-04 -8.91657313e-04
      -9.48760717e-04 -1.04820426e-03 -1.10038940e-03 -1.29816646e-03
      -1.59142085e-03 -1.80197542e-03 -1.86344818e-03 -1.25938840e-03
      -1.06132822e-03 -1.00214512e-03 -9.00385377e-04 -8.73400713e-04
      -6.98901713e-04 -3.53222567e-04 -1.32518660e-04 2.48298948e-05
      7.22323748e-05 2.33430856e-05 4.62280223e-05 1.44090314e-04
      1.43321231e-04 1.79024413e-04 1.82472344e-04 2.19099005e-04
      2.22234405e-04 2.37674278e-04 3.08392773e-04 2.90197349e-04
      2.96468148e-04 2.96468148e-04 3.31175543e-04 3.31175543e-04
      3.24135675e-04 2.87052477e-04 3.60839156e-04 3.60839156e-04
      3.53799318e-04 3.32535681e-04 3.32535681e-04 3.33304779e-04
      2.98453349e-04 3.23688640e-04 3.50284041e-04 3.47605208e-04
      3.35300720e-04 3.20317398e-04 2.78426101e-04 3.76364536e-04
      5.95792953e-04 1.03512802e-03 9.94160422e-04 7.53982109e-04
      2.83188099e-04 -4.75856650e-04 -5.78057952e-04 -4.01023630e-04
      -4.32612724e-04 -2.61505804e-04 -2.19462512e-04 1.60241307e-05
      1.92918116e-04 4.67607082e-04</_>
    <_>
      2.18405490e-04 -3.08129936e-04 -5.70099684e-04 -8.30640260e-04
      -9.95952054e-04 -1.15093088e-03 -1.28504599e-03 -1.39420922e-03
      -1.51074980e-03 -1.59559108e-03 -1.68043235e-03 -1.76487165e-03
      -1.80115376e-03 -1.71556824e-03 -1.65141444e-03 -1.51011813e-03
      -1.37876044e-03 -1.16182491e-03 -1.12341275e-03 -9.42641927e-04
      -8.43216782e-04 -7.79358612e-04 -6.81325153e-04 -6.04320958e-04
      -4.66204598e-04 -3.60858365e-04 -2.54669692e-04 6.57168566e-04
      7.30858883e-04 7.43355078e-04 7.48959603e-04 7.13841466e-04
      7.03541271e-04 7.17930263e-04 7.54146429e-04 7.78964430e-04
      8.08009994e-04 7.85140845e-04 8.35162762e-04 8.35162762e-04
      8.18758912e-04 8.41700821e-04 9.88338026e-04 1.08944881e-03
      5.16277905e-05 1.73313194e-04 1.85003519e-04 2.53522332e-04
      3.36431112e-04 5.42770780e-04 8.72340053e-04 7.46110862e-04
      7.41925207e-04 5.50905708e-04 3.22123291e-04 2.26445831e-04
      2.47984222e-04 2.72440666e-04 1.33920170e-04 1.20413162e-04
      2.04083713e-04 2.77294137e-04 2.12384708e-04 1.45547674e-04
      2.29058249e-04 1.98117443e-04 2.06214245e-04 2.60105386e-04
      3.14259843e-04 4.74787259e-04 1.74162386e-04 3.41284962e-04
      2.37426706e-04 1.81800278e-04 1.08317858e-04 8.56093175e-05
      1.73914726e-04 2.91074859e-04 3.19259620e-04 3.91691952e-04
      3.96539661e-04 4.44934092e-04 2.90160795e-04 3.05844616e-04
      3.40415718e-04 4.50996013e-04 6.73658389e-04 7.52955209e-04
      8.91347707e-04 9.89905209e-04 9.89905209e-04 9.50770976e-04
      9.21359228e-04 8.77923798e-04 7.05855666e-04 3.59090336e-04
      2.28064353e-04 4.93030275e-05 4.76429668e-05 4.67516038e-05
      7.07187501e-05 9.56967051e-05 3.43426145e-05 3.44298205e-05
      -1.75311710e-04 -2.62174639e-04 -2.86832656e-04 -3.73782794e-04
      -7.11300934e-04 -1.05890317e-03 -1.07131223e-03 -9.96837043e-04
      -9.34183365e-04 -9.18628648e-04 -8.09418096e-04 -6.43087784e-04
      -5.71217504e-04 -4.89536324e-04 -4.39411087e-04 -4.73760563e-04
      -4.59155533e-04 -3.75325006e-04 -3.87331937e-04 -4.10577049e-04
      -4.10737033e-04 -3.72087234e-04 -3.36922385e-04 -3.15337325e-04
      -3.15337325e-04 -2.54215964e-04 -2.89494084e-04 -3.13141296e-04
      -2.87647970e-04 -2.87647970e-04 -3.26220150e-04 -3.02412955e-04
      -3.02572938e-04 -3.03134992e-04 -2.75265076e-04 -2.98510218e-04
      -3.23488144e-04 -3.37851059e-04 -3.61658225e-04 -4.21521603e-04
      -3.60167527e-04 -3.12553166e-04 -3.11775104e-04 -3.36057128e-04
      -3.73371295e-04 -3.84769490e-04 -3.96007701e-04 -3.84985498e-04
      -2.42300986e-04 2.89596210e-05 -1.35015962e-05 2.25159965e-04
      2.69987446e-04 2.42664581e-04 2.31445432e-04 1.01978978e-04
      1.01459427e-05 -1.20448109e-04 1.26162986e-05 1.91026280e-04
      2.96503567e-04 3.62109888e-04</_>
    <_>
      7.14772905e-05 -1.88444380e-03 -2.04947591e-03 -2.35696789e-03
      -2.48329365e-03 -2.61139288e-03 -2.61894614e-03 -2.71248794e-03
      -2.60031689e-03 -2.53179413e-03 -2.11260328e-03 -1.86751911e-03
      -1.40601536e-03 -1.11691444e-03 -9.75378789e-04 -7.03745172e-04
      -5.50725497e-04 -4.29649546e-04 -3.97501106e-04 -5.23574359e-04
      -4.17094736e-04 -7.04266597e-04 -5.54449798e-04 -4.34012036e-04
      -3.76792741e-04 -6.13400596e-04 -5.74298261e-04 -6.36890400e-05
      1.40989129e-03 1.39435299e-03 1.49982225e-03 1.75086665e-03
      1.75505003e-03 1.89504388e-03 2.06804927e-03 2.92350864e-03
      1.67186535e-03 2.35676387e-04 3.48174741e-04 3.87707318e-04
      1.49227702e-03 1.72133720e-03 2.23651668e-03 2.50439951e-03
      1.63673994e-03 8.15955515e-04 1.04204717e-03 5.92549099e-04
      8.91581352e-04 9.42974410e-04 2.79199274e-04 -4.67367878e-04
      -6.20289356e-04 -1.20063731e-03 -6.96412681e-05 8.85571120e-04
      1.39574101e-03 1.91825919e-03 2.01747613e-03 2.03997199e-03
      2.45471857e-03 1.87037676e-03 1.80857850e-03 1.25806371e-03
      1.18158141e-03 1.24595989e-03 9.88373649e-04 1.06183835e-03
      7.23264006e-04 5.64528338e-04 -3.14544770e-03 -2.57505826e-03
      -1.34030776e-03 -1.95374107e-03 -2.50300672e-03 -2.68889568e-03
      -3.36361723e-03 -3.77824181e-03 -4.27918555e-03 -5.54892793e-03
      -6.36563124e-03 -3.83430137e-03 -3.14287306e-03 -1.87596143e-03
      -1.05624588e-03 -4.81754163e-04 -2.72054516e-04 1.96913606e-05
      7.26865721e-04 1.32008852e-03 1.85396092e-03 1.21230306e-03
      5.51636971e-04 -5.10490034e-04 -3.91574402e-04 -3.47219902e-04
      -5.70403470e-04 -7.03917583e-04 -3.80583835e-04 -3.64840322e-04
      -2.41458372e-04 -1.97154150e-04 7.23199482e-05 -6.89293156e-05
      -1.61468663e-04 1.36164133e-04 1.77611917e-04 1.92081672e-04
      2.51616380e-04 8.61472508e-04 1.40628824e-03 1.22483075e-03
      9.01870197e-04 8.28582619e-04 1.11530535e-03 1.14612223e-03
      1.11748208e-03 1.13324623e-03 1.10034517e-03 1.13028521e-03
      7.85122567e-04 6.36623066e-04 6.30016788e-04 4.90551349e-04
      7.18932191e-04 8.83532397e-04 9.80340992e-04 6.28205074e-04
      5.28119970e-04 3.65577027e-04 3.65577027e-04 3.48153757e-04
      6.49335736e-04 6.02635380e-04 6.37135236e-04 5.36146690e-04
      4.33478388e-04 4.16055118e-04 3.73140851e-04 5.82487730e-04
      4.87669720e-04 6.26555178e-04 5.04733704e-04 3.24014487e-04
      9.56336589e-05 7.98901456e-05 -8.06828466e-05 2.45722098e-04
      6.21062427e-05 2.02927957e-04 5.94980491e-04 1.75123464e-03
      1.96568226e-03 2.45606829e-03 2.39785411e-03 2.53552827e-03
      2.49120896e-03 2.57290434e-03 2.00186833e-03 1.88097043e-03
      2.16434151e-03 2.90246587e-03 2.63916189e-03 2.34369049e-03
      2.00051954e-03 1.77758408e-03</_>
    <_>
      -3.96780888e-05 -1.98776630e-04 -3.20568972e-04 -5.99172723e-04
      -7.89106591e-04 -9.17943835e-04 -1.06105802e-03 -1.15533744e-03
      -1.21984840e-03 -1.30184926e-03 -1.33131526e-03 -1.49378448e-03
      -1.95571198e-03 -1.89734704e-03 -1.76709204e-03 -1.77412259e-03
      -1.65561668e-03 -1.60048401e-03 -1.59352541e-03 -1.58794317e-03
      -1.62694999e-03 -1.57816324e-03 -1.54473283e-03 -1.48741354e-03
      -1.16671552e-03 -8.62718618e-04 -5.04987198e-04 3.03462381e-04
      3.92501621e-04 4.73295542e-04 6.01104111e-04 6.97613752e-04
      7.44428544e-04 7.68046477e-04 8.00021051e-04 8.73020093e-04
      9.19338258e-04 9.51609341e-04 8.97987164e-04 8.95333069e-04
      8.68163595e-04 8.94112804e-04 9.81373363e-04 1.02061057e-03
      1.30161279e-04 2.12730054e-04 1.63398217e-04 2.24874864e-04
      1.76180081e-04 4.30960732e-04 8.46381590e-04 6.84321334e-04
      6.80310361e-04 5.78240899e-04 3.26041423e-04 2.57471460e-04
      -1.07788765e-04 -9.28534500e-05 -1.16928451e-04 -1.88989652e-04
      -3.59647733e-04 -4.08681226e-04 -2.92102515e-04 -2.22929433e-04
      -7.60954063e-05 -4.02352161e-05 7.49966275e-05 2.70866207e-04
      3.66585242e-04 5.65185386e-04 3.12508819e-05 -4.45798214e-05
      -2.92364624e-04 -4.65607067e-04 -4.61271993e-04 -5.41868794e-04
      -6.54247880e-04 -1.99660702e-04 4.99587368e-05 1.53379180e-04
      2.40075198e-04 4.18524432e-04 3.09547730e-04 3.68275563e-04
      4.99050540e-04 5.31818368e-04 6.98029064e-04 7.90998456e-04
      9.47982364e-04 1.10891683e-03 1.15200947e-03 1.11262780e-03
      1.11556088e-03 8.24620540e-04 6.61317725e-04 3.73815157e-04
      1.77495414e-04 -1.30402215e-04 -2.25407799e-04 -2.67642521e-04
      -2.92150566e-04 -3.59908940e-04 -4.02264675e-04 -4.35459398e-04
      -4.64027660e-04 -4.68930521e-04 -5.43635804e-04 -6.27117988e-04
      -7.21797987e-04 -7.92947831e-04 -8.78304418e-04 -8.12187849e-04
      -6.51346345e-04 -4.65360441e-04 -3.05752474e-04 -2.33304090e-04
      -3.06129659e-04 -3.80603946e-04 -5.41445450e-04 -6.56213553e-04
      -6.97827665e-04 -7.20300013e-04 -8.21545080e-04 -7.27783772e-04
      -6.88419328e-04 -6.87837193e-04 -6.17537182e-04 -6.04167930e-04
      -6.04167930e-04 -5.92836121e-04 -5.91953692e-04 -5.47836011e-04
      -4.89984290e-04 -4.49819141e-04 -4.18430835e-04 -4.07166954e-04
      -3.54775024e-04 -3.50570510e-04 -3.38471524e-04 -2.99359061e-04
      -2.72795121e-04 -2.48016644e-04 -2.15895590e-04 -2.10192011e-04
      -1.95779488e-04 -2.00750321e-04 -2.13479711e-04 -2.28515244e-04
      -2.59099645e-04 -2.35022715e-04 -3.00000771e-04 -2.61692185e-04
      -2.30931808e-04 4.40385083e-05 -1.74196593e-05 1.80441959e-04
      2.26692020e-04 3.15278594e-04 2.83533882e-04 4.52512541e-05
      -1.45164857e-04 -3.38713027e-04 -2.71014898e-04 -9.32027178e-05
      7.56380769e-06 3.48765971e-05</_>
    <_>
      5.73842008e-05 -3.21628817e-04 -6.37463527e-04 -8.87227186e-04
      -1.10871112e-03 -1.32437807e-03 -1.52878533e-03 -1.62895944e-03
      -1.75570301e-03 -1.82581553e-03 -1.88194402e-03 -2.00149138e-03
      -2.08345964e-03 -2.05623708e-03 -2.02976540e-03 -1.69910828e-03
      -1.59076985e-03 -1.24251167e-03 -1.15279923e-03 -9.19548736e-04
      -8.30406963e-04 -7.72066705e-04 -7.34282192e-04 -5.63494163e-04
      -5.14591113e-04 -3.14117642e-04 -1.80484843e-04 6.68632973e-04
      6.47031760e-04 6.64179737e-04 7.07977510e-04 7.30259868e-04
      7.14186695e-04 7.96068052e-04 7.82218238e-04 7.94618740e-04
      8.27914104e-04 7.87522818e-04 7.78364949e-04 7.87613972e-04
      8.33947386e-04 8.15765001e-04 9.88995074e-04 1.16016029e-03
      1.76604881e-04 2.83720525e-04 3.77899531e-04 2.78986176e-04
      3.24931054e-04 7.46003585e-04 1.24563579e-03 1.07542309e-03
      9.21608473e-04 7.22081168e-04 3.87713750e-04 3.13926459e-04
      8.24096060e-05 -2.15387827e-05 -5.07076620e-05 3.06685215e-05
      1.33358102e-04 2.40611407e-04 1.55154252e-04 1.29869106e-04
      2.85365270e-04 2.07786972e-04 2.86503928e-04 4.10415116e-04
      4.68733691e-04 6.00203639e-04 3.45161883e-04 1.51889180e-04
      -4.29713182e-05 -3.30030802e-04 -4.38062387e-04 -5.21640526e-04
      -5.47377858e-04 -2.42658702e-04 -3.60808081e-05 -1.96399542e-05
      1.20501492e-04 2.25252879e-04 -5.60039553e-06 7.03522746e-05
      1.91348605e-04 2.50867481e-04 4.34228568e-04 5.62597590e-04
      8.09631543e-04 9.80896293e-04 9.51730122e-04 9.15479381e-04
      9.03881970e-04 7.88962527e-04 5.55345148e-04 1.32236979e-04
      -7.60860421e-05 -4.17876814e-04 -4.61952091e-04 -4.31163295e-04
      -4.52126114e-04 -4.24226717e-04 -4.77304973e-04 -4.51233907e-04
      -4.34287533e-04 -4.42352321e-04 -4.36249073e-04 -4.45332320e-04
      -4.02028585e-04 -4.73805878e-04 -5.09912206e-04 -4.36239992e-04
      -4.17095813e-04 -4.26220504e-04 -4.53823246e-04 -4.53924556e-04
      -5.05253731e-04 -4.89768572e-04 -4.46735357e-04 -4.58589260e-04
      -5.26502379e-04 -6.04205939e-04 -6.79509190e-04 -8.41387082e-04
      -1.16110058e-03 -1.30396499e-03 -1.46383792e-03 -1.38439075e-03
      -1.33765920e-03 -1.18971348e-03 -1.09402498e-03 -5.54090948e-04
      -1.74183137e-04 2.20520058e-04 2.03975680e-04 2.34370120e-04
      1.94187465e-04 1.61074480e-04 2.06423880e-04 1.94033666e-04
      1.49263680e-04 1.05406572e-04 9.01940439e-05 1.17872434e-04
      1.30152039e-04 1.18520729e-04 7.26025755e-05 7.11687899e-05
      7.15861825e-05 1.72636956e-05 -9.41101825e-06 1.38855003e-05
      1.37017807e-04 3.60432459e-04 3.25723318e-04 5.45378018e-04
      5.97336621e-04 5.82593551e-04 5.03946212e-04 3.54885764e-04
      1.68289786e-04 2.31721569e-04 3.58963764e-04 5.09613077e-04
      5.83517540e-04 6.79806632e-04</_>
    <_>
      -1.33764275e-04 -6.12655655e-04 -5.21986105e-04 -1.14781118e-03
      -1.01837225e-03 -8.84391367e-04 -5.96582424e-04 -1.45069425e-04
      4.40424599e-04 1.61768476e-04 2.97845021e-04 6.19762286e-04
      9.98629606e-04 1.00325618e-03 9.74430994e-04 9.39569902e-04
      1.36330258e-03 1.29573047e-03 1.34652085e-03 1.66319869e-03
      1.89282664e-03 1.82966690e-03 1.34526414e-03 1.40206004e-03
      1.50402100e-03 1.48368988e-03 1.51273224e-03 1.67708681e-03
      1.09736086e-03 9.46373737e-04 1.24183390e-03 1.35700242e-03
      1.14143267e-03 1.40919478e-03 1.27979543e-03 9.19452694e-04
      7.85458717e-04 7.08595442e-04 4.22210665e-04 1.94011212e-04
      2.31125799e-04 2.45690811e-04 6.95836861e-05 -5.36829815e-04
      -8.37610860e-04 -6.85054867e-04 -1.48979540e-03 -1.58577051e-03
      -2.09250604e-03 -1.87449728e-03 -1.40312023e-03 -1.15181797e-03
      -9.06052301e-04 -9.78348078e-04 -9.08801681e-04 -1.50095485e-03
      -1.54429581e-03 -1.88300433e-03 -2.56689917e-03 -3.00524966e-03
      -2.50294921e-03 -2.07226723e-03 -9.46204877e-04 -9.48116707e-04
      -4.66471713e-04 -1.67617877e-03 -2.12241826e-03 -1.99943432e-03
      -1.73064298e-03 -1.95896858e-03 -4.12693975e-04 -9.63247847e-04
      5.45882904e-05 -2.22778996e-04 -2.15077525e-04 -7.54017965e-05
      -1.83334894e-04 7.90006481e-04 1.31345703e-03 8.57815554e-04
      -3.56874225e-04 -1.44383694e-05 -2.14399726e-04 1.03488877e-04
      1.42255973e-04 9.37649165e-05 -2.02385680e-04 2.01769668e-04
      3.80889047e-04 7.19499585e-05 1.70078856e-04 1.59279909e-04
      5.22630988e-04 7.65345758e-04 1.02461618e-03 1.14344526e-03
      1.14401570e-03 8.31026351e-04 5.54363360e-04 2.00432187e-04
      -1.67345643e-04 3.25243949e-04 4.86221426e-04 4.96495457e-04
      3.60623235e-04 3.18421517e-05 4.32877459e-05 -1.53956891e-04
      -2.60524102e-04 -1.06411090e-03 -1.45303342e-03 -2.48816516e-03
      -2.76000355e-03 -3.66328890e-03 -3.72358295e-03 -4.18282952e-03
      -4.14256938e-03 -3.07407300e-03 -2.91346060e-03 -2.83087255e-03
      -2.10933550e-03 -2.10786192e-03 -1.88689935e-03 -1.36395229e-03
      -1.25451630e-03 -8.80804379e-04 -7.45499157e-04 -7.40282587e-04
      -5.60924469e-04 -3.12787597e-04 -2.73991027e-04 -3.71305010e-04
      -1.97988149e-04 -2.43591840e-05 5.51897392e-05 -1.48285922e-04
      -9.83134960e-04 -9.00495274e-04 -7.33177585e-04 -8.25488358e-04
      -8.28285352e-04 -6.58393605e-04 -6.67282147e-04 -5.72667108e-04
      -6.88181142e-04 -2.69944401e-04 -3.02507775e-04 -1.64302241e-04
      -3.31887946e-04 -2.89433199e-04 -3.67176486e-04 -1.07679021e-04
      4.27156338e-04 2.99208303e-04 5.43531147e-04 1.80308387e-04
      2.87189556e-04 2.83444091e-03 2.61828164e-03 2.33367481e-03
      2.64341477e-03 3.32248118e-03 3.88926081e-03 4.55138134e-03
      5.14162006e-03 5.37722185e-03</_>
    <_>
      2.95319878e-05 2.00881987e-04 3.60448001e-04 3.26702895e-04
      4.50521969e-04 4.29989042e-04 1.22513215e-04 -4.34334543e-05
      -1.18187549e-04 -2.61671928e-04 -3.48739733e-04 -2.77829415e-04
      -1.66422014e-05 1.09676534e-04 9.37529112e-05 4.65627381e-04
      4.94725595e-04 3.32591910e-04 9.26079738e-05 2.60985980e-04
      7.78281174e-05 -1.72304608e-05 3.42298357e-04 3.69151880e-04
      2.88235664e-04 3.47860303e-04 3.24352499e-04 2.43395494e-04
      1.73110093e-04 -3.64898660e-05 -1.72798464e-04 -3.97688942e-04
      -2.49473000e-04 3.67097232e-06 2.22792281e-04 4.09548142e-04
      3.89719586e-04 4.15444723e-04 3.39922495e-04 6.81852107e-05
      -1.96160341e-04 -2.56852829e-04 -4.32957429e-04 -5.41291432e-04
      -3.34582728e-04 -3.86987347e-04 -3.17648606e-04 -6.81793754e-05
      3.82488870e-05 -1.40360309e-04 7.07433035e-04 5.29799145e-04
      4.99821850e-04 4.15183720e-04 6.17589045e-04 5.43086615e-04
      5.14048734e-04 8.68252129e-04 7.04456645e-04 3.31056712e-04
      2.40432841e-04 6.79387769e-04 1.36817878e-04 -5.76134771e-04
      -3.61545244e-05 -5.47990421e-05 -3.35650431e-04 -4.41586570e-04
      -3.35473625e-04 -3.01489781e-04 8.48847558e-04 1.41175929e-03
      1.38316979e-03 1.65343808e-03 7.56459078e-04 1.06874492e-03
      1.19375298e-03 1.35989371e-03 1.07702124e-03 5.68886928e-04
      4.55271394e-04 3.46554116e-05 -7.22049663e-05 -2.52791506e-04
      -5.16062428e-04 -7.02060002e-04 -7.49810424e-04 -8.71871249e-04
      -8.39410874e-04 -8.23628332e-04 4.05493425e-04 2.69680866e-04
      2.70588469e-04 1.40152159e-04 2.83988993e-06 6.72253591e-05
      5.24091120e-05 6.73589748e-05 2.93550311e-05 -2.93922261e-04
      -4.37211362e-04 -4.04725899e-04 -2.62477755e-04 -3.32720258e-04
      -3.70256603e-04 -5.60237269e-04 -9.27002693e-04 -8.56189115e-04
      -8.36502935e-04 -9.32967174e-04 -1.08886207e-03 -8.99511448e-04
      -8.91389442e-04 -7.98206893e-04 -8.04437499e-04 -9.46985849e-04
      -7.02500984e-04 -7.70087703e-04 -8.91484146e-04 -7.72021711e-04
      -8.26496223e-04 -7.37692986e-04 -6.38522673e-04 -7.82381452e-04
      -1.06242322e-03 -1.39777909e-03 -1.64181425e-03 -1.98367308e-03
      -1.69091555e-03 -1.78729743e-03 -1.82548154e-03 -1.66725286e-03
      -1.62041897e-03 -1.41008699e-03 -9.41536913e-04 -1.08300615e-03
      -1.12926913e-03 -1.13743276e-03 -8.19544250e-04 -2.00592494e-05
      -2.01079965e-04 3.39402141e-05 -1.96128458e-04 -1.06022417e-04
      -9.45211941e-05 -2.14994361e-04 -3.53889918e-04 8.24277890e-07
      -3.77228498e-05 -5.49541946e-05 -1.59839346e-05 1.82852367e-04
      1.37591595e-03 1.70236034e-03 1.48389977e-03 1.23860210e-03
      1.11763598e-03 1.17837393e-03 1.40289392e-03 3.93572636e-03
      3.94114573e-03 4.14910028e-03 4.26398264e-03 4.74028289e-03
      4.94312635e-03 4.19344986e-03</_>
    <_>
      -1.33969719e-04 -2.25313837e-04 1.78617804e-04 -1.65073026e-04
      -1.08524393e-04 5.44353425e-05 -2.88414216e-04 -3.48457950e-04
      -1.21020166e-04 -2.82859633e-04 -2.11090126e-04 -4.70621802e-04
      -5.15851600e-04 -5.00520109e-04 -1.75504218e-04 -3.60266335e-04
      6.32643560e-06 -3.73353367e-04 -1.58657276e-04 3.21961270e-05
      -9.60928810e-05 -8.10454949e-05 -1.44466030e-04 -2.02740383e-04
      -1.91666535e-04 -1.93376196e-04 -1.30179498e-04 4.23731872e-05
      2.48950255e-05 3.56373785e-05 1.75365949e-05 -2.57159154e-05
      2.75341172e-05 1.19795011e-04 1.28589221e-04 -8.59099873e-06
      1.52014793e-04 6.24795284e-05 7.55391593e-05 2.19795329e-04
      1.70661820e-04 1.96649125e-04 2.79731961e-04 3.34062846e-04
      2.76101142e-04 5.06885117e-04 5.81763976e-04 5.41958550e-04
      8.01538466e-04 9.55824216e-04 1.08113303e-03 1.38416828e-03
      1.28506380e-03 1.50126999e-03 1.91470853e-03 1.14173559e-03
      4.45514423e-04 2.88349751e-04 -7.74579239e-05 -1.54234818e-04
      -2.63776252e-04 -1.86999619e-04 -1.94475564e-04 -2.46891694e-04
      1.87337297e-04 3.17254278e-04 2.79786385e-04 1.53310379e-04
      4.45379061e-04 2.30363425e-04 -6.15368830e-04 -8.72435630e-05
      -4.13038011e-04 -5.91398450e-04 -6.98016142e-04 -5.25405805e-04
      -4.31201304e-04 3.11295647e-04 -3.21467320e-04 -8.22918315e-04
      -1.08793250e-03 -8.74644145e-04 -7.95923042e-05 3.88573651e-04
      1.19910471e-03 1.83948677e-03 1.65452040e-03 1.60290662e-03
      1.58652244e-03 1.59610773e-03 1.46336609e-03 1.45994022e-03
      1.49775937e-03 1.70069339e-03 1.98550406e-03 1.94809074e-03
      1.88079686e-03 1.84185978e-03 1.55446026e-03 6.19926548e-04
      2.33691142e-04 1.88875874e-05 -3.63033818e-04 -6.14576100e-04
      -7.53618428e-04 -1.26439147e-03 -1.84470578e-03 -2.96928757e-03
      -4.00465308e-03 -4.58962517e-03 -4.54376824e-03 -3.50935082e-03
      -3.09963198e-03 -2.96399998e-03 -2.81608524e-03 -2.86937738e-03
      -1.95438531e-03 -1.80706766e-03 -1.63792423e-03 -7.29473890e-04
      -3.81258433e-04 -3.45677487e-04 -3.59353871e-04 -1.40597025e-04
      -6.78042998e-05 1.16283169e-04 1.15939518e-04 1.85921948e-04
      3.00331099e-04 2.68802716e-04 3.43203195e-04 2.13672494e-04
      2.25128999e-04 3.26878479e-04 4.14023380e-04 3.10257979e-04
      2.83943955e-04 2.85262853e-04 2.12676590e-04 2.88384734e-04
      3.80707614e-04 4.04955499e-04 7.57397385e-04 6.03471010e-04
      5.73884405e-04 6.31543575e-04 5.11208375e-04 6.20966661e-04
      6.18068210e-04 4.75979643e-04 3.66491993e-04 5.35598316e-04
      4.14889160e-04 1.82362404e-04 2.69259443e-04 4.31116205e-04
      2.32917094e-03 7.98452646e-04 6.30610040e-04 1.78008294e-03
      1.76438491e-03 2.04742420e-03 2.40266742e-03 2.83708610e-03
      3.40739591e-03 3.96960229e-03</_>
    <_>
      3.68503970e-05 -6.63095328e-04 -5.67908864e-04 -9.14103177e-04
      -7.77155277e-04 -8.08709941e-04 -9.51780647e-04 -9.51665104e-04
      -1.07486208e-03 -1.17655692e-03 -1.13505102e-03 -9.17210011e-04
      -9.58053162e-04 -9.03521490e-04 -9.61886602e-04 -8.09399236e-04
      -4.61383053e-04 -3.01386055e-04 -4.45485726e-04 -2.78731604e-05
      -4.12272057e-05 2.45621522e-05 1.50434236e-04 8.49307908e-05
      1.22103898e-04 1.57008821e-04 1.55624934e-04 2.12976651e-04
      3.01501626e-04 3.38737504e-04 3.23343178e-04 2.87181610e-04
      2.26950331e-04 3.16294696e-04 3.14809120e-04 3.24955472e-04
      3.76417127e-04 3.08671762e-04 3.38735175e-04 4.03342798e-04
      3.77707940e-04 4.34058107e-04 5.47214178e-04 4.29791835e-04
      4.00954392e-04 5.03319665e-04 5.43299073e-04 6.44574058e-04
      6.93321635e-04 5.26234100e-04 4.29693289e-04 3.85971274e-04
      2.77447863e-04 1.25506747e-04 1.95609333e-04 -1.36865725e-04
      1.02295802e-04 4.69402676e-06 -8.26707328e-05 -1.16249677e-04
      -9.42129827e-06 -2.50423400e-05 4.21824370e-05 3.65710257e-05
      2.70364049e-04 4.91736690e-04 3.10068892e-04 -8.30286717e-06
      4.92253603e-05 2.55763211e-04 4.95864015e-06 3.01854307e-04
      5.60402463e-04 7.41766708e-04 9.03970911e-04 6.70311740e-04
      4.95388638e-04 7.05895014e-04 5.93838049e-04 5.89492265e-04
      6.30012015e-04 6.65993430e-04 6.05204725e-04 6.94604008e-04
      8.09910009e-04 6.98300195e-04 7.35174865e-04 8.33079452e-04
      8.57672363e-04 7.49800820e-04 7.76427740e-04 7.82859395e-04
      8.20767949e-04 1.01960218e-03 1.04204670e-03 1.10208802e-03
      1.11115503e-03 1.17756228e-03 1.31739012e-03 1.29522057e-03
      1.29553804e-03 1.21503521e-03 1.02915545e-03 9.24930151e-04
      5.60045941e-04 -5.84014924e-05 -3.83338222e-04 -8.22165166e-04
      -1.47317175e-03 -2.08434486e-03 -2.23371945e-03 -2.29422166e-03
      -2.40609376e-03 -2.44768942e-03 -2.12225877e-03 -1.64458551e-03
      -1.46719220e-03 -1.27149059e-03 -1.18394429e-03 -1.12969731e-03
      -1.18510809e-03 -1.08144840e-03 -1.07286556e-03 -1.05186785e-03
      -9.89818946e-04 -9.31249058e-04 -9.44540720e-04 -9.26814566e-04
      -8.32268037e-04 -7.65322999e-04 -7.89183017e-04 -9.19771206e-04
      -8.07407545e-04 -8.34473874e-04 -9.04512883e-04 -7.83279014e-04
      -8.45047412e-04 -7.73613923e-04 -8.71804077e-04 -8.97487742e-04
      -8.73984420e-04 -7.14708643e-04 -5.97707753e-04 -7.21901248e-04
      -6.48486253e-04 -5.62209054e-04 -6.22695254e-04 -6.23481290e-04
      -6.30469818e-04 -7.98164750e-04 -7.00382574e-04 -5.94679383e-04
      -2.55669584e-04 -1.80907984e-04 -1.96732594e-06 6.30869588e-04
      7.07657658e-04 1.84964982e-03 1.80913275e-03 1.80600979e-03
      1.83091988e-03 1.65218371e-03 1.92052324e-03 2.24856706e-03
      2.44281348e-03 2.19800300e-03</_>
    <_>
      8.58222484e-05 -9.42807819e-05 -2.41268979e-04 -3.54405725e-04
      -4.51148371e-05 2.36375592e-04 4.40666772e-04 2.89577816e-04
      3.67186236e-04 4.50366962e-04 3.14520672e-04 6.51473703e-04
      6.87836728e-04 7.93683459e-04 6.56975433e-04 7.02629040e-04
      5.40900219e-04 3.46992747e-04 2.05980163e-04 4.14215261e-04
      2.72690871e-04 5.59461841e-05 1.56572234e-04 2.06120545e-04
      -2.14514075e-04 -1.33098074e-04 -4.88988553e-05 -8.66901319e-05
      -9.02211468e-05 3.54952645e-05 2.11049104e-04 1.90986233e-04
      3.00103537e-04 5.16786007e-04 7.24621234e-04 8.52190191e-04
      8.43097630e-04 9.40779340e-04 8.14603991e-04 2.08326470e-04
      -4.07263258e-04 -4.63831442e-04 -6.82423241e-04 -6.00082800e-04
      -5.48542477e-04 -7.68461090e-04 -6.09422277e-04 -1.49430140e-04
      2.13268155e-04 -2.78374355e-04 6.75003801e-04 4.76264424e-04
      3.49756306e-06 -3.44847969e-04 -3.11556360e-04 -6.42744417e-04
      -2.41895395e-04 3.23749759e-04 3.13783617e-04 3.88852204e-04
      3.33001313e-04 9.93353198e-04 3.02278553e-04 -3.37143079e-04
      5.45891671e-05 -3.33927776e-04 -3.54808726e-04 -4.19932825e-04
      -3.47357622e-04 -4.27638617e-04 -1.38797401e-03 -1.29090354e-03
      -9.82689788e-04 -8.39396613e-04 -6.70320936e-04 -5.36492269e-04
      -5.52719517e-04 -5.16134896e-04 -1.09685981e-03 -1.88047357e-03
      -2.10097665e-03 -1.10099406e-03 -1.08677056e-03 -1.15464290e-03
      -8.70359363e-04 -5.38345834e-04 -4.36614762e-04 -2.75124941e-04
      -1.78310307e-04 -6.86902131e-05 -2.31912563e-05 1.95047251e-04
      2.46304378e-04 9.09839073e-05 1.51545682e-04 1.87870814e-04
      7.54252833e-05 1.02046572e-04 2.66160896e-05 -5.01451956e-04
      -5.57822641e-04 -5.78491599e-04 -5.36360370e-04 -5.98450191e-04
      -6.61061145e-04 -5.93685312e-04 -6.04956236e-04 -3.36374040e-04
      -1.42279372e-04 -2.02484764e-04 -1.70422951e-04 -7.50185864e-05
      -3.86211832e-05 -1.78020782e-04 -1.27449777e-04 -2.12659681e-04
      -2.69139910e-05 -6.34569442e-05 -2.58646585e-04 -1.57118659e-04
      -2.65654147e-04 -4.72046995e-05 -1.44787351e-04 -1.89102706e-04
      -4.14547656e-04 -3.07500537e-04 -1.80933086e-04 -4.36950853e-04
      -3.42403102e-04 -3.17111204e-04 -4.30461310e-04 -4.89633705e-04
      -5.28394594e-04 -5.30255435e-04 -3.42064508e-04 -5.48707088e-04
      -5.73812402e-04 -5.30507124e-04 -4.81697265e-04 -4.81025840e-04
      -5.22890768e-04 -5.55010105e-04 -6.79459190e-04 -6.77340897e-04
      -6.06631220e-04 -5.41068905e-04 -6.02254120e-04 -2.22013899e-04
      -1.08079999e-04 -1.94845397e-05 2.48249853e-05 3.45812150e-04
      7.77978799e-04 1.16262981e-03 8.90844560e-04 1.17123767e-03
      1.20248180e-03 1.34338834e-03 1.73208234e-03 4.83620493e-03
      4.89854626e-03 5.07333316e-03 5.14267618e-03 5.26281400e-03
      4.94694896e-03 4.45311423e-03</_>
    <_>
      -5.69067372e-04 -5.06633252e-04 -2.68395292e-04 -4.60519659e-04
      -4.63860808e-04 -4.98498790e-04 -8.71556927e-04 -7.31026463e-04
      -8.23297189e-04 -8.24870775e-04 -6.46504282e-04 -6.82246289e-04
      -1.22547010e-03 -1.09069631e-03 -6.99626689e-04 -9.26702109e-04
      -5.41687419e-04 -4.74736735e-04 -4.02819947e-04 -1.30016764e-04
      -2.30505815e-04 -8.44058086e-05 -6.97217547e-05 -3.19693965e-04
      -3.24400520e-04 -3.88422486e-04 -1.65022779e-04 8.46315525e-05
      1.02243102e-04 3.32276570e-04 4.62653377e-04 5.90818992e-04
      7.28645769e-04 7.31562206e-04 7.42505188e-04 8.52553814e-04
      9.37999052e-04 1.00575935e-03 7.87787372e-04 7.94411171e-04
      6.43040752e-04 6.84972038e-04 5.97011473e-04 4.73330641e-04
      1.61350486e-04 2.26402917e-04 2.57831358e-04 1.18176315e-04
      7.27155493e-05 1.05666353e-04 1.58597482e-04 6.94776463e-05
      -3.78338045e-05 6.21332447e-06 1.14630922e-04 -1.49464191e-04
      -8.14282801e-04 -1.01381191e-03 -9.52076633e-04 -9.60131991e-04
      -1.08977547e-03 -1.33941881e-03 -7.57979520e-04 -5.08236117e-04
      -1.12011832e-04 -3.17508488e-06 2.07338075e-04 5.62322493e-05
      -4.44665086e-04 -3.64892388e-04 -3.00578657e-04 -1.34804854e-04
      -2.91123943e-05 1.80492949e-04 3.92221205e-04 2.64136033e-04
      -7.79449911e-05 6.05908106e-04 4.50413470e-04 1.87589321e-04
      1.97712085e-04 4.68289916e-04 5.97725622e-04 7.26202736e-04
      7.43696117e-04 6.03451568e-04 5.62662201e-04 6.39713719e-04
      7.34273519e-04 7.22808589e-04 7.55449350e-04 8.10350990e-04
      9.05407243e-04 1.06825877e-03 1.27103436e-03 1.31305668e-03
      1.33822416e-03 1.34386891e-03 1.20668125e-03 1.15505303e-03
      1.15644000e-03 1.02398428e-03 9.06005094e-04 8.12614977e-04
      5.36980515e-04 -7.82527859e-05 -7.57272006e-04 -1.59213389e-03
      -1.79779658e-03 -2.03242805e-03 -2.39336910e-03 -2.37434753e-03
      -2.09929538e-03 -1.67364965e-03 -1.36636884e-03 -1.26306701e-03
      -1.30931777e-03 -1.57778442e-03 -2.09581456e-03 -2.38824682e-03
      -2.32362864e-03 -2.29416438e-03 -2.38537183e-03 -2.00499012e-03
      -1.87217921e-03 -1.80491072e-03 -1.73328863e-03 -1.64260960e-03
      -1.40451221e-03 -1.40822644e-03 -1.37913693e-03 -1.47578109e-03
      -1.36744475e-03 -1.31381548e-03 -1.15390529e-03 -1.13926793e-03
      -1.06792047e-03 -1.03570696e-03 -1.11719023e-03 -1.03038328e-03
      -8.02487601e-04 -5.13353792e-04 -2.62398069e-04 -3.84559564e-04
      -3.89888242e-04 -3.76067299e-04 -5.23432682e-04 -4.67158156e-04
      -5.60188782e-04 -7.19406817e-04 -7.36413989e-04 -1.29524429e-04
      2.82103050e-04 4.60413808e-04 8.11243488e-04 2.00758944e-03
      2.34920229e-03 2.74126907e-03 2.70253955e-03 2.43662484e-03
      2.01781490e-03 2.00665346e-03 2.28838995e-03 2.61520455e-03
      2.87730922e-03 2.02250783e-03</_>
    <_>
      -5.94194338e-04 -4.79535927e-04 -4.63998615e-04 -7.69503124e-04
      -9.38869081e-04 -6.84480241e-04 -1.05499499e-03 -8.26618052e-04
      -9.67969245e-04 -8.55190097e-04 -8.11332371e-04 -6.14707242e-04
      -5.58990170e-04 -3.17653990e-04 -2.72207253e-04 -5.48709009e-04
      -2.60428118e-04 8.23791997e-05 1.76118818e-04 5.81629691e-04
      4.64002282e-04 6.49597903e-04 5.17896435e-04 4.35012975e-04
      4.33397217e-04 2.38231092e-04 2.72710924e-04 4.51288302e-04
      3.78869096e-04 3.67348694e-04 3.63544386e-04 4.06473147e-04
      3.68666893e-04 4.96263790e-04 3.08395043e-04 3.64405569e-04
      4.84190678e-04 4.36261180e-04 3.03529087e-04 4.34437825e-04
      4.88833524e-04 5.45126968e-04 6.05507055e-04 5.64904767e-04
      4.21802513e-04 4.70367202e-04 6.56860298e-04 5.01331640e-04
      3.86001018e-04 4.21013334e-04 2.76044535e-04 2.69574928e-04
      -1.29573033e-04 -4.31651366e-04 -3.62213264e-04 -4.96138469e-04
      -3.72279144e-04 -6.70876820e-04 -7.42729637e-04 -8.65393609e-04
      -8.64895817e-04 -9.78917116e-04 -8.05167481e-04 -6.13404089e-04
      -2.16773478e-04 -8.36489780e-05 -1.67427308e-04 -3.76485143e-04
      -2.66995572e-04 -2.93232762e-04 4.47013445e-04 3.34864046e-04
      4.65715711e-04 4.90251288e-04 5.14519168e-04 2.48292170e-04
      -3.63719519e-05 -9.52098708e-06 -3.56105738e-04 -5.39295375e-04
      -3.59844184e-04 -5.86268325e-05 -3.32169235e-04 -1.60068244e-04
      -9.13523836e-05 -1.33744601e-04 -1.66894446e-04 -3.37741985e-05
      1.93697815e-05 -3.62665087e-05 -8.66198097e-05 -1.36551978e-06
      7.62733544e-05 3.55898432e-04 4.89138707e-04 5.68869698e-04
      6.15997647e-04 6.75540301e-04 7.05251645e-04 7.08011386e-04
      7.35249021e-04 6.69129135e-04 5.78336651e-04 5.68167190e-04
      3.54176358e-04 -2.38834346e-05 -3.25127359e-04 -8.39127460e-04
      -8.26605188e-04 -8.67683499e-04 -9.75238450e-04 -9.35188960e-04
      -9.28838621e-04 -8.82640714e-04 -1.02619443e-03 -1.12749427e-03
      -1.22361770e-03 -1.21269783e-03 -1.29112799e-03 -1.37392397e-03
      -1.62554940e-03 -1.89676916e-03 -2.13549053e-03 -2.42879428e-03
      -2.96831923e-03 -2.79693911e-03 -2.69012246e-03 -2.60627083e-03
      -2.26267916e-03 -2.02692742e-03 -1.68605789e-03 -8.17485969e-04
      -4.33450223e-05 1.81170981e-05 1.65290803e-05 4.29538341e-05
      1.52375628e-06 5.87423419e-05 -1.08323620e-04 -9.88819811e-05
      1.95120556e-05 1.89753206e-04 3.09416704e-04 7.34778514e-05
      5.48713833e-05 1.76089277e-04 2.19021626e-06 2.07209450e-05
      1.64189823e-05 -2.37984888e-04 -1.75544585e-04 -1.46106933e-04
      5.36416119e-05 5.47454692e-05 4.31823079e-04 1.41106942e-03
      2.00490816e-03 2.57922895e-03 2.27040448e-03 2.06232932e-03
      2.14226590e-03 2.41341302e-03 2.69023469e-03 2.89410446e-03
      3.16302921e-03 3.08625586e-03</_>
    <_>
      -1.55177506e-04 1.15430455e-04 4.61904245e-04 5.69594500e-04
      7.47584971e-04 9.85237304e-04 6.85887062e-04 4.70019586e-04
      9.93685680e-05 1.28121646e-05 1.44973688e-04 2.74973543e-04
      2.31459810e-04 1.27232997e-04 9.51720940e-05 4.20662720e-04
      1.75876630e-04 3.49973561e-04 -1.68532220e-04 -8.45901435e-04
      -1.21090293e-03 -1.47535547e-03 -7.90770748e-04 -7.40880438e-04
      -7.10701686e-04 -7.17472052e-04 -1.04946096e-03 -1.03410578e-03
      -7.78714952e-04 -6.60031044e-04 -8.89382965e-04 -1.06163253e-03
      -7.10272521e-04 -7.30221393e-04 -5.84601483e-04 -4.76475630e-04
      -2.80160748e-04 -2.95550737e-04 -6.65124680e-04 -6.85618492e-04
      -7.74409156e-04 -8.82023887e-04 -8.43000365e-04 -8.63347435e-04
      -4.81709809e-04 -6.81415549e-04 -6.20335595e-06 -3.66057706e-04
      2.39716523e-04 2.09491802e-04 5.54861617e-04 1.02835393e-03
      1.30969484e-03 1.03227946e-03 1.14038447e-03 1.34327856e-03
      1.25422841e-03 1.74869073e-03 2.27122079e-03 2.38890620e-03
      2.20513646e-03 1.76659727e-03 1.21632859e-03 1.16340001e-03
      8.06336873e-04 7.49097322e-04 1.09790487e-03 1.29090890e-03
      7.59259448e-04 8.56453960e-04 1.65274937e-03 2.57005193e-03
      2.52194167e-03 3.06329876e-03 2.58306763e-03 2.67758383e-03
      2.71854759e-03 2.10905401e-03 1.40250288e-03 1.08626741e-03
      9.77392541e-04 4.97640925e-04 2.92071927e-04 -1.46601888e-04
      -4.33894427e-04 -6.17075944e-04 -6.42105879e-04 -8.80620442e-04
      -9.09131370e-04 -9.10560018e-04 1.80594710e-04 -1.05270141e-04
      -5.57610823e-04 -6.78698474e-04 -9.67942877e-04 -1.01233250e-03
      -9.93664609e-04 -1.01387501e-03 -8.43394664e-04 -8.88442155e-04
      -9.83820646e-04 -1.58068025e-03 -1.57270697e-03 -1.44042377e-03
      -1.35507027e-03 -1.25173107e-03 -1.29380636e-03 -1.28336088e-03
      -1.20548171e-03 -5.22191927e-04 -2.36679174e-04 2.29746220e-04
      4.83957556e-04 1.02339673e-03 1.12233707e-03 1.53696805e-03
      1.64448132e-03 7.10757915e-04 6.92010974e-04 4.72571090e-04
      1.57186339e-04 1.57186339e-04 1.83396362e-04 -7.23440142e-04
      -1.01296790e-03 -1.82560459e-03 -2.57475255e-03 -3.20314104e-03
      -2.76337471e-03 -2.96811620e-03 -2.60530016e-03 -1.83603039e-03
      -1.83428347e-03 -1.95204990e-03 -1.69633143e-03 -1.22753624e-03
      -1.00373139e-03 -9.31114890e-04 -6.21570507e-04 5.19230198e-05
      -4.50561602e-05 3.50376242e-04 3.80091922e-04 3.90945817e-04
      3.33277130e-04 1.90402599e-04 2.46155279e-04 1.91604486e-04
      3.03246110e-04 4.56056034e-04 6.90567074e-04 5.07044897e-04
      7.45208294e-04 1.05979887e-03 1.25209719e-03 9.27432033e-04
      1.34650874e-03 1.69874099e-03 2.11331365e-03 3.24197952e-03
      2.94762198e-03 2.78460444e-03 2.54323008e-03 2.57105031e-03
      2.13787542e-03 1.72914204e-03</_>
    <_>
      -3.63456609e-04 -7.40720425e-04 -8.32331352e-06 -2.73564045e-04
      -1.09474361e-03 -9.26337438e-04 -1.18905096e-03 -1.45569060e-03
      -1.59412553e-03 -1.38851302e-03 -1.30901195e-03 -1.76058523e-03
      -1.66193128e-03 -1.82150432e-03 -1.94451830e-03 -2.27138610e-03
      -2.16200133e-03 -1.88553310e-03 -1.67061901e-03 -1.77642517e-03
      -1.67263427e-03 -1.58241868e-03 -1.43861037e-03 -1.34088425e-03
      -1.30392634e-03 -1.28007343e-03 -8.82855733e-04 -7.90131278e-04
      -7.04810431e-04 -4.30211890e-04 -5.56623156e-04 -5.43671311e-04
      -4.34035697e-04 -5.02273149e-04 -4.62858879e-04 -4.22618235e-04
      -3.28488299e-04 -3.24054796e-04 -9.82667843e-05 2.36853020e-06
      9.22038598e-05 2.43078131e-04 2.92597251e-04 4.13002446e-04
      7.72265601e-04 9.07698937e-04 1.15894398e-03 1.30565406e-03
      1.52343744e-03 1.58200855e-03 1.69523910e-03 2.26893718e-03
      2.37612985e-03 2.32178578e-03 2.15552701e-03 2.04320205e-03
      2.17543868e-03 1.88018428e-03 2.23910040e-03 2.77242181e-03
      2.91685853e-03 2.57480121e-03 1.71817443e-03 1.56554172e-03
      1.44420133e-03 8.79477710e-04 3.02408967e-04 6.60942227e-04
      7.79257462e-05 5.71474433e-04 -1.81424548e-04 -2.44310650e-04
      -4.21514560e-04 -4.94233042e-04 -4.90384700e-04 -5.74469450e-04
      -6.94452843e-04 -1.01794678e-04 -5.96644823e-04 -8.70505406e-04
      -4.33903188e-04 -5.05283650e-04 -5.73647339e-05 -3.52768911e-05
      1.35164615e-03 1.68694812e-03 1.81276991e-03 1.65752904e-03
      1.56980928e-03 1.61950022e-03 1.49149413e-03 1.44544477e-03
      1.37310789e-03 1.30892615e-03 1.28195190e-03 1.18668017e-03
      1.13746838e-03 1.09345152e-03 9.12682153e-04 2.20772956e-04
      -5.15291526e-04 -8.57985229e-04 -1.15913339e-03 -1.45048951e-03
      -1.52872421e-03 -1.60922424e-03 -1.99653395e-03 -2.66485079e-03
      -3.83118377e-03 -4.26498987e-03 -3.75577412e-03 -2.24827067e-03
      -1.91644928e-03 -1.67935912e-03 -1.84404361e-03 -1.58375769e-03
      -7.70906801e-04 -6.22874184e-04 -3.40819170e-05 9.53434268e-04
      8.82955734e-04 6.31336821e-04 4.96230787e-04 2.30483420e-04
      1.63009303e-04 6.06881913e-05 -2.02632345e-05 4.39323849e-05
      1.16043220e-05 -1.20064135e-04 -6.36134209e-05 -1.00259123e-04
      -1.27113992e-04 -2.09660095e-04 -1.23419610e-04 5.61422959e-04
      6.75918243e-04 6.44813001e-04 6.51755370e-04 6.25554938e-04
      6.15933503e-04 6.15933503e-04 6.06539834e-04 6.47754816e-04
      6.48918853e-04 5.52879006e-04 7.22485012e-04 7.89277139e-04
      1.04674778e-03 1.05570909e-03 1.10372680e-03 1.14751875e-03
      1.42060779e-03 1.65326952e-03 1.59506814e-03 7.83374009e-04
      1.63855759e-04 -6.97225740e-04 -1.81848591e-04 5.86982816e-04
      5.07933437e-05 -2.01214993e-04 -2.55988387e-04 -2.41798421e-04
      -3.26282636e-04 -3.50915332e-04</_>
    <_>
      1.37931478e-04 -9.88465035e-04 -7.45387166e-04 -1.27917156e-03
      -1.31239952e-03 -1.70517981e-03 -1.84659590e-03 -1.80799095e-03
      -1.91172748e-03 -1.78698532e-03 -1.85541809e-03 -1.79768458e-03
      -1.76530005e-03 -2.58961134e-03 -2.84466520e-03 -2.17943429e-03
      -1.93918135e-03 -1.62131817e-03 -1.55985903e-03 -1.38993142e-03
      -1.69137097e-03 -1.81175687e-03 -1.45367335e-03 -1.31272408e-03
      -1.25564740e-03 -9.63640166e-04 -8.89753399e-04 -7.96163571e-04
      -4.44038014e-04 -2.15401553e-04 -1.25426872e-04 -1.38921183e-04
      -2.30866790e-04 -2.77459359e-04 -1.66174883e-04 -2.00376293e-04
      -1.53452274e-04 -1.58106370e-04 6.90934248e-05 1.82709089e-04
      1.44980033e-04 3.66334309e-04 6.28858514e-04 6.31279312e-04
      8.62302666e-04 9.83727397e-04 1.12449692e-03 1.35066907e-03
      1.41331798e-03 1.48269953e-03 1.34069391e-03 1.51718722e-03
      1.72646903e-03 1.28743134e-03 9.50907764e-04 8.96549085e-04
      1.31636986e-03 1.78379170e-03 2.40649539e-03 1.98592781e-03
      1.82760041e-03 1.60994835e-03 1.46120007e-03 1.03439169e-03
      6.33490097e-04 2.10003302e-04 2.41979578e-04 1.29234220e-04
      1.68646278e-04 3.07300652e-04 5.32076578e-04 9.23436310e-04
      1.08600594e-03 1.28011475e-03 1.34058227e-03 1.54425541e-03
      1.51126494e-03 1.64786936e-03 1.45927630e-03 1.40768837e-03
      1.16393936e-03 1.10896444e-03 9.73015849e-04 9.45238222e-04
      8.95460020e-04 8.80796229e-04 8.30146309e-04 8.08261335e-04
      8.48748081e-04 7.18606461e-04 7.57788948e-04 7.71877763e-04
      8.18194880e-04 8.96655140e-04 8.64513451e-04 8.17757449e-04
      6.70583162e-04 6.11702097e-04 7.22913363e-04 8.64376489e-05
      5.49218703e-06 -1.84105651e-04 -5.51998266e-04 -5.33819955e-04
      -4.89671947e-04 -8.21995025e-04 -1.02142582e-03 -1.19655149e-03
      -2.03450187e-03 -2.72813346e-03 -2.06385809e-03 -2.04375316e-03
      -2.02058232e-03 -2.27481476e-03 -1.95165933e-03 -1.15224242e-03
      -6.94513205e-04 -4.71288135e-04 -3.62049002e-04 -3.81354184e-04
      -7.48757506e-04 -9.45812499e-04 -1.09524152e-03 -1.40338368e-03
      -1.51760981e-03 -1.49284361e-03 -1.55814923e-03 -1.46818662e-03
      -1.46412931e-03 -1.37251127e-03 -1.44837261e-03 -1.50906108e-03
      -1.12473592e-03 -1.09645410e-03 -1.12404907e-03 -7.71795516e-04
      -6.69692643e-04 -5.21045818e-04 -2.76313367e-04 -2.43118280e-04
      -1.90780498e-04 -1.85793077e-04 -2.43888047e-04 -3.74075724e-04
      -3.30936920e-04 -9.21248211e-05 -5.46690280e-05 -1.31574881e-04
      -6.63909523e-05 -1.88356309e-04 -1.54412250e-04 1.30230992e-05
      1.02086924e-04 2.54980871e-04 -8.56698753e-05 1.22900747e-04
      2.92464014e-04 4.45612532e-04 9.85818915e-04 7.15665752e-04
      7.48478284e-04 2.83399539e-04 3.20529332e-04 3.90141184e-04
      3.02685483e-04 2.35622829e-05</_>
    <_>
      1.19965815e-04 1.33564972e-04 1.48285835e-04 2.13496052e-04
      6.96059898e-04 1.16644404e-03 1.37911807e-03 1.30167988e-03
      1.03514176e-03 1.31151592e-03 1.48818817e-03 1.98847172e-03
      1.82235648e-03 1.91825849e-03 1.65124319e-03 1.65488955e-03
      1.13844685e-03 5.73329860e-04 3.78361496e-04 1.52382621e-04
      -3.90563655e-05 -2.13690553e-04 1.30894579e-04 1.20197503e-04
      9.79122924e-05 8.10520487e-06 5.93491313e-05 -1.06387102e-04
      -1.92086460e-04 -1.52031731e-04 -1.73226319e-04 -2.09233069e-04
      -1.55774978e-04 -2.43844712e-04 -1.99242349e-04 1.91786661e-04
      1.54131048e-04 3.72280716e-04 5.83001587e-04 2.71842349e-04
      -3.58091842e-04 -6.78993878e-04 -7.36073416e-04 -6.37280638e-04
      -3.31175455e-04 -5.51945181e-04 1.15356117e-04 2.88268027e-04
      7.12520210e-04 7.98649387e-04 6.41666586e-04 6.77481119e-04
      3.89544904e-04 -2.29471538e-04 -6.91615511e-04 -6.22430060e-04
      -6.15481578e-04 3.68099863e-04 4.68839222e-04 1.01942464e-03
      9.16668854e-04 7.45918253e-04 -1.64115219e-04 6.33692660e-04
      4.78249858e-04 9.80950892e-04 7.36162183e-04 3.40111204e-04
      5.79464366e-04 1.03453815e-03 -1.31674658e-03 -5.72312216e-04
      -2.62894027e-04 1.05061794e-04 4.34295507e-04 -1.52872395e-04
      -5.93079312e-04 -1.87809125e-03 -2.68095126e-03 -3.08700884e-03
      -3.44641181e-03 -2.00617849e-03 -1.96590275e-03 -2.21166294e-03
      -1.94371794e-03 -1.58430159e-03 -1.08648441e-03 -8.20029469e-04
      -5.33377461e-04 -3.41996987e-04 -2.69913115e-04 -1.26765925e-04
      -2.15110354e-04 -2.49207253e-04 -5.17042063e-04 -5.07423538e-04
      -6.82538084e-04 -7.37216498e-04 -8.06769705e-04 -8.66517250e-04
      -9.09775728e-04 -1.00086955e-03 -7.79193826e-04 -8.42306181e-04
      -7.92371284e-04 -3.80304467e-04 -2.81939370e-04 -2.22339469e-04
      2.02850555e-04 6.70525013e-04 9.33619332e-04 1.32884516e-03
      1.77048938e-03 2.72752764e-03 2.77235033e-03 3.08840745e-03
      3.26937623e-03 2.38481653e-03 1.91834348e-03 1.75004953e-03
      1.16170535e-03 1.11601525e-03 8.84320587e-04 6.37031160e-04
      4.42845514e-04 3.49397073e-04 3.06531787e-04 1.69426727e-04
      1.89733211e-04 5.43570559e-06 -9.22985564e-05 -1.21190860e-04
      -2.29026933e-04 -4.00620047e-04 -4.26596816e-04 -5.64158079e-04
      -5.65265655e-04 -5.59522305e-04 -3.94172879e-04 -3.56699835e-04
      -1.13535985e-04 -2.88433166e-05 -3.07964510e-05 1.73918779e-05
      1.12109346e-05 -9.20260136e-05 -1.01663700e-05 -1.01092119e-05
      1.53775327e-05 1.62094002e-04 3.35610472e-04 1.93454209e-04
      3.26232403e-04 5.49159187e-04 8.77202081e-04 1.55577052e-03
      2.18288065e-03 2.74003786e-03 3.23268329e-03 4.38602408e-03
      4.47305012e-03 4.21879254e-03 4.48911358e-03 3.78959929e-03
      3.12867993e-03 2.24834960e-03</_>
    <_>
      -7.23438978e-04 -6.37645018e-04 -1.36055882e-04 -1.84044547e-04
      -1.51469850e-03 -2.19809846e-03 -2.70167668e-03 -2.69748387e-03
      -2.70214281e-03 -2.91261333e-03 -2.21696170e-03 -2.35875999e-03
      -2.52186600e-03 -3.45234154e-03 -2.25742511e-03 -2.35719397e-03
      -2.52927374e-03 -2.48340052e-03 -2.32768594e-03 -2.31847167e-03
      -2.59368005e-03 -2.84567894e-03 -2.71382462e-03 -2.49172281e-03
      -2.36368622e-03 -1.83736777e-03 -1.41775899e-03 -1.19509781e-03
      -7.33549066e-04 -3.86751562e-05 1.29241133e-04 2.66416726e-04
      5.50762517e-04 5.15236403e-04 5.00818598e-04 4.88463324e-04
      5.14248735e-04 7.47519021e-04 8.49398552e-04 8.51434714e-04
      7.14692462e-04 9.48688015e-04 9.17964149e-04 9.19357117e-04
      1.06453407e-03 1.00668811e-03 1.09303033e-03 1.25393935e-03
      1.13507139e-03 1.17672316e-03 1.33087987e-03 1.42694812e-03
      1.54154573e-03 1.77911157e-03 1.51409185e-03 1.39324623e-03
      1.72780408e-03 1.55956007e-03 2.13383511e-03 1.73708249e-03
      4.07862215e-04 2.86128459e-04 4.63951263e-04 2.67296215e-04
      2.72000994e-04 1.11196496e-04 1.39697266e-04 1.11939199e-03
      8.67665804e-04 1.22264407e-06 2.08765647e-04 5.11502789e-04
      5.28148375e-04 6.35592325e-04 9.34113690e-04 9.66342050e-04
      1.92254141e-04 1.15353998e-03 1.46953040e-03 1.17308553e-03
      1.00852503e-03 1.03418168e-03 1.12187769e-03 7.77545036e-04
      6.12590462e-04 5.31402940e-04 4.94804000e-04 4.00113582e-04
      3.29337636e-04 3.89195658e-04 5.02738752e-04 6.21400832e-04
      7.92450737e-04 6.51788956e-04 6.51788956e-04 5.66820207e-04
      4.18137643e-04 2.91152886e-04 -2.24099596e-04 -8.81435350e-04
      -1.41557585e-03 -1.75573584e-03 -1.95316714e-03 -1.76143111e-03
      -1.99283473e-03 -1.80806732e-03 -1.95690244e-03 -2.05068290e-03
      -1.83144817e-03 -1.73909776e-03 -1.49921549e-03 -1.99731835e-03
      -1.34456321e-03 -7.39675772e-04 -4.22327197e-04 -5.63191890e-04
      -7.05566839e-04 -1.31791795e-03 -1.81713316e-03 -2.14030454e-03
      -1.83877151e-03 -1.99455442e-03 -1.82506989e-03 -1.70222623e-03
      -2.02544942e-03 -2.25949916e-03 -2.07758229e-03 -1.87487272e-03
      -1.90406712e-03 -1.82996551e-03 -1.89219147e-03 -1.85178325e-03
      -1.32595061e-03 -1.09538762e-03 -8.65801296e-04 -3.53777083e-04
      -1.56253343e-04 3.16240694e-05 8.51373843e-05 2.72841018e-04
      3.22304928e-04 3.90904897e-04 4.62832104e-04 5.02123439e-04
      4.39343858e-04 3.43755935e-04 5.82914392e-04 5.29137615e-04
      6.48466172e-04 6.39092585e-04 6.34463504e-04 7.54942826e-04
      8.54009530e-04 9.44121042e-04 1.12961454e-03 1.41391938e-03
      9.76635260e-04 1.18388748e-03 1.64309645e-03 1.26049703e-03
      -3.33660100e-05 1.25114559e-04 9.54238712e-05 1.10352317e-04
      -5.13313762e-06 -2.53462029e-04</_>
    <_>
      -5.61092049e-04 -6.27267873e-04 -6.42139115e-04 -7.52583030e-04
      -1.44511997e-03 -1.50510110e-03 -1.75131462e-03 -1.62629806e-03
      -1.80864998e-03 -1.45881984e-03 -1.46069459e-03 -1.57471234e-03
      -1.71790330e-03 -1.77601911e-03 -1.76948798e-03 -1.72717939e-03
      -1.88363472e-03 -1.30189443e-03 -1.14148529e-03 -1.24578096e-03
      -1.45014143e-03 -1.23059552e-03 -1.32066128e-03 -1.21335359e-03
      -9.97510273e-04 -8.95039469e-04 -6.86289161e-04 -5.13894542e-04
      -5.07609046e-04 -3.38011887e-04 -2.65333278e-04 -1.23277874e-04
      -1.14848299e-04 -1.80473660e-06 -2.41785470e-04 -1.13776368e-04
      -2.40096379e-05 8.52117228e-06 -2.94860765e-05 1.56688402e-04
      3.74080293e-04 5.98800660e-04 6.22868771e-04 7.42789882e-04
      9.37128090e-04 9.62115766e-04 1.31566206e-03 1.52166549e-03
      1.36751367e-03 1.39341853e-03 1.64446409e-03 1.71382970e-03
      1.44507515e-03 8.36161489e-04 4.32483939e-04 9.84646031e-04
      1.18454162e-03 1.10561133e-03 1.17020949e-03 9.53893235e-04
      9.17623052e-04 6.60476333e-04 4.85254306e-04 2.80053006e-04
      3.39924620e-04 -3.02904664e-04 -8.29084252e-04 -8.48971424e-04
      -5.88892261e-04 -5.59406995e-04 1.05493155e-03 7.89385114e-04
      9.33387259e-04 7.14678783e-04 7.94465246e-04 8.25540978e-04
      2.67238443e-04 3.09813156e-04 1.10279470e-04 -3.12881202e-05
      2.36538195e-04 6.20628358e-04 2.84757058e-04 3.14455210e-05
      -5.60345215e-05 -1.84141012e-04 -2.25364740e-04 -1.94297420e-04
      -3.07552895e-04 -3.20879422e-04 -4.29096865e-04 -3.73072980e-04
      -3.20801890e-04 -3.02812143e-04 -3.08187475e-04 -3.24746885e-04
      -4.31127235e-04 -5.49388002e-04 -7.68338155e-04 -1.23153406e-03
      -1.58036244e-03 -1.72655587e-03 -1.75191602e-03 -1.58484175e-03
      -1.51477533e-03 -1.43131323e-03 -1.47264521e-03 -1.36049360e-03
      -1.07713952e-03 -1.09821279e-03 -6.99453580e-04 -1.49660686e-04
      1.39457887e-04 2.33871440e-04 8.39759232e-05 -4.54688743e-05
      1.43348560e-04 3.21350817e-04 1.98400085e-04 -2.03888514e-04
      -1.12236338e-03 -1.79696665e-03 -2.20318907e-03 -2.62219319e-03
      -3.80151835e-03 -3.86646180e-03 -3.62239033e-03 -3.47303087e-03
      -3.30620888e-03 -3.10209091e-03 -2.67233234e-03 -1.28301210e-03
      6.71112648e-05 1.85940240e-04 2.19166672e-04 3.67313682e-04
      4.05925530e-04 4.87885874e-04 5.44225564e-04 8.62907385e-04
      9.17651749e-04 9.96366143e-04 9.71763802e-04 9.58071614e-04
      9.53636598e-04 1.13043387e-03 1.11680559e-03 1.08390278e-03
      1.02137809e-03 8.50742450e-04 7.97018991e-04 7.31437292e-04
      9.89661668e-04 9.68796900e-04 1.04343740e-03 1.42533344e-03
      9.70447785e-04 8.05809686e-04 9.94514208e-04 7.95085973e-04
      7.97494256e-04 1.37158786e-03 1.50114356e-03 1.31105643e-03
      1.21251028e-03 1.15872570e-03</_>
    <_>
      2.34263367e-04 3.63575877e-04 7.35021458e-05 -6.02187414e-04
      -6.08726754e-04 -4.87866258e-04 -2.15775130e-04 -1.52485911e-04
      6.36189679e-06 2.13837047e-05 -1.79876923e-04 -3.15232697e-04
      -4.44184989e-05 -1.02722974e-04 -1.79154740e-04 -3.44029861e-04
      -3.72901733e-04 -2.76205072e-04 -4.42123479e-07 -3.24768662e-05
      8.53032179e-05 -8.04100855e-05 -1.48914056e-04 -7.27132356e-05
      -6.45731343e-05 -7.85036082e-06 1.09371089e-04 2.59096967e-04
      2.66205665e-04 4.54410940e-04 6.41316292e-04 7.21428893e-04
      5.23371040e-04 4.37915238e-04 2.65020761e-04 1.32155794e-04
      2.01232702e-04 1.61481512e-04 2.41865986e-04 4.92013816e-04
      4.89889993e-04 5.15937805e-04 5.47544099e-04 7.81164097e-04
      6.90850429e-04 8.32179445e-04 7.48491613e-04 6.99675642e-04
      7.80296512e-04 8.50054028e-04 6.06324116e-04 6.53197465e-04
      4.11873189e-04 2.66284915e-04 -6.34439784e-05 9.54008137e-05
      -3.55820317e-04 -8.05104792e-04 -8.72251811e-04 -8.56274157e-04
      -9.53729497e-04 -1.04420062e-03 -1.16775092e-03 -1.21196883e-03
      -1.23861607e-03 -1.21150096e-03 -1.19071768e-03 -1.08720397e-03
      -8.10822938e-04 -2.87048053e-04 -6.00294035e-04 -4.02024685e-04
      -1.25123906e-05 -7.35005131e-04 -3.47261142e-04 -8.01422109e-04
      -1.30975596e-03 -1.22884545e-03 -1.06546271e-03 -1.05664844e-03
      -1.05379603e-03 -9.70051799e-04 -7.26177706e-04 -2.67264288e-04
      9.20136459e-04 1.61034567e-03 1.99686829e-03 2.29981961e-03
      2.24924693e-03 2.30369181e-03 1.14582607e-03 1.24289643e-03
      1.20504224e-03 1.15446269e-03 1.30208011e-03 1.14725844e-03
      1.16178032e-03 1.14374503e-03 1.04331854e-03 5.50577650e-04
      3.07976676e-04 1.52702487e-04 -1.76958682e-04 -3.63296014e-04
      -5.05828764e-04 -7.41368101e-04 -1.63756602e-03 -2.03640503e-03
      -2.38045980e-03 -2.68930616e-03 -2.77353823e-03 -2.07125326e-03
      -1.74403738e-03 -1.77776010e-03 -1.66080461e-03 -1.54799549e-03
      -1.51093118e-03 -1.33991765e-03 -5.75924758e-04 -3.12346994e-04
      -1.37154566e-04 -3.40615079e-05 -2.18866517e-05 2.43043018e-04
      6.55758835e-04 1.03378110e-03 1.36457093e-03 1.67355826e-03
      1.56969205e-03 1.65691029e-03 1.72539020e-03 1.44132506e-03
      1.39433565e-03 1.20387168e-03 1.00572617e-03 1.00700522e-03
      9.62119084e-04 8.68435425e-04 6.46058004e-04 4.47852071e-04
      5.33476181e-04 3.93065508e-04 5.40439156e-04 5.03217976e-04
      5.40117908e-04 7.40358431e-04 7.93956569e-04 7.50328240e-04
      7.84186064e-04 8.13479943e-04 7.77335255e-04 7.15507835e-04
      7.25832244e-04 7.60371157e-04 4.17073723e-04 -1.71695414e-04
      -7.37754337e-04 -1.61845051e-03 -2.20730295e-03 -2.26088520e-03
      -2.08609179e-03 -2.00171233e-03 -1.90409261e-03 -1.84243266e-03
      -1.61069538e-03 -1.35449588e-03</_>
    <_>
      -5.66700182e-04 -1.38608320e-03 -7.99577101e-04 -4.63844859e-04
      -3.47825953e-05 2.87727034e-05 1.32926716e-03 5.35266881e-04
      5.30053629e-04 2.12624611e-04 -1.66750542e-04 -4.58259456e-04
      -7.95996399e-04 -1.17748475e-03 -1.74139231e-03 -2.18378520e-03
      -2.34618085e-03 -1.86896452e-03 -1.91967771e-03 -1.30341237e-03
      -3.61644255e-04 -5.25760879e-05 -1.02003047e-04 2.87736388e-04
      6.09766983e-04 1.06457493e-03 8.93946097e-04 1.51508837e-03
      1.68603519e-03 1.43468997e-03 1.30025612e-03 1.62047276e-03
      1.39171374e-03 1.42405438e-03 1.48511108e-03 1.42898655e-03
      1.32711418e-03 1.66952750e-03 1.92759547e-03 2.24160962e-03
      2.10673525e-03 2.01435410e-03 2.05681939e-03 2.27473187e-03
      2.13350495e-03 1.97931961e-03 1.79073692e-03 1.86992739e-03
      1.84683094e-03 1.45338033e-03 1.23562594e-03 9.94370435e-04
      4.75138688e-04 -6.52223185e-04 -1.99358026e-03 -2.25699134e-03
      -2.16923654e-03 -2.33403128e-03 -1.88436313e-03 -1.62631285e-03
      -1.64125394e-03 -1.79611368e-03 -2.02333322e-03 -2.20036088e-03
      -2.54029036e-03 -2.40310188e-03 -1.90911512e-03 -1.82369887e-03
      -1.32729567e-03 -1.05140882e-03 -1.30357663e-03 -1.45079102e-03
      -1.34385843e-03 -1.73199980e-03 -1.43594178e-03 -1.42721843e-03
      -1.19523657e-03 -6.10874209e-04 -5.05863281e-04 -1.33589099e-04
      -1.78548289e-04 7.94397565e-05 3.52992822e-04 6.40588696e-04
      5.30586578e-04 6.25337183e-04 1.12857856e-03 9.72445938e-04
      9.57857643e-04 1.02313538e-03 9.30735434e-04 9.33817995e-04
      8.93537013e-04 8.24978400e-04 1.13330397e-03 1.22072489e-03
      1.20335887e-03 1.41122204e-03 1.40776939e-03 1.24771555e-03
      1.34243665e-03 1.58766692e-03 1.44919427e-03 1.32210169e-03
      1.30525313e-03 1.39499200e-03 1.41648238e-03 -5.23891242e-04
      -1.46354269e-03 -2.27717287e-03 -2.15058355e-03 -2.70973123e-03
      -2.65613734e-03 -2.77247885e-03 -1.63352501e-03 -1.11865078e-03
      -1.23502535e-03 -7.83943280e-04 -5.10951970e-04 -6.35395641e-04
      -3.49313777e-04 -1.94543813e-04 1.38068499e-04 2.97844963e-04
      6.69655681e-04 1.37464690e-03 1.89897150e-03 1.88687420e-03
      1.63641234e-03 1.82093098e-03 1.47036719e-03 9.15242941e-04
      5.76523831e-04 3.55903205e-04 9.40356767e-05 3.68628505e-04
      3.40897357e-04 3.93174763e-04 4.40131524e-04 1.42256016e-04
      3.62485531e-04 3.00080952e-04 2.16865054e-04 3.42695537e-04
      4.63261997e-04 6.46567438e-04 7.11505243e-04 5.41140267e-04
      4.88794642e-04 1.81952622e-04 3.26980837e-04 5.17728622e-05
      -1.82710603e-04 6.62659977e-06 -1.94291453e-04 -3.27234411e-05
      6.92117101e-05 -4.14151553e-04 -5.62196015e-04 -1.87206734e-03
      -2.37266161e-03 -2.46920995e-03 -2.42590345e-03 -2.41951714e-03
      -1.59117382e-03 -1.18385616e-03</_>
    <_>
      -1.48116696e-05 -1.02885091e-03 -9.57415963e-04 -8.10203725e-04
      -5.42710884e-04 -1.02599202e-04 8.78536550e-04 1.31507567e-03
      1.56838982e-03 1.72675680e-03 1.95244118e-03 2.09496636e-03
      2.46266881e-03 2.71662045e-03 2.41341908e-03 2.20729108e-03
      2.05731718e-03 2.14311806e-03 2.29381188e-03 2.11256836e-03
      1.98397110e-03 1.59018999e-03 9.40877304e-04 8.05929885e-04
      3.22541047e-04 1.97681700e-04 2.23468742e-04 6.82411948e-04
      9.13931930e-04 1.45130209e-03 2.05597654e-03 2.19974574e-03
      1.84754212e-03 1.74870761e-03 1.37283071e-03 1.12707843e-03
      4.67754668e-04 -7.07244850e-04 -1.25020882e-03 -1.34465250e-03
      -1.03850127e-03 -9.87094361e-04 2.07273872e-04 5.32226346e-04
      3.06398957e-04 3.41797946e-04 5.35719621e-04 4.35050490e-04
      6.44687330e-04 5.77348284e-04 3.68023437e-04 6.42193991e-05
      -1.38176372e-04 -2.33942454e-04 4.81335097e-04 -2.32412422e-04
      -2.34524821e-04 -2.57962267e-04 2.55245104e-04 1.12147385e-03
      1.11619406e-03 1.05887535e-03 8.44172551e-04 7.35056063e-04
      4.95943183e-04 5.85377857e-04 5.14640182e-04 2.83948757e-04
      1.79707873e-04 3.46251618e-05 -9.80332028e-04 -2.93477159e-03
      -2.73438590e-03 -3.75266396e-03 -1.72985834e-03 -1.79677911e-03
      -2.16566562e-03 -2.17166799e-03 -2.44491454e-03 -2.61554471e-03
      -2.95484811e-03 -3.11663351e-03 -3.06139584e-03 -2.28369888e-03
      -5.08844794e-04 5.11929917e-04 1.26994390e-03 1.61619356e-03
      1.38192228e-03 1.80675066e-03 -4.72938351e-04 -4.88860860e-05
      1.09120301e-04 9.21128230e-05 3.78713623e-04 5.17993059e-04
      6.10729679e-04 6.79104647e-04 7.51951535e-04 8.70902615e-04
      9.43769759e-04 8.94779630e-04 9.72077483e-04 9.51050140e-04
      9.07520298e-04 1.08377787e-03 1.03628635e-03 1.06335629e-03
      1.19566929e-03 1.54266437e-03 1.86302722e-03 1.84548541e-03
      1.86874717e-03 1.69920782e-03 1.76867784e-03 1.80598709e-03
      1.54142291e-03 1.76965771e-03 1.75115839e-03 1.69235945e-03
      1.71002920e-03 1.66017050e-03 1.46702048e-03 1.53260876e-03
      1.82905362e-03 2.26583495e-03 2.84441817e-03 2.99124792e-03
      2.72352528e-03 2.65350752e-03 2.53918860e-03 1.91830506e-03
      1.61916739e-03 2.09525460e-03 1.64418388e-03 1.79061922e-03
      1.93254161e-03 1.87171204e-03 1.45944883e-03 -1.73596884e-04
      1.57386821e-05 -4.41765675e-04 -3.97893833e-04 -4.70187049e-04
      -4.77368099e-04 -3.78455821e-04 -2.55187275e-04 -2.96343496e-04
      -1.24840546e-04 -1.72698579e-04 -6.27302070e-05 -6.68198118e-05
      -1.31779700e-04 -1.15033123e-04 1.63470002e-04 8.62973975e-04
      1.12247153e-03 1.20714703e-03 1.09083694e-03 8.36675928e-04
      9.88613232e-04 9.72494192e-04 1.28227763e-03 1.06395339e-03
      1.13890006e-03 9.64038598e-04</_>
    <_>
      3.09072901e-04 4.75504115e-04 6.87902328e-04 -5.21163456e-05
      -4.99972200e-04 -4.04410617e-04 -4.31821070e-04 -1.12570229e-03
      -1.43530290e-03 -1.72787346e-03 -2.16742954e-03 -2.39261519e-03
      -2.45721033e-03 -1.12653675e-03 -1.47212646e-03 -8.00827460e-04
      -1.16299628e-03 -1.60422106e-03 -1.86769059e-03 -1.04179501e-03
      -8.94742843e-04 -8.95799138e-04 -7.07896717e-04 -6.60986465e-04
      -3.98374861e-04 1.01832171e-04 3.64214589e-04 6.91821100e-04
      1.31190522e-03 1.55064417e-03 1.96539983e-03 2.27198726e-03
      2.35341187e-03 2.27826019e-03 1.95065991e-03 1.92342605e-03
      1.80717628e-03 1.48521364e-03 1.29191775e-03 1.38309016e-03
      1.39479549e-03 1.18198176e-03 7.04919861e-04 6.52032089e-04
      7.33772817e-04 8.05560849e-04 4.45422134e-04 8.98966799e-04
      8.48387135e-04 3.88798391e-04 -2.82436871e-04 -2.30534846e-04
      -6.37010322e-04 -1.39084319e-03 -1.64114090e-03 -1.67397142e-03
      -2.34112982e-03 -2.38238391e-03 -3.19345994e-03 -2.76075490e-03
      -2.27043265e-03 -2.11644522e-03 -1.31289032e-03 -1.82698044e-04
      -5.88419731e-04 -9.00036539e-04 -1.12228433e-03 -1.31345575e-03
      -1.22630980e-03 -1.34413806e-03 -2.38309964e-03 -3.39010754e-03
      -3.54751595e-03 -4.06851759e-03 -3.61709576e-03 -3.93907214e-03
      -3.10857198e-03 -1.73081364e-03 -6.18657214e-04 -2.87910545e-04
      5.82643552e-05 2.89562420e-04 4.79299022e-04 9.60236765e-04
      9.37408942e-04 1.33911392e-03 1.76515523e-03 1.75504177e-03
      1.61538390e-03 1.52540393e-03 7.05657119e-04 1.04460772e-03
      8.60279310e-04 7.91749742e-04 7.75613997e-04 4.74093540e-04
      5.56791085e-04 6.89052802e-04 4.56168404e-04 2.96406361e-04
      6.04183369e-05 -2.75565748e-04 -2.78310297e-04 -4.89946746e-04
      -3.85090127e-04 -6.40749175e-04 -9.79457865e-04 -1.48825208e-03
      -1.54770561e-03 -1.84349064e-03 -2.00528372e-03 -1.46270834e-03
      -6.55158306e-04 -1.79925555e-04 1.13335795e-04 4.19923163e-04
      1.59441348e-04 3.19327286e-04 2.25591430e-04 -4.36016388e-04
      -9.10073286e-04 -9.07078444e-04 -1.29131228e-03 -8.02829105e-04
      -4.02000966e-04 1.50881970e-04 9.31216637e-04 1.36286172e-03
      1.36376836e-03 1.19395088e-03 1.23306201e-03 8.13960796e-04
      3.58571153e-04 2.00467213e-04 -8.65282127e-05 -6.11410542e-06
      1.57905350e-04 8.25995812e-04 7.23154284e-04 3.16434569e-04
      5.76618884e-04 6.03429042e-04 9.16637771e-04 1.16437883e-03
      1.42867083e-03 1.52983388e-03 1.43715099e-03 1.35238387e-03
      1.27413927e-03 1.06000004e-03 7.72170839e-04 5.11627179e-04
      4.02860547e-04 3.02231201e-04 1.51244909e-04 2.97756109e-04
      5.16222208e-04 1.59389019e-04 -2.73364392e-04 -1.46625272e-03
      -2.23447103e-03 -3.61070968e-03 -3.68445041e-03 -3.67688667e-03
      -3.25416843e-03 -2.77818926e-03</_>
    <_>
      -3.07763286e-04 -5.49465069e-04 -4.21894976e-04 -5.29531506e-04
      -6.62460283e-04 -3.89723427e-04 -3.76267795e-04 -4.67654841e-04
      -6.07546302e-04 -7.91663188e-04 -8.47064133e-04 -1.03913911e-03
      -1.14752841e-03 -9.76955751e-04 -1.13076426e-03 -1.15158479e-03
      -1.37361884e-03 -1.58540788e-03 -1.11908314e-03 -4.58284281e-04
      -2.62290298e-04 1.20795965e-04 3.81346414e-04 5.84951486e-04
      4.08935652e-04 5.59827138e-04 9.16268444e-04 9.90746892e-04
      1.05726416e-03 1.27928122e-03 1.45383202e-03 1.64251041e-03
      1.50352053e-03 1.35455315e-03 1.36975211e-03 1.24502450e-03
      1.22841750e-03 1.17092358e-03 1.38933503e-03 1.65446533e-03
      1.95470219e-03 1.68505777e-03 1.73782697e-03 1.85039698e-03
      1.69457914e-03 1.64856052e-03 1.63532165e-03 1.74351933e-03
      1.59854582e-03 1.71311526e-03 1.28228927e-03 5.99466322e-04
      7.85731390e-05 1.38694813e-04 -9.54744173e-04 -1.62239757e-03
      -1.92922575e-03 -2.65785330e-03 -3.12722498e-03 -2.83251726e-03
      -2.79243849e-03 -2.60662404e-03 -2.89242505e-03 -3.10809584e-03
      -3.21643334e-03 -2.99484073e-03 -3.00041004e-03 -2.91364524e-03
      -2.31522159e-03 -1.91096857e-03 -7.73186854e-04 -1.78842386e-03
      -2.24883948e-03 -2.70253443e-03 -1.96213531e-03 -1.99996959e-03
      -1.95085478e-03 -1.03388715e-03 -7.32232991e-04 -4.32097295e-04
      -2.01227143e-04 -1.42992285e-04 -3.28516071e-05 1.00298086e-04
      2.75334110e-04 3.62993975e-04 4.96946101e-04 4.74053057e-04
      3.19256331e-04 3.46684013e-04 -6.18221471e-04 -4.90959734e-04
      -2.74626043e-04 -3.73283052e-04 -3.48598405e-04 -4.04159160e-04
      -3.29037197e-04 -3.05138121e-04 -3.95511248e-04 -3.52689414e-04
      -2.66749965e-04 -3.21548228e-04 -3.61134851e-04 -3.77862976e-04
      -3.40389321e-04 -3.68063163e-04 -3.82413680e-04 -4.40290343e-04
      -3.68005276e-04 -3.97980097e-04 -4.53562039e-04 -4.91274754e-04
      -4.88144782e-04 -5.24958654e-04 -6.37168705e-04 -5.07617544e-04
      -5.93352655e-04 -5.60366199e-04 -3.89377616e-04 -5.41952963e-04
      -4.87729878e-04 -6.49463269e-04 -1.30105542e-03 -1.71841285e-03
      -2.08287081e-03 -1.82517048e-03 -1.81607145e-03 -1.24661671e-03
      -1.42662483e-03 -1.20690127e-03 -4.79119451e-04 -2.91808508e-04
      5.04798663e-04 1.48580899e-03 1.44599262e-03 1.69422862e-03
      2.03636521e-03 2.04677018e-03 2.00669677e-03 1.54562190e-03
      1.66726473e-03 1.49289565e-03 1.05685287e-03 1.23536424e-03
      1.12919521e-03 1.13279279e-03 1.17946311e-03 1.12635770e-03
      1.08988094e-03 9.18465783e-04 7.53926812e-04 8.20316898e-04
      5.89109492e-04 4.56027774e-04 3.77995486e-04 8.41457047e-04
      8.82266380e-04 6.29077724e-04 1.41940036e-04 -3.35821824e-04
      -7.74770975e-04 -1.08401722e-03 -1.14433886e-03 -1.29603455e-03
      -1.20222941e-03 -9.86128231e-04</_>
    <_>
      -1.37331535e-03 -5.49540343e-03 -2.91651185e-03 -8.74509569e-04
      3.96074640e-04 -5.81589178e-04 1.75633386e-06 2.00742521e-04
      6.28583774e-04 -1.61710684e-03 -2.55995593e-03 -2.17995816e-03
      -2.46915547e-03 -8.53355334e-04 -1.51803868e-03 -1.94101781e-03
      -1.71846396e-03 -1.41105102e-03 -2.16649496e-03 -1.00427994e-03
