%YAML:1.0
---
opencv_ml_svm:
   format: 3
   svmType: C_SVC
   kernel:
      type: LINEAR
   C: 1.
   term_criteria: { iterations:100 }
   var_count: 95
   class_count: 10
   class_labels: !!opencv-matrix
      rows: 10
      cols: 1
      dt: i
      data: [ 0, 1, 2, 3, 4, 5, 6, 7, 8, 9 ]
   sv_total: 45
   support_vectors:
      - [ -1.24543300e-02, -5.89857530e-03, 1.01440074e-02,
          8.35606735e-03, 5.84293017e-03, -1.97128840e-02,
          -1.36930449e-02, -1.71798244e-02, -3.70731018e-03,
          1.02410233e-03, -2.18474562e-03, -3.32097672e-02,
          -4.87461174e-03, -1.30819334e-02, -5.18136099e-03, 0.,
          -1.98262930e-02, -2.57752923e-04, -3.52061493e-03, 0., 0., 0.,
          0., 0., 2.07223371e-03, 0., 0., 0., 0., 3.52061493e-03,
          2.57752923e-04, 0., 0., 2.57070293e-03, 3.81832267e-03, 0.,
          6.38902560e-03, 1.20766484e-03, 5.18136099e-03, 6.38902560e-03,
          6.38902560e-03, 3.06888577e-02, 1.01030031e-02, 1.71078220e-02,
          3.34871672e-02, 2.53777932e-02, 2.17777360e-02, 2.09179502e-02,
          -3.45557854e-02, -1.91670768e-02, -1.27780512e-02,
          -8.99968389e-03, -7.59669067e-03, -8.95972922e-03,
          -1.20766484e-03, -5.18136099e-03, -6.38902560e-03,
          -6.38902560e-03, 0., -6.38902560e-03, 0., -1.20766484e-03,
          -2.57070293e-03, 0., 0., 0., 0., 0., 0., 0., 0.,
          -1.52419636e-03, -5.48037351e-04, 0., 0., 0., 0., 0., 0., 0.,
          0., 2.57070293e-03, 1.20766484e-03, 2.61065783e-03,
          3.77836777e-03, 2.61065783e-03, 6.38902560e-03, 6.38902560e-03,
          2.94811912e-02, 7.97199551e-03, 6.64677890e-03, 1.15590729e-02,
          3.06910798e-02, 3.12624313e-02, 1.75063312e-02 ]
      - [ 2.61079217e-03, 1.43077550e-03, -3.44705215e-04,
          6.63808198e-04, -1.86554005e-03, -1.37653493e-03,
          -5.07699850e-04, -1.78239937e-03, -9.13998752e-04,
          -4.87091905e-03, -9.95087810e-03, -3.79205943e-04,
          -1.83863658e-03, -2.00545769e-02, -1.83505621e-02,
          -9.20011487e-04, -1.35285463e-02, -1.10724382e-02,
          -1.12704206e-02, 1.58253219e-03, 2.89247278e-03,
          3.46667366e-03, 2.18244060e-03, 2.62107723e-03, 4.51516826e-03,
          2.90335692e-03, 4.25202679e-03, 4.89481958e-03, 2.90335692e-03,
          4.17909166e-03, 3.51905660e-03, 3.91738396e-03, 3.56388278e-03,
          4.37337952e-03, 4.86863358e-03, 6.31241873e-03, 4.81245108e-03,
          5.26120327e-03, 4.87688789e-03, 6.61965087e-03, 5.70149720e-03,
          5.29348431e-03, 5.71182044e-03, 6.08214783e-03, 5.57706878e-03,
          6.88848831e-03, 8.92530195e-03, -3.62273753e-02,
          8.45289498e-04, 5.82927431e-04, -3.42897256e-04,
          1.56651286e-03, -1.98935810e-03, -1.66622674e-04,
          4.06298961e-04, -1.19947188e-03, -1.70388503e-03,
          -1.66740923e-04, -1.83863658e-03, -8.30858131e-04, 0., 0.,
          -9.65609681e-04, -5.27217169e-04, -5.91181859e-04,
          -1.77151535e-03, -1.06998149e-03, -2.12673028e-03,
          -2.62107723e-03, -2.99513084e-03, -1.69344456e-03,
          -3.60404607e-03, -3.37127270e-03, -3.65610048e-03,
          -4.42499062e-03, -4.12338134e-03, -4.87645343e-03,
          -3.59719666e-03, -4.34380071e-03, -4.60242806e-03,
          -3.91738396e-03, -3.69324302e-03, -5.06336754e-03,
          2.30457559e-02, -1.39479514e-03, -6.76589203e-04,
          1.35157946e-02, 2.66895164e-04, 9.41335922e-04, 1.68524440e-02,
          2.63306070e-02, 4.43519605e-03, 2.96488125e-03, 4.87645343e-03,
          7.06714811e-03 ]
      - [ 3.27835954e-03, 3.02108168e-03, -3.79013363e-04,
          -1.12462626e-03, -2.78330990e-03, -1.34346029e-03,
          -1.25315099e-03, -5.34487364e-04, -2.36667274e-03,
          -9.85354278e-03, -1.53648155e-02, -1.84772313e-02,
          -1.39023019e-02, -1.74157303e-02, -2.57948786e-02,
          1.15319458e-03, 3.21592577e-03, 6.22818107e-03, 7.36141205e-03,
          1.34019991e-02, 1.75429266e-02, 3.30279581e-03,
          -1.88004272e-03, -6.93040993e-03, -6.08366402e-03,
          -1.41856009e-02, -1.68392509e-02, -6.71363529e-03,
          -4.89705941e-03, -2.45886436e-03, -2.83810659e-03,
          -6.75078423e-04, 1.78537872e-02, 1.18414136e-02,
          1.95925329e-02, 1.68339331e-02, 9.54364252e-04, 1.83898099e-02,
          -9.78124081e-05, 1.33766215e-02, 3.28000798e-03,
          2.04233173e-03, 1.78981964e-02, 3.25332070e-03, 1.59463694e-03,
          3.12582310e-03, -7.98738562e-04, -1.89525113e-02,
          1.81660382e-03, 1.53243681e-03, -3.14534809e-05,
          1.40245480e-03, -2.55564949e-03, 1.57209315e-18,
          -4.79864510e-04, -1.83218555e-03, -1.19347463e-03,
          -6.16825011e-04, -2.24882248e-03, -6.16825011e-04,
          -7.86691380e-04, -1.18679204e-03, -2.09321594e-03,
          -1.71913544e-03, -2.33998662e-03, -1.84101192e-03,
          -4.55809711e-03, -2.41983356e-03, -3.46992142e-03,
          -1.97536522e-03, 2.48196581e-03, 6.81372499e-03,
          6.46202359e-03, 4.72894125e-03, 2.39563687e-03, 1.98885379e-03,
          1.14651211e-03, 8.63200054e-04, 0., 0., 0., 0., 0., 0.,
          6.16825011e-04, 2.24882248e-03, 1.46814360e-04, 1.58666400e-03,
          8.08972924e-04, -1.24350388e-03, -1.66348531e-03,
          6.32299751e-04, -1.10231037e-03, -1.44782255e-03,
          -1.84101192e-03 ]
      - [ -3.04426234e-02, 1.46788335e-03, -1.21436687e-02,
          -9.36648436e-03, -6.47090003e-03, -7.82901049e-03,
          -6.37192978e-03, -4.28310363e-03, -4.28310363e-03,
          -6.55602431e-03, 2.15649648e-04, -4.28310363e-03,
          3.30953021e-03, -5.31975739e-03, -2.84495507e-03,
          5.34869358e-03, 2.55236123e-03, 2.15584249e-03,
          -4.81716619e-04, -8.24940158e-04, 3.35919322e-03,
          7.38785649e-03, 4.53023473e-03, 2.03916314e-03, 4.84782876e-03,
          5.20006055e-03, 3.04159895e-03, -3.17900535e-03,
          2.39210110e-03, 2.00838805e-03, -8.18832591e-03,
          -1.83524694e-02, -1.99088752e-02, 7.38020986e-04,
          -3.09884697e-02, 0., 1.14030289e-02, 5.35131246e-03,
          4.39978298e-03, 4.26499546e-03, 1.08641284e-02, 1.07065607e-02,
          2.95341909e-02, 6.56939764e-03, 1.19884806e-02,
          -3.82717922e-02, -2.82555148e-02, -1.73772294e-02,
          -3.97975557e-02, -2.25731246e-02, -1.29413269e-02,
          -3.30953021e-03, -8.39291140e-03, -1.16683412e-02,
          3.01011768e-03, 9.67018597e-04, -5.34869358e-03,
          -3.30953021e-03, 2.51187175e-03, -6.90509984e-03,
          7.87867326e-03, 1.23888580e-03, -2.65312527e-04,
          2.72669713e-03, 4.40240186e-03, 9.64990538e-03, 6.32226653e-03,
          6.87533873e-04, 6.32226653e-03, 5.95880812e-03, 5.51543478e-03,
          4.43173666e-03, 1.86677836e-02, 4.28310363e-03, 4.57248986e-02,
          2.72669713e-03, 1.05801923e-02, 7.59629812e-03, 9.01962910e-03,
          2.90550124e-02, -4.83093923e-03, -1.05255479e-02,
          -2.37671584e-02, -1.95490569e-02, 1.39149008e-02,
          6.32226653e-03, 1.21436687e-02, 1.41297262e-02, 1.24270897e-02,
          1.59540642e-02, 2.10374445e-02, 1.38967922e-02, 1.92454122e-02,
          4.14628573e-02, 2.22736038e-02 ]
      - [ -4.83280160e-02, -2.40605995e-02, -2.33704746e-02,
          -1.99705847e-02, -1.32056819e-02, -1.37351202e-02,
          -1.34775415e-02, -1.31610762e-02, -1.31610762e-02,
          -6.56454032e-03, -6.44843793e-03, -1.34775415e-02,
          2.12973115e-04, -6.28007110e-03, -6.35156687e-03,
          4.46060694e-05, 2.12973115e-04, -6.59653591e-03,
          -6.56454032e-03, -2.34270422e-03, -1.87215197e-03,
          -1.17434666e-03, -6.38919300e-04, -6.38919300e-04,
          -9.55384399e-04, -1.00679966e-02, -1.25158054e-03,
          -1.41020445e-02, -6.32930198e-04, 6.24807505e-03,
          6.59653591e-03, -3.16465099e-04, 0., 6.39617303e-03,
          7.70001858e-03, 3.61071143e-04, 2.59669330e-02, 8.10569525e-03,
          6.88100513e-03, 1.39034875e-02, 1.43294334e-02, 2.32939478e-02,
          2.18363889e-02, 1.26519073e-02, 1.91449504e-02, 2.60259565e-02,
          3.81930321e-02, 5.81273995e-02, -6.54705688e-02,
          -3.99740487e-02, -2.69610714e-02, -1.39034875e-02,
          -2.07576025e-02, -2.48167012e-02, -2.47639529e-02,
          -1.12526305e-02, -1.33740492e-02, -1.35870222e-02,
          -4.25946229e-04, -1.30575839e-02, 7.36952107e-03,
          -3.30036855e-03, -4.66805091e-03, 1.89049984e-03,
          1.57403480e-03, 6.96822116e-03, 2.83390586e-03, 1.73641264e-03,
          1.37534144e-03, 8.90509342e-04, 1.16236834e-03, 5.29438199e-04,
          1.05887640e-03, 0., 3.16465099e-04, 0., 3.16465099e-04, 0., 0.,
          0., 0., 6.56454032e-03, 6.80950889e-03, 0., 1.33740492e-02,
          -8.90509342e-04, 1.28000053e-02, 1.24835400e-02,
          5.35756582e-03, 1.19541017e-02, 1.92930494e-02, 1.19094960e-02,
          1.80860739e-02, 2.37601046e-02, 3.70246731e-02 ]
      - [ -5.84243014e-02, -2.92757004e-02, -2.30255593e-02,
          -1.64273921e-02, -9.89241898e-03, -1.14367837e-02,
          -1.17925517e-02, -1.23347444e-02, -1.14367837e-02,
          -5.45238703e-03, -4.94779134e-03, -1.22370478e-02,
          1.18859753e-03, -5.78062143e-03, -6.29418483e-03,
          1.02635555e-03, 7.76667322e-04, -6.52472256e-03,
          -7.09444843e-03, 3.88333661e-04, 0., 0., 3.88333661e-04, 0.,
          3.88333661e-04, 0., 0., 0., 0., 7.48278201e-03, 6.52472256e-03,
          0., 0., 7.48278201e-03, 6.26478391e-03, -1.17834716e-03,
          1.33592319e-02, 5.62863005e-03, 6.04449632e-03, 1.26253814e-02,
          1.25915343e-02, 1.16967224e-02, 1.18251182e-02, 1.06365206e-02,
          1.64273921e-02, 2.41905600e-02, 3.63171510e-02, 6.21967204e-02,
          -6.11426383e-02, -3.72560620e-02, -2.57438961e-02,
          -1.32590272e-02, -2.05188803e-02, -2.02129614e-02,
          -6.15560869e-03, -7.10341847e-03, -1.56923831e-02,
          -2.36220881e-02, -1.31886057e-03, -2.78414860e-02,
          -5.26396418e-03, -4.30618636e-02, -8.67137965e-03,
          1.07547194e-02, 1.39708128e-02, 1.86057258e-02, 1.43923108e-02,
          4.85080434e-03, 4.75310721e-03, 2.82040890e-03, 2.57072062e-03,
          2.18238682e-03, 1.64206163e-03, 1.64206163e-03, 0.,
          3.88333661e-04, 0., 0., 0., 0., 0., 7.48278201e-03,
          6.52472256e-03, 0., 1.40075050e-02, 0., 1.26253814e-02,
          1.28189074e-02, 5.68872923e-03, 1.18251182e-02, 1.88901648e-02,
          1.12847928e-02, 1.68054756e-02, 2.40621660e-02, 3.51521485e-02 ]
      - [ -1.54870423e-02, -6.94963150e-03, -4.25898843e-03,
          -2.08559148e-02, -2.15859096e-02, -2.58727316e-02,
          -4.68915738e-02, -6.91169000e-04, -3.52246081e-03,
          -1.46529358e-02, 9.17361584e-04, -9.90601024e-04,
          2.14271480e-03, -2.15408113e-02, 6.54701260e-04,
          -6.26827916e-03, 3.47589888e-03, -1.17587484e-02,
          -7.29467574e-05, 3.25678056e-03, 4.37724590e-03,
          3.47589888e-03, 1.27876154e-03, 2.37717899e-03, 2.69865873e-03,
          4.13721753e-03, 4.06477461e-03, 5.49813383e-04, 1.26412825e-03,
          5.82165318e-03, 4.46699327e-03, 3.40175047e-03, 5.63466456e-04,
          5.19159762e-03, 3.73220933e-03, 2.33279378e-03, 8.22561234e-03,
          3.74260452e-03, 4.57674731e-03, 6.27241004e-03, 6.99835969e-03,
          5.65072894e-03, 5.51984180e-03, 6.47545280e-03, 7.38666253e-03,
          8.61835107e-03, 1.59103125e-02, 4.02048603e-02, 1.95617061e-02,
          -1.36835827e-02, -9.12238844e-03, -5.10250498e-03,
          -8.65246169e-03, -9.52392723e-03, -5.17713511e-03,
          -6.93276338e-03, -9.43583809e-03, -6.48515392e-03,
          -5.66862058e-03, -7.66919646e-03, -5.41597931e-03,
          -3.95176746e-03, -6.16487814e-03, -3.29195033e-03,
          -4.20524506e-03, -2.74213706e-03, -2.57064519e-03,
          -3.29195033e-03, -2.88260728e-03, -4.15333826e-03,
          -1.95588823e-03, -2.88260728e-03, -2.77071446e-03,
          -2.76575703e-03, -1.94609049e-03, -1.95588823e-03,
          -1.99738098e-03, -3.08267632e-03, -3.95326922e-03,
          -1.76925398e-03, -1.41141948e-03, 3.16444697e-04,
          -6.85931882e-04, -8.92748591e-04, 3.55924969e-03,
          -3.17501393e-03, 2.92706583e-03, 2.76922714e-03,
          1.12574117e-03, 1.44181715e-03, 6.85572205e-03, 2.21989769e-03,
          4.34015924e-03, 7.41048250e-03, 1.08977510e-02 ]
      - [ -4.55902107e-02, -2.37240121e-02, 8.63822002e-04,
          4.10336908e-03, -1.17856115e-02, -1.66887902e-02,
          -1.03401486e-03, 9.97373369e-03, -2.38173027e-02,
          -8.57581792e-04, -1.37767401e-02, -1.87467486e-02,
          -1.28196264e-02, -1.86799187e-02, -1.10084424e-03,
          -6.71505742e-03, -3.05323601e-02, -4.04427536e-02,
          -3.83482613e-02, -3.15663740e-02, -4.62006964e-02,
          -5.62474988e-02, 2.11959518e-03, 4.62006964e-02,
          6.31327480e-02, 5.62474988e-02, 3.15663740e-02, 4.17833701e-02,
          3.82814333e-02, 3.16332057e-02, 1.78891663e-02, 0., 0.,
          6.68294597e-05, 1.86799187e-02, 1.28196264e-02, 1.87467486e-02,
          1.37767401e-02, 1.77896339e-02, -1.30104261e-17,
          -7.90752296e-04, -1.69320535e-02, 1.77228060e-02,
          4.90036188e-03, -1.28864562e-02, 1.70192783e-04,
          1.10808173e-02, 9.73497517e-03, -5.12712523e-02,
          -1.79660674e-02, -1.70192783e-04, -6.20559556e-04,
          -6.02766825e-03, -6.68294597e-05, -9.67185362e-04,
          -5.75794373e-03, -2.48513184e-02, -7.80680508e-04,
          -1.28196264e-02, -1.87467486e-02, 0., -1.99112832e-03,
          -6.78188680e-03, -1.03401486e-03, -3.05323601e-02,
          -3.84516232e-02, -3.93154472e-02, -3.15663740e-02,
          -3.93154472e-02, -6.31327480e-02, 3.15361004e-03,
          5.20519316e-02, 5.72815128e-02, 5.52134849e-02, 3.15663740e-02,
          4.28173840e-02, 3.72474156e-02, 1.69320535e-02, 0., 0., 0.,
          6.68294597e-05, 9.57113574e-04, 0., 1.87467486e-02,
          1.28196264e-02, 1.87467486e-02, 3.15663740e-02,
          -9.57113574e-04, -1.30104261e-17, 7.84236379e-03,
          -1.78829264e-02, 1.09308464e-02, -6.71505742e-03,
          1.00468034e-02 ]
      - [ -6.71185553e-02, -3.50134932e-02, -2.63240989e-02,
          -1.46360267e-02, -1.39489453e-02, -1.11206751e-02,
          -1.46325044e-02, -1.43702663e-02, -1.73915979e-02,
          -1.06815267e-02, -3.95097770e-03, -1.83951631e-02,
          2.43908586e-03, -6.83403714e-03, -1.12411194e-02, 0.,
          -2.43908586e-03, -4.39495128e-03, -1.18120387e-02,
          -2.68999836e-03, -5.70918957e-04, -2.43908586e-03,
          -1.25447870e-03, -3.82050988e-03, -4.01357096e-03,
          -4.26448369e-03, -7.51407444e-03, -8.27805419e-03,
          -8.33590608e-03, -5.30421063e-02, -2.65918635e-02,
          3.03616142e-03, -5.30987512e-03, 1.53929628e-02,
          1.05389282e-02, 2.55403295e-02, 3.78703699e-02, 1.06658731e-02,
          2.45954432e-02, 2.79270019e-02, 2.36625187e-02, 2.42221113e-02,
          2.66725235e-02, 2.91116089e-02, 4.12820950e-02, 4.86599356e-02,
          4.97357063e-02, 5.67980064e-03, -5.77886552e-02,
          -4.15936373e-02, -3.17731909e-02, -1.04836402e-02,
          -1.79660376e-02, -2.66376045e-02, -5.08325582e-04,
          -1.05462335e-02, -1.48255657e-02, -1.43815922e-02,
          4.43973608e-04, -1.80751570e-02, 6.94886083e-04,
          -6.83403714e-03, -1.18120387e-02, 0., 0., 0., 0., 0., 0., 0.,
          0., 0., -5.70918957e-04, -2.43908586e-03, 0., -2.43908586e-03,
          -5.70918957e-04, 0., -3.26091726e-03, -3.01000476e-03,
          -3.01000476e-03, 8.55112169e-03, 3.38005857e-03,
          -4.26448369e-03, 1.56360716e-02, -7.27448845e-03,
          1.19425068e-02, 1.25020994e-02, 4.53755027e-03, 1.12446425e-02,
          1.77616514e-02, 9.99016315e-03, 1.12976674e-02, 2.61971541e-02,
          3.71247679e-02 ]
      - [ 8.74428917e-03, 2.26017670e-03, -5.28944982e-03,
          -3.25598870e-03, -3.13530886e-03, 1.26128849e-02,
          1.33465724e-02, 1.55774457e-02, -8.12761893e-04,
          -4.75731492e-03, -9.38463770e-03, 3.65145912e-04, 0.,
          -1.54774236e-02, -1.43841719e-02, -7.57868518e-04,
          -1.11338440e-02, -1.00199440e-02, -9.56461299e-03,
          1.39277603e-03, 2.89216149e-03, 3.12368199e-03, 2.05120142e-03,
          2.59805564e-03, 3.17675434e-03, 2.90592271e-03, 4.02387930e-03,
          4.47382638e-03, 2.90592271e-03, 3.78983701e-03, 3.54251452e-03,
          3.91020766e-03, 3.35140084e-03, 4.29096911e-03, 3.98564944e-03,
          4.49999049e-03, 3.92142171e-03, 3.54721327e-03, 3.96689726e-03,
          4.09245025e-03, 2.96261255e-03, -1.10620307e-02,
          8.20642163e-04, -6.15946657e-04, -8.99728853e-03,
          -9.14633181e-03, 7.76565983e-04, -2.43535526e-02,
          1.65767092e-02, 8.34765844e-03, 5.16728638e-03, 4.01145080e-03,
          3.31317098e-03, 2.74729682e-03, 2.07931269e-03, 1.38504652e-03,
          9.71237314e-04, 6.69639325e-04, 0., 0., 0., 0.,
          -9.71237314e-04, -6.31701259e-04, -4.35597001e-04,
          -1.68664451e-03, -1.03425072e-03, -2.22855387e-03,
          -2.59805564e-03, -2.97207222e-03, -1.45393482e-03,
          -2.92588584e-03, -2.80814711e-03, -3.22538055e-03,
          -4.30531939e-03, -3.96718923e-03, -4.88329958e-03,
          -3.42143024e-03, -4.09002881e-03, -4.55668056e-03,
          -3.91020766e-03, -3.60890152e-03, -4.90085594e-03,
          1.93288811e-02, -2.43937550e-03, -2.53684237e-03,
          1.48743708e-02, -2.49258080e-03, -1.62468739e-02,
          1.65244769e-02, 2.14633718e-02, -1.44162844e-03,
          -9.86827444e-03, -1.36106871e-02, -9.77560761e-04 ]
      - [ 7.59223476e-03, 5.12568001e-03, -4.10884991e-03,
          -3.51023255e-03, -4.10748925e-03, 7.26999063e-03,
          6.18526712e-03, 4.81209345e-03, 1.75528775e-03,
          -6.30860776e-03, -9.72673483e-03, -6.54800143e-03,
          -7.47663621e-03, -1.16168400e-02, -1.81065947e-02,
          7.93302432e-04, 2.93050776e-03, 5.05719567e-03, 6.32646587e-03,
          1.04703102e-02, 1.42655484e-02, 2.65510171e-03,
          -2.40155682e-03, -7.06558675e-03, -5.82813658e-03,
          -1.09208692e-02, -1.32911950e-02, -5.23271551e-03,
          -3.79503961e-03, -2.04891595e-03, -2.36365362e-03,
          -4.15520946e-04, 1.46888494e-02, 7.25915283e-03,
          1.27124162e-02, 1.12275276e-02, 2.07760473e-04, 1.22249797e-02,
          -5.50585333e-04, 7.75219919e-03, 7.65778357e-04,
          -1.12992451e-02, 1.85028873e-02, -3.77551280e-03,
          -1.04962094e-02, -8.08480848e-03, -7.30556715e-03,
          -1.82440430e-02, 1.52245592e-02, 8.16160999e-03,
          4.34470782e-03, 3.68885347e-03, 2.57141399e-03, 2.35118996e-03,
          1.28084398e-03, 7.72230851e-04, 1.19879399e-03, 0., 0., 0.,
          -8.50121898e-04, -1.12288748e-03, -1.99408084e-03,
          -1.58739614e-03, -1.91618991e-03, -1.58038060e-03,
          -3.83939524e-03, -1.22773950e-03, -2.00509164e-03,
          -2.79365922e-04, 1.98861910e-03, 5.79192396e-03,
          5.26933372e-03, 3.63748218e-03, 1.75080076e-03, 1.44852663e-03,
          7.63793883e-04, 6.42760599e-04, 0., 0., 0., 0., 0., 0., 0., 0.,
          -6.00389205e-04, -1.15642266e-03, -1.35313859e-02,
          -3.51151312e-03, -4.10397537e-03, -4.44448506e-03,
          -1.24722943e-02, -1.35619268e-02, -8.63395073e-03 ]
      - [ -1.06357206e-02, 2.01298180e-03, -1.73175298e-02,
          -1.17970929e-02, -1.50141967e-02, 1.85083989e-02,
          1.71747524e-02, 1.81443729e-02, 3.01679992e-03,
          -6.30317535e-03, 4.41036746e-03, 3.05046104e-02,
          4.98389592e-03, 1.29817147e-02, 2.04775599e-03, 4.88684187e-03,
          1.67130306e-02, 6.76038489e-03, 3.13131465e-03, 1.60455366e-03,
          3.01329861e-03, 6.76038489e-03, 4.15305374e-03, 1.87354314e-03,
          3.83730512e-03, 4.88684187e-03, 1.46494166e-03,
          -1.29072880e-03, 2.27951072e-03, -1.05897419e-03,
          -1.35234036e-02, -1.68618876e-02, -1.78274307e-02,
          -2.19872943e-03, -3.23191173e-02, 0., 3.25186324e-04,
          1.54835684e-03, 0., -3.16427182e-03, 1.75552710e-03,
          -2.75459923e-02, 1.60484873e-02, -6.30242238e-03,
          -2.16321554e-02, -3.12385298e-02, -2.40675695e-02,
          -1.64038148e-02, 5.15583111e-03, 3.28228809e-03,
          3.28228809e-03, 3.28228809e-03, 3.28228809e-03, 1.08355854e-03,
          3.60747427e-03, 3.16427182e-03, 1.40874484e-03, 3.28228809e-03,
          1.08355854e-03, 4.43202414e-04, 4.24783025e-03, 3.28228809e-03,
          1.40874484e-03, 4.43202414e-04, 2.95710168e-03, 4.57301689e-03,
          3.28228809e-03, -1.43034081e-03, 3.28228809e-03,
          3.92264407e-03, 3.16427182e-03, 2.59231427e-03, 4.05041547e-03,
          1.40874484e-03, 3.45122293e-02, 4.43202414e-04, 2.26371945e-03,
          3.16427182e-03, 5.27384738e-03, 2.57701278e-02,
          -6.75582196e-05, -7.00777862e-03, -2.30749864e-02,
          -1.93182454e-02, 1.40874484e-03, 3.28228809e-03,
          1.08355854e-03, 7.68388738e-04, -2.49645337e-02,
          1.56391365e-03, 3.28228809e-03, 6.91447465e-04,
          -1.40703702e-02, -3.56945093e-03, -1.94110139e-03 ]
      - [ -3.04670278e-02, -1.26273585e-02, -3.64197530e-02,
          -3.76620069e-02, -3.40462141e-02, 3.23335640e-02,
          7.46347522e-03, 1.39483493e-02, -1.08408052e-02,
          -1.90600064e-02, -1.49205560e-03, 6.89338520e-02,
          5.40756900e-03, 3.80060971e-02, 3.35392426e-04,
          -6.98184362e-04, 4.57223617e-02, 9.53543495e-05,
          2.79591768e-04, -1.04889786e-03, -1.27678178e-03,
          7.24397323e-05, -6.04697689e-03, -1.48625346e-03,
          -1.35091152e-02, -1.62123665e-02, -1.79707527e-03,
          -4.21793340e-03, -2.03902391e-03, -4.99882095e-04,
          -6.14984194e-04, -4.99882095e-04, 0., -7.93538697e-04,
          6.76525990e-04, 3.60881299e-04, 3.50376428e-03, 8.98406492e-04,
          1.25954999e-03, 1.39445812e-03, 1.54561305e-03,
          -3.18941735e-02, -2.04205164e-03, -1.46291889e-02,
          -3.95026244e-02, -3.25535014e-02, -1.57902529e-03,
          -1.08644608e-02, 7.43750716e-04, -1.40648217e-05,
          -9.53543495e-05, -8.75653140e-03, -6.00851700e-03,
          -5.02023939e-03, -1.19946254e-02, -6.95470301e-03, 0.,
          -9.53543495e-05, -1.90708699e-04, 2.59844033e-04,
          1.61172578e-03, 1.16928248e-03, 3.30177398e-04, 1.04387861e-03,
          5.43996459e-04, 1.00436676e-02, 1.39689688e-02, 4.84986976e-03,
          2.96965288e-03, 1.95582374e-03, 2.63426034e-03, 4.73016966e-03,
          1.98969455e-03, 2.40038076e-04, 1.01951195e-03, 2.79591768e-04,
          4.99882095e-04, 0., 0., 0., 0., 0., 0., 0., 0.,
          -6.76525990e-04, -4.56235633e-04, -9.56117758e-04,
          -6.71649128e-02, -5.88254072e-03, -1.71578571e-03,
          -5.01093408e-03, -4.31222804e-02, -3.62316109e-02,
          -4.05876804e-03 ]
      - [ -3.64504419e-02, -2.17595696e-02, -3.86415608e-02,
          -3.76265869e-02, -3.38317938e-02, 2.34783050e-02,
          6.88029081e-03, 1.41084800e-02, -1.09606003e-02,
          -1.81309562e-02, -1.13212364e-03, 6.62361085e-02,
          5.25460485e-03, 3.71820778e-02, 2.10471044e-04, 1.73964421e-04,
          4.35158461e-02, 0., 1.73964421e-04, 1.47761268e-04, 0., 0.,
          1.47761268e-04, 0., -2.50934227e-03, 0., 0., 0., 0., 0., 0.,
          0., 0., 0., -1.25641409e-05, -5.01456416e-05, -1.86528559e-04,
          -2.39424826e-05, -6.27097834e-05, -1.47761268e-04,
          -7.52739215e-05, -5.30797206e-02, -6.41447725e-03,
          -1.41517818e-02, -3.72158475e-02, -3.38528715e-02,
          -4.81391180e-04, -1.07854735e-02, 2.72520934e-04,
          9.69557295e-05, -2.46451760e-04, -6.78357203e-04,
          -4.19341290e-04, -2.46451760e-04, -1.07442029e-03,
          -3.11422220e-04, -5.20818401e-04, -7.48906459e-04,
          -3.34289827e-04, -1.73964421e-04, -3.06240981e-04,
          -9.13920696e-04, -2.10471044e-04, 2.05008939e-04,
          2.13041421e-04, 6.39705162e-04, 3.02179647e-03, 5.44760842e-04,
          5.68703341e-04, 2.62877351e-04, 3.58232297e-04, 2.84137134e-03,
          1.86528559e-04, 1.86528559e-04, 0., 1.47761268e-04, 0., 0., 0.,
          0., 0., 0., 0., 0., 0., 0., -1.47761268e-04, -2.10471044e-04,
          -5.27967624e-02, -3.28627089e-03, -2.12731713e-04,
          -3.68348206e-03, -3.95216681e-02, -3.30309011e-02,
          -9.50878137e-04 ]
      - [ -2.54216138e-03, -6.03325898e-03, -1.82297304e-02,
          -2.13474762e-02, -2.33564489e-02, -2.48371530e-02,
          -2.36657429e-02, -1.17459428e-02, -7.77695552e-02,
          -5.33502549e-02, 1.14328181e-03, 2.19382960e-02,
          1.44321576e-03, -1.37214856e-02, 7.46243587e-03,
          -2.70364098e-02, 1.04786251e-02, -3.53028253e-02,
          1.04305483e-02, 8.01467337e-03, 1.13555193e-02, 4.29716520e-03,
          2.93274457e-03, 1.48433847e-02, -5.01035829e-04,
          1.04836030e-02, 1.71315651e-02, -5.82991750e-04,
          1.34441128e-03, 1.00424560e-02, 2.23803450e-03, 1.56760626e-02,
          5.95542719e-04, 1.09947426e-02, -1.22755649e-03,
          3.56879155e-03, 1.39355063e-02, 4.24411008e-03, 1.41583160e-02,
          8.55066028e-05, 2.23633694e-03, -2.84874383e-02,
          -5.69249317e-03, 8.27062596e-03, -3.08656935e-02,
          -1.07421689e-02, 7.22312788e-03, 1.27264643e-02,
          1.11840805e-02, 0., 0., -5.64194634e-04, -2.59367493e-03,
          -1.36611832e-03, -4.57413308e-03, -5.59886592e-03,
          -8.96881986e-03, -4.21335641e-03, -1.71846189e-02,
          -1.67443429e-03, -1.28213996e-02, -6.71297312e-03,
          -1.07605709e-02, -2.98579969e-03, -1.65485721e-02,
          -3.56879155e-03, -9.40640923e-03, -2.39085127e-03,
          -3.58074810e-03, -1.59843788e-02, -8.93391389e-03,
          -1.07409304e-03, -1.47648891e-02, -1.36611832e-03,
          -9.56319505e-04, -9.52886231e-03, -8.33271828e-04,
          -9.20299161e-03, -9.76718590e-03, -1.25386342e-02,
          -3.77220940e-03, 1.91461164e-04, -7.58330990e-03,
          -5.95542719e-04, -1.63104373e-03, -1.33405579e-02,
          -7.37692928e-03, -9.55725205e-04, -3.61020975e-02,
          -1.72636490e-02, 1.58833328e-03, -4.44198307e-03,
          -2.25396771e-02, -2.63227355e-02, -1.51630631e-02 ]
      - [ 2.15062615e-03, 3.48224188e-03, -1.02992523e-02,
          -9.39211436e-03, -6.36743288e-03, 1.72387734e-02,
          1.05583128e-02, 1.53308325e-02, -2.64447113e-03,
          -4.26079100e-03, -7.76009285e-04, 2.97448821e-02,
          2.28806795e-03, 9.10010561e-03, -1.67143353e-05,
          -1.83519092e-03, 1.63948443e-02, -8.72408133e-03,
          -6.12613931e-03, -6.12613931e-03, -1.15302354e-02,
          -9.67105106e-03, -8.89547460e-04, 1.32586919e-02,
          1.17402570e-02, 8.26797448e-03, 6.12613931e-03, 9.22222249e-03,
          6.12613931e-03, 6.12613931e-03, 3.09608318e-03, 0., 0., 0., 0.,
          0., 0., 0., 0., -4.29094862e-03, -4.43313317e-03,
          -3.22412550e-02, -9.07893293e-03, -1.75810698e-02,
          -3.02046891e-02, -2.72311363e-02, -1.92499254e-02,
          -2.02534217e-02, 2.19233297e-02, 1.48335071e-02,
          9.67105106e-03, 1.04003735e-02, 6.14285376e-03, 7.96133000e-03,
          4.27423418e-03, 6.12613931e-03, 4.32114059e-04, 1.70972070e-03,
          0., 0., 0., -1.67143353e-05, 0., -1.85190525e-03,
          -6.10942487e-03, -8.70736688e-03, -7.54593080e-03,
          -6.12613931e-03, -8.94900784e-03, -1.26843927e-02,
          -4.40719072e-04, 1.72265861e-02, 9.33525618e-03,
          8.25126003e-03, 7.96133000e-03, 9.23893694e-03, 5.67731122e-03,
          3.09608318e-03, 0., 0., 0., 0., 0., 0., 0., 0., 0., 0.,
          -2.87130568e-02, -7.56273419e-03, -3.54491151e-03,
          -1.63046736e-02, -2.74372678e-02, -2.77412813e-02,
          -1.92666389e-02 ]
      - [ -3.52746435e-02, -2.09041405e-02, -3.91657017e-02,
          -3.77944410e-02, -3.39882001e-02, 2.54412945e-02,
          9.30773374e-03, 1.69209316e-02, -1.02270311e-02,
          -1.75675172e-02, -9.88454558e-04, 6.52256086e-02,
          5.46776457e-03, 3.47446091e-02, 0., 0., 4.12766710e-02,
          4.50410356e-04, 0., -4.50410356e-04, 0., -4.50410356e-04, 0.,
          -4.50410356e-04, -3.18874838e-03, -4.50410356e-04,
          -9.00820713e-04, -9.00820713e-04, -9.00820713e-04,
          -1.03594381e-02, 0., 9.00820713e-04, 4.50410356e-04,
          4.50410356e-04, 4.50410356e-04, 4.50410356e-04, 4.50410356e-04,
          4.50410356e-04, 9.00820713e-04, 1.35123113e-03, 9.00820713e-04,
          -5.30810654e-02, -4.99957940e-03, -1.23465136e-02,
          -3.52685899e-02, -3.31303068e-02, -4.50410356e-04,
          -1.45131284e-02, 4.05369326e-03, 1.80164143e-03,
          4.50410356e-04, 9.00820713e-04, 9.00820713e-04, 4.50410356e-04,
          9.00820713e-04, 0., 4.50410356e-04, 4.50410356e-04, 0., 0., 0.,
          0., 0., 0., 0., 0., 0., 0., 0., 0., 0., 2.73833796e-03, 0.,
          -4.50410356e-04, 0., -4.50410356e-04, 0., 0., -4.50410356e-04,
          -4.50410356e-04, -4.50410356e-04, -4.50410356e-04,
          -4.50410356e-04, -4.50410356e-04, -4.50410356e-04,
          -9.00820713e-04, -9.00820713e-04, -9.00820713e-04,
          -5.48827089e-02, -4.07622568e-03, -9.00820713e-04,
          -4.46369499e-03, -4.19835821e-02, -3.53828073e-02,
          -2.25205184e-03 ]
      - [ -1.01435347e-03, 1.18734431e-03, -5.75836923e-04,
          -9.38737299e-04, -2.50562039e-06, 7.56481080e-04,
          -5.68777730e-04, 1.25015737e-03, -8.06810393e-04,
          -2.04816763e-03, 2.79921223e-04, -1.01817502e-02,
          -8.40318389e-03, 4.22351714e-03, 2.29009660e-03,
          1.28586462e-03, 1.10193342e-02, 4.87433653e-03, 1.00768963e-02,
          1.06021836e-02, 1.28922760e-02, 1.09130167e-03,
          -3.22929141e-03, -7.87608046e-03, -8.12305044e-03,
          -1.47278868e-02, -1.85256545e-02, -1.04264524e-02,
          -6.97316043e-03, -5.61724277e-03, -5.62429521e-03,
          -5.05293999e-03, 1.13627883e-02, 1.17131975e-02,
          1.35312611e-02, 6.75458554e-03, -3.60914692e-03,
          9.70689859e-03, -4.94573405e-03, 7.07536843e-03,
          -2.91044847e-03, -4.09433898e-03, 4.43110801e-03,
          -3.43039213e-03, -4.11940413e-03, -4.70492104e-03,
          -9.39366687e-03, 2.00369228e-02, 4.46947000e-04,
          8.52524652e-04, 2.01573421e-04, -1.76256784e-04,
          -5.47892356e-04, 1.02592784e-03, -8.08664656e-04,
          -3.64538515e-04, 7.50236679e-04, -1.02592784e-03, 0., 0.,
          -4.71082603e-04, -9.27226269e-04, -7.24899233e-04,
          -1.00769242e-03, -1.00148772e-03, -4.69353370e-04,
          -2.95666326e-03, -7.28645071e-04, -1.68121816e-03,
          -6.57045050e-04, 3.95526458e-03, 8.97404365e-03,
          7.85224885e-03, 7.79721839e-03, 5.88769373e-03, 5.10000205e-03,
          5.35555603e-03, 4.86435648e-03, 3.14210169e-03, 3.87341133e-03,
          4.16138489e-03, 3.11174267e-03, 4.47982829e-03,
          -1.05499793e-02, 1.96732488e-03, 2.53268168e-03,
          -1.92094762e-02, 1.09155290e-03, 3.01982247e-04,
          -2.05750503e-02, -2.22002827e-02, -3.94051289e-03,
          -2.89713126e-03, -5.10329101e-03, -8.44644196e-03 ]
      - [ -1.49433510e-02, -2.26259185e-03, -4.99594631e-03,
          -3.51684750e-03, -2.30750721e-03, -2.66406802e-03,
          -1.10055332e-03, -4.59906005e-04, -1.28184084e-03,
          7.52105238e-03, 8.28006770e-03, 1.47404964e-04, 4.00699675e-04,
          2.09184755e-02, 1.99825987e-02, 1.15675793e-03, 1.21171903e-02,
          9.04284231e-03, 1.14859939e-02, -3.60080437e-03,
          -2.36571184e-03, -3.08628893e-03, -1.80422119e-03,
          -2.58388789e-03, -4.03553946e-03, -2.62667448e-03,
          -3.89411836e-03, -7.45045487e-03, -2.47356598e-03,
          -4.42637969e-03, -3.92222917e-03, -5.03587956e-03,
          -6.51997421e-03, -5.15000336e-03, -1.39187695e-02,
          -4.57762554e-03, -4.15902864e-03, -4.05474985e-03,
          -4.57690004e-03, -6.62780972e-03, -3.45802517e-03,
          -3.75729240e-03, -2.78968760e-03, -3.91786313e-03,
          -2.82989535e-03, -1.20059550e-02, -8.67244042e-03,
          -2.81911553e-03, -1.58977695e-02, -6.90578390e-03,
          -2.96994112e-03, -2.07359041e-03, -1.28882227e-03,
          -2.57273146e-04, 2.36009859e-04, 6.48869609e-04,
          1.43024779e-03, 1.52302103e-03, 2.12587253e-03, 4.19303949e-04,
          4.45986446e-03, 2.48084939e-03, 3.36639024e-03, 9.72658570e-04,
          3.07106925e-03, 6.42767595e-03, 3.68173956e-03, 2.57078698e-03,
          5.14726760e-03, 7.24336598e-03, 4.24694875e-03, 6.29095547e-03,
          6.07640250e-03, 6.38507539e-03, 2.98044682e-02, 4.62024473e-03,
          8.77867267e-03, 6.49565412e-03, 7.14101503e-03, 9.08585172e-03,
          1.57928269e-03, -1.47409854e-03, -4.66989214e-03,
          -1.96931660e-02, 4.82219644e-03, 5.32171363e-03,
          -1.39612518e-02, 3.17911571e-03, 6.42431667e-03,
          -1.38974329e-02, -2.37066317e-02, 6.42719097e-04,
          1.29245862e-03, 3.21762869e-03, -1.37703144e-03 ]
      - [ -1.26311751e-02, -5.02291322e-03, -2.51077302e-03,
          -3.43424897e-03, -2.04741233e-03, -1.09807379e-03,
          -1.14311976e-03, -7.52239546e-04, -1.39989110e-03,
          1.43490534e-03, 7.70345097e-03, -5.62642177e-04, 0.,
          1.54456636e-02, 1.39161404e-02, 5.66954724e-04, 1.11557916e-02,
          1.04888007e-02, 7.47230416e-03, -1.25933893e-03,
          -2.49785814e-03, -2.58385879e-03, -1.72014779e-03,
          -3.23636667e-03, -3.87904374e-03, -6.24426175e-03,
          -3.58040747e-03, -4.84542176e-03, -2.62433500e-03,
          -3.44723510e-03, -2.80715385e-03, -3.25452327e-03,
          -2.83704489e-03, -3.58582474e-03, -2.92373402e-03,
          -3.58151458e-03, -2.20553786e-03, -2.56755156e-03,
          -2.96311057e-03, -3.07901204e-03, -2.16145231e-03,
          1.18163123e-03, -4.79141192e-04, -1.27534859e-03,
          -1.69219845e-03, -1.25882856e-03, -1.04028266e-03,
          3.92081067e-02, -1.28913876e-02, -6.65186020e-03,
          -3.91175505e-03, -3.47119477e-03, -2.61203456e-03,
          -1.98627263e-03, -6.20877044e-03, -2.78243842e-03,
          -7.73938547e-04, -4.64336743e-04, 0., 1.26899089e-04,
          4.65794816e-04, 1.10903529e-04, 1.49368122e-03, 8.78871419e-04,
          6.42742903e-04, 4.00272431e-03, 1.68288848e-03, 2.16030888e-03,
          2.54735677e-03, 2.55416217e-03, 1.71374576e-03, 2.97446782e-03,
          3.01483111e-03, 2.76159542e-03, 3.63202719e-03, 3.31304804e-03,
          3.96880368e-03, 2.71343417e-03, 3.39912111e-03, 3.65522318e-03,
          3.12762405e-03, 2.95191840e-03, 4.10255045e-03,
          -1.71173550e-02, 1.84125581e-03, 1.87562185e-03,
          -9.82375070e-03, 1.84437423e-03, 1.09279563e-03,
          -1.21224783e-02, -2.03846581e-02, -2.16162996e-04,
          -1.01392048e-04, -3.39282735e-04, 6.63673782e-05 ]
      - [ -1.31675480e-02, -6.77542575e-03, -3.22297029e-03,
          -2.90948595e-03, -1.82208978e-03, -7.66167708e-04,
          -8.08148412e-04, -6.89954497e-04, -1.13213528e-03,
          1.49782491e-03, 7.75627652e-03, -1.68556944e-04, 0.,
          1.53140696e-02, 1.38261588e-02, 9.34723474e-04, 1.12169245e-02,
          1.06046349e-02, 7.53489975e-03, -1.26263336e-03,
          -2.40131631e-03, -2.71228375e-03, -1.71732088e-03,
          -2.08045566e-03, -3.63008422e-03, -2.32669059e-03,
          -3.36646149e-03, -3.85216181e-03, -2.32669059e-03,
          -3.32254963e-03, -2.75867665e-03, -3.12397326e-03,
          -2.83486908e-03, -3.43374582e-03, -3.11221438e-03,
          -3.81635712e-03, -3.12464405e-03, -2.68742582e-03,
          -3.37859639e-03, -3.47378710e-03, -2.43506138e-03,
          -3.03004216e-03, -2.60575092e-03, -1.49973819e-03,
          -2.10387679e-03, -1.75123499e-03, -1.21877016e-03,
          3.91840562e-02, -1.17678633e-02, -5.91247575e-03,
          -3.36385751e-03, -3.01009743e-03, -2.37147766e-03,
          -1.80722424e-03, -1.44491275e-03, -1.04416313e-03,
          -7.73910375e-04, -4.55358298e-04, -1.46252307e-04,
          -2.47325748e-03, -6.27433008e-04, -6.12807786e-03,
          7.73910375e-04, 2.89749762e-04, 1.60639500e-03, 6.19499059e-03,
          2.03800574e-03, 2.46897107e-03, 2.62452848e-03, 2.84825987e-03,
          1.55767042e-03, 3.07303993e-03, 3.00262216e-03, 3.02838464e-03,
          3.50799970e-03, 3.32098268e-03, 3.84168862e-03, 2.70389975e-03,
          3.40684992e-03, 3.65269138e-03, 3.12397326e-03, 2.95695174e-03,
          4.10035485e-03, -1.72448605e-02, 1.83938188e-03,
          2.06381129e-03, -9.96090472e-03, 2.03976803e-03,
          1.13655464e-03, -1.20231109e-02, -2.04389114e-02,
          -2.28124438e-04, 7.49511310e-05, -1.78105154e-04,
          1.51164320e-04 ]
      - [ -1.38847036e-02, -7.76929315e-03, -2.93239625e-03,
          -3.49949626e-03, -2.31152354e-03, -5.78420190e-03,
          -2.88035963e-02, 1.00683759e-03, -1.23490510e-03,
          2.61310721e-03, 7.61966640e-03, 1.04940217e-03, 9.63030558e-04,
          1.86499048e-04, 2.66457535e-03, 6.09208189e-04, 8.86774436e-03,
          8.46737716e-03, 5.88898687e-03, 1.29744352e-03,
          -1.23012360e-04, -1.28510210e-03, -1.19625858e-03,
          1.72629425e-05, -2.21539056e-03, -2.09384001e-04,
          3.34412965e-04, -3.12478351e-03, -2.32845824e-03,
          -2.25087788e-04, -2.47984007e-03, 3.21020372e-04,
          -2.58735404e-03, -2.20141839e-03, -2.40996364e-03,
          -3.20696528e-03, -1.72302080e-05, -3.46566364e-03,
          -5.44669281e-04, -2.84517696e-03, -1.56106020e-03,
          -1.79805397e-03, -2.18542921e-03, 3.09540454e-04,
          -2.19251192e-03, -1.30147929e-03, 1.08733785e-03,
          3.71865071e-02, 1.35460561e-02, -6.84734480e-03,
          -4.55410220e-03, -3.12932092e-03, -2.87315645e-03,
          -3.88095714e-03, -2.31743953e-03, -2.13852106e-03,
          -3.96279152e-03, -7.92175473e-04, -4.30937391e-03,
          -9.63030558e-04, -2.26959679e-03, -2.11907434e-03,
          -1.31364900e-03, -7.19980162e-05, -3.38053051e-03,
          3.09042487e-04, -1.19412180e-04, 9.35183489e-04,
          1.48231641e-03, -1.05718663e-03, -5.06571145e-04,
          1.66376575e-03, 9.21520754e-04, 1.22896512e-03, 2.54550716e-03,
          1.81077677e-03, 3.42564052e-03, 3.05599999e-04, 8.57590581e-04,
          1.74846023e-03, 2.96216924e-03, 1.94139429e-03, 1.79714488e-03,
          -1.16966497e-02, 2.55998666e-03, -1.20770279e-03,
          -1.81314778e-02, 1.17170368e-03, 9.32967232e-05,
          -2.04605609e-02, -1.42081669e-02, -2.91226374e-04,
          -1.44727004e-03, -8.87769333e-04, -1.32460170e-03 ]
      - [ -7.06421724e-03, -3.87557456e-03, 1.37911725e-03,
          5.31705038e-04, -1.49118554e-04, 1.23803003e-03,
          1.28595391e-03, 7.31050153e-04, -8.80168751e-04,
          3.20454384e-03, 8.62198975e-03, -5.34117338e-04, 0.,
          1.82718169e-02, 1.69432312e-02, 5.43162751e-05, 1.12116728e-02,
          9.80154052e-03, 8.37913994e-03, -4.78017796e-03,
          -6.47983607e-03, -8.04791506e-03, -6.24859845e-03,
          -8.51620222e-04, 1.26845215e-03, 2.35567382e-03,
          -9.68295732e-04, 3.59528116e-04, 8.03911462e-05,
          -8.67444207e-04, -1.15689763e-03, -3.18288826e-03,
          -2.87209335e-03, -4.30328585e-03, -3.84839578e-03,
          -4.42639925e-03, -3.87858856e-03, -3.24814697e-03,
          -3.84292775e-03, -5.85742062e-03, -3.84377665e-03,
          -7.61666056e-03, -5.54365339e-03, -4.76301089e-03,
          -7.24204164e-03, -7.01892888e-03, -7.04118749e-03,
          3.46858017e-02, -5.83776785e-03, -2.18021427e-03,
          7.14452472e-04, 3.12470191e-04, -2.12782557e-04,
          8.62354045e-06, -1.09159955e-04, 2.22626462e-04,
          -5.76894497e-04, 1.06798334e-03, 0., 0., 0., 0.,
          -2.65975887e-05, -5.07643599e-05, -2.70543434e-03,
          -8.53031233e-04, -2.50807055e-03, -1.08069903e-03,
          -9.58856079e-04, -1.60607696e-03, -1.26527986e-04,
          7.64829945e-03, 8.67860578e-03, 8.67010374e-03, 7.62656378e-03,
          8.67070351e-03, 7.69790029e-03, 6.29424769e-03, 4.92628245e-03,
          5.08643873e-03, 3.78638040e-03, 3.76088824e-03, 4.90991166e-03,
          -2.34277230e-02, 2.22669425e-03, 2.43161432e-03,
          -1.32900001e-02, 2.31365743e-03, -9.73387156e-04,
          -1.57235060e-02, -2.56254990e-02, -4.77932906e-03,
          -2.99074547e-03, -5.09300269e-03, -5.16951596e-03 ]
      - [ -1.26969051e-02, -6.74785580e-03, -2.15190649e-03,
          -6.68232329e-04, -2.09816825e-03, 1.13919633e-03,
          -1.11244219e-04, 9.45771986e-04, -1.75027351e-03,
          5.20471623e-03, 9.36708227e-03, -4.42823773e-04,
          5.42962342e-04, 2.14466192e-02, 1.98618658e-02, 8.79168452e-04,
          1.31233018e-02, 1.09020369e-02, 1.07825967e-02,
          -2.13198620e-03, -3.59873939e-03, -4.09530709e-03,
          -2.29763705e-03, -3.86342336e-03, -5.82222966e-03,
          -4.27701045e-03, -6.15545874e-03, -7.54497061e-03,
          -5.46680624e-03, -2.19675452e-02, -1.61261372e-02,
          -2.75417091e-03, -3.83486901e-03, -2.72756908e-03,
          -2.89560016e-03, -2.69450247e-03, -6.99224416e-04,
          -1.74010720e-03, -2.55769189e-03, -6.02721993e-04,
          -8.52416444e-04, -1.25618698e-03, 2.88918876e-04,
          2.33165617e-03, 4.75669885e-03, 4.29831864e-03,
          -1.69893703e-03, 2.53049508e-02, -4.56107548e-03,
          -4.70178993e-03, -3.85895139e-03, -1.84936286e-03,
          -1.65776687e-03, -1.37018890e-03, -1.09375548e-03,
          -8.30150035e-04, 2.23148891e-04, 4.85421915e-04,
          6.82544633e-05, 6.46833447e-04, 6.82544633e-05, 0.,
          9.66646883e-04, 5.59289998e-04, 6.54671399e-04, 1.73925655e-03,
          1.12216640e-03, 2.20254622e-03, 2.67362758e-03, 3.06196255e-03,
          1.76762545e-03, 3.68282548e-03, 2.77256756e-03, 3.19551933e-03,
          4.58395062e-03, 3.66669078e-03, 4.37413342e-03, 3.78368841e-03,
          3.20765260e-03, 3.55438353e-03, 2.88760662e-03, 2.68104556e-03,
          3.93323414e-03, -2.38444898e-02, 1.16544403e-03,
          1.87767815e-04, -1.70105379e-02, 6.10536663e-04,
          -6.59796584e-04, -1.79140661e-02, -2.66843792e-02,
          -2.97672255e-03, -4.33611125e-03, -3.12776351e-03,
          -5.17636910e-03 ]
      - [ -1.35219283e-02, -3.12097953e-03, -3.59111722e-03,
          -7.68298865e-04, -1.50899182e-03, -1.64768752e-03,
          -2.68114207e-04, -8.25758034e-04, 6.64467749e-04,
          8.71609338e-03, 1.27913216e-02, 1.88739039e-02, 1.19798500e-02,
          1.21572772e-02, 1.76468268e-02, 2.12336654e-05,
          -2.50677089e-03, -3.99497617e-03, -6.10063737e-03,
          -1.25039909e-02, -1.51816094e-02, -1.64616213e-03,
          2.39785970e-03, 7.33841956e-03, 6.90529356e-03, 1.34484591e-02,
          1.44663453e-02, 5.07432548e-03, 4.10279864e-03, 1.40797463e-03,
          -1.43874297e-03, -4.03836556e-03, -1.60253998e-02,
          -1.20750917e-02, -1.40265329e-02, -1.42674381e-02,
          -1.08552435e-04, -1.40146026e-02, 1.98933456e-04,
          -1.32417083e-02, -1.65610341e-04, 4.70565981e-04,
          -1.01079736e-02, -6.11178984e-05, 8.94932484e-04,
          -9.99041274e-03, -6.79455651e-03, -2.20291479e-03,
          -1.43300928e-02, -6.90964004e-03, -3.21107567e-03,
          -1.66586204e-03, -8.56047845e-04, -1.25725858e-03,
          8.18465778e-04, 9.02014901e-04, 1.02907172e-04, 1.97990797e-03,
          1.24341762e-03, 4.45630081e-04, 3.78164998e-03, 3.14067164e-03,
          3.41798831e-03, 1.90968346e-03, 3.78278713e-03, 5.01313712e-03,
          6.00209692e-03, 1.99623313e-03, 4.75334655e-03, 3.86570115e-03,
          -9.06071858e-04, -4.25685430e-03, -3.11310985e-03,
          -2.76965019e-03, 1.66630950e-02, -1.22956198e-03,
          8.81220680e-04, 3.54309776e-03, 2.40565324e-03, 3.71282059e-03,
          -1.13990740e-03, -4.08051489e-03, -5.82751213e-03,
          -4.98661585e-03, 1.45913963e-03, 1.97990797e-03,
          1.71269046e-03, 1.84297329e-03, 4.78174537e-03, 5.13482327e-03,
          6.09430065e-03, 4.75724833e-03, 4.48549772e-03, 9.75534879e-03,
          7.64535088e-03 ]
      - [ -1.09383836e-02, -5.65051008e-03, -2.77021085e-03,
          -2.03496264e-03, -1.89873297e-03, -1.65765034e-03,
          -1.11612480e-03, -2.02821800e-03, -3.68846842e-04,
          5.61594870e-03, 1.19574573e-02, 1.88958626e-02, 9.03841481e-03,
          1.50363445e-02, 2.12159194e-02, -1.22964114e-03,
          -2.70969071e-03, -5.36541687e-03, -6.40048692e-03,
          -1.20157525e-02, -1.48415565e-02, -2.83974386e-03,
          1.82684662e-03, 1.34550966e-03, 3.37155070e-03, 9.66943451e-04,
          1.31547032e-02, 2.21297587e-03, 3.53230443e-03, 1.90981780e-03,
          2.14529829e-03, 2.98125000e-04, -1.48577997e-02,
          -8.56721215e-03, -1.21179326e-02, -1.12090511e-02,
          2.41393456e-03, -1.43215461e-02, 1.31138670e-03,
          -6.21408364e-03, 2.46581883e-04, 6.35854341e-03,
          -8.32868088e-03, 1.14003313e-03, 1.32180238e-03,
          1.70671428e-03, 6.85050944e-03, 2.85013486e-02,
          -1.57227702e-02, -8.60444177e-03, -4.65800939e-03,
          -4.12448263e-03, -5.37155662e-03, -6.54832181e-03,
          -1.36675071e-02, -3.37842852e-03, -1.34786335e-03,
          -1.45776168e-04, -1.15618401e-04, 1.80562725e-04,
          2.00559897e-03, 1.85777375e-03, 5.71760116e-03, 5.53399185e-03,
          5.00986911e-03, 6.10951567e-03, 6.50047092e-03, 2.74771708e-03,
          3.98442987e-03, 1.87542837e-03, -9.95219802e-04,
          -5.03882114e-03, -4.69466671e-03, -3.87595873e-03,
          -1.76496699e-03, -1.57430128e-03, -6.73997914e-04,
          -7.32646557e-04, 0., 0., 0., 0., 0., 0., 0., -4.97167988e-04,
          1.67452512e-04, 4.54237656e-04, 1.06468378e-03, 1.99319888e-03,
          3.33846291e-03, 2.82257446e-03, 2.58201011e-03, 4.21645353e-03,
          6.67989952e-03 ]
      - [ -1.42050665e-02, -8.31175968e-03, -3.46072670e-03,
          -1.27628667e-03, -1.37839059e-03, -9.11460316e-04,
          -5.87688177e-04, -1.74486218e-03, -2.90420030e-05,
          6.56264089e-03, 1.07654883e-02, 1.47438189e-02, 8.78948718e-03,
          1.30417049e-02, 2.09770631e-02, -6.18849357e-04,
          -2.56519369e-03, -4.92663868e-03, -5.69730531e-03,
          -1.04314499e-02, -1.35185504e-02, -2.39785737e-03,
          1.52011728e-03, 5.29203378e-03, 4.54297708e-03, 1.10433074e-02,
          1.32522145e-02, 5.12010651e-03, 3.77950561e-03, 1.91464135e-03,
          2.22441065e-03, 4.67942533e-04, -1.64785534e-02,
          -8.21350887e-03, -1.41709810e-02, -1.12581626e-02,
          -2.55954772e-04, -1.32615203e-02, 3.71732342e-04,
          -7.43072806e-03, -4.20224213e-04, -2.65605253e-04,
          -1.24622937e-02, 1.07263390e-03, 8.96257348e-04,
          1.35798508e-03, 6.63774414e-03, 2.60781888e-02,
          -1.30298994e-02, -6.96661789e-03, -3.65397846e-03,
          -3.00255185e-03, -2.21014977e-03, -1.88245357e-03,
          -1.09715504e-03, -6.67463813e-04, -1.33879925e-03,
          -7.47439160e-04, -1.76142566e-04, -2.90224631e-03,
          -1.86470919e-04, -6.40863040e-03, 1.56555593e-03,
          1.79330062e-03, 3.74725228e-03, 6.82934048e-03, 5.14114834e-03,
          2.68965238e-03, 3.41219804e-03, 2.03512376e-03,
          -1.44013634e-03, -5.00440458e-03, -4.73895017e-03,
          -3.28493584e-03, -1.86889595e-03, -1.53461203e-03,
          -8.16957967e-04, -7.11845583e-04, 0., 0., 0., 0., 0., 0., 0.,
          0., 7.73249994e-05, 9.21232277e-04, 1.32145046e-03,
          2.35367334e-03, 3.25835962e-03, 3.08162416e-03, 3.22034792e-03,
          4.91636246e-03, 7.39373639e-03 ]
      - [ -1.35609433e-02, -8.11339263e-03, -3.99871124e-03,
          -4.37358301e-03, -4.58742399e-03, -7.10990652e-03,
          -2.29806099e-02, -3.67595494e-04, -4.56689158e-04,
          -1.30163855e-03, 8.07489455e-03, 1.10042831e-02,
          6.80279266e-03, -3.30784428e-03, 1.59123540e-02,
          -6.45729422e-04, -6.96729752e-04, -1.94636523e-03,
          -4.42136638e-03, -7.98032712e-03, -1.08627351e-02,
          -5.92752534e-04, 1.24568434e-03, 5.75592881e-03,
          3.91433015e-03, 1.21186329e-02, 1.56233376e-02, 5.00888564e-03,
          4.38102894e-03, 3.73873929e-03, 2.93421047e-03, 2.69748247e-03,
          -9.63411294e-03, -5.11951232e-03, -2.28156131e-02,
          -6.65450189e-03, 2.47921422e-03, -8.51776917e-03,
          2.42198724e-03, -7.91513361e-03, 8.20113695e-04,
          1.68338360e-03, -7.37019582e-03, 3.72557179e-03,
          1.49986788e-03, 2.18464644e-03, 7.71757215e-03, 2.33603939e-02,
          7.75033981e-03, -7.29947723e-03, -4.04109480e-03,
          -2.86561181e-03, -2.68392847e-03, -3.12563637e-03,
          -2.31750333e-03, -1.97631167e-03, -4.05308651e-03,
          -2.55746563e-04, -3.43175256e-03, -1.23657996e-03,
          -1.80888502e-03, -7.99294619e-04, -2.52113532e-04,
          -3.22139240e-04, -8.04442156e-04, -3.80963429e-05,
          1.96765177e-03, 5.64302667e-04, 1.37042894e-03,
          -4.70771542e-04, -2.04024208e-03, -5.78062888e-03,
          -6.44662790e-03, -4.71166288e-03, -2.64728535e-03,
          -2.64252233e-03, -1.99545710e-03, -2.15995591e-03,
          -2.01258180e-03, -1.89126784e-03, -1.90435720e-04,
          -1.04614429e-03, -1.54979236e-03, -4.62789467e-04,
          -3.37664591e-04, -2.39270460e-03, -9.74579365e-04,
          1.95675690e-04, 2.68279720e-04, 4.51095926e-04, 2.89044064e-03,
          2.47761910e-03, 1.37563073e-03, 3.88816674e-03, 5.14742918e-03 ]
      - [ -7.31048593e-03, -5.26827667e-03, 2.05218699e-03,
          2.34552450e-03, 4.88406455e-04, 1.16831821e-03, 1.64847902e-03,
          -1.13790156e-03, 1.18990510e-03, 8.21787678e-03,
          1.27424560e-02, 1.51463253e-02, 1.04959235e-02, 1.41673777e-02,
          2.29406394e-02, -2.63625570e-03, -5.39842062e-03,
          -8.13122466e-03, -9.63049848e-03, -1.55147836e-02,
          -1.93817858e-02, -6.89305738e-03, -1.35882106e-03,
          7.05434568e-03, 1.14237359e-02, 1.80198736e-02, 1.82956047e-02,
          1.05998982e-02, 7.50893820e-03, 5.68990549e-03, 4.41486202e-03,
          1.57449010e-03, -1.59657784e-02, -1.00980941e-02,
          -1.65723041e-02, -1.31135685e-02, -2.87266739e-04,
          -1.55014424e-02, 6.88313390e-04, -9.78401210e-03,
          -1.92806381e-03, -3.28865997e-03, -1.51771279e-02,
          -1.88695057e-03, -3.37046338e-03, -3.37354187e-03,
          1.74740492e-03, 1.60008073e-02, -6.61541801e-03,
          -2.27739010e-03, 7.03304715e-04, 7.53510108e-07,
          3.82842642e-04, 2.16840434e-19, -7.15823990e-05,
          -8.63164860e-06, -8.36246239e-04, 9.16177698e-04, 0., 0.,
          6.84865459e-04, 1.03711896e-03, 1.80814532e-04, 5.75350714e-04,
          -1.49537588e-03, -9.31822171e-04, -1.10017078e-04,
          -1.37866568e-03, -9.62072518e-04, -2.29218253e-03,
          -1.18165719e-03, -8.95093079e-04, -6.71365240e-04,
          9.36775934e-04, 1.39854418e-03, 2.08339305e-03, 2.20165867e-03,
          2.13340507e-03, 9.99956625e-04, 9.99956625e-04, 0., 0., 0., 0.,
          0., 0., 3.98587494e-04, 1.07849925e-03, -6.79911696e-04,
          5.29786746e-04, 1.47847563e-03, -5.50368393e-04,
          -5.10007267e-05, 6.00213651e-04, 2.52684136e-03 ]
      - [ -1.27247600e-02, -7.36128306e-03, -1.13953813e-03,
          2.37593125e-03, -1.99790142e-04, 1.53640553e-03,
          6.86648302e-04, -7.81066134e-04, 1.14121998e-04,
          1.22605646e-02, 1.41394176e-02, 2.04600263e-02, 2.34565865e-02,
          1.50757311e-02, 2.35742722e-02, -1.38708134e-03,
          -4.77327500e-03, -5.72309736e-03, -8.27706698e-03,
          -1.57472361e-02, -2.21472867e-02, -4.02086647e-03,
          1.59498258e-03, 5.39367832e-03, 8.05908348e-03, 1.40214302e-02,
          1.52292391e-02, 4.53607738e-03, 2.07163626e-03,
          -2.28966940e-02, -1.73920728e-02, 2.70117121e-03,
          -1.58440825e-02, -8.51450488e-03, -1.56719927e-02,
          -4.59186872e-03, 2.02620402e-03, -1.48625541e-02,
          2.71472707e-03, -9.61222406e-03, 1.28820748e-03,
          2.43460899e-03, -1.45585891e-02, 5.66747505e-03,
          7.85601046e-03, 6.60676835e-03, 7.35200429e-03, 1.20814908e-02,
          -6.56386046e-03, -5.43755293e-03, -4.43971576e-03,
          -1.76980731e-03, -3.90063622e-04, -1.49186433e-03,
          7.47263315e-04, -1.17795216e-03, 1.07031643e-04,
          1.75541127e-03, 0., 2.68066331e-04, 1.19300897e-03,
          1.32985297e-03, 2.46392493e-03, 2.12923717e-03, 2.71693431e-03,
          2.27235211e-03, 5.29075414e-03, 2.96005374e-03, 3.54994903e-03,
          6.64540508e-04, -3.58183426e-03, -7.66344648e-03,
          -7.33036082e-03, -6.08538603e-03, -2.70885392e-03,
          -3.23160761e-03, -1.38610473e-03, -8.18253029e-04,
          -1.19670702e-03, -1.19670702e-03, -1.19670702e-03,
          -1.19670702e-03, -1.19670702e-03, -1.75541127e-03,
          -1.19670702e-03, -2.95211840e-03, -2.14563031e-03,
          -7.56799302e-04, -5.34969324e-04, 1.06722256e-03,
          2.43247510e-03, 1.12484675e-03, 3.09806092e-05, 3.77954240e-03,
          4.35453095e-03 ]
      - [ -7.07898429e-03, -1.45095615e-02, -7.98502285e-03,
          -7.83197209e-03, -4.33225976e-03, -6.01932593e-03,
          -3.28220311e-03, -7.83197209e-03, -7.83197209e-03,
          -1.27308827e-03, -7.13709183e-03, -7.95496162e-03,
          -4.46868548e-03, -1.91845675e-03, -2.78578815e-03,
          -8.56955443e-03, -5.42142661e-03, -1.11818220e-02,
          -4.13053716e-03, -9.73069109e-03, -1.20470757e-02,
          -1.59890093e-02, -7.33757578e-03, -5.20706456e-03,
          -1.07503738e-02, -1.27374223e-02, -3.84052587e-03,
          3.90764792e-04, -3.67252831e-03, 2.90325540e-03,
          2.31887531e-02, 3.01465858e-02, 3.06430012e-02, 4.00865451e-03,
          4.89740558e-02, 0., -1.25996117e-03, -1.36574230e-03,
          1.36425922e-04, 5.85724507e-03, -1.03978673e-03,
          2.58182036e-03, -1.50548359e-02, 1.71602378e-03,
          1.63012824e-03, 5.31051457e-02, 3.89984995e-02, 3.10373846e-02,
          -8.73012561e-03, -6.10442227e-03, -6.10442227e-03,
          -6.22741226e-03, -6.10442227e-03, -1.35270497e-02,
          -1.21595655e-02, -7.34656164e-03, -2.12654332e-03,
          -6.10442227e-03, -1.97277754e-03, -1.63012824e-03,
          -6.47784723e-03, -5.73087658e-04, 2.05261586e-03,
          8.28242628e-04, -1.63507147e-03, -2.94262660e-03,
          -4.13729670e-03, 3.20832361e-03, -3.89167387e-03,
          -3.72928474e-03, -4.14953521e-03, -1.40239636e-03,
          -1.27245132e-02, -2.12654332e-03, -4.64572273e-02,
          -1.75311835e-03, -4.18791454e-03, -5.32120047e-03,
          -9.19641089e-03, -4.28196453e-02, 1.15899229e-03,
          1.27059054e-02, 3.35910507e-02, 3.52800786e-02,
          -2.12654332e-03, -6.22741226e-03, -1.35818485e-03,
          -3.87365231e-03, -6.72382722e-03, -6.96499506e-03,
          -6.22741226e-03, -6.80562109e-03, -7.09195342e-03,
          -3.10375020e-02, -5.46701765e-03 ]
      - [ -1.34775434e-02, -2.38022748e-02, -7.95233808e-03,
          -6.60166750e-03, -3.80284153e-03, -4.76361904e-03,
          -3.17992852e-03, -7.61027448e-03, -7.14375637e-03,
          -2.85938382e-04, -6.54175598e-03, -7.25960685e-03,
          -4.67468565e-03, -2.21897755e-03, -3.01752915e-03,
          -7.45102810e-03, -5.52950380e-03, -1.07903723e-02,
          -4.05156845e-03, -2.40582647e-03, -5.93462540e-03,
          -1.08128553e-02, -5.42582339e-03, -3.01115960e-03,
          -8.11455119e-03, -7.77921220e-03, -3.24589736e-03,
          1.95710454e-03, -3.53626953e-03, 2.69830413e-03,
          2.08433792e-02, 2.71004364e-02, 2.76135039e-02, 4.47768066e-03,
          5.02542853e-02, -3.50667833e-04, -1.58237142e-03,
          -1.73606002e-03, -4.44034755e-04, 4.44865879e-03,
          -3.02915997e-03, -2.49184947e-03, -3.30531411e-02,
          9.98116215e-04, 6.94097660e-04, 5.09583615e-02, 3.81722786e-02,
          3.10725421e-02, -5.44708688e-03, -3.75180622e-03,
          -4.10247408e-03, -4.56899218e-03, -5.06768515e-03,
          -1.66882455e-04, -6.34278497e-03, -4.70595947e-03,
          -2.63889437e-03, -9.35726892e-03, -1.21576956e-03,
          -9.13595688e-03, -7.09927408e-03, -1.57791413e-02,
          -2.52304389e-03, -2.08554743e-03, 2.37221504e-03,
          1.69386296e-03, -2.55177752e-03, 2.78358022e-03,
          -4.10247408e-03, -3.43380845e-03, -4.35529184e-03,
          -1.77173736e-03, -1.44348750e-02, -1.74925383e-03,
          -4.41623628e-02, -1.89412618e-03, -4.99188993e-03,
          -5.32800099e-03, -8.81215092e-03, -4.10563797e-02,
          1.90147012e-03, 1.26858652e-02, 3.34008820e-02, 3.12106200e-02,
          -2.40719342e-03, -5.41835278e-03, -1.48276147e-03,
          -3.47649748e-03, -6.58935960e-03, -6.07629260e-03,
          -6.07629260e-03, -5.87608106e-03, -6.39103446e-03,
          -2.89256405e-02, -2.23954651e-03 ]
      - [ 1.41592696e-03, -3.91119579e-03, 9.17605881e-04,
          -1.86675712e-02, -1.95814874e-02, -2.23166533e-02,
          -2.43387427e-02, -1.27711298e-03, -2.68481229e-03,
          -1.46455960e-02, -1.51213701e-03, -7.54875946e-04,
          -7.70183455e-04, -1.79133322e-02, -4.32399393e-04,
          -1.10796094e-02, 6.27657690e-04, -1.78526919e-02,
          -2.68937729e-04, 3.72486655e-04, 1.43114780e-03,
          -2.27018003e-03, -1.78254442e-03, 7.74760905e-04,
          -1.67424337e-03, -2.94681377e-04, 1.63898210e-03,
          6.20183069e-04, -4.21953126e-04, 4.49793320e-03,
          1.21574253e-02, 1.58436969e-02, 1.30073363e-02, 5.34798391e-03,
          2.39942931e-02, 1.73136604e-03, 1.97030162e-03, 1.35198783e-03,
          1.62043504e-03, 2.60957982e-03, 4.84065968e-04, 8.37702770e-04,
          -1.50622521e-02, 9.54717165e-04, 1.47151097e-03,
          2.45042518e-02, 2.00892612e-02, 2.16354448e-02, 1.97281260e-02,
          -1.71189744e-03, -1.66440604e-03, -2.16330332e-03,
          -3.62495729e-03, -1.50032341e-03, -5.28325047e-03,
          -5.31066488e-03, -3.69987497e-03, -3.73741938e-03,
          -3.56749934e-03, -3.48614715e-03, -5.63206431e-03,
          -2.96483957e-03, -3.54982517e-03, -3.64708295e-03,
          -4.18465678e-03, -3.96041851e-03, -4.15012240e-03,
          -2.22046534e-03, -3.94258322e-03, -3.34722595e-03,
          -3.61900358e-03, -2.42098281e-03, -1.12570040e-02,
          -2.40350352e-03, -1.10568311e-02, -2.94915377e-03,
          -1.32324744e-03, -3.97062488e-03, -6.43129880e-03,
          -2.10267138e-02, -1.03951502e-03, 3.02460371e-03,
          1.03301611e-02, 1.51278796e-02, -1.16697268e-03,
          -4.04661288e-03, -8.49945412e-04, -2.96222814e-03,
          -1.69098971e-03, -4.23774123e-03, -1.17942761e-03,
          -4.19604592e-03, -4.88615409e-03, -1.65326037e-02,
          -9.12741409e-04 ]
      - [ 1.63459107e-02, -3.43769067e-03, 1.02872178e-02,
          1.03838369e-02, 6.63209567e-03, 7.97752663e-03, 5.18360641e-03,
          2.49613286e-03, -2.63699004e-03, 6.67739706e-03,
          -4.31133481e-03, -4.31133481e-03, -2.70409742e-03,
          5.08842757e-04, -1.69250334e-03, -5.39157121e-03,
          -9.98754986e-03, -1.70733873e-02, -1.28703974e-02,
          -7.27570429e-03, -1.51994200e-02, -2.05430333e-02,
          -3.63030657e-03, 1.08880848e-02, 1.32556818e-02,
          1.05733974e-02, 5.68470079e-03, 1.49155613e-02, 7.62860058e-03,
          1.06924418e-02, 1.45290904e-02, 1.44651374e-02, 1.60708409e-02,
          3.30748921e-03, 3.12985629e-02, 0., -1.70025183e-03,
          9.30143360e-05, 2.60271976e-04, -3.56862042e-03,
          -5.01649641e-03, -1.34613523e-02, -2.38569211e-02,
          -8.34146887e-03, -1.43988505e-02, 3.86570022e-02,
          2.72035114e-02, 1.72355436e-02, 2.42031328e-02, 1.46053117e-02,
          9.92698129e-03, 8.43132939e-03, 4.37844219e-03, 6.01158664e-03,
          4.09736997e-04, 2.22811243e-03, -3.09024146e-03,
          -7.15303817e-04, -2.47022579e-03, -2.56477483e-03,
          -7.38341780e-03, -6.37182361e-03, -5.25071379e-03,
          -3.15888342e-03, -1.17048947e-02, -1.99046470e-02,
          -1.59338731e-02, -9.43935011e-03, -1.59338731e-02,
          -2.23865192e-02, -4.40870458e-03, 9.80962906e-03,
          -2.64847255e-03, 9.85987391e-03, -3.23779732e-02,
          9.89921298e-03, 4.55203262e-04, -4.34896909e-03,
          -7.72893149e-03, -2.39203740e-02, 5.09922067e-03,
          1.35996612e-02, 2.50693578e-02, 1.51544735e-02,
          -4.17047739e-03, -5.77771524e-03, -2.47022579e-03,
          -4.26502666e-03, -1.58652309e-02, -1.42595274e-02,
          -1.19203627e-02, -2.11970657e-02, -1.39571149e-02,
          -3.64621654e-02, -1.66098420e-02 ]
      - [ -8.64643790e-03, -2.23329123e-02, -5.76230977e-03,
          -5.29180840e-03, -2.51635117e-03, -2.06981995e-03,
          -2.73729232e-03, -6.56620041e-03, -7.25729764e-03,
          3.34021373e-04, -6.74644951e-03, -8.21387302e-03,
          -4.82235849e-03, -1.48591201e-03, -3.03606759e-03,
          -8.60673003e-03, -5.89416362e-03, -1.18260439e-02,
          -4.59813932e-03, -3.21087614e-03, -6.23337785e-03,
          -1.23911006e-02, -7.23416731e-03, -4.68454231e-03,
          -1.04415538e-02, -1.05439844e-02, -5.73032396e-03,
          -1.22870563e-03, -6.71890052e-03, -9.64887347e-03,
          2.70425202e-03, 2.82524601e-02, 1.81556493e-02, 5.70757920e-03,
          4.63247299e-02, 9.71729308e-03, 2.53341235e-02,
          -9.03249602e-04, 1.22943511e-02, 7.91111588e-03,
          -2.96632340e-03, -2.08458118e-03, -3.69075052e-02,
          2.87897070e-03, 2.84999842e-03, 5.26154675e-02, 3.83973457e-02,
          2.70111412e-02, 3.22069065e-03, -1.48605567e-03,
          -2.78455182e-03, -2.03705020e-03, -3.25657846e-03,
          -7.40776086e-05, -5.10766963e-03, -4.30208398e-03,
          -1.38669659e-03, -4.13398398e-03, -5.02222101e-04,
          -1.32377306e-03, -5.86415594e-03, -6.07123878e-03,
          -2.56939628e-03, -1.62906735e-03, -4.75862017e-03,
          -8.32418632e-03, -6.07123878e-03, 1.87277514e-03,
          -6.07123878e-03, -5.69894910e-03, -5.75479027e-03,
          -2.56939628e-03, -1.37479324e-02, -2.85192509e-03,
          -5.49351238e-02, -1.91159605e-03, -4.72655660e-03,
          -5.75479027e-03, -1.08702099e-02, -4.30506617e-02,
          7.88520090e-04, 1.27908653e-02, 3.30726430e-02, 3.43300663e-02,
          -3.15721938e-03, -8.59631691e-03, -3.47656105e-03,
          -4.95945010e-03, -9.53664631e-03, -8.14705621e-03,
          -9.35087260e-03, -8.84658471e-03, -1.10945702e-02,
          -3.42504047e-02, -6.22520735e-03 ]
      - [ -5.67186298e-03, -5.71454410e-03, 3.56812007e-03,
          2.12173327e-03, 2.14246125e-03, 3.15054762e-03, 1.51334261e-03,
          9.90693807e-04, 1.55047735e-03, 2.01841583e-03, 1.70690066e-03,
          2.03724034e-04, 6.61770580e-04, 7.52316671e-04,
          -4.82366566e-04, 1.76650111e-03, 4.32951201e-04,
          1.49068073e-04, -2.74222140e-04, 6.98579662e-03,
          5.20505430e-03, 3.51947127e-03, 1.18207503e-02, 9.44952015e-03,
          1.02441488e-02, 2.42899675e-02, 3.04439222e-03, 2.29440667e-02,
          2.07916577e-03, 6.82556056e-05, 1.37905590e-03, 6.82556056e-05,
          -3.45214293e-03, 6.45184715e-04, -1.78667121e-02,
          -1.14040333e-03, -1.55014880e-02, -2.00445717e-03,
          -1.18309874e-02, -2.80214683e-03, -3.00261169e-03,
          -2.53468361e-02, -2.69199554e-02, -1.29046675e-03,
          -6.24465756e-04, -1.76944665e-03, 1.67389750e-03,
          7.01670302e-03, 3.20649752e-03, 1.12197059e-03, 8.59860238e-03,
          1.19938077e-02, 1.83191840e-02, 9.47696529e-03, 8.71794298e-03,
          -5.66742150e-04, -3.49127525e-03, -6.00185292e-03,
          -9.08090224e-05, -4.76510450e-03, -1.26330799e-03,
          -5.34036430e-03, -8.78610555e-03, -8.59722961e-03,
          -1.45273469e-02, 5.70348371e-03, -1.93506246e-03,
          -3.38400505e-03, -2.28559412e-03, -9.41204024e-04,
          -8.14146595e-04, -2.29506474e-03, -1.04974560e-03,
          5.95820660e-04, -6.39303704e-04, 3.91058013e-04,
          -6.82556056e-05, 0., 0., 0., 0., 0., 0., 0., 0.,
          8.76263366e-04, 6.55045616e-04, 3.60406877e-04, 1.52733084e-03,
          2.36414443e-03, 1.66707672e-03, 1.24488305e-03, 2.21887324e-03,
          3.32001690e-03, 3.59999505e-03 ]
      - [ 4.41129971e-03, 6.82656514e-03, 6.97626639e-03,
          -3.38447690e-02, -3.46915647e-02, -4.01572958e-02,
          -4.56545614e-02, 5.45628881e-03, 2.06040824e-03,
          -2.63960157e-02, 4.57896385e-03, 5.45698544e-03,
          3.52930347e-03, -3.45025882e-02, 5.70944464e-03,
          -6.83265179e-03, 5.66247851e-03, -1.47612710e-02,
          3.78966192e-03, 5.34315733e-03, 7.07523618e-03, 5.63204475e-03,
          2.47529428e-03, 4.37480723e-03, 4.35637822e-03, 8.05536937e-03,
          6.69046678e-03, 9.06965788e-03, 2.68078735e-03, 5.80030447e-03,
          3.94917652e-03, 5.05587691e-03, 3.74587165e-04, 5.43109141e-03,
          -8.30284727e-04, 3.06682894e-03, 9.45078500e-04,
          3.10371607e-03, 3.76626197e-03, 2.30358285e-03, 3.66384932e-03,
          3.09848622e-03, 1.12086465e-03, 3.97335133e-03, 1.48596358e-03,
          -1.29196371e-04, 5.11091901e-03, 5.11726551e-02,
          4.67455909e-02, -1.49701518e-04, 0., -9.71700298e-04,
          -2.19810801e-03, -2.04511918e-03, -5.87664370e-04,
          -6.97832415e-03, -7.10175326e-03, -3.70600214e-03,
          -8.40850826e-03, -5.20533090e-03, -1.24290781e-02,
          -3.77716497e-03, -6.67538773e-03, -5.73330745e-03,
          -9.32992715e-03, -4.37255669e-03, -5.54289808e-03,
          -5.76803274e-03, -4.73894458e-03, -6.99926587e-03,
          -3.67255346e-03, -4.73894458e-03, -5.20450762e-03,
          -4.38324315e-03, -2.93174526e-03, -3.64211970e-03,
          -2.93935812e-03, -4.73039132e-03, -6.58147782e-03,
          -3.50277382e-03, -2.69625522e-03, -2.73764948e-03,
          -3.67972977e-03, -2.25828867e-03, -1.85869960e-03,
          -5.03627583e-03, -3.25616030e-03, -2.12944741e-03,
          -1.71813031e-03, -4.85228607e-03, 9.15808138e-04,
          -3.19120148e-03, -3.18828737e-03, -1.67605176e-03,
          -4.52244934e-03 ]
      - [ 3.17530930e-02, 2.57500969e-02, 2.13277154e-02, 1.86404418e-02,
          1.47999860e-02, 1.48673933e-02, 9.28651728e-03, 9.10887960e-03,
          2.53375107e-03, 4.06008773e-03, -1.33516034e-04,
          -2.45044183e-04, -2.45044183e-04, -2.45044183e-04,
          -2.84620235e-03, -3.11153039e-04, -9.77660529e-03,
          -2.02727579e-02, -1.21327192e-02, -9.43723321e-03,
          -1.79558322e-02, -1.72562934e-02, 7.87203573e-03,
          2.14733947e-02, 2.48229336e-02, 1.93501618e-02, 1.26447957e-02,
          2.16229893e-02, 1.21327192e-02, 1.21327192e-02, 4.30513173e-03,
          0., 0., 1.11528156e-04, -3.78560246e-04, -1.33516034e-04,
          -4.53954516e-03, -6.45592285e-04, 0., -1.22001264e-02,
          -8.80776439e-03, -1.66828949e-02, -2.03307066e-02,
          -1.99383181e-02, -2.38207690e-02, -1.87045708e-02,
          -3.43851559e-02, -5.16462363e-02, 4.28364910e-02,
          2.96708029e-02, 1.92166455e-02, 2.17316877e-02, 1.51124373e-02,
          1.77233163e-02, 1.47181423e-02, 1.25112794e-02, 1.77636990e-04,
          6.90629007e-03, 4.90088365e-04, 0., -2.55879271e-03,
          -5.22909174e-03, -1.98234152e-03, -4.02600411e-03,
          -1.07787699e-02, -1.81616880e-02, -1.52459536e-02,
          -1.27563234e-02, -1.52239660e-02, -2.48216353e-02,
          9.67065431e-03, 2.31858958e-02, 2.09050346e-02, 1.63704436e-02,
          1.23103559e-02, 1.87939648e-02, 9.35392361e-03, 4.06008773e-03,
          0., 0., 0., 0., 0., 0., 0., 3.78560246e-04, 3.78560246e-04,
          3.78560246e-04, -1.15765221e-02, -1.15091149e-02,
          -6.46032253e-03, -2.62009967e-02, -1.39767574e-02,
          -2.31297575e-02, -3.60061377e-02 ]
      - [ -1.02036586e-02, -3.84134427e-03, 8.78141262e-04,
          -4.83419630e-04, 4.81101364e-04, 1.26561325e-03,
          -6.56090488e-05, -1.13537542e-04, 2.50093086e-04,
          -1.84220116e-04, 2.10180369e-04, -5.52499841e-04,
          -5.62175235e-04, -3.77955119e-04, -1.07634789e-03,
          3.93758790e-04, -5.62175235e-04, -3.77955119e-04,
          -5.36250416e-04, 3.84180411e-03, 3.16121383e-03,
          2.28205509e-03, 9.23295226e-03, 1.05750421e-02, 7.61330081e-03,
          2.06134450e-02, 2.06770236e-03, 1.80604234e-02, 7.42738659e-04,
          -2.20655883e-03, -7.01003661e-03, -1.55837426e-03,
          -6.24692114e-03, 7.71713909e-04, -8.86699092e-03,
          9.96240633e-05, -6.42842334e-03, -8.40501219e-04,
          -6.02918956e-03, -7.00883393e-04, -2.53706402e-03,
          -1.92171149e-02, -2.09367126e-02, 1.37419312e-03,
          1.58007490e-04, 9.84979561e-04, 1.73879997e-03,
          -7.53178168e-03, 2.97511066e-03, 1.58124545e-03,
          1.40202511e-02, 1.43288989e-02, 1.64848939e-02, 1.72440242e-02,
          1.48778073e-02, 1.38388539e-03, 3.15702142e-04, 1.19022338e-03,
          1.46700686e-03, 3.63630621e-04, 3.45581357e-04,
          -3.30445147e-03, -8.38158838e-03, -7.99213536e-03,
          -1.26570798e-02, -1.13917915e-02, -1.45899905e-02,
          -6.51194155e-03, -4.24734736e-03, -3.38290958e-03,
          -2.56436644e-03, -3.12863546e-03, -2.05970858e-03,
          -1.05113978e-03, -5.01130475e-04, -1.37499883e-04, 0., 0.,
          -3.15702142e-04, 0., 0., -3.15702142e-04, -3.12346063e-04,
          -6.28048205e-04, 0., 1.18490039e-04, 6.08736882e-04,
          8.20975751e-04, 1.53735338e-03, 2.63728877e-03, 1.72613782e-03,
          2.10568937e-03, 2.57693231e-03, 5.37911803e-03, 5.43712545e-03 ]
      - [ 6.82040630e-03, 5.43797854e-03, 4.74525476e-03,
          -3.47406268e-02, -3.55695486e-02, -4.09148559e-02,
          -4.58888933e-02, 4.14349232e-03, 8.34463688e-04,
          -2.68403348e-02, 3.43263242e-03, 4.34167869e-03,
          2.82504410e-03, -3.50203887e-02, 4.86769574e-03,
          -8.71790294e-03, 4.57476126e-03, -1.70655269e-02,
          3.22123175e-03, 4.73242113e-03, 7.22644990e-03, 5.62700210e-03,
          1.95649243e-03, 4.39758226e-03, 3.75003554e-03, 6.77332422e-03,
          6.36509759e-03, 1.29334896e-03, 2.59673386e-03, 5.78094088e-03,
          3.95337772e-03, 5.03880437e-03, 1.33806968e-03, 5.75769367e-03,
          1.60669803e-03, 3.36296856e-03, 6.55209878e-03, 3.59608023e-03,
          3.74967558e-03, 2.77370168e-03, 3.71647696e-03, 4.18599602e-03,
          1.44715444e-03, 4.75785416e-03, 2.35309754e-03, 5.28339297e-04,
          5.64302737e-03, 4.97072265e-02, 4.58177216e-02,
          -4.76416171e-05, 1.02841994e-03, 1.56766886e-03,
          -1.99590670e-03, -3.27645754e-03, -7.23096891e-04,
          -5.82706742e-03, -5.17312530e-03, -2.58790166e-03,
          -7.24863773e-03, -3.69725446e-03, -8.58703442e-03,
          -2.38992390e-03, -5.75292110e-03, -4.19459958e-03,
          -6.80411654e-03, -6.49669860e-03, -1.55393230e-02,
          -7.20590772e-03, -6.40128227e-03, -7.54998112e-03,
          -4.89940913e-03, -5.08729694e-03, -5.79565996e-03,
          -4.97378083e-03, -2.85446760e-03, -4.23050625e-03,
          -2.80773849e-03, -4.66838619e-03, -6.51212456e-03,
          -3.42205656e-03, -2.76672118e-03, -2.59908126e-03,
          -3.63128236e-03, -2.16651638e-03, -1.82082970e-03,
          -5.05474955e-03, -2.78671808e-03, -1.65212085e-03,
          -1.67257281e-03, -4.57882416e-03, 1.50219048e-03,
          -2.73419940e-03, -2.45916727e-03, -4.33276640e-04,
          -2.09363643e-03 ]
      - [ 3.58225256e-02, 2.68273745e-02, 2.12798417e-02, 1.69681702e-02,
          1.32309245e-02, 1.44782104e-02, 8.86658765e-03, 8.58373009e-03,
          1.70047779e-03, 3.78778740e-03, -8.31220008e-04,
          -4.82146395e-04, -8.31220008e-04, -4.16065624e-04,
          -3.84506420e-03, -6.60807782e-05, -9.76388808e-03,
          -2.12184042e-02, -1.27777327e-02, -1.27777327e-02,
          -2.12184042e-02, -2.01286376e-02, 8.20722152e-03,
          2.12184042e-02, 2.55554654e-02, 2.01286376e-02, 1.27777327e-02,
          1.71147939e-02, 1.27777327e-02, 1.27777327e-02, 4.33706073e-03,
          0., 0., 0., 6.71270100e-05, 8.30173725e-04, 6.71270100e-05,
          1.18015858e-03, 8.97300779e-04, -1.22955861e-02,
          -7.12625915e-03, -1.58685539e-02, -1.14643658e-02,
          -1.90738179e-02, -2.29958594e-02, -1.82659980e-02,
          -3.21870744e-02, -5.11853583e-02, 3.88363712e-02,
          2.75253858e-02, 1.82659980e-02, 2.00480968e-02, 1.49614029e-02,
          1.13972388e-02, 8.51764902e-03, 1.15304468e-02, 1.34254020e-04,
          9.63322353e-03, -2.82857829e-04, 1.50444433e-02,
          4.08583414e-03, 2.37695388e-02, 8.31220008e-04,
          -1.94078237e-02, -2.15053353e-02, -2.54806578e-02,
          -2.02799030e-02, -1.47064533e-02, -1.84183102e-02,
          -2.69349124e-02, 9.90769919e-03, 2.23180205e-02,
          2.25932077e-02, 1.65655203e-02, 1.27777327e-02, 2.01286376e-02,
          9.76388808e-03, 4.33706073e-03, 0., 0., 0., 0., 0., 0., 0., 0.,
          4.82146395e-04, 8.31220008e-04, -1.14643658e-02,
          -1.14643658e-02, -6.80163177e-03, -2.58909892e-02,
          -1.32309245e-02, -2.37599518e-02, -3.52009200e-02 ]
      - [ -2.29133070e-02, -1.26525601e-02, -1.39079066e-02,
          -8.34943261e-03, -9.50281229e-03, -7.13675143e-03,
          -5.33127040e-03, -5.53766033e-03, -5.97641896e-03,
          -5.27799316e-03, -6.65387046e-03, -3.72995413e-03,
          -4.00037598e-03, -2.15436541e-03, -3.88573180e-03,
          -2.60595744e-03, -3.27836210e-03, -5.15184307e-04,
          -2.68486957e-03, -1.63918105e-03, 0., 0., -1.75391126e-03,
          -8.33552695e-05, -1.75391126e-03, -1.14730181e-04,
          -1.98085458e-04, -2.29460362e-04, -1.98085458e-04,
          -3.64795997e-04, -2.39669741e-03, -1.88249454e-04,
          -5.44142909e-04, 6.45148160e-04, 5.02436771e-04,
          4.89545194e-03, 3.74424062e-03, 1.89013290e-03, 2.13626376e-03,
          2.85056536e-03, 1.95773435e-03, 6.23386027e-03, 4.33723768e-03,
          8.09300598e-03, 7.68822944e-03, 8.73584207e-03, 9.97522380e-03,
          -2.55753715e-02, -1.12204440e-02, -4.29353584e-03,
          1.08864659e-03, 5.10137435e-03, 3.68962833e-03, 1.45183494e-02,
          1.46815246e-02, 3.94032383e-03, 7.77447131e-03, 1.98097359e-02,
          4.74757515e-03, 2.32506990e-02, 8.01983196e-03, 2.71184426e-02,
          3.24058370e-03, -1.18615227e-02, -2.44175717e-02,
          -2.97805853e-02, -3.99554819e-02, -9.73440427e-03,
          -1.00279329e-02, -6.33446919e-03, -6.09114906e-03,
          -4.05142782e-03, -3.07701924e-03, -3.07701924e-03,
          -6.45148160e-04, -1.63918105e-03, 0., 0., 0., 0., 0., 0.,
          -3.13749078e-05, -1.14730181e-04, 0., 5.30418009e-04,
          1.57550257e-03, 4.36954107e-03, 2.69805663e-03, 3.96807212e-03,
          3.97660257e-03, 5.89940744e-03, 7.11453147e-03, 1.03045013e-02,
          1.58084910e-02 ]
      - [ 7.89613463e-03, 3.35347676e-03, 4.69148625e-03, 2.00966913e-02,
          2.08909512e-02, 2.46127937e-02, 4.12846357e-02,
          -6.20405306e-04, 7.90727965e-04, 1.38679976e-02,
          -2.53627822e-03, -3.51576949e-03, -1.79791264e-03,
          2.09246092e-02, -4.78163315e-03, 3.33230197e-03,
          -6.32380182e-03, 8.57949909e-03, -6.89005433e-03,
          -7.98389222e-03, -1.66932810e-02, -1.24849528e-02,
          -5.30755904e-04, 9.53684375e-03, 9.62984376e-03,
          2.23848852e-03, 3.72883602e-04, 7.15378858e-03, 3.60934017e-03,
          9.99202020e-04, 1.51428001e-04, -3.46310553e-03,
          -4.19691787e-04, -3.16190394e-03, -1.11738441e-03,
          -2.36878684e-03, -3.63591756e-03, -1.82608690e-03,
          -1.96788972e-03, -3.36446334e-03, -7.11452961e-03,
          -6.22923672e-03, -5.40725281e-03, -1.11208875e-02,
          -7.03276368e-03, -1.14562009e-02, -1.44923618e-02,
          -3.87375653e-02, -2.27011088e-02, 9.49133653e-03,
          9.18144267e-03, 5.38486009e-03, 8.25534482e-03, 1.02118431e-02,
          3.49406921e-03, 8.83420184e-03, 4.66888724e-03, 3.65738245e-03,
          5.77273499e-03, 2.95021595e-03, 5.34872292e-03, 4.26971732e-04,
          4.11322108e-03, -1.38638436e-03, 1.27644395e-03,
          -2.07602861e-03, -6.61012344e-03, -1.54133141e-03,
          -9.29824915e-03, -5.22304652e-03, 4.69298940e-03,
          1.34573141e-02, 1.36130452e-02, 7.34649925e-03, 9.28287394e-03,
          1.14861708e-02, 4.61652502e-03, 5.82626183e-03, 3.90096218e-03,
          1.89765729e-03, 1.60086190e-03, 1.52600138e-03, 2.51235906e-03,
          7.98018009e-04, 7.86943245e-04, 3.25759128e-03, 1.57211698e-03,
          1.70796947e-03, -6.15233846e-04, -1.77133537e-03,
          -5.10383258e-03, -5.65661397e-03, -3.65063781e-03,
          -7.62841990e-03, -1.12626720e-02 ]
      - [ -9.77903232e-03, -6.56163599e-03, -6.56163599e-03,
          3.38830166e-02, 3.48323882e-02, 4.02993970e-02, 4.51381840e-02,
          -5.44128567e-03, -2.05316348e-03, 2.62920670e-02,
          -4.78984276e-03, -5.37269237e-03, -3.58347432e-03,
          3.45168039e-02, -5.72582940e-03, 5.93107240e-03,
          -5.60791418e-03, 1.37133365e-02, -3.81148770e-03,
          -5.33045596e-03, -7.15574343e-03, -5.61218057e-03,
          -2.45451112e-03, -4.34426311e-03, -4.34412621e-03,
          -6.75652875e-03, -6.30340120e-03, -1.38911419e-03,
          -2.68973317e-03, -5.75357862e-03, -3.90148931e-03,
          -5.01199206e-03, -1.43851037e-03, -5.65229263e-03,
          -1.73867273e-03, -3.16550699e-03, -6.03259262e-03,
          -3.51207075e-03, -3.73147335e-03, -2.29590619e-03,
          -3.55688389e-03, -2.99436296e-03, -8.95874400e-04,
          -3.58053111e-03, -9.98006668e-04, 6.07576512e-04,
          -4.43074061e-03, -5.10567613e-02, -4.66069765e-02, 0., 0.,
          9.95873590e-04, 3.45346471e-03, 4.34720609e-03, 5.16433083e-03,
          7.05947541e-03, 7.05147814e-03, 3.66087980e-03, 8.40351079e-03,
          5.18692471e-03, 9.20890737e-03, 3.03822942e-03, 6.30867900e-03,
          5.39955264e-03, 6.84758415e-03, 4.01043845e-03, 5.04258322e-03,
          5.39741945e-03, 4.55675414e-03, 6.69664191e-03, 3.59699619e-03,
          4.55462094e-03, 5.19319111e-03, 4.34720609e-03, 2.94196140e-03,
          3.59912915e-03, 2.94903782e-03, 4.70522884e-03, 6.54603401e-03,
          3.52405850e-03, 2.65792967e-03, 2.74375593e-03, 3.65288253e-03,
          2.28344183e-03, 1.85214775e-03, 5.18552819e-03, 3.42992344e-03,
          2.35051545e-03, 1.94608769e-03, 5.13885124e-03,
          -6.09709590e-04, 3.55874747e-03, 3.64793907e-03,
          2.34838226e-03, 5.13885124e-03 ]
      - [ -3.58483940e-02, -2.60613002e-02, -2.04879232e-02,
          -1.68862883e-02, -1.44681642e-02, -1.29197845e-02,
          -9.01316479e-03, -8.37421417e-03, -1.96371856e-03,
          -5.61826164e-03, 1.54140266e-03, 2.30611680e-04,
          9.47555585e-04, 0., 3.49128083e-03, 0., 1.03101153e-02,
          2.30126511e-02, 1.41932303e-02, 1.30150635e-02, 2.15093754e-02,
          2.25025993e-02, -4.07284265e-03, -2.39463672e-02,
          -3.06309666e-02, -2.59252731e-02, -1.79938972e-02,
          -2.52342187e-02, -1.87802296e-02, -4.29998226e-02,
          -2.77291443e-02, -8.81638320e-04, -1.02262814e-02,
          2.05899752e-03, 2.32773530e-03, 8.48398730e-03, 2.19888408e-02,
          2.28960905e-03, 9.00594704e-03, 1.89336725e-02, 1.01371892e-02,
          2.29273010e-02, 1.79618299e-02, 2.67812517e-02, 3.56930494e-02,
          2.94554792e-02, 3.43959928e-02, 2.09198259e-02,
          -3.19966115e-02, -2.61375532e-02, -2.00031959e-02,
          -2.02848129e-02, -1.33281229e-02, -1.23119596e-02,
          -8.02748278e-03, -1.28130512e-02, 1.88127067e-03,
          -6.78180717e-03, 5.93847013e-04, 5.55720937e-04,
          8.24458722e-04, 2.93555972e-03, 0., 2.93555972e-03,
          1.12576708e-02, 1.91295370e-02, 1.71287898e-02, 1.41932303e-02,
          1.71287898e-02, 2.83864606e-02, -6.03656145e-03,
          -2.40658429e-02, -2.69414354e-02, -2.14621518e-02,
          -1.41932303e-02, -2.43977103e-02, -1.18133919e-02,
          -6.32136501e-03, -1.73388817e-03, -1.50327652e-03,
          -1.50327652e-03, -1.73388817e-03, -2.09712354e-03,
          -2.47511757e-03, -1.50327652e-03, -3.97839397e-03,
          -3.42267333e-03, -3.27529083e-03, 1.02148363e-02,
          1.02529628e-02, 4.68468340e-03, 2.54750978e-02, 8.95614922e-03,
          2.25267969e-02, 3.07627264e-02 ]
   uncompressed_sv_total: 85
   uncompressed_support_vectors:
      - [ -6., -3., -2., -1., -2., -1., -1., -1., -1., 0., -1., 0., -1.,
          0., 0., 0., 0., 0., 0., 0., 0., 0., 0., 0., 0., 0., 0., 0., 0.,
          0., 0., 0., 0., 0., 0., 1., 0., 1., 0., 1., 1., 1., 1., 2., 1.,
          2., 3., 6., -6., -3., -2., -1., -2., -1., -1., -1., -1., 0.,
          -1., 0., 0., 0., 0., 0., 0., 0., 0., 0., 0., 0., 0., 0., 0.,
          0., 0., 0., 0., 0., 0., 0., 0., 0., 0., 0., 0., 1., 0., 1., 1.,
          1., 1., 2., 1., 2., 3. ]
      - [ -5., -2., -2., -2., -1., -1., -1., -1., -1., 0., -1., -1., 0.,
          -1., 0., 0., 0., -1., 0., 0., 0., 0., 0., 0., 0., 0., 0., 0.,
          0., 0., 1., 0., 0., 0., 1., 0., 1., 1., 0., 1., 1., 1., 1., 1.,
          2., 2., 3., 4., -5., -3., -2., -1., -2., -1., -1., 0., -1.,
          -1., 0., -1., 0., -1., 0., 0., 0., 0., 0., 0., 0., 0., 0., 0.,
          0., 0., 0., 0., 0., 0., 0., 0., 0., 0., 1., 0., 1., 0., 1., 1.,
          0., 1., 2., 1., 2., 2., 3. ]
      - [ -5., -3., -2., -1., -1., -1., -1., -1., -1., -1., 0., -1., 0.,
          0., -1., 0., 0., 0., -1., 0., 0., 0., 0., 0., 0., 0., 0., 0.,
          0., 1., 0., 0., 0., 1., 0., 0., 1., 0., 1., 1., 1., 1., 1., 1.,
          1., 2., 3., 5., -5., -3., -2., -1., -1., -2., 0., -1., -1.,
          -1., 0., -1., 0., 0., -1., 0., 0., 0., 0., 0., 0., 0., 0., 0.,
          0., 0., 0., 0., 0., 0., 0., 0., 0., 1., 0., 0., 1., 0., 1., 1.,
          1., 1., 1., 1., 1., 2., 3. ]
      - [ -6., -3., -2., -1., -2., -1., -2., 0., -1., -1., 0., -1., 0.,
          -1., 0., 0., 0., 0., -1., 0., 0., 0., 0., 0., 0., 0., 0., 0.,
          0., 1., 0., 0., 0., 0., 1., 0., 1., 1., 0., 1., 1., 1., 1., 2.,
          1., 3., 3., 3., -5., -3., -2., -1., -2., -1., -1., 0., -1.,
          -1., 0., -1., 0., -1., 0., 0., 0., 0., 0., 0., 0., 0., 0., 0.,
          0., 0., 0., 0., 0., 0., 0., 0., 0., 0., 1., 0., 1., 0., 1., 1.,
          0., 1., 1., 2., 1., 2., 4. ]
      - [ -6., -3., -2., -1., -2., -1., -1., 0., -1., -1., -1., 0., -1.,
          0., -1., 0., 0., 0., 0., 0., 0., 0., 0., 0., 0., 0., 0., 0.,
          0., 0., 0., 0., 0., 0., 1., 0., 1., 0., 1., 1., 1., 0., 1., 2.,
          2., 1., 4., 5., -6., -3., -2., -2., -1., -1., 0., -1., -1.,
          -1., 0., -1., 0., 0., 0., 0., 0., 0., 0., 0., 0., 0., 0., 0.,
          0., 0., 0., 0., 0., 0., 0., 0., 0., 0., 0., 1., 0., 1., 1., 1.,
          0., 1., 1., 2., 1., 3., 2. ]
      - [ -5., -3., -2., -2., -1., -2., -1., 0., -1., -1., 0., -1., 0.,
          -1., 0., 0., 0., 0., 0., 0., 0., 0., 0., 0., 0., 0., 0., 0.,
          0., 0., 0., 0., 0., 0., 1., 0., 1., 0., 1., 1., 0., 1., 2., 1.,
          2., 2., 3., 5., -5., -3., -2., -2., -1., -1., -1., -1., -1.,
          -1., 0., -1., 0., 0., 0., 0., 0., 0., 0., 0., 0., 0., 0., 0.,
          0., 0., 0., 0., 0., 0., 0., 0., 0., 0., 0., 0., 1., 0., 1., 1.,
          1., 1., 1., 1., 2., 2., 3. ]
      - [ -6., -3., -2., -2., -1., -1., 0., -1., -1., -1., 0., -1., 0.,
          0., -1., 0., 0., 0., 0., 0., 0., 0., 0., 0., 0., 0., 0., 0.,
          0., 0., 0., 0., 0., 0., 1., 0., 1., 0., 1., 1., 1., 0., 1., 1.,
          2., 2., 3., 6., -6., -3., -2., -1., -2., -1., 0., -1., -1.,
          -1., 0., -1., 0., 0., 0., 0., 0., 0., 0., 0., 0., 0., 0., 0.,
          0., 0., 0., 0., 0., 0., 0., 0., 0., 0., 0., 0., 1., 0., 1., 1.,
          1., 0., 1., 1., 2., 2., 3. ]
      - [ -3., 0., -2., -2., -4., -6., -4., -18., 0., 0., 0., 26., 2.,
          0., 0., 0., 0., 0., 0., 0., 0., 0., 0., 0., 0., 0., 0., 0., 0.,
          0., 0., 0., 0., 0., 0., 0., 0., 0., 0., 0., 0., 0., 0., 0., 0.,
          0., 0., -27., 0., 0., 0., 0., 0., 0., 0., 0., 0., 0., 0., 0.,
          0., 0., 0., 0., 0., 0., 0., 0., 0., 0., 0., 0., 0., 0., 0., 0.,
          0., 0., 0., 0., 0., 0., 0., 0., 0., 0., 0., 0., 0., 0., 0., 0.,
          0., 0., 0. ]
      - [ -1., 0., 0., 0., 0., 14., 3., 1., 1., 0., 0., 0., 0., 0., 0.,
          0., 0., 0., 0., 0., 0., 0., 0., 0., 0., 0., 0., 0., 0., 0., 0.,
          0., 0., 0., 0., 0., 0., 0., 0., 0., 0., -17., -2., 0., 0., 0.,
          0., 19., 0., 0., 0., 0., 0., 0., 0., 0., 0., 0., 0., 0., 0.,
          0., 0., 0., 0., 0., 0., 0., 0., 0., 0., 0., 0., 0., 0., 0., 0.,
          0., 0., 0., 0., 0., 0., 0., 0., 0., 0., 0., -17., -1., 0., 0.,
          0., 0., 0. ]
      - [ -2., -4., -2., -2., -4., -2., -6., -4., -2., -6., -1., 0., 0.,
          0., 0., 0., 29., 0., 0., 0., 0., 0., 0., 0., 0., 0., 0., 0.,
          0., 0., 0., 0., 0., 0., 0., 0., 0., 0., 0., 0., 0., 0., 0., 0.,
          0., 0., 0., -28., 0., 0., 0., 0., 0., 0., 0., 0., 0., 0., 0.,
          0., 0., 0., 0., 0., 0., 0., 0., 0., 0., 0., 0., 0., 0., 0., 0.,
          0., 0., 0., 0., 0., 0., 0., 0., 0., 0., 0., 0., 0., 0., 0., 0.,
          0., 0., 0., 0. ]
      - [ -5., -3., -19., 0., 0., 0., 19., 0., 0., 0., 0., 0., 0., 0.,
          0., 0., 0., 0., 0., 0., 0., 0., 0., 0., -1., 0., 0., 0., 0.,
          0., 0., 0., 0., 0., 0., 0., 0., 0., 0., 0., 0., 0., 0., -2.,
          -14., -1., 0., 13., 0., 0., 0., 0., 0., 0., 0., 0., 0., 0., 0.,
          0., 0., 0., 0., 0., 0., 0., 0., 0., 0., 0., 0., 1., 0., 0., 0.,
          0., 0., 0., 0., 0., 0., 0., 0., 0., 0., 0., 0., 0., 0., 0., 0.,
          -1., -1., -12., 0. ]
      - [ 0., -2., 0., -1., -2., -2., -5., -3., -13., -9., 0., 0., 0.,
          35., 0., 0., 0., 0., 0., 0., 0., 0., 0., 0., 0., 0., 0., 0.,
          0., 0., 0., 0., 0., 0., 0., 0., 0., 0., 0., 0., 0., 0., 0., 0.,
          0., 0., 0., -34., 0., 0., 0., 0., 0., 0., 0., 0., 0., 0., 0.,
          0., 0., 0., 0., 0., 0., 0., 0., 0., 0., 0., 0., 0., 0., 0., 0.,
          0., 0., 0., 0., 0., 0., 0., 0., 0., 0., 0., 0., 0., 0., 0., 0.,
          0., 0., 0., 0. ]
      - [ -7., -6., -7., -7., -2., 0., 16., 3., 1., 0., 0., 0., 0., 0.,
          0., 0., 0., 0., 0., 0., 0., 0., 0., 0., -1., 0., 0., 0., 0.,
          0., 0., 0., 0., 0., 0., 0., 0., 0., 0., 0., 0., 0., -1., 0.,
          -7., -10., 0., 17., 0., 0., 0., 0., 0., 0., 0., 0., 0., 0., 0.,
          0., 0., 0., 0., 0., 0., 0., 0., 0., 0., 0., 0., 0., 1., 0., 0.,
          0., 0., 0., 0., 0., 0., 0., 0., 0., 0., 0., 0., 0., 0., 0., 0.,
          -1., -3., -14., 0. ]
      - [ -2., -3., -3., -18., 0., 0., 17., 1., 0., 0., 0., 0., 0., 0.,
          0., 0., 0., 0., 0., 0., 0., 0., 0., 0., 0., 0., 0., 0., 0., 0.,
          0., 0., 0., 0., 0., 0., 0., 0., 0., 0., 0., 0., 0., -1., -1.,
          -16., 0., 18., 0., 0., 0., 0., 0., 0., 0., 0., 0., 0., 0., 0.,
          0., 0., 0., 0., 0., 0., 0., 0., 0., 0., 0., 0., 0., 0., 0., 0.,
          0., 0., 0., 0., 0., 0., 0., 0., 0., 0., 0., 0., 0., 0., 0.,
          -1., -1., -15., 0. ]
      - [ -1., -3., -3., -5., -14., 0., 0., 16., 2., 0., 0., 0., 0., 0.,
          0., 0., 0., 0., 0., 0., 0., 0., 0., 0., 0., 0., 0., 0., 0., 0.,
          0., 0., 0., 0., 0., 0., 0., 0., 0., 0., 0., 0., 0., -2., -1.,
          -15., 0., 19., 0., 0., 0., 0., 0., 0., 0., 0., 0., 0., 0., 0.,
          0., 0., 0., 0., 0., 0., 0., 0., 0., 0., 0., 0., 0., 0., 0., 0.,
          0., 0., 0., 0., 0., 0., 0., 0., 0., 0., 0., 0., 0., 0., 0.,
          -2., -2., -14., 0. ]
      - [ -8., -3., -9., -2., 0., 0., 1., 18., 0., 0., 0., 0., 0., 0.,
          0., 0., 0., 0., 0., 0., 0., 0., 0., 0., -1., 0., 0., 0., 0.,
          0., 0., 0., 0., 0., 0., 0., 0., 0., 0., 0., 0., 0., 0., -4.,
          -13., 0., 0., 13., 0., 0., 0., 0., 0., 0., 0., 0., 0., 0., 0.,
          0., 0., 0., 0., 0., 0., 0., 0., 0., 0., 0., 0., 1., 0., 0., 0.,
          0., 0., 0., 0., 0., 0., 0., 0., 0., 0., 0., 0., 0., 0., 0., 0.,
          0., -14., 0., 0. ]
      - [ -6., -4., -1., -3., -1., -1., -1., 0., -1., 0., 0., 0., 0., 0.,
          1., 2., 34., -2., 0., -1., -1., -2., 0., -2., -1., -1., -2.,
          -3., -1., -2., -2., -1., -2., -1., -1., -3., -2., -1., -1.,
          -2., -1., -1., -1., -1., 0., 0., 0., 18., -7., -3., -1., -2.,
          -1., -1., -1., 0., -1., 0., 0., 0., 0., 0., 1., 0., 0., 1., 1.,
          0., 2., 1., 1., 1., 2., 3., 2., 2., 2., 1., 2., 3., 1., 1., 2.,
          -29., 0., 0., 0., 0., 0., 0., 1., 0., 0., 0., 1. ]
      - [ -5., -2., -1., -2., -2., -1., 0., -1., -1., 0., 0., -1., 0.,
          0., 0., 0., 0., 31., 0., -1., -2., -2., -1., -1., -3., -1.,
          -2., -2., -1., -2., -1., -1., -2., -2., -1., -2., -1., -1.,
          -1., -1., -1., -1., 0., 0., 0., 0., 0., 16., -4., -3., -1.,
          -2., -1., -2., 0., -1., 0., 0., 0., 0., 0., 0., 0., 0., 0., 1.,
          0., 1., 1., 1., 0., 2., 2., 0., 2., 2., 2., 0., 2., 2., 1., 2.,
          3., 0., 2., 2., 1., 2., 1., 1., -34., 0., 0., 0., 0. ]
      - [ -6., -3., -3., -1., -2., 0., -1., -1., -1., -1., 0., -1., 0.,
          0., 36., 0., 0., 0., -1., 0., -1., -1., -1., 0., -1., -1., -1.,
          -2., -1., -1., -1., -2., -1., -2., -1., -1., -2., -1., -2.,
          -2., -1., -1., -2., -1., -2., -2., -1., 23., -6., -3., -2.,
          -2., -1., 0., -1., -1., 0., -1., 0., 0., 0., 0., 0., 0., 1.,
          0., 0., 1., 0., 1., 1., 1., 0., 1., 2., 1., 1., 2., 1., 1., 2.,
          2., 1., 2., 1., 1., -28., 0., 1., 0., 1., 0., 1., 1., 0. ]
      - [ -8., -4., -2., -3., 0., 0., 0., 0., 0., 0., 35., 1., 0., 0.,
          0., -1., 0., -1., -1., -1., -1., -1., -1., -1., -2., -2., -2.,
          -1., -2., -2., -2., -2., -1., -2., -2., -1., -2., -1., -2.,
          -2., -2., -2., 0., 0., 0., 0., 0., 17., -6., -3., -2., -2.,
          -1., -1., -1., 0., 0., 0., 0., 0., 0., 0., 0., 0., 0., 0., 0.,
          1., 1., 1., 1., 1., 1., 1., 1., 2., 2., 2., 1., 1., 2., 2., 3.,
          1., 1., 2., 2., 2., 1., 2., -34., 0., 0., 0., 0. ]
      - [ -9., -4., -3., 0., 0., 0., 0., 0., 0., 35., 0., 1., 0., 0., 0.,
          -1., 0., -1., -1., -1., 0., -2., -1., -1., -1., -1., -2., -2.,
          -1., -2., -2., -1., -2., -2., -2., -1., -2., -2., -2., -1.,
          -2., -1., 0., 0., 0., 0., 0., 22., -7., -4., -1., -2., -2., 0.,
          -1., -1., 0., -1., 0., 0., 0., 0., 0., 0., 1., 0., 1., 0., 1.,
          0., 1., 2., 0., 2., 1., 1., 2., 2., 1., 2., 1., 1., 3., 2., 1.,
          2., 3., 1., 1., 2., -36., 0., 0., 0., 0. ]
      - [ -6., -3., -1., -2., -2., -1., 0., -1., -1., 0., -1., 0., 0.,
          33., 0., 0., 0., 0., -1., 0., -1., -1., 0., -1., -1., -1., -1.,
          -1., -1., 0., -2., -1., -1., -2., -1., -2., -2., -2., -1., -2.,
          -1., -1., -2., -2., -2., -1., 0., 22., -6., -3., -2., -2., -1.,
          -2., 0., -1., 0., -1., 0., 0., 0., 0., 0., 1., 0., 0., 1., 1.,
          1., 1., 0., 1., 2., 0., 2., 1., 2., 1., 1., 2., 1., 2., 1., 1.,
          2., 1., -28., 0., 0., 0., 0., 1., 1., 0., 1. ]
      - [ -7., -4., -3., -2., -1., -1., -1., 0., -1., 0., 0., 0., 0., 0.,
          1., 1., 0., 3., 28., -1., -1., -2., -1., -1., -3., -1., -2.,
          -2., -1., -2., -1., -1., -1., -2., -2., -1., -1., -1., -1., 0.,
          -1., -1., -1., 0., -1., 0., -1., 20., -7., -4., -2., -2., -1.,
          -1., -1., -1., 0., 0., 0., 0., 0., 0., 0., 1., 0., 1., 1., 1.,
          1., 2., 1., 2., 2., 2., 2., 2., 2., 2., 3., 1., 1., 2., 1.,
          -30., 0., 0., 0., 0., 0., 1., 0., 0., 0., 0., 1. ]
      - [ -9., -4., -1., 0., 0., 0., 0., 0., 0., 0., 0., 0., 0., 32., 0.,
          0., -1., 0., -1., 0., -1., 0., -1., -1., -1., -1., -1., -1.,
          -1., -1., -1., -2., -1., -1., -2., -2., -1., -2., -2., -2.,
          -1., -2., -2., -1., -1., -1., 0., 20., -7., -3., -3., 0., -2.,
          -1., -1., 0., -1., 0., 0., 0., 0., 0., 1., 0., 0., 1., 0., 1.,
          1., 1., 0., 1., 1., 1., 1., 1., 2., 1., 1., 2., 2., 0., 2., 2.,
          1., 1., 2., 2., 1., -30., 0., 0., 0., 0., 0. ]
      - [ -4., -3., -1., -2., -1., -1., -1., -1., 0., 0., -1., 0., 0.,
          0., 33., 0., -1., -2., -1., -3., -7., 0., 0., 0., 0., 0., 10.,
          3., 1., 1., 1., 0., -37., 0., 0., 0., 0., 0., 1., 0., 1., 0.,
          2., 1., 2., 1., 3., 5., -4., -3., -1., -2., -1., -1., -1., 0.,
          -1., 0., 0., 0., 0., 0., 0., 1., 0., 0., 1., 1., 2., 2., 2.,
          -3., -3., -1., -1., -1., 0., -1., 0., 0., 0., 0., 0., 0., 0.,
          0., 0., 0., 1., 1., 1., 1., 2., 1., 3. ]
      - [ -7., -3., -3., -1., -1., -1., -1., -1., 0., -1., 0., 38., -1.,
          0., -3., 0., -2., -2., -4., -3., -5., -2., 4., 9., 2., 3., 3.,
          1., 1., 1., 1., 0., 1., 0., 0., 0., 0., -1., 0., -1., -2., -2.,
          -36., 0., 0., 0., 2., 16., -6., -3., -1., -2., -1., -1., 0.,
          0., 0., 0., 0., 0., 1., 1., 2., 1., 1., 1., 2., -2., -2., -4.,
          -1., -1., -1., -1., 0., 0., 0., 0., 0., 0., 0., 0., 0., 0., 0.,
          0., 1., 1., 1., 1., 3., 2., 2., 4., 4. ]
      - [ -5., -5., -2., -1., -1., -1., 0., -1., 0., 0., 0., 0., 2., 2.,
          31., -1., 0., -2., -2., -4., -3., -7., 0., 8., 4., 5., 2., 1.,
          1., 1., 0., 2., 0., -36., -3., -1., -1., 0., 0., 0., 0., 1.,
          1., 1., 1., 2., 5., 10., -7., -3., -3., -1., -1., -1., -1., 0.,
          -1., 0., 0., 0., 0., 0., 1., 0., 1., 1., 1., 2., 3., 3., -2.,
          -2., -4., -2., -1., -1., -1., -1., 0., 0., 0., 0., 0., 0., 0.,
          0., 0., 0., 1., 1., 1., 2., 1., 2., 4. ]
      - [ -9., -4., -2., -1., -2., -1., 0., -2., -1., 0., -1., 0., 2.,
          35., -1., -1., 0., -2., -3., -6., -6., 0., 0., 0., 0., 7., 6.,
          1., 3., 1., 1., 0., 1., 0., -36., -3., 0., 0., 1., 1., 0., 1.,
          1., 2., 1., 2., 3., 9., -9., -4., -2., -1., -1., -1., -1., 0.,
          -1., 0., 0., 0., 0., 0., 1., 0., 1., 0., 2., 1., 1., 2., 1.,
          -2., -2., -2., -1., -1., -1., 0., 0., 0., 0., 0., 0., 0., 0.,
          0., 0., 1., 0., 1., 1., 2., 1., 2., 3. ]
      - [ -8., -4., -3., 0., 0., 1., 0., 0., 0., 30., 1., 0., 0., 0., 0.,
          0., -2., -2., -3., -5., -14., 0., 0., 0., 1., 0., 15., 9., 2.,
          1., 2., 0., 1., 1., 0., -1., 0., -2., -1., -34., 0., 1., 0.,
          0., 0., 0., 2., 21., -7., -4., -3., -1., -2., -1., 0., -1.,
          -1., 0., 0., 0., 0., 1., 0., 0., 1., 1., 1., 2., 1., 3., -1.,
          -4., -2., -3., -1., -1., -1., 0., 0., 0., 0., 0., 0., 0., 0.,
          0., 0., 1., 0., 2., 1., 2., 1., 3., 4. ]
      - [ -10., -4., 0., 0., 0., 0., 0., 0., 0., 0., 0., 0., 33., -1.,
          -1., -1., -1., -1., -2., -4., -10., 0., 0., 0., 11., 6., 2.,
          2., 2., 1., 1., 0., 1., 0., 0., -38., 0., 0., 0., 0., 0., 0.,
          0., 0., 0., 0., 2., 20., -7., -4., -3., -1., -1., -1., 0., -1.,
          0., 0., 0., 0., 1., 0., 1., 1., 1., 1., 2., 2., 1., -3., -3.,
          -2., -2., -1., -1., -1., 0., 0., 0., 0., 0., 0., 0., 0., 0.,
          0., 0., 0., 1., 2., 2., 1., 2., 3., 4. ]
      - [ -8., -6., -2., 0., 0., 0., 0., 0., 0., 1., 34., 0., 0., -1.,
          -1., 0., -2., -4., -3., -8., 0., 0., 0., 0., 0., 14., 3., 1.,
          2., 0., 1., 0., 0., 0., 0., -1., 0., -37., 0., 0., 0., 0., 0.,
          0., 0., 1., 6., 13., -7., -4., -2., -2., -1., -1., -1., -1.,
          0., 0., 0., 0., 0., 1., 0., 1., 1., 1., 2., 1., 3., 2., -4.,
          -3., -2., -2., -1., 0., 0., 0., 0., 0., 0., 0., 0., 0., 0., 0.,
          0., 0., 1., 1., 2., 1., 2., 3., 4. ]
      - [ -1., -1., -1., -1., -1., -2., 0., -1., -1., -2., 0., -1., -1.,
          -2., 0., -1., -2., -1., 0., -1., -2., -1., -1., 0., -2., -1.,
          -1., 0., -2., -1., -1., 0., 0., 0., 30., 0., 0., 0., 0., 0.,
          0., 0., -1., 0., 0., -5., -6., -6., 0., 0., 0., 0., 0., 0., 0.,
          0., 0., 0., 0., 0., 0., 0., 0., 0., 0., 0., 0., 0., 0., 0., 0.,
          0., 0., 0., 0., 0., 0., 0., 0., -11., 0., 0., 11., 0., 0., 0.,
          0., 0., 0., 0., 0., -1., -1., -4., -5. ]
      - [ -1., -2., -2., -2., -1., -2., -1., -2., -2., -1., -2., -2.,
          -1., -1., -2., -2., -1., -3., -1., -2., -1., -3., -1., -1.,
          -2., -2., 0., -1., 0., 1., 8., 9., 8., 1., -1., 0., 0., -1.,
          0., 0., -1., -1., -11., -1., 0., 4., 9., -22., -1., 0., 0., 0.,
          0., 1., 0., 0., 1., 0., 1., 0., 1., 0., 1., 0., 0., 1., 0., 1.,
          0., 1., 0., 1., 0., 1., 0., 0., 1., 0., -1., -7., -2., 0., 1.,
          12., 1., 0., 1., 0., 1., 0., 0., -1., -1., -6., -1. ]
      - [ -4., -2., 0., 0., 0., 0., 0., 0., 0., 0., 0., 0., 0., 0., 0.,
          0., 1., 0., -1., 1., 0., 0., 0., 0., 0., 0., 0., 0., 0., 0.,
          0., 0., 0., 0., 0., 0., 0., 0., 0., 0., 1., -1., 1., 1., 1.,
          1., 37., 0., -1., -1., -1., -1., -1., -1., -1., 0., -1., -1.,
          -1., -1., -1., -1., -1., -1., -1., -1., -1., -1., -1., -1., 0.,
          -1., -1., -1., -1., -1., -11., 0., -2., -1., 0., 3., 4., 0.,
          -1., -1., -1., -1., -1., -1., -1., -1., 0., 0., 0. ]
      - [ -2., -4., -1., 0., 0., 0., 0., 0., 0., 1., 0., 0., 0., 0., 0.,
          0., 0., 0., 0., 1., 0., 0., 0., 0., 1., 0., -1., 1., 0., 1.,
          -1., 0., 0., 1., 0., 0., -1., 1., 0., 1., 0., 1., 1., 1., 1.,
          31., 0., 1., -1., -1., -1., -1., -1., 0., -2., -1., -1., -1.,
          0., -1., -1., -1., -1., -1., 0., -2., -1., -1., -1., 0., -1.,
          -1., -10., -1., -1., -1., 0., -1., -1., 0., 3., 3., -1., -1.,
          -1., -1., 0., -2., -1., -1., -1., 0., 0., 0., 3. ]
      - [ -3., -3., 0., 0., 1., 0., 0., 0., 0., 0., 0., 0., 0., 0., 0.,
          0., 0., 1., 0., 0., 0., 0., 0., 0., 0., 1., 0., -1., 1., 0.,
          0., 0., 0., 0., 0., 0., 0., 0., 1., 0., 0., 0., 0., 1., 1., 1.,
          38., -2., -1., -1., -1., -1., -1., -1., -1., -1., -1., -1.,
          -1., -1., -1., -1., -1., -1., 0., -1., -1., -1., -1., 0., -1.,
          -2., -1., -1., 0., -1., -1., -15., 0., 0., 0., 1., 4., 3., -1.,
          -1., -1., -1., -1., -1., -1., -1., 0., 0., 0. ]
      - [ -1., -1., -1., -1., -1., -1., -1., -1., -1., -1., -1., -1.,
          -1., -1., -1., -1., -1., -1., -1., -1., -1., -1., -2., 0., -2.,
          -1., -1., 0., -2., -1., -1., 0., 0., 0., 30., 0., 0., 0., 0.,
          0., 0., 0., 0., -1., 0., -11., 0., -6., 0., 0., 0., 0., 0., 0.,
          0., 0., 0., 0., 0., 0., 0., 0., 0., 0., 0., 0., 0., 0., 0., 0.,
          0., 0., 0., 0., 0., 0., 0., 0., 0., -11., 0., 0., 11., 0., 0.,
          0., 0., 0., 0., 0., 0., -1., -2., -8., 0. ]
      - [ -2., -3., 0., 0., 0., 1., 0., 0., 0., 1., 0., 0., 0., 1., 1.,
          0., 0., 0., 0., 1., 0., 0., 0., 0., 0., 0., 0., 1., 0., 0., 0.,
          0., 1., 0., 0., 0., 0., 0., 0., 1., 0., 0., 0., 1., 0., 2., 1.,
          31., -1., -1., -1., -1., -1., -1., -1., -1., -1., -1., -1., 0.,
          -2., -1., -1., 0., -1., -2., -1., 0., -1., -2., -1., -1., 0.,
          -1., -12., 0., -1., -1., -1., 0., 1., 2., 3., -1., -1., -1.,
          -1., 0., -2., -1., -1., 0., 0., 0., 1. ]
      - [ -3., -1., 0., 0., 0., 1., 0., 0., 1., 0., 0., 1., 0., 0., 1.,
          0., -1., 1., 0., 0., 0., 1., 0., 0., 0., 0., 1., 0., -1., 1.,
          0., 0., 0., 0., 0., 0., 0., 0., 0., 0., 0., 0., 0., 1., 1., 1.,
          35., 1., -1., -2., -1., -1., -1., 0., -1., -1., -1., -2., -1.,
          -1., 0., -1., -2., 0., -1., -2., 0., -1., -1., -1., -2., 0.,
          -1., -1., -12., -1., -1., -2., 0., 0., 3., 2., 2., -1., -1.,
          -1., -1., 0., -2., -1., -1., -1., 0., 0., 0. ]
      - [ 0., 0., 0., -1., 0., 0., 0., 0., 0., 0., 0., 0., 0., 0., -1.,
          0., 0., 0., 0., 0., 0., 0., 0., 0., 0., -1., 2., 40., 1., 0.,
          0., 0., 0., 0., 0., -1., 0., -1., -42., 0., 0., 1., 1., 2., 2.,
          1., 3., -7., 0., 0., 37., 1., 0., 0., 0., 0., 0., 0., 0., 0.,
          1., 0., 0., 0., -24., -5., -3., -3., -1., -1., -1., -2., 0.,
          -1., 0., 0., 0., 0., 0., 0., 0., 0., 0., 0., 0., 0., 0., 1.,
          1., 1., 1., 1., 2., 3., 2. ]
      - [ 0., 0., 0., 0., 0., 0., 0., 0., 0., 0., 0., 0., 0., 0., 0., 0.,
          0., 0., 0., 0., 0., 0., 0., 0., 0., 0., 0., 0., 0., 0., 0., 0.,
          0., 0., 0., 0., 0., 0., 0., 0., 0., 0., 0., 0., 0., 0., 0., 0.,
